<?xml version="1.0"?>
<MethodSetup Method="BDT::BDTG_UF_v2">
  <GeneralInfo>
    <Info name="TMVA Release" value="4.2.1 [262657]"/>
    <Info name="ROOT Release" value="6.10/09 [395785]"/>
    <Info name="Creator" value="abrinke1"/>
    <Info name="Date" value="Thu May 16 03:51:27 2019"/>
    <Info name="Host" value="Linux cmsbuild76.cern.ch 2.6.32-696.30.1.el6.x86_64 #1 SMP Tue May 22 06:09:36 CEST 2018 x86_64 x86_64 x86_64 GNU/Linux"/>
    <Info name="Dir" value="/afs/cern.ch/user/a/abrinke1/HiggsToMuMu/2017/CMSSW_9_4_10/src/H2MuAnalyzer/TrainMVA"/>
    <Info name="Training events" value="108111"/>
    <Info name="TrainingTime" value="3.58113520e+01"/>
    <Info name="AnalysisType" value="Classification"/>
  </GeneralInfo>
  <Options>
    <Option name="V" modified="Yes">False</Option>
    <Option name="VerbosityLevel" modified="No">Default</Option>
    <Option name="VarTransform" modified="No">None</Option>
    <Option name="H" modified="Yes">False</Option>
    <Option name="CreateMVAPdfs" modified="No">False</Option>
    <Option name="IgnoreNegWeightsInTraining" modified="No">False</Option>
    <Option name="NTrees" modified="Yes">200</Option>
    <Option name="MaxDepth" modified="Yes">3</Option>
    <Option name="MinNodeSize" modified="No">5%</Option>
    <Option name="nCuts" modified="Yes">10</Option>
    <Option name="BoostType" modified="Yes">Grad</Option>
    <Option name="AdaBoostR2Loss" modified="No">quadratic</Option>
    <Option name="UseBaggedBoost" modified="Yes">True</Option>
    <Option name="Shrinkage" modified="Yes">1.000000e-01</Option>
    <Option name="AdaBoostBeta" modified="No">5.000000e-01</Option>
    <Option name="UseRandomisedTrees" modified="No">False</Option>
    <Option name="UseNvars" modified="No">6</Option>
    <Option name="UsePoissonNvars" modified="No">True</Option>
    <Option name="BaggedSampleFraction" modified="Yes">5.000000e-01</Option>
    <Option name="UseYesNoLeaf" modified="No">True</Option>
    <Option name="NegWeightTreatment" modified="No">pray</Option>
    <Option name="Css" modified="No">1.000000e+00</Option>
    <Option name="Cts_sb" modified="No">1.000000e+00</Option>
    <Option name="Ctb_ss" modified="No">1.000000e+00</Option>
    <Option name="Cbb" modified="No">1.000000e+00</Option>
    <Option name="NodePurityLimit" modified="No">5.000000e-01</Option>
    <Option name="SeparationType" modified="No">giniindex</Option>
    <Option name="RegressionLossFunctionBDTG" modified="No">huber</Option>
    <Option name="HuberQuantile" modified="No">7.000000e-01</Option>
    <Option name="DoBoostMonitor" modified="No">False</Option>
    <Option name="UseFisherCuts" modified="No">False</Option>
    <Option name="MinLinCorrForFisher" modified="No">8.000000e-01</Option>
    <Option name="UseExclusiveVars" modified="No">False</Option>
    <Option name="DoPreselection" modified="No">False</Option>
    <Option name="SigToBkgFraction" modified="No">1.000000e+00</Option>
    <Option name="PruneMethod" modified="No">nopruning</Option>
    <Option name="PruneStrength" modified="No">0.000000e+00</Option>
    <Option name="PruningValFraction" modified="No">5.000000e-01</Option>
    <Option name="SkipNormalization" modified="No">False</Option>
    <Option name="nEventsMin" modified="No">0</Option>
    <Option name="UseBaggedGrad" modified="No">False</Option>
    <Option name="GradBaggingFraction" modified="No">5.000000e-01</Option>
    <Option name="UseNTrainEvents" modified="No">0</Option>
    <Option name="NNodesMax" modified="No">0</Option>
  </Options>
  <Variables NVar="33">
    <Variable VarIndex="0" Expression="H_pair_mass" Label="H_pair_mass" Title="H_pair_mass" Unit="" Internal="H_pair_mass" Type="F" Min="1.05010910e+02" Max="1.59995438e+02"/>
    <Variable VarIndex="1" Expression="H_pair_pt" Label="H_pair_pt" Title="H_pair_pt" Unit="" Internal="H_pair_pt" Type="F" Min="7.76008964e-02" Max="2.77013013e+03"/>
    <Variable VarIndex="2" Expression="lep_pt" Label="lep_pt" Title="lep_pt" Unit="" Internal="lep_pt" Type="F" Min="1.00063772e+01" Max="1.16077734e+03"/>
    <Variable VarIndex="3" Expression="lep_H_pair_dEta" Label="lep_H_pair_dEta" Title="lep_H_pair_dEta" Unit="" Internal="lep_H_pair_dEta" Type="F" Min="-4.78559303e+00" Max="7.50616741e+00"/>
    <Variable VarIndex="4" Expression="lep_H_pair_dR" Label="lep_H_pair_dR" Title="lep_H_pair_dR" Unit="" Internal="lep_H_pair_dR" Type="F" Min="6.88903686e-03" Max="7.57968855e+00"/>
    <Variable VarIndex="5" Expression="lep_muSS_cosThStar" Label="lep_muSS_cosThStar" Title="lep_muSS_cosThStar" Unit="" Internal="lep_muSS_cosThStar" Type="F" Min="-9.99987245e-01" Max="9.99952018e-01"/>
    <Variable VarIndex="6" Expression="lep_muOS_cosThStar" Label="lep_muOS_cosThStar" Title="lep_muOS_cosThStar" Unit="" Internal="lep_muOS_cosThStar" Type="F" Min="-9.99882817e-01" Max="9.99979615e-01"/>
    <Variable VarIndex="7" Expression="lep_muSS_dEta" Label="lep_muSS_dEta" Title="lep_muSS_dEta" Unit="" Internal="lep_muSS_dEta" Type="F" Min="-4.68873596e+00" Max="4.72170639e+00"/>
    <Variable VarIndex="8" Expression="lep_muSS_dR" Label="lep_muSS_dR" Title="lep_muSS_dR" Unit="" Internal="lep_muSS_dR" Type="F" Min="8.92890559e-04" Max="5.62872124e+00"/>
    <Variable VarIndex="9" Expression="lep_muOS_dEta" Label="lep_muOS_dEta" Title="lep_muOS_dEta" Unit="" Internal="lep_muOS_dEta" Type="F" Min="-4.79955912e+00" Max="4.78801918e+00"/>
    <Variable VarIndex="10" Expression="lep_muOS_dR" Label="lep_muOS_dR" Title="lep_muOS_dR" Unit="" Internal="lep_muOS_dR" Type="F" Min="6.57785907e-02" Max="5.57540178e+00"/>
    <Variable VarIndex="11" Expression="MET" Label="MET" Title="MET" Unit="" Internal="MET" Type="F" Min="5.71785308e-02" Max="1.24889673e+03"/>
    <Variable VarIndex="12" Expression="lep_MET_MT" Label="lep_MET_MT" Title="lep_MET_MT" Unit="" Internal="lep_MET_MT" Type="F" Min="3.92363960e-04" Max="1.87144617e+03"/>
    <Variable VarIndex="13" Expression="lep_MET_dPhi_abs" Label="lep_MET_dPhi_abs" Title="lep_MET_dPhi_abs" Unit="" Internal="lep_MET_dPhi_abs" Type="F" Min="2.01463699e-05" Max="3.14140081e+00"/>
    <Variable VarIndex="14" Expression="MHT" Label="MHT" Title="MHT" Unit="" Internal="MHT" Type="F" Min="4.75095399e-02" Max="1.64019458e+03"/>
    <Variable VarIndex="15" Expression="lep_MHT_MT" Label="lep_MHT_MT" Title="lep_MHT_MT" Unit="" Internal="lep_MHT_MT" Type="F" Min="1.23559986e-03" Max="2.14861670e+03"/>
    <Variable VarIndex="16" Expression="OS_pair_mass" Label="OS_pair_mass" Title="OS_pair_mass" Unit="" Internal="OS_pair_mass" Type="F" Min="1.20012817e+01" Max="2.17029297e+03"/>
    <Variable VarIndex="17" Expression="OS_pair_pt" Label="OS_pair_pt" Title="OS_pair_pt" Unit="" Internal="OS_pair_pt" Type="F" Min="1.60582334e-01" Max="1.17422949e+03"/>
    <Variable VarIndex="18" Expression="muSS_pt" Label="muSS_pt" Title="muSS_pt" Unit="" Internal="muSS_pt" Type="F" Min="1.00351114e+01" Max="2.59519629e+03"/>
    <Variable VarIndex="19" Expression="muSS_OS_pair_dEta" Label="muSS_OS_pair_dEta" Title="muSS_OS_pair_dEta" Unit="" Internal="muSS_OS_pair_dEta" Type="F" Min="-4.76093578e+00" Max="7.92322636e+00"/>
    <Variable VarIndex="20" Expression="muSS_OS_pair_dR" Label="muSS_OS_pair_dR" Title="muSS_OS_pair_dR" Unit="" Internal="muSS_OS_pair_dR" Type="F" Min="1.79251563e-02" Max="8.14983177e+00"/>
    <Variable VarIndex="21" Expression="muSS_lep_cosThStar" Label="muSS_lep_cosThStar" Title="muSS_lep_cosThStar" Unit="" Internal="muSS_lep_cosThStar" Type="F" Min="-9.99952018e-01" Max="9.99987245e-01"/>
    <Variable VarIndex="22" Expression="muSS_muOS_cosThStar" Label="muSS_muOS_cosThStar" Title="muSS_muOS_cosThStar" Unit="" Internal="muSS_muOS_cosThStar" Type="F" Min="-9.99959111e-01" Max="9.99954045e-01"/>
    <Variable VarIndex="23" Expression="muSS_muOS_dEta" Label="muSS_muOS_dEta" Title="muSS_muOS_dEta" Unit="" Internal="muSS_muOS_dEta" Type="F" Min="-3.99766707e+00" Max="4.41841984e+00"/>
    <Variable VarIndex="24" Expression="muSS_muOS_dR" Label="muSS_muOS_dR" Title="muSS_muOS_dR" Unit="" Internal="muSS_muOS_dR" Type="F" Min="1.86799020e-01" Max="4.86083603e+00"/>
    <Variable VarIndex="25" Expression="muSS_MET_MT" Label="muSS_MET_MT" Title="muSS_MET_MT" Unit="" Internal="muSS_MET_MT" Type="F" Min="9.72499081e-04" Max="2.89165186e+03"/>
    <Variable VarIndex="26" Expression="muSS_MET_dPhi_abs" Label="muSS_MET_dPhi_abs" Title="muSS_MET_dPhi_abs" Unit="" Internal="muSS_MET_dPhi_abs" Type="F" Min="3.09944153e-05" Max="3.14158607e+00"/>
    <Variable VarIndex="27" Expression="muSS_MHT_MT" Label="muSS_MHT_MT" Title="muSS_MHT_MT" Unit="" Internal="muSS_MHT_MT" Type="F" Min="2.90863425e-03" Max="4.12618213e+03"/>
    <Variable VarIndex="28" Expression="lep_MHT_dPhi_abs" Label="lep_MHT_dPhi_abs" Title="lep_MHT_dPhi_abs" Unit="" Internal="lep_MHT_dPhi_abs" Type="F" Min="1.56654314e-05" Max="3.14156461e+00"/>
    <Variable VarIndex="29" Expression="muSS_MHT_dPhi_abs" Label="muSS_MHT_dPhi_abs" Title="muSS_MHT_dPhi_abs" Unit="" Internal="muSS_MHT_dPhi_abs" Type="F" Min="1.35349503e-04" Max="3.14158821e+00"/>
    <Variable VarIndex="30" Expression="MHT_MET_dPhi_abs" Label="MHT_MET_dPhi_abs" Title="MHT_MET_dPhi_abs" Unit="" Internal="MHT_MET_dPhi_abs" Type="F" Min="5.39189386e-06" Max="3.14147401e+00"/>
    <Variable VarIndex="31" Expression="lep_charge" Label="lep_charge" Title="lep_charge" Unit="" Internal="lep_charge" Type="I" Min="-1.00000000e+00" Max="1.00000000e+00"/>
    <Variable VarIndex="32" Expression="nEles" Label="nEles" Title="nEles" Unit="" Internal="nEles" Type="I" Min="0.00000000e+00" Max="1.00000000e+00"/>
  </Variables>
  <Spectators NSpec="8">
    <Spectator SpecIndex="0" Expression="samp_ID" Label="samp_ID" Title="Sample ID" Unit="" Internal="samp_ID" Type="F" Min="-2.50000000e+01" Max="3.80000000e+01"/>
    <Spectator SpecIndex="1" Expression="event_wgt" Label="event_wgt" Title="Event weight" Unit="" Internal="event_wgt" Type="F" Min="-1.52647221e+00" Max="3.95628476e+00"/>
    <Spectator SpecIndex="2" Expression="samp_wgt" Label="samp_wgt" Title="Xsec x lumi" Unit="" Internal="samp_wgt" Type="F" Min="3.19999999e-05" Max="6.05126023e-01"/>
    <Spectator SpecIndex="3" Expression="lepMVA_wgt" Label="lepMVA_wgt" Title="lepMVA eff. SF" Unit="" Internal="lepMVA_wgt" Type="F" Min="7.16360569e-01" Max="1.08593965e+00"/>
    <Spectator SpecIndex="4" Expression="total_wgt" Label="total_wgt" Title="Overall weight" Unit="" Internal="total_wgt" Type="F" Min="-9.27989110e-02" Max="6.84560955e-01"/>
    <Spectator SpecIndex="5" Expression="dimu_mass" Label="dimu_mass" Title="mass(#mu#mu)" Unit="GeV" Internal="dimu_mass" Type="F" Min="1.05010910e+02" Max="1.59995438e+02"/>
    <Spectator SpecIndex="6" Expression="BDT_XWZ_noMass" Label="BDT_XWZ_noMass" Title="BDT_XWZ_noMass" Unit="" Internal="BDT_XWZ_noMass" Type="F" Min="-6.68680549e-01" Max="7.22369730e-01"/>
    <Spectator SpecIndex="7" Expression="BDT_XWZ_withMass" Label="BDT_XWZ_withMass" Title="BDT_XWZ_withMass" Unit="" Internal="BDT_XWZ_withMass" Type="F" Min="-8.46799076e-01" Max="9.30028737e-01"/>
  </Spectators>
  <Classes NClass="2">
    <Class Name="Signal" Index="0"/>
    <Class Name="Background" Index="1"/>
  </Classes>
  <Transformations NTransformations="0"/>
  <MVAPdfs/>
  <Weights NTrees="200" AnalysisType="1">
    <BinaryTree type="DecisionTree" boostWeight="1.0000000000000000e+00" itree="0">
      <Node pos="s" depth="0" NCoef="0" IVar="0" Cut="1.2999851989746094e+02" cType="1" res="1.0681037791073322e-02" rms="4.9988591670989990e-01" purity="5.1068103313446045e-01" nType="0">
        <Node pos="l" depth="1" NCoef="0" IVar="0" Cut="1.2091148376464844e+02" cType="1" res="1.3527980446815491e-01" rms="4.8135161399841309e-01" purity="6.3527983427047729e-01" nType="0">
          <Node pos="l" depth="2" NCoef="0" IVar="0" Cut="1.1802040863037109e+02" cType="1" res="-3.0436548590660095e-01" rms="3.9668837189674377e-01" purity="1.9563452899456024e-01" nType="0">
            <Node pos="l" depth="3" NCoef="0" IVar="-1" Cut="0.0000000000000000e+00" cType="1" res="-4.5311083085834980e-03" rms="3.0514881014823914e-01" purity="1.0391389578580856e-01" nType="-99"/>
            <Node pos="r" depth="3" NCoef="0" IVar="-1" Cut="0.0000000000000000e+00" cType="1" res="-1.3098652707412839e-03" rms="4.9335590004920959e-01" purity="4.1875985264778137e-01" nType="-99"/>
          </Node>
          <Node pos="r" depth="2" NCoef="0" IVar="0" Cut="1.2751962280273438e+02" cType="1" res="3.1219989061355591e-01" rms="3.9055246114730835e-01" purity="8.1219989061355591e-01" nType="0">
            <Node pos="l" depth="3" NCoef="0" IVar="-1" Cut="0.0000000000000000e+00" cType="1" res="2.1002972498536110e-02" rms="3.6029481887817383e-01" purity="8.4668093919754028e-01" nType="-99"/>
            <Node pos="r" depth="3" NCoef="0" IVar="-1" Cut="0.0000000000000000e+00" cType="1" res="1.4225358609110117e-03" rms="4.9612826108932495e-01" purity="5.6210261583328247e-01" nType="-99"/>
          </Node>
        </Node>
        <Node pos="r" depth="1" NCoef="0" IVar="0" Cut="1.3817752075195312e+02" cType="1" res="-4.5272034406661987e-01" rms="2.1223641932010651e-01" purity="4.7279659658670425e-02" nType="0">
          <Node pos="l" depth="2" NCoef="0" IVar="-1" Cut="0.0000000000000000e+00" cType="1" res="-4.9220165237784386e-03" rms="3.1652620434761047e-01" purity="1.1294552683830261e-01" nType="-99"/>
          <Node pos="r" depth="2" NCoef="0" IVar="-1" Cut="0.0000000000000000e+00" cType="1" res="-5.2945106290280819e-03" rms="6.8891972303390503e-02" purity="4.7688451595604420e-03" nType="-99"/>
        </Node>
      </Node>
    </BinaryTree>
    <BinaryTree type="DecisionTree" boostWeight="1.0000000000000000e+00" itree="1">
      <Node pos="s" depth="0" NCoef="0" IVar="0" Cut="1.2999813842773438e+02" cType="1" res="-1.3250668533146381e-02" rms="4.9563032388687134e-01" purity="4.9088323116302490e-01" nType="0">
        <Node pos="l" depth="1" NCoef="0" IVar="0" Cut="1.2091154479980469e+02" cType="1" res="1.1040484905242920e-01" rms="4.8281666636466980e-01" purity="6.1644315719604492e-01" nType="0">
          <Node pos="l" depth="2" NCoef="0" IVar="0" Cut="1.1802040863037109e+02" cType="1" res="-3.1800302863121033e-01" rms="3.8408607244491577e-01" purity="1.8018457293510437e-01" nType="0">
            <Node pos="l" depth="3" NCoef="0" IVar="-1" Cut="0.0000000000000000e+00" cType="1" res="-3.8782411720603704e-03" rms="2.9361969232559204e-01" purity="9.5293357968330383e-02" nType="-99"/>
            <Node pos="r" depth="3" NCoef="0" IVar="-1" Cut="0.0000000000000000e+00" cType="1" res="-1.7282490152865648e-03" rms="4.8928040266036987e-01" purity="3.9702093601226807e-01" nType="-99"/>
          </Node>
          <Node pos="r" depth="2" NCoef="0" IVar="0" Cut="1.2751998901367188e+02" cType="1" res="2.9431954026222229e-01" rms="3.9653548598289490e-01" purity="8.0372804403305054e-01" nType="0">
            <Node pos="l" depth="3" NCoef="0" IVar="-1" Cut="0.0000000000000000e+00" cType="1" res="1.7449686303734779e-02" rms="3.7249892950057983e-01" purity="8.3353358507156372e-01" nType="-99"/>
            <Node pos="r" depth="3" NCoef="0" IVar="-1" Cut="0.0000000000000000e+00" cType="1" res="1.4235657872632146e-03" rms="4.9560329318046570e-01" purity="5.6616169214248657e-01" nType="-99"/>
          </Node>
        </Node>
        <Node pos="r" depth="1" NCoef="0" IVar="0" Cut="1.3817677307128906e+02" cType="1" res="-4.4893217086791992e-01" rms="2.1478006243705750e-01" purity="4.8491958528757095e-02" nType="0">
          <Node pos="l" depth="2" NCoef="0" IVar="-1" Cut="0.0000000000000000e+00" cType="1" res="-4.8658787272870541e-03" rms="3.2344707846641541e-01" purity="1.1871010065078735e-01" nType="-99"/>
          <Node pos="r" depth="2" NCoef="0" IVar="-1" Cut="0.0000000000000000e+00" cType="1" res="-5.7052085176110268e-03" rms="6.9679021835327148e-02" purity="4.8789707943797112e-03" nType="-99"/>
        </Node>
      </Node>
    </BinaryTree>
    <BinaryTree type="DecisionTree" boostWeight="1.0000000000000000e+00" itree="2">
      <Node pos="s" depth="0" NCoef="0" IVar="0" Cut="1.3009777832031250e+02" cType="1" res="-6.0012512840330601e-03" rms="4.9202489852905273e-01" purity="5.0148618221282959e-01" nType="0">
        <Node pos="l" depth="1" NCoef="0" IVar="0" Cut="1.2103715515136719e+02" cType="1" res="1.1508203297853470e-01" rms="4.7752413153648376e-01" purity="6.2607258558273315e-01" nType="0">
          <Node pos="l" depth="2" NCoef="0" IVar="0" Cut="1.1815428924560547e+02" cType="1" res="-3.0662092566490173e-01" rms="3.9188602566719055e-01" purity="1.9033984839916229e-01" nType="0">
            <Node pos="l" depth="3" NCoef="0" IVar="-1" Cut="0.0000000000000000e+00" cType="1" res="-4.3125124648213387e-03" rms="2.9734602570533752e-01" purity="9.8036661744117737e-02" nType="-99"/>
            <Node pos="r" depth="3" NCoef="0" IVar="-1" Cut="0.0000000000000000e+00" cType="1" res="-1.4579463750123978e-03" rms="4.9348056316375732e-01" purity="4.2000278830528259e-01" nType="-99"/>
          </Node>
          <Node pos="r" depth="2" NCoef="0" IVar="0" Cut="1.2762600708007812e+02" cType="1" res="3.0489718914031982e-01" rms="3.8140150904655457e-01" purity="8.2220274209976196e-01" nType="0">
            <Node pos="l" depth="3" NCoef="0" IVar="-1" Cut="0.0000000000000000e+00" cType="1" res="1.7912028357386589e-02" rms="3.6080333590507507e-01" purity="8.4620261192321777e-01" nType="-99"/>
            <Node pos="r" depth="3" NCoef="0" IVar="-1" Cut="0.0000000000000000e+00" cType="1" res="2.4869297631084919e-03" rms="4.8784732818603516e-01" purity="6.0915714502334595e-01" nType="-99"/>
          </Node>
        </Node>
        <Node pos="r" depth="1" NCoef="0" IVar="0" Cut="1.3825306701660156e+02" cType="1" res="-4.4707036018371582e-01" rms="2.1296425163745880e-01" purity="4.7656301409006119e-02" nType="0">
          <Node pos="l" depth="2" NCoef="0" IVar="-1" Cut="0.0000000000000000e+00" cType="1" res="-4.5287539251148701e-03" rms="3.2105943560600281e-01" purity="1.1669829487800598e-01" nType="-99"/>
          <Node pos="r" depth="2" NCoef="0" IVar="-1" Cut="0.0000000000000000e+00" cType="1" res="-4.8752180300652981e-03" rms="7.7781237661838531e-02" purity="6.0869711451232433e-03" nType="-99"/>
        </Node>
      </Node>
    </BinaryTree>
    <BinaryTree type="DecisionTree" boostWeight="1.0000000000000000e+00" itree="3">
      <Node pos="s" depth="0" NCoef="0" IVar="0" Cut="1.2999992370605469e+02" cType="1" res="2.5847568176686764e-03" rms="4.8846349120140076e-01" purity="5.1428502798080444e-01" nType="0">
        <Node pos="l" depth="1" NCoef="0" IVar="0" Cut="1.2091148376464844e+02" cType="1" res="1.1246808618307114e-01" rms="4.7414571046829224e-01" purity="6.2894725799560547e-01" nType="0">
          <Node pos="l" depth="2" NCoef="0" IVar="0" Cut="1.1802040863037109e+02" cType="1" res="-3.0296993255615234e-01" rms="3.9309903979301453e-01" purity="1.9187510013580322e-01" nType="0">
            <Node pos="l" depth="3" NCoef="0" IVar="-1" Cut="0.0000000000000000e+00" cType="1" res="-4.2350683361291885e-03" rms="2.9819190502166748e-01" purity="9.8650284111499786e-02" nType="-99"/>
            <Node pos="r" depth="3" NCoef="0" IVar="-1" Cut="0.0000000000000000e+00" cType="1" res="-1.3779606670141220e-03" rms="4.9213913083076477e-01" purity="4.1178941726684570e-01" nType="-99"/>
          </Node>
          <Node pos="r" depth="2" NCoef="0" IVar="0" Cut="1.2751962280273438e+02" cType="1" res="2.7778047323226929e-01" rms="3.9595180749893188e-01" purity="8.0286836624145508e-01" nType="0">
            <Node pos="l" depth="3" NCoef="0" IVar="-1" Cut="0.0000000000000000e+00" cType="1" res="1.8186811357736588e-02" rms="3.6941713094711304e-01" purity="8.3688104152679443e-01" nType="-99"/>
            <Node pos="r" depth="3" NCoef="0" IVar="-1" Cut="0.0000000000000000e+00" cType="1" res="1.2552415719255805e-03" rms="4.9691218137741089e-01" purity="5.5336755514144897e-01" nType="-99"/>
          </Node>
        </Node>
        <Node pos="r" depth="1" NCoef="0" IVar="0" Cut="1.3817835998535156e+02" cType="1" res="-4.4075277447700500e-01" rms="2.2122383117675781e-01" purity="5.1666382700204849e-02" nType="0">
          <Node pos="l" depth="2" NCoef="0" IVar="-1" Cut="0.0000000000000000e+00" cType="1" res="-4.8217657022178173e-03" rms="3.2653498649597168e-01" purity="1.2137585133314133e-01" nType="-99"/>
          <Node pos="r" depth="2" NCoef="0" IVar="-1" Cut="0.0000000000000000e+00" cType="1" res="-4.9240835942327976e-03" rms="5.5385392159223557e-02" purity="3.0770481098443270e-03" nType="-99"/>
        </Node>
      </Node>
    </BinaryTree>
    <BinaryTree type="DecisionTree" boostWeight="1.0000000000000000e+00" itree="4">
      <Node pos="s" depth="0" NCoef="0" IVar="0" Cut="1.2999731445312500e+02" cType="1" res="-2.0011128857731819e-02" rms="4.8469796776771545e-01" purity="4.9437308311462402e-01" nType="0">
        <Node pos="l" depth="1" NCoef="0" IVar="0" Cut="1.1863550567626953e+02" cType="1" res="1.0125111788511276e-01" rms="4.7275269031524658e-01" purity="6.2262564897537231e-01" nType="0">
          <Node pos="l" depth="2" NCoef="0" IVar="0" Cut="1.1491925048828125e+02" cType="1" res="-3.8305702805519104e-01" rms="3.1117883324623108e-01" purity="1.0879953205585480e-01" nType="0">
            <Node pos="l" depth="3" NCoef="0" IVar="-1" Cut="0.0000000000000000e+00" cType="1" res="-4.7762314788997173e-03" rms="2.4037542939186096e-01" purity="6.1571381986141205e-02" nType="-99"/>
            <Node pos="r" depth="3" NCoef="0" IVar="-1" Cut="0.0000000000000000e+00" cType="1" res="-3.3527882769703865e-03" rms="3.7542092800140381e-01" purity="1.7006908357143402e-01" nType="-99"/>
          </Node>
          <Node pos="r" depth="2" NCoef="0" IVar="0" Cut="1.2173207855224609e+02" cType="1" res="2.4719056487083435e-01" rms="4.1192859411239624e-01" purity="7.7745991945266724e-01" nType="0">
            <Node pos="l" depth="3" NCoef="0" IVar="-1" Cut="0.0000000000000000e+00" cType="1" res="1.7119536641985178e-04" rms="4.9689686298370361e-01" purity="5.2008593082427979e-01" nType="-99"/>
            <Node pos="r" depth="3" NCoef="0" IVar="-1" Cut="0.0000000000000000e+00" cType="1" res="1.4853567816317081e-02" rms="3.8434320688247681e-01" purity="8.1705242395401001e-01" nType="-99"/>
          </Node>
        </Node>
        <Node pos="r" depth="1" NCoef="0" IVar="0" Cut="1.3817652893066406e+02" cType="1" res="-4.4433659315109253e-01" rms="2.0843745768070221e-01" purity="4.5586843043565750e-02" nType="0">
          <Node pos="l" depth="2" NCoef="0" IVar="-1" Cut="0.0000000000000000e+00" cType="1" res="-4.6040676534175873e-03" rms="3.2299888134002686e-01" purity="1.1838705837726593e-01" nType="-99"/>
          <Node pos="r" depth="2" NCoef="0" IVar="-1" Cut="0.0000000000000000e+00" cType="1" res="-5.6741507723927498e-03" rms="5.3917538374662399e-02" purity="2.9155968222767115e-03" nType="-99"/>
        </Node>
      </Node>
    </BinaryTree>
    <BinaryTree type="DecisionTree" boostWeight="1.0000000000000000e+00" itree="5">
      <Node pos="s" depth="0" NCoef="0" IVar="0" Cut="1.2999992370605469e+02" cType="1" res="-9.6418522298336029e-03" rms="4.8142632842063904e-01" purity="5.0824081897735596e-01" nType="0">
        <Node pos="l" depth="1" NCoef="0" IVar="0" Cut="1.1864124298095703e+02" cType="1" res="1.0312344133853912e-01" rms="4.6840500831604004e-01" purity="6.2911808490753174e-01" nType="0">
          <Node pos="l" depth="2" NCoef="0" IVar="0" Cut="1.1492341613769531e+02" cType="1" res="-3.8293355703353882e-01" rms="3.0869248509407043e-01" purity="1.0685312747955322e-01" nType="0">
            <Node pos="l" depth="3" NCoef="0" IVar="-1" Cut="0.0000000000000000e+00" cType="1" res="-4.6890815719962120e-03" rms="2.3833678662776947e-01" purity="6.0460139065980911e-02" nType="-99"/>
            <Node pos="r" depth="3" NCoef="0" IVar="-1" Cut="0.0000000000000000e+00" cType="1" res="-3.4396073315292597e-03" rms="3.7098303437232971e-01" purity="1.6501355171203613e-01" nType="-99"/>
          </Node>
          <Node pos="r" depth="2" NCoef="0" IVar="0" Cut="1.2174033355712891e+02" cType="1" res="2.4720025062561035e-01" rms="4.0669995546340942e-01" purity="7.8392761945724487e-01" nType="0">
            <Node pos="l" depth="3" NCoef="0" IVar="-1" Cut="0.0000000000000000e+00" cType="1" res="6.6812412114813924e-04" rms="4.9411341547966003e-01" purity="5.4441791772842407e-01" nType="-99"/>
            <Node pos="r" depth="3" NCoef="0" IVar="-1" Cut="0.0000000000000000e+00" cType="1" res="1.4814843423664570e-02" rms="3.8270756602287292e-01" purity="8.1861686706542969e-01" nType="-99"/>
          </Node>
        </Node>
        <Node pos="r" depth="1" NCoef="0" IVar="0" Cut="1.3817835998535156e+02" cType="1" res="-4.3430197238922119e-01" rms="2.2388565540313721e-01" purity="5.3032182157039642e-02" nType="0">
          <Node pos="l" depth="2" NCoef="0" IVar="-1" Cut="0.0000000000000000e+00" cType="1" res="-4.3968036770820618e-03" rms="3.3297634124755859e-01" purity="1.2704201042652130e-01" nType="-99"/>
          <Node pos="r" depth="2" NCoef="0" IVar="-1" Cut="0.0000000000000000e+00" cType="1" res="-5.1446575671434402e-03" rms="7.1428790688514709e-02" purity="5.1283747889101505e-03" nType="-99"/>
        </Node>
      </Node>
    </BinaryTree>
    <BinaryTree type="DecisionTree" boostWeight="1.0000000000000000e+00" itree="6">
      <Node pos="s" depth="0" NCoef="0" IVar="0" Cut="1.3005718994140625e+02" cType="1" res="-3.3062119036912918e-02" rms="4.7880351543426514e-01" purity="4.8720291256904602e-01" nType="0">
        <Node pos="l" depth="1" NCoef="0" IVar="0" Cut="1.2098661804199219e+02" cType="1" res="7.6695196330547333e-02" rms="4.7199353575706482e-01" purity="6.0662543773651123e-01" nType="0">
          <Node pos="l" depth="2" NCoef="0" IVar="0" Cut="1.1810123443603516e+02" cType="1" res="-3.0851468443870544e-01" rms="3.8414093852043152e-01" purity="1.8201223015785217e-01" nType="0">
            <Node pos="l" depth="3" NCoef="0" IVar="-1" Cut="0.0000000000000000e+00" cType="1" res="-3.4132897853851318e-03" rms="2.9654312133789062e-01" purity="9.7521655261516571e-02" nType="-99"/>
            <Node pos="r" depth="3" NCoef="0" IVar="-1" Cut="0.0000000000000000e+00" cType="1" res="-2.2263124119490385e-03" rms="4.8461669683456421e-01" purity="3.7762385606765747e-01" nType="-99"/>
          </Node>
          <Node pos="r" depth="2" NCoef="0" IVar="0" Cut="1.2758092498779297e+02" cType="1" res="2.4681054055690765e-01" rms="4.0190073847770691e-01" purity="7.9414200782775879e-01" nType="0">
            <Node pos="l" depth="3" NCoef="0" IVar="-1" Cut="0.0000000000000000e+00" cType="1" res="1.5508381649851799e-02" rms="3.7895080447196960e-01" purity="8.2581782341003418e-01" nType="-99"/>
            <Node pos="r" depth="3" NCoef="0" IVar="-1" Cut="0.0000000000000000e+00" cType="1" res="6.2534282915294170e-04" rms="4.9778547883033752e-01" purity="5.4653692245483398e-01" nType="-99"/>
          </Node>
        </Node>
        <Node pos="r" depth="1" NCoef="0" IVar="0" Cut="1.3822213745117188e+02" cType="1" res="-4.3490412831306458e-01" rms="2.1766151487827301e-01" purity="4.9974735826253891e-02" nType="0">
          <Node pos="l" depth="2" NCoef="0" IVar="-1" Cut="0.0000000000000000e+00" cType="1" res="-4.5976205728948116e-03" rms="3.2851096987724304e-01" purity="1.2307052314281464e-01" nType="-99"/>
          <Node pos="r" depth="2" NCoef="0" IVar="-1" Cut="0.0000000000000000e+00" cType="1" res="-5.0520319491624832e-03" rms="6.9482795894145966e-02" purity="4.8513878136873245e-03" nType="-99"/>
        </Node>
      </Node>
    </BinaryTree>
    <BinaryTree type="DecisionTree" boostWeight="1.0000000000000000e+00" itree="7">
      <Node pos="s" depth="0" NCoef="0" IVar="0" Cut="1.3019799804687500e+02" cType="1" res="-2.8327157720923424e-02" rms="4.7633171081542969e-01" purity="4.9574071168899536e-01" nType="0">
        <Node pos="l" depth="1" NCoef="0" IVar="0" Cut="1.1891407012939453e+02" cType="1" res="8.2987837493419647e-02" rms="4.6801677346229553e-01" purity="6.1838644742965698e-01" nType="0">
          <Node pos="l" depth="2" NCoef="0" IVar="0" Cut="1.1522097015380859e+02" cType="1" res="-3.6523732542991638e-01" rms="3.2580465078353882e-01" purity="1.2118921428918839e-01" nType="0">
            <Node pos="l" depth="3" NCoef="0" IVar="-1" Cut="0.0000000000000000e+00" cType="1" res="-4.5691006816923618e-03" rms="2.4852629005908966e-01" purity="6.6142842173576355e-02" nType="-99"/>
            <Node pos="r" depth="3" NCoef="0" IVar="-1" Cut="0.0000000000000000e+00" cType="1" res="-4.0638889186084270e-03" rms="3.9562955498695374e-01" purity="1.9489790499210358e-01" nType="-99"/>
          </Node>
          <Node pos="r" depth="2" NCoef="0" IVar="0" Cut="1.2301744842529297e+02" cType="1" res="2.1230316162109375e-01" rms="4.2062395811080933e-01" purity="7.6183044910430908e-01" nType="0">
            <Node pos="l" depth="3" NCoef="0" IVar="-1" Cut="0.0000000000000000e+00" cType="1" res="2.7752004098147154e-03" rms="4.7554484009742737e-01" purity="6.3479781150817871e-01" nType="-99"/>
            <Node pos="r" depth="3" NCoef="0" IVar="-1" Cut="0.0000000000000000e+00" cType="1" res="1.1949014849960804e-02" rms="3.9484611153602600e-01" purity="8.0210763216018677e-01" nType="-99"/>
          </Node>
        </Node>
        <Node pos="r" depth="1" NCoef="0" IVar="0" Cut="1.3832252502441406e+02" cType="1" res="-4.3760383129119873e-01" rms="2.0663107931613922e-01" purity="4.4803928583860397e-02" nType="0">
          <Node pos="l" depth="2" NCoef="0" IVar="-1" Cut="0.0000000000000000e+00" cType="1" res="-4.4548246078193188e-03" rms="3.1559580564498901e-01" purity="1.1219334602355957e-01" nType="-99"/>
          <Node pos="r" depth="2" NCoef="0" IVar="-1" Cut="0.0000000000000000e+00" cType="1" res="-5.0742737948894501e-03" rms="5.7791233062744141e-02" purity="3.3510569483041763e-03" nType="-99"/>
        </Node>
      </Node>
    </BinaryTree>
    <BinaryTree type="DecisionTree" boostWeight="1.0000000000000000e+00" itree="8">
      <Node pos="s" depth="0" NCoef="0" IVar="0" Cut="1.3000387573242188e+02" cType="1" res="-2.7716778218746185e-02" rms="4.7315835952758789e-01" purity="4.9776068329811096e-01" nType="0">
        <Node pos="l" depth="1" NCoef="0" IVar="0" Cut="1.1864259338378906e+02" cType="1" res="8.5954546928405762e-02" rms="4.6381267905235291e-01" purity="6.2415695190429688e-01" nType="0">
          <Node pos="l" depth="2" NCoef="0" IVar="0" Cut="1.1492341613769531e+02" cType="1" res="-3.7803733348846436e-01" rms="3.0713084340095520e-01" purity="1.0575704276561737e-01" nType="0">
            <Node pos="l" depth="3" NCoef="0" IVar="-1" Cut="0.0000000000000000e+00" cType="1" res="-4.7320686280727386e-03" rms="2.3021510243415833e-01" purity="5.6152191013097763e-02" nType="-99"/>
            <Node pos="r" depth="3" NCoef="0" IVar="-1" Cut="0.0000000000000000e+00" cType="1" res="-4.1582901030778885e-03" rms="3.7881517410278320e-01" purity="1.7405593395233154e-01" nType="-99"/>
          </Node>
          <Node pos="r" depth="2" NCoef="0" IVar="0" Cut="1.2174101257324219e+02" cType="1" res="2.1846377849578857e-01" rms="4.1300964355468750e-01" purity="7.7220433950424194e-01" nType="0">
            <Node pos="l" depth="3" NCoef="0" IVar="-1" Cut="0.0000000000000000e+00" cType="1" res="1.6122851229738444e-04" rms="4.9518960714340210e-01" purity="5.2082180976867676e-01" nType="-99"/>
            <Node pos="r" depth="3" NCoef="0" IVar="-1" Cut="0.0000000000000000e+00" cType="1" res="1.2867881916463375e-02" rms="3.8868293166160583e-01" purity="8.1113362312316895e-01" nType="-99"/>
          </Node>
        </Node>
        <Node pos="r" depth="1" NCoef="0" IVar="0" Cut="1.3818472290039062e+02" cType="1" res="-4.3234869837760925e-01" rms="2.1290253102779388e-01" purity="4.7832358628511429e-02" nType="0">
          <Node pos="l" depth="2" NCoef="0" IVar="-1" Cut="0.0000000000000000e+00" cType="1" res="-4.4077048078179359e-03" rms="3.1932282447814941e-01" purity="1.1551146209239960e-01" nType="-99"/>
          <Node pos="r" depth="2" NCoef="0" IVar="-1" Cut="0.0000000000000000e+00" cType="1" res="-4.8995101824402809e-03" rms="6.9400623440742493e-02" purity="4.8401993699371815e-03" nType="-99"/>
        </Node>
      </Node>
    </BinaryTree>
    <BinaryTree type="DecisionTree" boostWeight="1.0000000000000000e+00" itree="9">
      <Node pos="s" depth="0" NCoef="0" IVar="0" Cut="1.3005757141113281e+02" cType="1" res="-3.7592377513647079e-02" rms="4.6974182128906250e-01" purity="4.8945960402488708e-01" nType="0">
        <Node pos="l" depth="1" NCoef="0" IVar="0" Cut="1.1871973419189453e+02" cType="1" res="7.3827169835567474e-02" rms="4.6297898888587952e-01" purity="6.1480438709259033e-01" nType="0">
          <Node pos="l" depth="2" NCoef="0" IVar="0" Cut="1.1500928497314453e+02" cType="1" res="-3.7768337130546570e-01" rms="3.0491206049919128e-01" purity="1.0407883673906326e-01" nType="0">
            <Node pos="l" depth="3" NCoef="0" IVar="-1" Cut="0.0000000000000000e+00" cType="1" res="-3.7190755829215050e-03" rms="2.2780363261699677e-01" purity="5.4909832775592804e-02" nType="-99"/>
            <Node pos="r" depth="3" NCoef="0" IVar="-1" Cut="0.0000000000000000e+00" cType="1" res="-3.1961833592504263e-03" rms="3.8076168298721313e-01" purity="1.7626599967479706e-01" nType="-99"/>
          </Node>
          <Node pos="r" depth="2" NCoef="0" IVar="0" Cut="1.2181090545654297e+02" cType="1" res="2.1334390342235565e-01" rms="4.1157892346382141e-01" purity="7.7261853218078613e-01" nType="0">
            <Node pos="l" depth="3" NCoef="0" IVar="-1" Cut="0.0000000000000000e+00" cType="1" res="-8.1080106610897928e-06" rms="4.9555757641792297e-01" purity="5.1667618751525879e-01" nType="-99"/>
            <Node pos="r" depth="3" NCoef="0" IVar="-1" Cut="0.0000000000000000e+00" cType="1" res="1.2442929670214653e-02" rms="3.8618579506874084e-01" purity="8.1280040740966797e-01" nType="-99"/>
          </Node>
        </Node>
        <Node pos="r" depth="1" NCoef="0" IVar="0" Cut="1.3822146606445312e+02" cType="1" res="-4.3202859163284302e-01" rms="2.0847053825855255e-01" purity="4.5726649463176727e-02" nType="0">
          <Node pos="l" depth="2" NCoef="0" IVar="-1" Cut="0.0000000000000000e+00" cType="1" res="-5.2748401649296284e-03" rms="3.1186631321907043e-01" purity="1.0931881517171860e-01" nType="-99"/>
          <Node pos="r" depth="2" NCoef="0" IVar="-1" Cut="0.0000000000000000e+00" cType="1" res="-5.1298886537551880e-03" rms="6.2103621661663055e-02" purity="3.8722541648894548e-03" nType="-99"/>
        </Node>
      </Node>
    </BinaryTree>
    <BinaryTree type="DecisionTree" boostWeight="1.0000000000000000e+00" itree="10">
      <Node pos="s" depth="0" NCoef="0" IVar="0" Cut="1.3019805908203125e+02" cType="1" res="-4.3175086379051208e-02" rms="4.6769315004348755e-01" purity="4.8622512817382812e-01" nType="0">
        <Node pos="l" depth="1" NCoef="0" IVar="0" Cut="1.1891411590576172e+02" cType="1" res="5.5286440998315811e-02" rms="4.6443617343902588e-01" purity="5.9854817390441895e-01" nType="0">
          <Node pos="l" depth="2" NCoef="0" IVar="0" Cut="1.1522135162353516e+02" cType="1" res="-3.8049525022506714e-01" rms="2.9962792992591858e-01" purity="1.0012634843587875e-01" nType="0">
            <Node pos="l" depth="3" NCoef="0" IVar="-1" Cut="0.0000000000000000e+00" cType="1" res="-4.9208351410925388e-03" rms="2.2403523325920105e-01" purity="5.3006958216428757e-02" nType="-99"/>
            <Node pos="r" depth="3" NCoef="0" IVar="-1" Cut="0.0000000000000000e+00" cType="1" res="-3.2717373687773943e-03" rms="3.6460635066032410e-01" purity="1.5820021927356720e-01" nType="-99"/>
          </Node>
          <Node pos="r" depth="2" NCoef="0" IVar="0" Cut="1.2199172210693359e+02" cType="1" res="2.0494978129863739e-01" rms="4.1391810774803162e-01" purity="7.6972448825836182e-01" nType="0">
            <Node pos="l" depth="3" NCoef="0" IVar="-1" Cut="0.0000000000000000e+00" cType="1" res="7.2189787169918418e-04" rms="4.9131679534912109e-01" purity="5.5247485637664795e-01" nType="-99"/>
            <Node pos="r" depth="3" NCoef="0" IVar="-1" Cut="0.0000000000000000e+00" cType="1" res="1.1651480570435524e-02" rms="3.9189594984054565e-01" purity="8.0619406700134277e-01" nType="-99"/>
          </Node>
        </Node>
        <Node pos="r" depth="1" NCoef="0" IVar="0" Cut="1.3832241821289062e+02" cType="1" res="-4.2925408482551575e-01" rms="2.0873466134071350e-01" purity="4.5793302357196808e-02" nType="0">
          <Node pos="l" depth="2" NCoef="0" IVar="-1" Cut="0.0000000000000000e+00" cType="1" res="-4.7007277607917786e-03" rms="3.1845733523368835e-01" purity="1.1454047262668610e-01" nType="-99"/>
          <Node pos="r" depth="2" NCoef="0" IVar="-1" Cut="0.0000000000000000e+00" cType="1" res="-5.1854490302503109e-03" rms="6.2949694693088531e-02" purity="3.9784926921129227e-03" nType="-99"/>
        </Node>
      </Node>
    </BinaryTree>
    <BinaryTree type="DecisionTree" boostWeight="1.0000000000000000e+00" itree="11">
      <Node pos="s" depth="0" NCoef="0" IVar="0" Cut="1.3016575622558594e+02" cType="1" res="-3.6459088325500488e-02" rms="4.6433126926422119e-01" purity="4.9453639984130859e-01" nType="0">
        <Node pos="l" depth="1" NCoef="0" IVar="0" Cut="1.1887145233154297e+02" cType="1" res="7.6939903199672699e-02" rms="4.5671883225440979e-01" purity="6.2470388412475586e-01" nType="0">
          <Node pos="l" depth="2" NCoef="0" IVar="0" Cut="1.1517623138427734e+02" cType="1" res="-3.6609417200088501e-01" rms="3.1466501951217651e-01" purity="1.1193148791790009e-01" nType="0">
            <Node pos="l" depth="3" NCoef="0" IVar="-1" Cut="0.0000000000000000e+00" cType="1" res="-3.9071156643331051e-03" rms="2.4234302341938019e-01" purity="6.2658391892910004e-02" nType="-99"/>
            <Node pos="r" depth="3" NCoef="0" IVar="-1" Cut="0.0000000000000000e+00" cType="1" res="-4.1108657605946064e-03" rms="3.8753280043601990e-01" purity="1.8455216288566589e-01" nType="-99"/>
          </Node>
          <Node pos="r" depth="2" NCoef="0" IVar="0" Cut="1.2708306121826172e+02" cType="1" res="2.1536394953727722e-01" rms="4.0291622281074524e-01" purity="7.8491735458374023e-01" nType="0">
            <Node pos="l" depth="3" NCoef="0" IVar="-1" Cut="0.0000000000000000e+00" cType="1" res="1.1973410844802856e-02" rms="3.7884932756423950e-01" purity="8.1765234470367432e-01" nType="-99"/>
            <Node pos="r" depth="3" NCoef="0" IVar="-1" Cut="0.0000000000000000e+00" cType="1" res="1.0900204069912434e-03" rms="4.8624593019485474e-01" purity="5.9696757793426514e-01" nType="-99"/>
          </Node>
        </Node>
        <Node pos="r" depth="1" NCoef="0" IVar="0" Cut="1.3829702758789062e+02" cType="1" res="-4.3179613351821899e-01" rms="1.9729402661323547e-01" purity="4.0740128606557846e-02" nType="0">
          <Node pos="l" depth="2" NCoef="0" IVar="-1" Cut="0.0000000000000000e+00" cType="1" res="-4.9143051728606224e-03" rms="3.0782106518745422e-01" purity="1.0608617961406708e-01" nType="-99"/>
          <Node pos="r" depth="2" NCoef="0" IVar="-1" Cut="0.0000000000000000e+00" cType="1" res="-5.0150351598858833e-03" rms="5.9451796114444733e-02" purity="3.5472791641950607e-03" nType="-99"/>
        </Node>
      </Node>
    </BinaryTree>
    <BinaryTree type="DecisionTree" boostWeight="1.0000000000000000e+00" itree="12">
      <Node pos="s" depth="0" NCoef="0" IVar="0" Cut="1.3005856323242188e+02" cType="1" res="-2.7480082586407661e-02" rms="4.6317195892333984e-01" purity="5.0807219743728638e-01" nType="0">
        <Node pos="l" depth="1" NCoef="0" IVar="0" Cut="1.1871939086914062e+02" cType="1" res="8.5147768259048462e-02" rms="4.5343291759490967e-01" purity="6.3925647735595703e-01" nType="0">
          <Node pos="l" depth="2" NCoef="0" IVar="0" Cut="1.1500679779052734e+02" cType="1" res="-3.5472044348716736e-01" rms="3.2601881027221680e-01" purity="1.2132275849580765e-01" nType="0">
            <Node pos="l" depth="3" NCoef="0" IVar="-1" Cut="0.0000000000000000e+00" cType="1" res="-4.1444068774580956e-03" rms="2.5082644820213318e-01" purity="6.7465744912624359e-02" nType="-99"/>
            <Node pos="r" depth="3" NCoef="0" IVar="-1" Cut="0.0000000000000000e+00" cType="1" res="-3.5477874334901571e-03" rms="3.9476242661476135e-01" purity="1.9335220754146576e-01" nType="-99"/>
          </Node>
          <Node pos="r" depth="2" NCoef="0" IVar="24" Cut="2.6976177692413330e+00" cType="1" res="2.0037399232387543e-01" rms="4.0945780277252197e-01" purity="7.7493238449096680e-01" nType="0">
            <Node pos="l" depth="3" NCoef="0" IVar="-1" Cut="0.0000000000000000e+00" cType="1" res="1.3566934503614902e-02" rms="3.6298525333404541e-01" purity="8.3642458915710449e-01" nType="-99"/>
            <Node pos="r" depth="3" NCoef="0" IVar="-1" Cut="0.0000000000000000e+00" cType="1" res="3.7149500567466021e-03" rms="4.5693600177764893e-01" purity="6.7917776107788086e-01" nType="-99"/>
          </Node>
        </Node>
        <Node pos="r" depth="1" NCoef="0" IVar="0" Cut="1.3822128295898438e+02" cType="1" res="-4.2318254709243774e-01" rms="2.1152755618095398e-01" purity="4.7174435108900070e-02" nType="0">
          <Node pos="l" depth="2" NCoef="0" IVar="-1" Cut="0.0000000000000000e+00" cType="1" res="-4.2953039519488811e-03" rms="3.2627207040786743e-01" purity="1.2118431180715561e-01" nType="-99"/>
          <Node pos="r" depth="2" NCoef="0" IVar="-1" Cut="0.0000000000000000e+00" cType="1" res="-4.9661281518638134e-03" rms="5.7371940463781357e-02" purity="3.3024575095623732e-03" nType="-99"/>
        </Node>
      </Node>
    </BinaryTree>
    <BinaryTree type="DecisionTree" boostWeight="1.0000000000000000e+00" itree="13">
      <Node pos="s" depth="0" NCoef="0" IVar="0" Cut="1.3006292724609375e+02" cType="1" res="-3.4782238304615021e-02" rms="4.6057894825935364e-01" purity="5.0197803974151611e-01" nType="0">
        <Node pos="l" depth="1" NCoef="0" IVar="0" Cut="1.2099181365966797e+02" cType="1" res="6.7417971789836884e-02" rms="4.5447298884391785e-01" purity="6.2239998579025269e-01" nType="0">
          <Node pos="l" depth="2" NCoef="0" IVar="0" Cut="1.1810552215576172e+02" cType="1" res="-2.9344570636749268e-01" rms="3.8556101918220520e-01" purity="1.8880584836006165e-01" nType="0">
            <Node pos="l" depth="3" NCoef="0" IVar="-1" Cut="0.0000000000000000e+00" cType="1" res="-4.1586454026401043e-03" rms="2.9763513803482056e-01" purity="9.8448477685451508e-02" nType="-99"/>
            <Node pos="r" depth="3" NCoef="0" IVar="-1" Cut="0.0000000000000000e+00" cType="1" res="-1.9206242868676782e-03" rms="4.8875623941421509e-01" purity="4.0616369247436523e-01" nType="-99"/>
          </Node>
          <Node pos="r" depth="2" NCoef="0" IVar="0" Cut="1.2758834838867188e+02" cType="1" res="2.2352007031440735e-01" rms="3.8844251632690430e-01" purity="8.0996382236480713e-01" nType="0">
            <Node pos="l" depth="3" NCoef="0" IVar="-1" Cut="0.0000000000000000e+00" cType="1" res="1.4036227948963642e-02" rms="3.6622676253318787e-01" purity="8.3902633190155029e-01" nType="-99"/>
            <Node pos="r" depth="3" NCoef="0" IVar="-1" Cut="0.0000000000000000e+00" cType="1" res="4.4278244604356587e-04" rms="4.9420753121376038e-01" purity="5.6854313611984253e-01" nType="-99"/>
          </Node>
        </Node>
        <Node pos="r" depth="1" NCoef="0" IVar="0" Cut="1.3822662353515625e+02" cType="1" res="-4.2032918334007263e-01" rms="2.1251176297664642e-01" purity="4.7690372914075851e-02" nType="0">
          <Node pos="l" depth="2" NCoef="0" IVar="-1" Cut="0.0000000000000000e+00" cType="1" res="-4.6120313927531242e-03" rms="3.1228294968605042e-01" purity="1.0975901782512665e-01" nType="-99"/>
          <Node pos="r" depth="2" NCoef="0" IVar="-1" Cut="0.0000000000000000e+00" cType="1" res="-4.7911163419485092e-03" rms="6.2598049640655518e-02" purity="3.9343573153018951e-03" nType="-99"/>
        </Node>
      </Node>
    </BinaryTree>
    <BinaryTree type="DecisionTree" boostWeight="1.0000000000000000e+00" itree="14">
      <Node pos="s" depth="0" NCoef="0" IVar="0" Cut="1.2999845886230469e+02" cType="1" res="-4.2945254594087601e-02" rms="4.5871356129646301e-01" purity="4.9646085500717163e-01" nType="0">
        <Node pos="l" depth="1" NCoef="0" IVar="0" Cut="1.2091154479980469e+02" cType="1" res="5.7965710759162903e-02" rms="4.5489633083343506e-01" purity="6.1719542741775513e-01" nType="0">
          <Node pos="l" depth="2" NCoef="0" IVar="0" Cut="1.1802037048339844e+02" cType="1" res="-2.8923904895782471e-01" rms="3.8719478249549866e-01" purity="1.9072076678276062e-01" nType="0">
            <Node pos="l" depth="3" NCoef="0" IVar="-1" Cut="0.0000000000000000e+00" cType="1" res="-4.0233018808066845e-03" rms="3.0297797918319702e-01" purity="1.0247689485549927e-01" nType="-99"/>
            <Node pos="r" depth="3" NCoef="0" IVar="-1" Cut="0.0000000000000000e+00" cType="1" res="-1.6694538062438369e-03" rms="4.8819547891616821e-01" purity="4.0406501293182373e-01" nType="-99"/>
          </Node>
          <Node pos="r" depth="2" NCoef="0" IVar="0" Cut="1.2751999664306641e+02" cType="1" res="2.0040313899517059e-01" rms="4.0071868896484375e-01" purity="7.9215252399444580e-01" nType="0">
            <Node pos="l" depth="3" NCoef="0" IVar="-1" Cut="0.0000000000000000e+00" cType="1" res="1.3732596300542355e-02" rms="3.7588772177696228e-01" purity="8.2757103443145752e-01" nType="-99"/>
            <Node pos="r" depth="3" NCoef="0" IVar="-1" Cut="0.0000000000000000e+00" cType="1" res="-4.8359643551521003e-04" rms="4.9843323230743408e-01" purity="5.2897417545318604e-01" nType="-99"/>
          </Node>
        </Node>
        <Node pos="r" depth="1" NCoef="0" IVar="0" Cut="1.3817697143554688e+02" cType="1" res="-4.1854596138000488e-01" rms="2.1076217293739319e-01" purity="4.7074764966964722e-02" nType="0">
          <Node pos="l" depth="2" NCoef="0" IVar="-1" Cut="0.0000000000000000e+00" cType="1" res="-4.4246646575629711e-03" rms="3.2191315293312073e-01" purity="1.1823498457670212e-01" nType="-99"/>
          <Node pos="r" depth="2" NCoef="0" IVar="-1" Cut="0.0000000000000000e+00" cType="1" res="-5.0180703401565552e-03" rms="5.8520134538412094e-02" purity="3.4364194143563509e-03" nType="-99"/>
        </Node>
      </Node>
    </BinaryTree>
    <BinaryTree type="DecisionTree" boostWeight="1.0000000000000000e+00" itree="15">
      <Node pos="s" depth="0" NCoef="0" IVar="0" Cut="1.3005709838867188e+02" cType="1" res="-4.3579831719398499e-02" rms="4.5574301481246948e-01" purity="4.9798342585563660e-01" nType="0">
        <Node pos="l" depth="1" NCoef="0" IVar="0" Cut="1.1871949768066406e+02" cType="1" res="5.5845919996500015e-02" rms="4.5210823416709900e-01" purity="6.1831748485565186e-01" nType="0">
          <Node pos="l" depth="2" NCoef="0" IVar="0" Cut="1.1500907897949219e+02" cType="1" res="-3.6559054255485535e-01" rms="3.0515393614768982e-01" purity="1.0441371053457260e-01" nType="0">
            <Node pos="l" depth="3" NCoef="0" IVar="-1" Cut="0.0000000000000000e+00" cType="1" res="-4.1277687996625900e-03" rms="2.2742858529090881e-01" purity="5.4718445986509323e-02" nType="-99"/>
            <Node pos="r" depth="3" NCoef="0" IVar="-1" Cut="0.0000000000000000e+00" cType="1" res="-4.0979455225169659e-03" rms="3.8322395086288452e-01" purity="1.7926271259784698e-01" nType="-99"/>
          </Node>
          <Node pos="r" depth="2" NCoef="0" IVar="24" Cut="2.6622886657714844e+00" cType="1" res="1.8342542648315430e-01" rms="4.0993517637252808e-01" purity="7.7388924360275269e-01" nType="0">
            <Node pos="l" depth="3" NCoef="0" IVar="-1" Cut="0.0000000000000000e+00" cType="1" res="1.1879605241119862e-02" rms="3.6487624049186707e-01" purity="8.3616256713867188e-01" nType="-99"/>
            <Node pos="r" depth="3" NCoef="0" IVar="-1" Cut="0.0000000000000000e+00" cType="1" res="3.5555425565689802e-03" rms="4.5369488000869751e-01" purity="6.8467634916305542e-01" nType="-99"/>
          </Node>
        </Node>
        <Node pos="r" depth="1" NCoef="0" IVar="0" Cut="1.3822103881835938e+02" cType="1" res="-4.1728287935256958e-01" rms="2.0807412266731262e-01" purity="4.5693896710872650e-02" nType="0">
          <Node pos="l" depth="2" NCoef="0" IVar="-1" Cut="0.0000000000000000e+00" cType="1" res="-4.0128836408257484e-03" rms="3.2411146163940430e-01" purity="1.1972849816083908e-01" nType="-99"/>
          <Node pos="r" depth="2" NCoef="0" IVar="-1" Cut="0.0000000000000000e+00" cType="1" res="-4.7771004028618336e-03" rms="6.0046136379241943e-02" purity="3.6190066020935774e-03" nType="-99"/>
        </Node>
      </Node>
    </BinaryTree>
    <BinaryTree type="DecisionTree" boostWeight="1.0000000000000000e+00" itree="16">
      <Node pos="s" depth="0" NCoef="0" IVar="0" Cut="1.3013256835937500e+02" cType="1" res="-3.6696217954158783e-02" rms="4.5275706052780151e-01" purity="5.0630342960357666e-01" nType="0">
        <Node pos="l" depth="1" NCoef="0" IVar="0" Cut="1.1882463836669922e+02" cType="1" res="6.3536927103996277e-02" rms="4.4692331552505493e-01" purity="6.2834185361862183e-01" nType="0">
          <Node pos="l" depth="2" NCoef="0" IVar="0" Cut="1.1512358093261719e+02" cType="1" res="-3.5531365871429443e-01" rms="3.1606858968734741e-01" purity="1.1326369643211365e-01" nType="0">
            <Node pos="l" depth="3" NCoef="0" IVar="-1" Cut="0.0000000000000000e+00" cType="1" res="-4.0250420570373535e-03" rms="2.3981365561485291e-01" purity="6.1262957751750946e-02" nType="-99"/>
            <Node pos="r" depth="3" NCoef="0" IVar="-1" Cut="0.0000000000000000e+00" cType="1" res="-4.2114709503948689e-03" rms="3.7843179702758789e-01" purity="1.7399546504020691e-01" nType="-99"/>
          </Node>
          <Node pos="r" depth="2" NCoef="0" IVar="0" Cut="1.2190834808349609e+02" cType="1" res="1.9078901410102844e-01" rms="4.0072527527809143e-01" purity="7.8482913970947266e-01" nType="0">
            <Node pos="l" depth="3" NCoef="0" IVar="-1" Cut="0.0000000000000000e+00" cType="1" res="1.2080449960194528e-04" rms="4.9226760864257812e-01" purity="5.4464834928512573e-01" nType="-99"/>
            <Node pos="r" depth="3" NCoef="0" IVar="-1" Cut="0.0000000000000000e+00" cType="1" res="1.1801974847912788e-02" rms="3.7498652935028076e-01" purity="8.2427060604095459e-01" nType="-99"/>
          </Node>
        </Node>
        <Node pos="r" depth="1" NCoef="0" IVar="0" Cut="1.3827607727050781e+02" cType="1" res="-4.1379243135452271e-01" rms="2.1150825917720795e-01" purity="4.7171544283628464e-02" nType="0">
          <Node pos="l" depth="2" NCoef="0" IVar="-1" Cut="0.0000000000000000e+00" cType="1" res="-4.3215714395046234e-03" rms="3.1526869535446167e-01" purity="1.1192816495895386e-01" nType="-99"/>
          <Node pos="r" depth="2" NCoef="0" IVar="-1" Cut="0.0000000000000000e+00" cType="1" res="-4.6700020320713520e-03" rms="5.8752216398715973e-02" purity="3.4642217215150595e-03" nType="-99"/>
        </Node>
      </Node>
    </BinaryTree>
    <BinaryTree type="DecisionTree" boostWeight="1.0000000000000000e+00" itree="17">
      <Node pos="s" depth="0" NCoef="0" IVar="0" Cut="1.3005928039550781e+02" cType="1" res="-5.0957132130861282e-02" rms="4.5214521884918213e-01" purity="4.9443474411964417e-01" nType="0">
        <Node pos="l" depth="1" NCoef="0" IVar="0" Cut="1.1871679687500000e+02" cType="1" res="4.4430304318666458e-02" rms="4.5078572630882263e-01" purity="6.1269938945770264e-01" nType="0">
          <Node pos="l" depth="2" NCoef="0" IVar="0" Cut="1.1500491333007812e+02" cType="1" res="-3.5542276501655579e-01" rms="3.1284812092781067e-01" purity="1.1055014282464981e-01" nType="0">
            <Node pos="l" depth="3" NCoef="0" IVar="-1" Cut="0.0000000000000000e+00" cType="1" res="-5.0706984475255013e-03" rms="2.2435985505580902e-01" purity="5.3164843469858170e-02" nType="-99"/>
            <Node pos="r" depth="3" NCoef="0" IVar="-1" Cut="0.0000000000000000e+00" cType="1" res="-3.5467913839966059e-03" rms="4.0251654386520386e-01" purity="2.0379894971847534e-01" nType="-99"/>
          </Node>
          <Node pos="r" depth="2" NCoef="0" IVar="0" Cut="1.2180875396728516e+02" cType="1" res="1.6352245211601257e-01" rms="4.1566580533981323e-01" purity="7.6225948333740234e-01" nType="0">
            <Node pos="l" depth="3" NCoef="0" IVar="-1" Cut="0.0000000000000000e+00" cType="1" res="-3.3197810989804566e-04" rms="4.9344909191131592e-01" purity="5.1870000362396240e-01" nType="-99"/>
            <Node pos="r" depth="3" NCoef="0" IVar="-1" Cut="0.0000000000000000e+00" cType="1" res="1.0247285477817059e-02" rms="3.9494156837463379e-01" purity="8.0013877153396606e-01" nType="-99"/>
          </Node>
        </Node>
        <Node pos="r" depth="1" NCoef="0" IVar="0" Cut="1.3822467041015625e+02" cType="1" res="-4.1197180747985840e-01" rms="2.1050727367401123e-01" purity="4.6836245805025101e-02" nType="0">
          <Node pos="l" depth="2" NCoef="0" IVar="-1" Cut="0.0000000000000000e+00" cType="1" res="-3.8826365489512682e-03" rms="3.1806415319442749e-01" purity="1.1451163142919540e-01" nType="-99"/>
          <Node pos="r" depth="2" NCoef="0" IVar="-1" Cut="0.0000000000000000e+00" cType="1" res="-5.1488163881003857e-03" rms="5.8457441627979279e-02" purity="3.4291893243789673e-03" nType="-99"/>
        </Node>
      </Node>
    </BinaryTree>
    <BinaryTree type="DecisionTree" boostWeight="1.0000000000000000e+00" itree="18">
      <Node pos="s" depth="0" NCoef="0" IVar="0" Cut="1.3009236145019531e+02" cType="1" res="-4.5392874628305435e-02" rms="4.4902595877647400e-01" purity="5.0160801410675049e-01" nType="0">
        <Node pos="l" depth="1" NCoef="0" IVar="0" Cut="1.1876804351806641e+02" cType="1" res="5.2965484559535980e-02" rms="4.4568932056427002e-01" purity="6.2439095973968506e-01" nType="0">
          <Node pos="l" depth="2" NCoef="0" IVar="0" Cut="1.1506301879882812e+02" cType="1" res="-3.5032078623771667e-01" rms="3.1640967726707458e-01" purity="1.1356749385595322e-01" nType="0">
            <Node pos="l" depth="3" NCoef="0" IVar="-1" Cut="0.0000000000000000e+00" cType="1" res="-3.2242625020444393e-03" rms="2.3075272142887115e-01" purity="5.6434646248817444e-02" nType="-99"/>
            <Node pos="r" depth="3" NCoef="0" IVar="-1" Cut="0.0000000000000000e+00" cType="1" res="-2.5621491950005293e-03" rms="3.9823108911514282e-01" purity="1.9831748306751251e-01" nType="-99"/>
          </Node>
          <Node pos="r" depth="2" NCoef="0" IVar="0" Cut="1.2185555267333984e+02" cType="1" res="1.7061316967010498e-01" rms="4.0754622220993042e-01" purity="7.7340972423553467e-01" nType="0">
            <Node pos="l" depth="3" NCoef="0" IVar="-1" Cut="0.0000000000000000e+00" cType="1" res="-4.7592169721610844e-04" rms="4.9277940392494202e-01" purity="5.1567608118057251e-01" nType="-99"/>
            <Node pos="r" depth="3" NCoef="0" IVar="-1" Cut="0.0000000000000000e+00" cType="1" res="1.0242018848657608e-02" rms="3.8266307115554810e-01" purity="8.1589847803115845e-01" nType="-99"/>
          </Node>
        </Node>
        <Node pos="r" depth="1" NCoef="0" IVar="0" Cut="1.3824516296386719e+02" cType="1" res="-4.1032278537750244e-01" rms="2.0888465642929077e-01" purity="4.6057824045419693e-02" nType="0">
          <Node pos="l" depth="2" NCoef="0" IVar="-1" Cut="0.0000000000000000e+00" cType="1" res="-4.3647354468703270e-03" rms="3.1976878643035889e-01" purity="1.1576407402753830e-01" nType="-99"/>
          <Node pos="r" depth="2" NCoef="0" IVar="-1" Cut="0.0000000000000000e+00" cType="1" res="-4.6979398466646671e-03" rms="5.6598469614982605e-02" purity="3.2139786053448915e-03" nType="-99"/>
        </Node>
      </Node>
    </BinaryTree>
    <BinaryTree type="DecisionTree" boostWeight="1.0000000000000000e+00" itree="19">
      <Node pos="s" depth="0" NCoef="0" IVar="0" Cut="1.3005856323242188e+02" cType="1" res="-5.1217123866081238e-02" rms="4.4764643907546997e-01" purity="4.9753472208976746e-01" nType="0">
        <Node pos="l" depth="1" NCoef="0" IVar="0" Cut="1.1871949768066406e+02" cType="1" res="3.9750665426254272e-02" rms="4.4681069254875183e-01" purity="6.1284977197647095e-01" nType="0">
          <Node pos="l" depth="2" NCoef="0" IVar="0" Cut="1.1500836944580078e+02" cType="1" res="-3.5590112209320068e-01" rms="3.0803781747817993e-01" purity="1.0664462298154831e-01" nType="0">
            <Node pos="l" depth="3" NCoef="0" IVar="-1" Cut="0.0000000000000000e+00" cType="1" res="-4.7760400921106339e-03" rms="2.2637434303760529e-01" purity="5.4181922227144241e-02" nType="-99"/>
            <Node pos="r" depth="3" NCoef="0" IVar="-1" Cut="0.0000000000000000e+00" cType="1" res="-4.1551543399691582e-03" rms="3.7957885861396790e-01" purity="1.7465671896934509e-01" nType="-99"/>
          </Node>
          <Node pos="r" depth="2" NCoef="0" IVar="2" Cut="7.4035179138183594e+01" cType="1" res="1.5945331752300262e-01" rms="4.1187727451324463e-01" purity="7.6599991321563721e-01" nType="0">
            <Node pos="l" depth="3" NCoef="0" IVar="-1" Cut="0.0000000000000000e+00" cType="1" res="4.7180866822600365e-03" rms="4.3647715449333191e-01" purity="7.2190767526626587e-01" nType="-99"/>
            <Node pos="r" depth="3" NCoef="0" IVar="-1" Cut="0.0000000000000000e+00" cType="1" res="1.5790715813636780e-02" rms="2.8798401355743408e-01" purity="9.0032470226287842e-01" nType="-99"/>
          </Node>
        </Node>
        <Node pos="r" depth="1" NCoef="0" IVar="0" Cut="1.3822190856933594e+02" cType="1" res="-4.0575525164604187e-01" rms="2.1296003460884094e-01" purity="4.8105403780937195e-02" nType="0">
          <Node pos="l" depth="2" NCoef="0" IVar="-1" Cut="0.0000000000000000e+00" cType="1" res="-3.7180809304118156e-03" rms="3.4478133916854858e-01" purity="1.3845355808734894e-01" nType="-99"/>
          <Node pos="r" depth="2" NCoef="0" IVar="-1" Cut="0.0000000000000000e+00" cType="1" res="-4.7309650108218193e-03" rms="6.5805234014987946e-02" purity="4.3494459241628647e-03" nType="-99"/>
        </Node>
      </Node>
    </BinaryTree>
    <BinaryTree type="DecisionTree" boostWeight="1.0000000000000000e+00" itree="20">
      <Node pos="s" depth="0" NCoef="0" IVar="0" Cut="1.2999992370605469e+02" cType="1" res="-4.8280261456966400e-02" rms="4.4614160060882568e-01" purity="5.0275862216949463e-01" nType="0">
        <Node pos="l" depth="1" NCoef="0" IVar="0" Cut="1.2091296386718750e+02" cType="1" res="4.8831786960363388e-02" rms="4.4400537014007568e-01" purity="6.2662923336029053e-01" nType="0">
          <Node pos="l" depth="2" NCoef="0" IVar="0" Cut="1.1657551574707031e+02" cType="1" res="-2.7626472711563110e-01" rms="3.9038673043251038e-01" purity="1.9779208302497864e-01" nType="0">
            <Node pos="l" depth="3" NCoef="0" IVar="-1" Cut="0.0000000000000000e+00" cType="1" res="-3.7838148418813944e-03" rms="2.7051597833633423e-01" purity="7.9612597823143005e-02" nType="-99"/>
            <Node pos="r" depth="3" NCoef="0" IVar="-1" Cut="0.0000000000000000e+00" cType="1" res="-1.5265347901731730e-03" rms="4.7198760509490967e-01" purity="3.4831723570823669e-01" nType="-99"/>
          </Node>
          <Node pos="r" depth="2" NCoef="0" IVar="0" Cut="1.2752161407470703e+02" cType="1" res="1.7856952548027039e-01" rms="3.9495033025741577e-01" purity="7.9776716232299805e-01" nType="0">
            <Node pos="l" depth="3" NCoef="0" IVar="-1" Cut="0.0000000000000000e+00" cType="1" res="1.3289313763380051e-02" rms="3.6494651436805725e-01" purity="8.3909314870834351e-01" nType="-99"/>
            <Node pos="r" depth="3" NCoef="0" IVar="-1" Cut="0.0000000000000000e+00" cType="1" res="-1.3786053750663996e-03" rms="4.9808472394943237e-01" purity="5.1552623510360718e-01" nType="-99"/>
          </Node>
        </Node>
        <Node pos="r" depth="1" NCoef="0" IVar="0" Cut="1.3817835998535156e+02" cType="1" res="-4.0702491998672485e-01" rms="2.0622989535331726e-01" purity="4.5164458453655243e-02" nType="0">
          <Node pos="l" depth="2" NCoef="0" IVar="-1" Cut="0.0000000000000000e+00" cType="1" res="-4.5323329977691174e-03" rms="3.1045830249786377e-01" purity="1.0900811851024628e-01" nType="-99"/>
          <Node pos="r" depth="2" NCoef="0" IVar="-1" Cut="0.0000000000000000e+00" cType="1" res="-4.7165974974632263e-03" rms="5.4740872234106064e-02" purity="3.0060000717639923e-03" nType="-99"/>
        </Node>
      </Node>
    </BinaryTree>
    <BinaryTree type="DecisionTree" boostWeight="1.0000000000000000e+00" itree="21">
      <Node pos="s" depth="0" NCoef="0" IVar="0" Cut="1.3005715942382812e+02" cType="1" res="-4.4905632734298706e-02" rms="4.4397827982902527e-01" purity="5.0947231054306030e-01" nType="0">
        <Node pos="l" depth="1" NCoef="0" IVar="0" Cut="1.1871880340576172e+02" cType="1" res="4.8767309635877609e-02" rms="4.4123354554176331e-01" purity="6.3088649511337280e-01" nType="0">
          <Node pos="l" depth="2" NCoef="0" IVar="0" Cut="1.1500679779052734e+02" cType="1" res="-3.4257119894027710e-01" rms="3.1964936852455139e-01" purity="1.1619434505701065e-01" nType="0">
            <Node pos="l" depth="3" NCoef="0" IVar="-1" Cut="0.0000000000000000e+00" cType="1" res="-4.4637513346970081e-03" rms="2.3719418048858643e-01" purity="5.9844959527254105e-02" nType="-99"/>
            <Node pos="r" depth="3" NCoef="0" IVar="-1" Cut="0.0000000000000000e+00" cType="1" res="-3.5968166776001453e-03" rms="3.9361590147018433e-01" purity="1.9187572598457336e-01" nType="-99"/>
          </Node>
          <Node pos="r" depth="2" NCoef="0" IVar="24" Cut="2.6558287143707275e+00" cType="1" res="1.5607835352420807e-01" rms="4.0809857845306396e-01" purity="7.7202296257019043e-01" nType="0">
            <Node pos="l" depth="3" NCoef="0" IVar="-1" Cut="0.0000000000000000e+00" cType="1" res="1.0956870391964912e-02" rms="3.6228284239768982e-01" purity="8.3609074354171753e-01" nType="-99"/>
            <Node pos="r" depth="3" NCoef="0" IVar="-1" Cut="0.0000000000000000e+00" cType="1" res="2.8021002653986216e-03" rms="4.5160177350044250e-01" purity="6.8328183889389038e-01" nType="-99"/>
          </Node>
        </Node>
        <Node pos="r" depth="1" NCoef="0" IVar="0" Cut="1.3822146606445312e+02" cType="1" res="-3.9847713708877563e-01" rms="2.1944174170494080e-01" purity="5.1190756261348724e-02" nType="0">
          <Node pos="l" depth="2" NCoef="0" IVar="-1" Cut="0.0000000000000000e+00" cType="1" res="-3.7609050050377846e-03" rms="3.3547011017799377e-01" purity="1.2952478229999542e-01" nType="-99"/>
          <Node pos="r" depth="2" NCoef="0" IVar="-1" Cut="0.0000000000000000e+00" cType="1" res="-4.8734145238995552e-03" rms="7.0663586258888245e-02" purity="5.0189099274575710e-03" nType="-99"/>
        </Node>
      </Node>
    </BinaryTree>
    <BinaryTree type="DecisionTree" boostWeight="1.0000000000000000e+00" itree="22">
      <Node pos="s" depth="0" NCoef="0" IVar="0" Cut="1.2999851989746094e+02" cType="1" res="-6.2662355601787567e-02" rms="4.4032588601112366e-01" purity="4.8894309997558594e-01" nType="0">
        <Node pos="l" depth="1" NCoef="0" IVar="0" Cut="1.2091154479980469e+02" cType="1" res="3.4324288368225098e-02" rms="4.4128587841987610e-01" purity="6.1561834812164307e-01" nType="0">
          <Node pos="l" depth="2" NCoef="0" IVar="0" Cut="1.1802040863037109e+02" cType="1" res="-2.9118400812149048e-01" rms="3.7425574660301208e-01" purity="1.7924910783767700e-01" nType="0">
            <Node pos="l" depth="3" NCoef="0" IVar="-1" Cut="0.0000000000000000e+00" cType="1" res="-3.7859419826418161e-03" rms="2.8925749659538269e-01" purity="9.2395044863224030e-02" nType="-99"/>
            <Node pos="r" depth="3" NCoef="0" IVar="-1" Cut="0.0000000000000000e+00" cType="1" res="-2.1699459757655859e-03" rms="4.8289230465888977e-01" purity="3.8827526569366455e-01" nType="-99"/>
          </Node>
          <Node pos="r" depth="2" NCoef="0" IVar="0" Cut="1.2751979064941406e+02" cType="1" res="1.7394249141216278e-01" rms="3.9145952463150024e-01" purity="8.0278748273849487e-01" nType="0">
            <Node pos="l" depth="3" NCoef="0" IVar="-1" Cut="0.0000000000000000e+00" cType="1" res="1.1432538740336895e-02" rms="3.6837539076805115e-01" purity="8.3493959903717041e-01" nType="-99"/>
            <Node pos="r" depth="3" NCoef="0" IVar="-1" Cut="0.0000000000000000e+00" cType="1" res="-4.0188274579122663e-04" rms="4.9480482935905457e-01" purity="5.5773282051086426e-01" nType="-99"/>
          </Node>
        </Node>
        <Node pos="r" depth="1" NCoef="0" IVar="0" Cut="1.3817700195312500e+02" cType="1" res="-4.0224844217300415e-01" rms="2.0656596124172211e-01" purity="4.5406144112348557e-02" nType="0">
          <Node pos="l" depth="2" NCoef="0" IVar="-1" Cut="0.0000000000000000e+00" cType="1" res="-4.3880762532353401e-03" rms="3.2188031077384949e-01" purity="1.1849715560674667e-01" nType="-99"/>
          <Node pos="r" depth="2" NCoef="0" IVar="-1" Cut="0.0000000000000000e+00" cType="1" res="-5.0897989422082901e-03" rms="6.3533276319503784e-02" purity="4.0534017607569695e-03" nType="-99"/>
        </Node>
      </Node>
    </BinaryTree>
    <BinaryTree type="DecisionTree" boostWeight="1.0000000000000000e+00" itree="23">
      <Node pos="s" depth="0" NCoef="0" IVar="0" Cut="1.3005757141113281e+02" cType="1" res="-6.2167398631572723e-02" rms="4.3909373879432678e-01" purity="4.9183899164199829e-01" nType="0">
        <Node pos="l" depth="1" NCoef="0" IVar="0" Cut="1.1871762084960938e+02" cType="1" res="2.9021138325333595e-02" rms="4.4073134660720825e-01" purity="6.1253273487091064e-01" nType="0">
          <Node pos="l" depth="2" NCoef="0" IVar="0" Cut="1.1500730895996094e+02" cType="1" res="-3.5239863395690918e-01" rms="3.0213251709938049e-01" purity="1.0228186845779419e-01" nType="0">
            <Node pos="l" depth="3" NCoef="0" IVar="-1" Cut="0.0000000000000000e+00" cType="1" res="-3.2415774185210466e-03" rms="2.2774094343185425e-01" purity="5.4878376424312592e-02" nType="-99"/>
            <Node pos="r" depth="3" NCoef="0" IVar="-1" Cut="0.0000000000000000e+00" cType="1" res="-3.2924213446676731e-03" rms="3.7186253070831299e-01" purity="1.6627395153045654e-01" nType="-99"/>
          </Node>
          <Node pos="r" depth="2" NCoef="0" IVar="32" Cut="1.0000000000000000e+00" cType="1" res="-2.6176082901656628e-03" rms="1.3483321666717529e-01" purity="7.7576655149459839e-01" nType="0">
            <Node pos="l" depth="3" NCoef="0" IVar="-1" Cut="0.0000000000000000e+00" cType="1" res="3.6434631329029799e-03" rms="4.3782579898834229e-01" purity="7.2323042154312134e-01" nType="-99"/>
            <Node pos="r" depth="3" NCoef="0" IVar="-1" Cut="0.0000000000000000e+00" cType="1" res="1.3041373342275620e-02" rms="3.5534450411796570e-01" purity="8.4071123600006104e-01" nType="-99"/>
          </Node>
        </Node>
        <Node pos="r" depth="1" NCoef="0" IVar="0" Cut="1.3822044372558594e+02" cType="1" res="-3.9927294850349426e-01" rms="2.0759715139865875e-01" purity="4.5658927410840988e-02" nType="0">
          <Node pos="l" depth="2" NCoef="0" IVar="-1" Cut="0.0000000000000000e+00" cType="1" res="-4.1042556986212730e-03" rms="3.2611018419265747e-01" purity="1.2144748121500015e-01" nType="-99"/>
          <Node pos="r" depth="2" NCoef="0" IVar="-1" Cut="0.0000000000000000e+00" cType="1" res="-5.0066453404724598e-03" rms="6.3266813755035400e-02" purity="4.0192236192524433e-03" nType="-99"/>
        </Node>
      </Node>
    </BinaryTree>
    <BinaryTree type="DecisionTree" boostWeight="1.0000000000000000e+00" itree="24">
      <Node pos="s" depth="0" NCoef="0" IVar="0" Cut="1.3000387573242188e+02" cType="1" res="-5.2824921905994415e-02" rms="4.3763762712478638e-01" purity="5.0440639257431030e-01" nType="0">
        <Node pos="l" depth="1" NCoef="0" IVar="0" Cut="1.1864144897460938e+02" cType="1" res="4.1002776473760605e-02" rms="4.3674603104591370e-01" purity="6.2967735528945923e-01" nType="0">
          <Node pos="l" depth="2" NCoef="0" IVar="0" Cut="1.1492341613769531e+02" cType="1" res="-3.4109872579574585e-01" rms="3.1448939442634583e-01" purity="1.1191928386688232e-01" nType="0">
            <Node pos="l" depth="3" NCoef="0" IVar="-1" Cut="0.0000000000000000e+00" cType="1" res="-3.9067110046744347e-03" rms="2.4523887038230896e-01" purity="6.4273267984390259e-02" nType="-99"/>
            <Node pos="r" depth="3" NCoef="0" IVar="-1" Cut="0.0000000000000000e+00" cType="1" res="-3.1040338799357414e-03" rms="3.7731483578681946e-01" purity="1.7236299812793732e-01" nType="-99"/>
          </Node>
          <Node pos="r" depth="2" NCoef="0" IVar="24" Cut="2.6976177692413330e+00" cType="1" res="1.4975823462009430e-01" rms="4.0435704588890076e-01" purity="7.7704399824142456e-01" nType="0">
            <Node pos="l" depth="3" NCoef="0" IVar="-1" Cut="0.0000000000000000e+00" cType="1" res="1.0749801062047482e-02" rms="3.6276912689208984e-01" purity="8.3445936441421509e-01" nType="-99"/>
            <Node pos="r" depth="3" NCoef="0" IVar="-1" Cut="0.0000000000000000e+00" cType="1" res="2.6693709660321474e-03" rms="4.5025596022605896e-01" purity="6.8714904785156250e-01" nType="-99"/>
          </Node>
        </Node>
        <Node pos="r" depth="1" NCoef="0" IVar="0" Cut="1.3818600463867188e+02" cType="1" res="-3.9354512095451355e-01" rms="2.1517080068588257e-01" purity="4.9505084753036499e-02" nType="0">
          <Node pos="l" depth="2" NCoef="0" IVar="-1" Cut="0.0000000000000000e+00" cType="1" res="-3.8072019815444946e-03" rms="3.2885816693305969e-01" purity="1.2450871616601944e-01" nType="-99"/>
          <Node pos="r" depth="2" NCoef="0" IVar="-1" Cut="0.0000000000000000e+00" cType="1" res="-4.4809221290051937e-03" rms="6.4548172056674957e-02" purity="4.1840644553303719e-03" nType="-99"/>
        </Node>
      </Node>
    </BinaryTree>
    <BinaryTree type="DecisionTree" boostWeight="1.0000000000000000e+00" itree="25">
      <Node pos="s" depth="0" NCoef="0" IVar="0" Cut="1.3005601501464844e+02" cType="1" res="-5.1153093576431274e-02" rms="4.3495115637779236e-01" purity="5.0803434848785400e-01" nType="0">
        <Node pos="l" depth="1" NCoef="0" IVar="0" Cut="1.1871949768066406e+02" cType="1" res="3.7837404757738113e-02" rms="4.3391618132591248e-01" purity="6.2810456752777100e-01" nType="0">
          <Node pos="l" depth="2" NCoef="0" IVar="0" Cut="1.1500907897949219e+02" cType="1" res="-3.4929764270782471e-01" rms="3.0174684524536133e-01" purity="1.0201793164014816e-01" nType="0">
            <Node pos="l" depth="3" NCoef="0" IVar="-1" Cut="0.0000000000000000e+00" cType="1" res="-4.5800856314599514e-03" rms="2.2646605968475342e-01" purity="5.4227720946073532e-02" nType="-99"/>
            <Node pos="r" depth="3" NCoef="0" IVar="-1" Cut="0.0000000000000000e+00" cType="1" res="-3.8223678711801767e-03" rms="3.7836506962776184e-01" purity="1.7352619767189026e-01" nType="-99"/>
          </Node>
          <Node pos="r" depth="2" NCoef="0" IVar="0" Cut="1.2181166076660156e+02" cType="1" res="1.5192830562591553e-01" rms="3.9969083666801453e-01" purity="7.8314530849456787e-01" nType="0">
            <Node pos="l" depth="3" NCoef="0" IVar="-1" Cut="0.0000000000000000e+00" cType="1" res="4.7468914999626577e-05" rms="4.8669677972793579e-01" purity="5.5393695831298828e-01" nType="-99"/>
            <Node pos="r" depth="3" NCoef="0" IVar="-1" Cut="0.0000000000000000e+00" cType="1" res="9.7840270027518272e-03" rms="3.8017395138740540e-01" purity="8.1706666946411133e-01" nType="-99"/>
          </Node>
        </Node>
        <Node pos="r" depth="1" NCoef="0" IVar="0" Cut="1.3822038269042969e+02" cType="1" res="-3.9016407728195190e-01" rms="2.1797037124633789e-01" purity="5.0624493509531021e-02" nType="0">
          <Node pos="l" depth="2" NCoef="0" IVar="-1" Cut="0.0000000000000000e+00" cType="1" res="-4.2495853267610073e-03" rms="3.2564103603363037e-01" purity="1.2108404934406281e-01" nType="-99"/>
          <Node pos="r" depth="2" NCoef="0" IVar="-1" Cut="0.0000000000000000e+00" cType="1" res="-4.6071163378655910e-03" rms="6.6383719444274902e-02" purity="4.4265361502766609e-03" nType="-99"/>
        </Node>
      </Node>
    </BinaryTree>
    <BinaryTree type="DecisionTree" boostWeight="1.0000000000000000e+00" itree="26">
      <Node pos="s" depth="0" NCoef="0" IVar="0" Cut="1.3000387573242188e+02" cType="1" res="-6.2289115041494370e-02" rms="4.3449261784553528e-01" purity="4.9789467453956604e-01" nType="0">
        <Node pos="l" depth="1" NCoef="0" IVar="0" Cut="1.1864144897460938e+02" cType="1" res="2.3456620052456856e-02" rms="4.3692493438720703e-01" purity="6.1547023057937622e-01" nType="0">
          <Node pos="l" depth="2" NCoef="0" IVar="0" Cut="1.1492341613769531e+02" cType="1" res="-3.4801432490348816e-01" rms="2.9984921216964722e-01" purity="1.0063013434410095e-01" nType="0">
            <Node pos="l" depth="3" NCoef="0" IVar="-1" Cut="0.0000000000000000e+00" cType="1" res="-4.8034992069005966e-03" rms="2.2247922420501709e-01" purity="5.2224393934011459e-02" nType="-99"/>
            <Node pos="r" depth="3" NCoef="0" IVar="-1" Cut="0.0000000000000000e+00" cType="1" res="-3.7093267310410738e-03" rms="3.7541380524635315e-01" purity="1.7048233747482300e-01" nType="-99"/>
          </Node>
          <Node pos="r" depth="2" NCoef="0" IVar="24" Cut="2.6562869548797607e+00" cType="1" res="1.3111440837383270e-01" rms="4.1059830784797668e-01" purity="7.6467853784561157e-01" nType="0">
            <Node pos="l" depth="3" NCoef="0" IVar="-1" Cut="0.0000000000000000e+00" cType="1" res="1.0067736729979515e-02" rms="3.6367872357368469e-01" purity="8.3320659399032593e-01" nType="-99"/>
            <Node pos="r" depth="3" NCoef="0" IVar="-1" Cut="0.0000000000000000e+00" cType="1" res="1.6815513372421265e-03" rms="4.5561015605926514e-01" purity="6.6775381565093994e-01" nType="-99"/>
          </Node>
        </Node>
        <Node pos="r" depth="1" NCoef="0" IVar="0" Cut="1.3818682861328125e+02" cType="1" res="-3.9036145806312561e-01" rms="2.1192418038845062e-01" purity="4.8038203269243240e-02" nType="0">
          <Node pos="l" depth="2" NCoef="0" IVar="-1" Cut="0.0000000000000000e+00" cType="1" res="-3.4616163466125727e-03" rms="3.3391517400741577e-01" purity="1.2926483154296875e-01" nType="-99"/>
          <Node pos="r" depth="2" NCoef="0" IVar="-1" Cut="0.0000000000000000e+00" cType="1" res="-5.1403320394456387e-03" rms="5.2108041942119598e-02" purity="2.7229525148868561e-03" nType="-99"/>
        </Node>
      </Node>
    </BinaryTree>
    <BinaryTree type="DecisionTree" boostWeight="1.0000000000000000e+00" itree="27">
      <Node pos="s" depth="0" NCoef="0" IVar="0" Cut="1.2999851989746094e+02" cType="1" res="-6.3914269208908081e-02" rms="4.3251857161521912e-01" purity="4.9616518616676331e-01" nType="0">
        <Node pos="l" depth="1" NCoef="0" IVar="0" Cut="1.1863997650146484e+02" cType="1" res="2.8803255409002304e-02" rms="4.3463551998138428e-01" purity="6.2426203489303589e-01" nType="0">
          <Node pos="l" depth="2" NCoef="0" IVar="0" Cut="1.1492269897460938e+02" cType="1" res="-3.3900123834609985e-01" rms="3.0984282493591309e-01" purity="1.0823446512222290e-01" nType="0">
            <Node pos="l" depth="3" NCoef="0" IVar="-1" Cut="0.0000000000000000e+00" cType="1" res="-3.8187175523489714e-03" rms="2.3888789117336273e-01" purity="6.0759074985980988e-02" nType="-99"/>
            <Node pos="r" depth="3" NCoef="0" IVar="-1" Cut="0.0000000000000000e+00" cType="1" res="-3.2001405488699675e-03" rms="3.6936378479003906e-01" purity="1.6333784162998199e-01" nType="-99"/>
          </Node>
          <Node pos="r" depth="2" NCoef="0" IVar="24" Cut="2.6912243366241455e+00" cType="1" res="1.3121496140956879e-01" rms="4.0819239616394043e-01" purity="7.6794511079788208e-01" nType="0">
            <Node pos="l" depth="3" NCoef="0" IVar="-1" Cut="0.0000000000000000e+00" cType="1" res="9.5702661201357841e-03" rms="3.6567503213882446e-01" purity="8.3071213960647583e-01" nType="-99"/>
            <Node pos="r" depth="3" NCoef="0" IVar="-1" Cut="0.0000000000000000e+00" cType="1" res="1.8460120772942901e-03" rms="4.5338490605354309e-01" purity="6.7277765274047852e-01" nType="-99"/>
          </Node>
        </Node>
        <Node pos="r" depth="1" NCoef="0" IVar="0" Cut="1.3818151855468750e+02" cType="1" res="-3.8755249977111816e-01" rms="2.1428017318248749e-01" purity="4.9032457172870636e-02" nType="0">
          <Node pos="l" depth="2" NCoef="0" IVar="-1" Cut="0.0000000000000000e+00" cType="1" res="-3.8633232470601797e-03" rms="3.3217564225196838e-01" purity="1.2696588039398193e-01" nType="-99"/>
          <Node pos="r" depth="2" NCoef="0" IVar="-1" Cut="0.0000000000000000e+00" cType="1" res="-4.9297651275992393e-03" rms="5.7185217738151550e-02" purity="3.2809702679514885e-03" nType="-99"/>
        </Node>
      </Node>
    </BinaryTree>
    <BinaryTree type="DecisionTree" boostWeight="1.0000000000000000e+00" itree="28">
      <Node pos="s" depth="0" NCoef="0" IVar="0" Cut="1.3005531311035156e+02" cType="1" res="-5.7395257055759430e-02" rms="4.3195563554763794e-01" purity="5.0629818439483643e-01" nType="0">
        <Node pos="l" depth="1" NCoef="0" IVar="0" Cut="1.1871679687500000e+02" cType="1" res="2.9116744175553322e-02" rms="4.3350502848625183e-01" purity="6.2719327211380005e-01" nType="0">
          <Node pos="l" depth="2" NCoef="0" IVar="24" Cut="2.5853407382965088e+00" cType="1" res="-3.3571729063987732e-01" rms="3.1153464317321777e-01" purity="1.0969490557909012e-01" nType="0">
            <Node pos="l" depth="3" NCoef="0" IVar="-1" Cut="0.0000000000000000e+00" cType="1" res="-2.0830258727073669e-03" rms="3.7465164065361023e-01" purity="1.7004667222499847e-01" nType="-99"/>
            <Node pos="r" depth="3" NCoef="0" IVar="-1" Cut="0.0000000000000000e+00" cType="1" res="-5.0956904888153076e-03" rms="2.3973254859447479e-01" purity="6.1621248722076416e-02" nType="-99"/>
          </Node>
          <Node pos="r" depth="2" NCoef="0" IVar="24" Cut="2.2548282146453857e+00" cType="1" res="1.3005800545215607e-01" rms="4.0749615430831909e-01" purity="7.7037322521209717e-01" nType="0">
            <Node pos="l" depth="3" NCoef="0" IVar="-1" Cut="0.0000000000000000e+00" cType="1" res="1.2091526761651039e-02" rms="3.3742684125900269e-01" purity="8.6112534999847412e-01" nType="-99"/>
            <Node pos="r" depth="3" NCoef="0" IVar="-1" Cut="0.0000000000000000e+00" cType="1" res="3.2010460272431374e-03" rms="4.3896466493606567e-01" purity="7.1251833438873291e-01" nType="-99"/>
          </Node>
        </Node>
        <Node pos="r" depth="1" NCoef="0" IVar="0" Cut="1.3822128295898438e+02" cType="1" res="-3.8434883952140808e-01" rms="2.1525278687477112e-01" purity="4.9400888383388519e-02" nType="0">
          <Node pos="l" depth="2" NCoef="0" IVar="-1" Cut="0.0000000000000000e+00" cType="1" res="-3.9270939305424690e-03" rms="3.3739733695983887e-01" purity="1.3151730597019196e-01" nType="-99"/>
          <Node pos="r" depth="2" NCoef="0" IVar="-1" Cut="0.0000000000000000e+00" cType="1" res="-4.6886843629181385e-03" rms="6.7949414253234863e-02" purity="4.6388953924179077e-03" nType="-99"/>
        </Node>
      </Node>
    </BinaryTree>
    <BinaryTree type="DecisionTree" boostWeight="1.0000000000000000e+00" itree="29">
      <Node pos="s" depth="0" NCoef="0" IVar="0" Cut="1.3005715942382812e+02" cType="1" res="-7.4162736535072327e-02" rms="4.2863917350769043e-01" purity="4.8594567179679871e-01" nType="0">
        <Node pos="l" depth="1" NCoef="0" IVar="0" Cut="1.1871946716308594e+02" cType="1" res="1.6585620120167732e-02" rms="4.3375882506370544e-01" purity="6.1357426643371582e-01" nType="0">
          <Node pos="l" depth="2" NCoef="0" IVar="0" Cut="1.1500973510742188e+02" cType="1" res="-3.3898138999938965e-01" rms="3.0454793572425842e-01" purity="1.0444381088018417e-01" nType="0">
            <Node pos="l" depth="3" NCoef="0" IVar="-1" Cut="0.0000000000000000e+00" cType="1" res="-3.7343518342822790e-03" rms="2.2517730295658112e-01" purity="5.3618676960468292e-02" nType="-99"/>
            <Node pos="r" depth="3" NCoef="0" IVar="-1" Cut="0.0000000000000000e+00" cType="1" res="-3.6773406900465488e-03" rms="3.8210701942443848e-01" purity="1.7834801971912384e-01" nType="-99"/>
          </Node>
          <Node pos="r" depth="2" NCoef="0" IVar="4" Cut="3.5000455379486084e+00" cType="1" res="1.2346570938825607e-01" rms="4.0914037823677063e-01" purity="7.6661401987075806e-01" nType="0">
            <Node pos="l" depth="3" NCoef="0" IVar="-1" Cut="0.0000000000000000e+00" cType="1" res="7.0993187837302685e-03" rms="3.9438784122467041e-01" purity="7.8982478380203247e-01" nType="-99"/>
            <Node pos="r" depth="3" NCoef="0" IVar="-1" Cut="0.0000000000000000e+00" cType="1" res="-2.3415698669850826e-03" rms="4.8322618007659912e-01" purity="5.3941822052001953e-01" nType="-99"/>
          </Node>
        </Node>
        <Node pos="r" depth="1" NCoef="0" IVar="0" Cut="1.3822106933593750e+02" cType="1" res="-3.8910448551177979e-01" rms="2.0159342885017395e-01" purity="4.3011326342821121e-02" nType="0">
          <Node pos="l" depth="2" NCoef="0" IVar="-1" Cut="0.0000000000000000e+00" cType="1" res="-4.6171373687684536e-03" rms="3.0917769670486450e-01" purity="1.0725010931491852e-01" nType="-99"/>
          <Node pos="r" depth="2" NCoef="0" IVar="-1" Cut="0.0000000000000000e+00" cType="1" res="-4.6896813437342644e-03" rms="5.4963137954473495e-02" purity="3.0302738305181265e-03" nType="-99"/>
        </Node>
      </Node>
    </BinaryTree>
    <BinaryTree type="DecisionTree" boostWeight="1.0000000000000000e+00" itree="30">
      <Node pos="s" depth="0" NCoef="0" IVar="0" Cut="1.3019946289062500e+02" cType="1" res="-7.3006235063076019e-02" rms="4.2862680554389954e-01" purity="4.8999208211898804e-01" nType="0">
        <Node pos="l" depth="1" NCoef="0" IVar="0" Cut="1.1891571807861328e+02" cType="1" res="6.6933943890035152e-03" rms="4.3448102474212646e-01" purity="6.0386025905609131e-01" nType="0">
          <Node pos="l" depth="2" NCoef="0" IVar="0" Cut="1.1522303009033203e+02" cType="1" res="-3.3779960870742798e-01" rms="3.0482897162437439e-01" purity="1.0517655313014984e-01" nType="0">
            <Node pos="l" depth="3" NCoef="0" IVar="-1" Cut="0.0000000000000000e+00" cType="1" res="-4.7889053821563721e-03" rms="2.2482913732528687e-01" purity="5.3433354943990707e-02" nType="-99"/>
            <Node pos="r" depth="3" NCoef="0" IVar="-1" Cut="0.0000000000000000e+00" cType="1" res="-3.8472833111882210e-03" rms="3.8519242405891418e-01" purity="1.8295840919017792e-01" nType="-99"/>
          </Node>
          <Node pos="r" depth="2" NCoef="0" IVar="24" Cut="2.7017917633056641e+00" cType="1" res="1.1616393178701401e-01" rms="4.1174948215484619e-01" purity="7.6232844591140747e-01" nType="0">
            <Node pos="l" depth="3" NCoef="0" IVar="-1" Cut="0.0000000000000000e+00" cType="1" res="8.4315361455082893e-03" rms="3.6927822232246399e-01" purity="8.2695192098617554e-01" nType="-99"/>
            <Node pos="r" depth="3" NCoef="0" IVar="-1" Cut="0.0000000000000000e+00" cType="1" res="1.2673785677179694e-03" rms="4.5820397138595581e-01" purity="6.6208869218826294e-01" nType="-99"/>
          </Node>
        </Node>
        <Node pos="r" depth="1" NCoef="0" IVar="0" Cut="1.3832452392578125e+02" cType="1" res="-3.8519123196601868e-01" rms="2.0393253862857819e-01" purity="4.3968059122562408e-02" nType="0">
          <Node pos="l" depth="2" NCoef="0" IVar="-1" Cut="0.0000000000000000e+00" cType="1" res="-3.5458472557365894e-03" rms="3.2287901639938354e-01" purity="1.1823693662881851e-01" nType="-99"/>
          <Node pos="r" depth="2" NCoef="0" IVar="-1" Cut="0.0000000000000000e+00" cType="1" res="-4.8185908235609531e-03" rms="6.1739701777696609e-02" purity="3.8264321628957987e-03" nType="-99"/>
        </Node>
      </Node>
    </BinaryTree>
    <BinaryTree type="DecisionTree" boostWeight="1.0000000000000000e+00" itree="31">
      <Node pos="s" depth="0" NCoef="0" IVar="0" Cut="1.3005677795410156e+02" cType="1" res="-4.9686640501022339e-02" rms="4.2587569355964661e-01" purity="5.1699203252792358e-01" nType="0">
        <Node pos="l" depth="1" NCoef="0" IVar="0" Cut="1.1871946716308594e+02" cType="1" res="3.8538418710231781e-02" rms="4.2534399032592773e-01" purity="6.4253860712051392e-01" nType="0">
          <Node pos="l" depth="2" NCoef="0" IVar="24" Cut="2.4597322940826416e+00" cType="1" res="-3.1995639204978943e-01" rms="3.2396960258483887e-01" purity="1.2005197256803513e-01" nType="0">
            <Node pos="l" depth="3" NCoef="0" IVar="-1" Cut="0.0000000000000000e+00" cType="1" res="-2.2220606915652752e-03" rms="3.8721340894699097e-01" purity="1.8505801260471344e-01" nType="-99"/>
            <Node pos="r" depth="3" NCoef="0" IVar="-1" Cut="0.0000000000000000e+00" cType="1" res="-4.5324512757360935e-03" rms="2.6398772001266479e-01" purity="7.5808249413967133e-02" nType="-99"/>
          </Node>
          <Node pos="r" depth="2" NCoef="0" IVar="24" Cut="3.1292245388031006e+00" cType="1" res="1.3877941668033600e-01" rms="3.9518776535987854e-01" purity="7.8863435983657837e-01" nType="0">
            <Node pos="l" depth="3" NCoef="0" IVar="-1" Cut="0.0000000000000000e+00" cType="1" res="8.1759244203567505e-03" rms="3.7541195750236511e-01" purity="8.1664693355560303e-01" nType="-99"/>
            <Node pos="r" depth="3" NCoef="0" IVar="-1" Cut="0.0000000000000000e+00" cType="1" res="-7.8623119043186307e-04" rms="4.7514486312866211e-01" purity="6.0465067625045776e-01" nType="-99"/>
          </Node>
        </Node>
        <Node pos="r" depth="1" NCoef="0" IVar="0" Cut="1.3822084045410156e+02" cType="1" res="-3.7856245040893555e-01" rms="2.1420277655124664e-01" purity="4.8993229866027832e-02" nType="0">
          <Node pos="l" depth="2" NCoef="0" IVar="-1" Cut="0.0000000000000000e+00" cType="1" res="-3.6802471149712801e-03" rms="3.2613193988800049e-01" purity="1.2160366773605347e-01" nType="-99"/>
          <Node pos="r" depth="2" NCoef="0" IVar="-1" Cut="0.0000000000000000e+00" cType="1" res="-4.4234315864741802e-03" rms="5.7824514806270599e-02" purity="3.3547857310622931e-03" nType="-99"/>
        </Node>
      </Node>
    </BinaryTree>
    <BinaryTree type="DecisionTree" boostWeight="1.0000000000000000e+00" itree="32">
      <Node pos="s" depth="0" NCoef="0" IVar="0" Cut="1.3005715942382812e+02" cType="1" res="-6.5563827753067017e-02" rms="4.2551568150520325e-01" purity="5.0014501810073853e-01" nType="0">
        <Node pos="l" depth="1" NCoef="0" IVar="0" Cut="1.1871949768066406e+02" cType="1" res="1.8705973401665688e-02" rms="4.2939558625221252e-01" purity="6.2229359149932861e-01" nType="0">
          <Node pos="l" depth="2" NCoef="0" IVar="0" Cut="1.1500973510742188e+02" cType="1" res="-3.2658767700195312e-01" rms="3.1301420927047729e-01" purity="1.1120324581861496e-01" nType="0">
            <Node pos="l" depth="3" NCoef="0" IVar="-1" Cut="0.0000000000000000e+00" cType="1" res="-3.7383746821433306e-03" rms="2.2942166030406952e-01" purity="5.5807743221521378e-02" nType="-99"/>
            <Node pos="r" depth="3" NCoef="0" IVar="-1" Cut="0.0000000000000000e+00" cType="1" res="-3.3719274215400219e-03" rms="3.9245405793190002e-01" purity="1.9096763432025909e-01" nType="-99"/>
          </Node>
          <Node pos="r" depth="2" NCoef="0" IVar="0" Cut="1.2181158447265625e+02" cType="1" res="1.1981870979070663e-01" rms="4.0564098954200745e-01" purity="7.7195674180984497e-01" nType="0">
            <Node pos="l" depth="3" NCoef="0" IVar="-1" Cut="0.0000000000000000e+00" cType="1" res="-7.6607079245150089e-04" rms="4.8808243870735168e-01" purity="5.3054630756378174e-01" nType="-99"/>
            <Node pos="r" depth="3" NCoef="0" IVar="-1" Cut="0.0000000000000000e+00" cType="1" res="7.7769258059561253e-03" rms="3.8533905148506165e-01" purity="8.0962908267974854e-01" nType="-99"/>
          </Node>
        </Node>
        <Node pos="r" depth="1" NCoef="0" IVar="0" Cut="1.3822106933593750e+02" cType="1" res="-3.7722793221473694e-01" rms="2.1306718885898590e-01" purity="4.8389945179224014e-02" nType="0">
          <Node pos="l" depth="2" NCoef="0" IVar="-1" Cut="0.0000000000000000e+00" cType="1" res="-3.8129342719912529e-03" rms="3.2463514804840088e-01" purity="1.2003761529922485e-01" nType="-99"/>
          <Node pos="r" depth="2" NCoef="0" IVar="-1" Cut="0.0000000000000000e+00" cType="1" res="-4.1698650456964970e-03" rms="5.6495558470487595e-02" purity="3.2035086769610643e-03" nType="-99"/>
        </Node>
      </Node>
    </BinaryTree>
    <BinaryTree type="DecisionTree" boostWeight="1.0000000000000000e+00" itree="33">
      <Node pos="s" depth="0" NCoef="0" IVar="0" Cut="1.3005856323242188e+02" cType="1" res="-6.5291218459606171e-02" rms="4.2399698495864868e-01" purity="5.0124311447143555e-01" nType="0">
        <Node pos="l" depth="1" NCoef="0" IVar="0" Cut="1.2098630523681641e+02" cType="1" res="1.6525225713849068e-02" rms="4.2808407545089722e-01" purity="6.2087517976760864e-01" nType="0">
          <Node pos="l" depth="2" NCoef="0" IVar="0" Cut="1.1665857696533203e+02" cType="1" res="-2.7458676695823669e-01" rms="3.7589314579963684e-01" purity="1.8791784346103668e-01" nType="0">
            <Node pos="l" depth="3" NCoef="0" IVar="-1" Cut="0.0000000000000000e+00" cType="1" res="-4.4545838609337807e-03" rms="2.6908859610557556e-01" purity="7.8903526067733765e-02" nType="-99"/>
            <Node pos="r" depth="3" NCoef="0" IVar="-1" Cut="0.0000000000000000e+00" cType="1" res="-2.3229811340570450e-03" rms="4.5922026038169861e-01" purity="3.2772439718246460e-01" nType="-99"/>
          </Node>
          <Node pos="r" depth="2" NCoef="0" IVar="0" Cut="1.2758078765869141e+02" cType="1" res="1.4259049296379089e-01" rms="3.8579165935516357e-01" purity="8.0836623907089233e-01" nType="0">
            <Node pos="l" depth="3" NCoef="0" IVar="-1" Cut="0.0000000000000000e+00" cType="1" res="1.1195194907486439e-02" rms="3.6155387759208679e-01" purity="8.4222346544265747e-01" nType="-99"/>
            <Node pos="r" depth="3" NCoef="0" IVar="-1" Cut="0.0000000000000000e+00" cType="1" res="-1.3411217369139194e-03" rms="4.9207618832588196e-01" purity="5.4834121465682983e-01" nType="-99"/>
          </Node>
        </Node>
        <Node pos="r" depth="1" NCoef="0" IVar="0" Cut="1.3822425842285156e+02" cType="1" res="-3.7497484683990479e-01" rms="2.1295677125453949e-01" purity="4.8423577100038528e-02" nType="0">
          <Node pos="l" depth="2" NCoef="0" IVar="-1" Cut="0.0000000000000000e+00" cType="1" res="-3.4513846039772034e-03" rms="3.3224746584892273e-01" purity="1.2689673900604248e-01" nType="-99"/>
          <Node pos="r" depth="2" NCoef="0" IVar="-1" Cut="0.0000000000000000e+00" cType="1" res="-4.7552264295518398e-03" rms="7.0269495248794556e-02" purity="4.9623860977590084e-03" nType="-99"/>
        </Node>
      </Node>
    </BinaryTree>
    <BinaryTree type="DecisionTree" boostWeight="1.0000000000000000e+00" itree="34">
      <Node pos="s" depth="0" NCoef="0" IVar="0" Cut="1.3006292724609375e+02" cType="1" res="-5.9883963316679001e-02" rms="4.2117583751678467e-01" purity="5.0986021757125854e-01" nType="0">
        <Node pos="l" depth="1" NCoef="0" IVar="0" Cut="1.1872392272949219e+02" cType="1" res="2.4880724027752876e-02" rms="4.2349913716316223e-01" purity="6.3464987277984619e-01" nType="0">
          <Node pos="l" depth="2" NCoef="0" IVar="0" Cut="1.1501125335693359e+02" cType="1" res="-3.2436725497245789e-01" rms="3.1092524528503418e-01" purity="1.0962107777595520e-01" nType="0">
            <Node pos="l" depth="3" NCoef="0" IVar="-1" Cut="0.0000000000000000e+00" cType="1" res="-3.5669181961566210e-03" rms="2.3149499297142029e-01" purity="5.6887589395046234e-02" nType="-99"/>
            <Node pos="r" depth="3" NCoef="0" IVar="-1" Cut="0.0000000000000000e+00" cType="1" res="-3.3080556895583868e-03" rms="3.9002928137779236e-01" purity="1.8808093667030334e-01" nType="-99"/>
          </Node>
          <Node pos="r" depth="2" NCoef="0" IVar="0" Cut="1.2284674835205078e+02" cType="1" res="1.2594066560268402e-01" rms="3.9719921350479126e-01" purity="7.8657454252243042e-01" nType="0">
            <Node pos="l" depth="3" NCoef="0" IVar="-1" Cut="0.0000000000000000e+00" cType="1" res="3.5028145066462457e-04" rms="4.6930858492851257e-01" purity="6.3237196207046509e-01" nType="-99"/>
            <Node pos="r" depth="3" NCoef="0" IVar="-1" Cut="0.0000000000000000e+00" cType="1" res="9.7799580544233322e-03" rms="3.6632987856864929e-01" purity="8.3257466554641724e-01" nType="-99"/>
          </Node>
        </Node>
        <Node pos="r" depth="1" NCoef="0" IVar="0" Cut="1.3822662353515625e+02" cType="1" res="-3.7341228127479553e-01" rms="2.1273040771484375e-01" purity="4.8287335783243179e-02" nType="0">
          <Node pos="l" depth="2" NCoef="0" IVar="-1" Cut="0.0000000000000000e+00" cType="1" res="-3.7032270338386297e-03" rms="3.1826147437095642e-01" purity="1.1481636017560959e-01" nType="-99"/>
          <Node pos="r" depth="2" NCoef="0" IVar="-1" Cut="0.0000000000000000e+00" cType="1" res="-4.7614579088985920e-03" rms="7.4579276144504547e-02" purity="5.5935923010110855e-03" nType="-99"/>
        </Node>
      </Node>
    </BinaryTree>
    <BinaryTree type="DecisionTree" boostWeight="1.0000000000000000e+00" itree="35">
      <Node pos="s" depth="0" NCoef="0" IVar="0" Cut="1.3000387573242188e+02" cType="1" res="-6.0790672898292542e-02" rms="4.2282739281654358e-01" purity="5.1315391063690186e-01" nType="0">
        <Node pos="l" depth="1" NCoef="0" IVar="0" Cut="1.1864259338378906e+02" cType="1" res="1.6008147969841957e-02" rms="4.2661711573600769e-01" purity="6.2875616550445557e-01" nType="0">
          <Node pos="l" depth="2" NCoef="0" IVar="0" Cut="1.1492341613769531e+02" cType="1" res="-3.1584644317626953e-01" rms="3.1949162483215332e-01" purity="1.1644903570413589e-01" nType="0">
            <Node pos="l" depth="3" NCoef="0" IVar="-1" Cut="0.0000000000000000e+00" cType="1" res="-3.8769948296248913e-03" rms="2.4706900119781494e-01" purity="6.5381191670894623e-02" nType="-99"/>
            <Node pos="r" depth="3" NCoef="0" IVar="-1" Cut="0.0000000000000000e+00" cType="1" res="-2.6944375131279230e-03" rms="3.8604640960693359e-01" purity="1.8302369117736816e-01" nType="-99"/>
          </Node>
          <Node pos="r" depth="2" NCoef="0" IVar="1" Cut="1.3630674743652344e+02" cType="1" res="1.0656178742647171e-01" rms="4.0689241886138916e-01" purity="7.6855009794235229e-01" nType="0">
            <Node pos="l" depth="3" NCoef="0" IVar="-1" Cut="0.0000000000000000e+00" cType="1" res="3.4208633005619049e-03" rms="4.2520153522491455e-01" purity="7.3513931035995483e-01" nType="-99"/>
            <Node pos="r" depth="3" NCoef="0" IVar="-1" Cut="0.0000000000000000e+00" cType="1" res="1.3837577775120735e-02" rms="2.9218670725822449e-01" purity="9.0429335832595825e-01" nType="-99"/>
          </Node>
        </Node>
        <Node pos="r" depth="1" NCoef="0" IVar="0" Cut="1.3818472290039062e+02" cType="1" res="-3.6651059985160828e-01" rms="2.2141501307487488e-01" purity="5.2965827286243439e-02" nType="0">
          <Node pos="l" depth="2" NCoef="0" IVar="-1" Cut="0.0000000000000000e+00" cType="1" res="-3.6013922654092312e-03" rms="3.3642825484275818e-01" purity="1.3167916238307953e-01" nType="-99"/>
          <Node pos="r" depth="2" NCoef="0" IVar="-1" Cut="0.0000000000000000e+00" cType="1" res="-4.0692533366382122e-03" rms="5.9622097760438919e-02" purity="3.5687047056853771e-03" nType="-99"/>
        </Node>
      </Node>
    </BinaryTree>
    <BinaryTree type="DecisionTree" boostWeight="1.0000000000000000e+00" itree="36">
      <Node pos="s" depth="0" NCoef="0" IVar="0" Cut="1.3005928039550781e+02" cType="1" res="-6.9588296115398407e-02" rms="4.1481983661651611e-01" purity="4.9525222182273865e-01" nType="0">
        <Node pos="l" depth="1" NCoef="0" IVar="0" Cut="1.2098418426513672e+02" cType="1" res="1.4913268387317657e-02" rms="4.1886869072914124e-01" purity="6.2117576599121094e-01" nType="0">
          <Node pos="l" depth="2" NCoef="0" IVar="0" Cut="1.1665489196777344e+02" cType="1" res="-2.7673971652984619e-01" rms="3.6665698885917664e-01" purity="1.7935453355312347e-01" nType="0">
            <Node pos="l" depth="3" NCoef="0" IVar="-1" Cut="0.0000000000000000e+00" cType="1" res="-4.3695266358554363e-03" rms="2.5892841815948486e-01" purity="7.2555013000965118e-02" nType="-99"/>
            <Node pos="r" depth="3" NCoef="0" IVar="-1" Cut="0.0000000000000000e+00" cType="1" res="-2.5087930262088776e-03" rms="4.5935893058776855e-01" purity="3.3621039986610413e-01" nType="-99"/>
          </Node>
          <Node pos="r" depth="2" NCoef="0" IVar="0" Cut="1.2758041381835938e+02" cType="1" res="1.5177224576473236e-01" rms="3.6885094642639160e-01" purity="8.2850158214569092e-01" nType="0">
            <Node pos="l" depth="3" NCoef="0" IVar="-1" Cut="0.0000000000000000e+00" cType="1" res="1.0938546620309353e-02" rms="3.4738397598266602e-01" purity="8.5559719800949097e-01" nType="-99"/>
            <Node pos="r" depth="3" NCoef="0" IVar="-1" Cut="0.0000000000000000e+00" cType="1" res="-3.5672009107656777e-04" rms="4.8395243287086487e-01" purity="6.0056668519973755e-01" nType="-99"/>
          </Node>
        </Node>
        <Node pos="r" depth="1" NCoef="0" IVar="0" Cut="1.3822467041015625e+02" cType="1" res="-3.7016752362251282e-01" rms="2.1052645146846771e-01" purity="4.7331519424915314e-02" nType="0">
          <Node pos="l" depth="2" NCoef="0" IVar="-1" Cut="0.0000000000000000e+00" cType="1" res="-3.9209537208080292e-03" rms="3.2446914911270142e-01" purity="1.2006100267171860e-01" nType="-99"/>
          <Node pos="r" depth="2" NCoef="0" IVar="-1" Cut="0.0000000000000000e+00" cType="1" res="-4.5416536740958691e-03" rms="5.5497162044048309e-02" purity="3.0893192160874605e-03" nType="-99"/>
        </Node>
      </Node>
    </BinaryTree>
    <BinaryTree type="DecisionTree" boostWeight="1.0000000000000000e+00" itree="37">
      <Node pos="s" depth="0" NCoef="0" IVar="0" Cut="1.3009204101562500e+02" cType="1" res="-6.7423634231090546e-02" rms="4.1640946269035339e-01" purity="5.0336521863937378e-01" nType="0">
        <Node pos="l" depth="1" NCoef="0" IVar="0" Cut="1.2103332519531250e+02" cType="1" res="1.4753096736967564e-02" rms="4.2100018262863159e-01" purity="6.2793052196502686e-01" nType="0">
          <Node pos="l" depth="2" NCoef="0" IVar="0" Cut="1.1815129852294922e+02" cType="1" res="-2.6208952069282532e-01" rms="3.7790480256080627e-01" purity="1.9483071565628052e-01" nType="0">
            <Node pos="l" depth="3" NCoef="0" IVar="-1" Cut="0.0000000000000000e+00" cType="1" res="-3.5673291422426701e-03" rms="3.0424976348876953e-01" purity="1.0401279479265213e-01" nType="-99"/>
            <Node pos="r" depth="3" NCoef="0" IVar="-1" Cut="0.0000000000000000e+00" cType="1" res="-2.0323866046965122e-03" rms="4.8238217830657959e-01" purity="4.1359165310859680e-01" nType="-99"/>
          </Node>
          <Node pos="r" depth="2" NCoef="0" IVar="0" Cut="1.2762062835693359e+02" cType="1" res="1.3384777307510376e-01" rms="3.8065490126609802e-01" purity="8.1424534320831299e-01" nType="0">
            <Node pos="l" depth="3" NCoef="0" IVar="-1" Cut="0.0000000000000000e+00" cType="1" res="1.0175253264605999e-02" rms="3.5802391171455383e-01" purity="8.4626448154449463e-01" nType="-99"/>
            <Node pos="r" depth="3" NCoef="0" IVar="-1" Cut="0.0000000000000000e+00" cType="1" res="-1.1661819880828261e-03" rms="4.8810002207756042e-01" purity="5.6474304199218750e-01" nType="-99"/>
          </Node>
        </Node>
        <Node pos="r" depth="1" NCoef="0" IVar="0" Cut="1.3824443054199219e+02" cType="1" res="-3.6879450082778931e-01" rms="2.0906528830528259e-01" purity="4.6540651470422745e-02" nType="0">
          <Node pos="l" depth="2" NCoef="0" IVar="-1" Cut="0.0000000000000000e+00" cType="1" res="-3.9882147684693336e-03" rms="3.2007271051406860e-01" purity="1.1607574671506882e-01" nType="-99"/>
