<?xml version="1.0"?>
<MethodSetup Method="BDT::BDTG_AWB_lite">
  <GeneralInfo>
    <Info name="TMVA Release" value="4.2.1 [262657]"/>
    <Info name="ROOT Release" value="6.12/07 [396295]"/>
    <Info name="Creator" value="abrinke1"/>
    <Info name="Date" value="Thu Jul  4 07:55:43 2019"/>
    <Info name="Host" value="Linux cmsbuild92.cern.ch 2.6.32-696.30.1.el6.x86_64 #1 SMP Tue May 22 06:09:36 CEST 2018 x86_64 x86_64 x86_64 GNU/Linux"/>
    <Info name="Dir" value="/afs/cern.ch/user/a/abrinke1/HiggsToMuMu/2018/CMSSW_10_2_11_patch1/src/H2MuAnalyzer/TrainMVA"/>
    <Info name="Training events" value="154963"/>
    <Info name="TrainingTime" value="1.23468151e+01"/>
    <Info name="AnalysisType" value="Classification"/>
  </GeneralInfo>
  <Options>
    <Option name="V" modified="Yes">False</Option>
    <Option name="VerbosityLevel" modified="No">Default</Option>
    <Option name="VarTransform" modified="No">None</Option>
    <Option name="H" modified="Yes">False</Option>
    <Option name="CreateMVAPdfs" modified="No">False</Option>
    <Option name="IgnoreNegWeightsInTraining" modified="No">False</Option>
    <Option name="NTrees" modified="Yes">50</Option>
    <Option name="MaxDepth" modified="Yes">2</Option>
    <Option name="MinNodeSize" modified="No">5%</Option>
    <Option name="nCuts" modified="Yes">20</Option>
    <Option name="BoostType" modified="Yes">Grad</Option>
    <Option name="AdaBoostR2Loss" modified="No">quadratic</Option>
    <Option name="UseBaggedBoost" modified="Yes">True</Option>
    <Option name="Shrinkage" modified="Yes">1.000000e-01</Option>
    <Option name="AdaBoostBeta" modified="No">5.000000e-01</Option>
    <Option name="UseRandomisedTrees" modified="No">False</Option>
    <Option name="UseNvars" modified="No">4</Option>
    <Option name="UsePoissonNvars" modified="No">True</Option>
    <Option name="BaggedSampleFraction" modified="Yes">5.000000e-01</Option>
    <Option name="UseYesNoLeaf" modified="No">True</Option>
    <Option name="NegWeightTreatment" modified="No">pray</Option>
    <Option name="Css" modified="No">1.000000e+00</Option>
    <Option name="Cts_sb" modified="No">1.000000e+00</Option>
    <Option name="Ctb_ss" modified="No">1.000000e+00</Option>
    <Option name="Cbb" modified="No">1.000000e+00</Option>
    <Option name="NodePurityLimit" modified="No">5.000000e-01</Option>
    <Option name="SeparationType" modified="No">giniindex</Option>
    <Option name="RegressionLossFunctionBDTG" modified="No">huber</Option>
    <Option name="HuberQuantile" modified="No">7.000000e-01</Option>
    <Option name="DoBoostMonitor" modified="No">False</Option>
    <Option name="UseFisherCuts" modified="No">False</Option>
    <Option name="MinLinCorrForFisher" modified="No">8.000000e-01</Option>
    <Option name="UseExclusiveVars" modified="No">False</Option>
    <Option name="DoPreselection" modified="No">False</Option>
    <Option name="SigToBkgFraction" modified="No">1.000000e+00</Option>
    <Option name="PruneMethod" modified="No">nopruning</Option>
    <Option name="PruneStrength" modified="No">0.000000e+00</Option>
    <Option name="PruningValFraction" modified="No">5.000000e-01</Option>
    <Option name="SkipNormalization" modified="No">False</Option>
    <Option name="nEventsMin" modified="No">0</Option>
    <Option name="UseBaggedGrad" modified="No">False</Option>
    <Option name="GradBaggingFraction" modified="No">5.000000e-01</Option>
    <Option name="UseNTrainEvents" modified="No">0</Option>
    <Option name="NNodesMax" modified="No">0</Option>
  </Options>
  <Variables NVar="18">
    <Variable VarIndex="0" Expression="H_pair_pt" Label="H_pair_pt" Title="H_pair_pt" Unit="" Internal="H_pair_pt" Type="F" Min="1.74321592e-01" Max="1.59223572e+03"/>
    <Variable VarIndex="1" Expression="OS_pair_mass" Label="OS_pair_mass" Title="OS_pair_mass" Unit="" Internal="OS_pair_mass" Type="F" Min="1.20022650e+01" Max="1.81038403e+03"/>
    <Variable VarIndex="2" Expression="nEles" Label="nEles" Title="Number of electrons" Unit="" Internal="nEles" Type="I" Min="0.00000000e+00" Max="1.00000000e+00"/>
    <Variable VarIndex="3" Expression="muH1_eta_abs" Label="muH1_eta_abs" Title="|#eta| #mu1 from Higgs" Unit="" Internal="muH1_eta_abs" Type="F" Min="4.18702621e-06" Max="2.39995646e+00"/>
    <Variable VarIndex="4" Expression="muH2_eta_abs" Label="muH2_eta_abs" Title="|#eta| #mu2 from Higgs" Unit="" Internal="muH2_eta_abs" Type="F" Min="2.60819365e-06" Max="2.39999866e+00"/>
    <Variable VarIndex="5" Expression="muSS_muOS_dR" Label="muSS_muOS_dR" Title="muSS_muOS_dR" Unit="" Internal="muSS_muOS_dR" Type="F" Min="1.71248823e-01" Max="5.13359118e+00"/>
    <Variable VarIndex="6" Expression="muSS_OS_pair_dR" Label="muSS_OS_pair_dR" Title="muSS_OS_pair_dR" Unit="" Internal="muSS_OS_pair_dR" Type="F" Min="1.93049703e-02" Max="7.22482681e+00"/>
    <Variable VarIndex="7" Expression="lep_pt" Label="lep_pt" Title="lep_pt" Unit="" Internal="lep_pt" Type="F" Min="1.00005035e+01" Max="1.10462170e+03"/>
    <Variable VarIndex="8" Expression="muSS_pt" Label="muSS_pt" Title="muSS_pt" Unit="" Internal="muSS_pt" Type="F" Min="1.00215931e+01" Max="1.14691748e+03"/>
    <Variable VarIndex="9" Expression="nJetsCent" Label="nJetsCent" Title="nJetsCent" Unit="" Internal="nJetsCent" Type="I" Min="1.00000000e+00" Max="1.50000000e+01"/>
    <Variable VarIndex="10" Expression="nJetsCent30" Label="nJetsCent30" Title="nJetsCent30" Unit="" Internal="nJetsCent30" Type="I" Min="0.00000000e+00" Max="1.30000000e+01"/>
    <Variable VarIndex="11" Expression="nJetsCent40" Label="nJetsCent40" Title="nJetsCent40" Unit="" Internal="nJetsCent40" Type="I" Min="0.00000000e+00" Max="1.10000000e+01"/>
    <Variable VarIndex="12" Expression="nBJetsLoose" Label="nBJetsLoose" Title="nBJetsLoose" Unit="" Internal="nBJetsLoose" Type="I" Min="1.00000000e+00" Max="7.00000000e+00"/>
    <Variable VarIndex="13" Expression="nBJetsMed" Label="nBJetsMed" Title="nBJetsMed" Unit="" Internal="nBJetsMed" Type="I" Min="0.00000000e+00" Max="6.00000000e+00"/>
    <Variable VarIndex="14" Expression="lep_MET_MT" Label="lep_MET_MT" Title="lep_MET_MT" Unit="" Internal="lep_MET_MT" Type="F" Min="5.42099879e-04" Max="1.18962781e+03"/>
    <Variable VarIndex="15" Expression="lep_MHT_MT" Label="lep_MHT_MT" Title="lep_MHT_MT" Unit="" Internal="lep_MHT_MT" Type="F" Min="4.15259201e-05" Max="1.13821094e+03"/>
    <Variable VarIndex="16" Expression="muSS_MET_MT" Label="muSS_MET_MT" Title="muSS_MET_MT" Unit="" Internal="muSS_MET_MT" Type="F" Min="3.72117804e-03" Max="1.59934998e+03"/>
    <Variable VarIndex="17" Expression="muSS_MHT_MT" Label="muSS_MHT_MT" Title="muSS_MHT_MT" Unit="" Internal="muSS_MHT_MT" Type="F" Min="9.12741525e-05" Max="1.75795398e+03"/>
  </Variables>
  <Spectators NSpec="9">
    <Spectator SpecIndex="0" Expression="samp_ID" Label="samp_ID" Title="Sample ID" Unit="" Internal="samp_ID" Type="F" Min="-2.60000000e+01" Max="3.80000000e+01"/>
    <Spectator SpecIndex="1" Expression="event" Label="event" Title="Event number" Unit="" Internal="event" Type="F" Min="3.00000000e+00" Max="1.70579920e+08"/>
    <Spectator SpecIndex="2" Expression="event_wgt" Label="event_wgt" Title="Per-event scale factors" Unit="" Internal="event_wgt" Type="F" Min="-6.37165928e+00" Max="1.84841747e+01"/>
    <Spectator SpecIndex="3" Expression="samp_wgt" Label="samp_wgt" Title="Xsec x lumi for sample" Unit="" Internal="samp_wgt" Type="F" Min="2.80000004e-05" Max="3.92017388e+00"/>
    <Spectator SpecIndex="4" Expression="lepMVA_wgt" Label="lepMVA_wgt" Title="lepMVA efficiency SF" Unit="" Internal="lepMVA_wgt" Type="F" Min="4.16317880e-01" Max="1.15934420e+00"/>
    <Spectator SpecIndex="5" Expression="total_wgt" Label="total_wgt" Title="Overall weight" Unit="" Internal="total_wgt" Type="F" Min="-4.12183315e-01" Max="1.73373699e+00"/>
    <Spectator SpecIndex="6" Expression="res_wgt" Label="res_wgt" Title="Mass resolution weight" Unit="" Internal="res_wgt" Type="F" Min="2.07156241e-02" Max="1.94245529e+00"/>
    <Spectator SpecIndex="7" Expression="dimu_mass" Label="dimu_mass" Title="mass(#mu#mu)" Unit="GeV" Internal="dimu_mass" Type="F" Min="1.05025375e+02" Max="1.59997498e+02"/>
    <Spectator SpecIndex="8" Expression="nEles" Label="nEles" Title="Number of electrons" Unit="" Internal="nEles" Type="F" Min="0.00000000e+00" Max="1.00000000e+00"/>
  </Spectators>
  <Classes NClass="2">
    <Class Name="Signal" Index="0"/>
    <Class Name="Background" Index="1"/>
  </Classes>
  <Transformations NTransformations="0"/>
  <MVAPdfs/>
  <Weights NTrees="50" AnalysisType="1">
    <BinaryTree type="DecisionTree" boostWeight="1.0000000000000000e+00" itree="0">
      <Node pos="s" depth="0" NCoef="0" IVar="10" Cut="3.0000000000000000e+00" cType="1" res="1.4148485846817493e-02" rms="4.9963635206222534e-01" purity="5.1384562253952026e-01" nType="0">
        <Node pos="l" depth="1" NCoef="0" IVar="5" Cut="1.9707956314086914e+00" cType="1" res="-2.1911798417568207e-01" rms="4.4942998886108398e-01" purity="2.8088200092315674e-01" nType="0">
          <Node pos="l" depth="2" NCoef="0" IVar="-1" Cut="0.0000000000000000e+00" cType="1" res="-4.4023352675139904e-03" rms="4.9951526522636414e-01" purity="4.7798833250999451e-01" nType="-99"/>
          <Node pos="r" depth="2" NCoef="0" IVar="-1" Cut="0.0000000000000000e+00" cType="1" res="-5.4334852844476700e-02" rms="4.1975361108779907e-01" purity="2.2832573950290680e-01" nType="-99"/>
        </Node>
        <Node pos="r" depth="1" NCoef="0" IVar="5" Cut="2.3069651126861572e+00" cType="1" res="1.6841256618499756e-01" rms="4.7078362107276917e-01" purity="6.6841256618499756e-01" nType="0">
          <Node pos="l" depth="2" NCoef="0" IVar="-1" Cut="0.0000000000000000e+00" cType="1" res="5.1395520567893982e-02" rms="4.2890849709510803e-01" purity="7.5697761774063110e-01" nType="-99"/>
          <Node pos="r" depth="2" NCoef="0" IVar="-1" Cut="0.0000000000000000e+00" cType="1" res="1.6606030985713005e-02" rms="4.9305778741836548e-01" purity="5.8303016424179077e-01" nType="-99"/>
        </Node>
      </Node>
    </BinaryTree>
    <BinaryTree type="DecisionTree" boostWeight="1.0000000000000000e+00" itree="1">
      <Node pos="s" depth="0" NCoef="0" IVar="10" Cut="3.0000000000000000e+00" cType="1" res="-2.1530377853196114e-04" rms="4.9180772900581360e-01" purity="5.0103652477264404e-01" nType="0">
        <Node pos="l" depth="1" NCoef="0" IVar="5" Cut="1.7773220539093018e+00" cType="1" res="-2.0145590603351593e-01" rms="4.4524267315864563e-01" purity="2.7660650014877319e-01" nType="0">
          <Node pos="l" depth="2" NCoef="0" IVar="-1" Cut="0.0000000000000000e+00" cType="1" res="1.6008658334612846e-02" rms="4.9390366673469543e-01" purity="5.7784056663513184e-01" nType="-99"/>
          <Node pos="r" depth="2" NCoef="0" IVar="-1" Cut="0.0000000000000000e+00" cType="1" res="-4.8825763165950775e-02" rms="4.2169421911239624e-01" purity="2.3164221644401550e-01" nType="-99"/>
        </Node>
        <Node pos="r" depth="1" NCoef="0" IVar="14" Cut="1.0414682769775391e+02" cType="1" res="1.3086445629596710e-01" rms="4.7669899463653564e-01" purity="6.4818078279495239e-01" nType="0">
          <Node pos="l" depth="2" NCoef="0" IVar="-1" Cut="0.0000000000000000e+00" cType="1" res="3.4739494323730469e-02" rms="4.6148860454559326e-01" purity="6.9090944528579712e-01" nType="-99"/>
          <Node pos="r" depth="2" NCoef="0" IVar="-1" Cut="0.0000000000000000e+00" cType="1" res="-7.5401701033115387e-03" rms="4.9815890192985535e-01" purity="4.7903513908386230e-01" nType="-99"/>
        </Node>
      </Node>
    </BinaryTree>
    <BinaryTree type="DecisionTree" boostWeight="1.0000000000000000e+00" itree="2">
      <Node pos="s" depth="0" NCoef="0" IVar="10" Cut="3.0000000000000000e+00" cType="1" res="1.8689744174480438e-02" rms="4.8440563678741455e-01" purity="5.2049618959426880e-01" nType="0">
        <Node pos="l" depth="1" NCoef="0" IVar="9" Cut="3.0000000000000000e+00" cType="1" res="-1.6733150184154510e-01" rms="4.4818758964538574e-01" purity="2.9095891118049622e-01" nType="0">
          <Node pos="l" depth="2" NCoef="0" IVar="-1" Cut="0.0000000000000000e+00" cType="1" res="-4.9306195229291916e-02" rms="4.0435633063316345e-01" purity="2.1244627237319946e-01" nType="-99"/>
          <Node pos="r" depth="2" NCoef="0" IVar="-1" Cut="0.0000000000000000e+00" cType="1" res="-1.2591991573572159e-02" rms="4.8537105321884155e-01" purity="3.9818572998046875e-01" nType="-99"/>
        </Node>
        <Node pos="r" depth="1" NCoef="0" IVar="14" Cut="1.3508013916015625e+02" cType="1" res="1.3944643735885620e-01" rms="4.6801015734672546e-01" purity="6.6999030113220215e-01" nType="0">
          <Node pos="l" depth="2" NCoef="0" IVar="-1" Cut="0.0000000000000000e+00" cType="1" res="3.3392943441867828e-02" rms="4.5775020122528076e-01" purity="6.9857531785964966e-01" nType="-99"/>
          <Node pos="r" depth="2" NCoef="0" IVar="-1" Cut="0.0000000000000000e+00" cType="1" res="-2.3625299334526062e-02" rms="4.8715719580650330e-01" purity="3.9474579691886902e-01" nType="-99"/>
        </Node>
      </Node>
    </BinaryTree>
    <BinaryTree type="DecisionTree" boostWeight="1.0000000000000000e+00" itree="3">
      <Node pos="s" depth="0" NCoef="0" IVar="10" Cut="3.0000000000000000e+00" cType="1" res="-1.6845595091581345e-02" rms="4.7842279076576233e-01" purity="4.8500299453735352e-01" nType="0">
        <Node pos="l" depth="1" NCoef="0" IVar="10" Cut="2.0000000000000000e+00" cType="1" res="-1.8333739042282104e-01" rms="3.9053377509117126e-01" purity="2.5268360972404480e-01" nType="0">
          <Node pos="l" depth="2" NCoef="0" IVar="-1" Cut="0.0000000000000000e+00" cType="1" res="-6.0924358665943146e-02" rms="3.4082025289535522e-01" purity="1.3706670701503754e-01" nType="-99"/>
          <Node pos="r" depth="2" NCoef="0" IVar="-1" Cut="0.0000000000000000e+00" cType="1" res="-2.2287843748927116e-02" rms="4.6698743104934692e-01" purity="3.3583322167396545e-01" nType="-99"/>
        </Node>
        <Node pos="r" depth="1" NCoef="0" IVar="3" Cut="1.1426544189453125e+00" cType="1" res="1.0300309211015701e-01" rms="4.7496592998504639e-01" purity="6.4788609743118286e-01" nType="0">
          <Node pos="l" depth="2" NCoef="0" IVar="-1" Cut="0.0000000000000000e+00" cType="1" res="2.8873501345515251e-02" rms="4.6058851480484009e-01" purity="6.8858766555786133e-01" nType="-99"/>
          <Node pos="r" depth="2" NCoef="0" IVar="-1" Cut="0.0000000000000000e+00" cType="1" res="-1.9507224205881357e-03" rms="4.9627447128295898e-01" purity="5.3321194648742676e-01" nType="-99"/>
        </Node>
      </Node>
    </BinaryTree>
    <BinaryTree type="DecisionTree" boostWeight="1.0000000000000000e+00" itree="4">
      <Node pos="s" depth="0" NCoef="0" IVar="9" Cut="4.0000000000000000e+00" cType="1" res="1.5625296509824693e-04" rms="4.7369605302810669e-01" purity="5.0160902738571167e-01" nType="0">
        <Node pos="l" depth="1" NCoef="0" IVar="5" Cut="1.7982534170150757e+00" cType="1" res="-1.3639597594738007e-01" rms="4.4497936964035034e-01" purity="3.1492522358894348e-01" nType="0">
          <Node pos="l" depth="2" NCoef="0" IVar="-1" Cut="0.0000000000000000e+00" cType="1" res="1.4828922227025032e-02" rms="4.8415362834930420e-01" purity="5.7640141248703003e-01" nType="-99"/>
          <Node pos="r" depth="2" NCoef="0" IVar="-1" Cut="0.0000000000000000e+00" cType="1" res="-3.6246161907911301e-02" rms="4.2560461163520813e-01" purity="2.6527875661849976e-01" nType="-99"/>
        </Node>
        <Node pos="r" depth="1" NCoef="0" IVar="5" Cut="1.7453954219818115e+00" cType="1" res="1.1655960977077484e-01" rms="4.6629923582077026e-01" purity="6.6073608398437500e-01" nType="0">
          <Node pos="l" depth="2" NCoef="0" IVar="-1" Cut="0.0000000000000000e+00" cType="1" res="5.3324531763792038e-02" rms="3.8376381993293762e-01" purity="8.2411110401153564e-01" nType="-99"/>
          <Node pos="r" depth="2" NCoef="0" IVar="-1" Cut="0.0000000000000000e+00" cType="1" res="1.4257019385695457e-02" rms="4.8049277067184448e-01" purity="6.0881996154785156e-01" nType="-99"/>
        </Node>
      </Node>
    </BinaryTree>
    <BinaryTree type="DecisionTree" boostWeight="1.0000000000000000e+00" itree="5">
      <Node pos="s" depth="0" NCoef="0" IVar="9" Cut="4.0000000000000000e+00" cType="1" res="4.8046619631350040e-03" rms="4.7236135601997375e-01" purity="5.0960874557495117e-01" nType="0">
        <Node pos="l" depth="1" NCoef="0" IVar="5" Cut="1.7611222267150879e+00" cType="1" res="-1.1791779100894928e-01" rms="4.5071884989738464e-01" purity="3.2526022195816040e-01" nType="0">
          <Node pos="l" depth="2" NCoef="0" IVar="-1" Cut="0.0000000000000000e+00" cType="1" res="1.8772421404719353e-02" rms="4.7991606593132019e-01" purity="6.0662978887557983e-01" nType="-99"/>
          <Node pos="r" depth="2" NCoef="0" IVar="-1" Cut="0.0000000000000000e+00" cType="1" res="-3.1926345080137253e-02" rms="4.3537083268165588e-01" purity="2.7700525522232056e-01" nType="-99"/>
        </Node>
        <Node pos="r" depth="1" NCoef="0" IVar="14" Cut="1.1755039978027344e+02" cType="1" res="1.0799721628427505e-01" rms="4.6580532193183899e-01" purity="6.6543614864349365e-01" nType="0">
          <Node pos="l" depth="2" NCoef="0" IVar="-1" Cut="0.0000000000000000e+00" cType="1" res="2.8009636327624321e-02" rms="4.5523697137832642e-01" purity="6.9990265369415283e-01" nType="-99"/>
          <Node pos="r" depth="2" NCoef="0" IVar="-1" Cut="0.0000000000000000e+00" cType="1" res="-1.5624818392097950e-02" rms="4.8943203687667847e-01" purity="4.4463261961936951e-01" nType="-99"/>
        </Node>
      </Node>
    </BinaryTree>
    <BinaryTree type="DecisionTree" boostWeight="1.0000000000000000e+00" itree="6">
      <Node pos="s" depth="0" NCoef="0" IVar="9" Cut="4.0000000000000000e+00" cType="1" res="-1.1184774339199066e-02" rms="4.6663454174995422e-01" purity="4.9111846089363098e-01" nType="0">
        <Node pos="l" depth="1" NCoef="0" IVar="5" Cut="2.4520423412322998e+00" cType="1" res="-1.3129828870296478e-01" rms="4.4049397110939026e-01" purity="2.9984727501869202e-01" nType="0">
          <Node pos="l" depth="2" NCoef="0" IVar="-1" Cut="0.0000000000000000e+00" cType="1" res="-9.5028793439269066e-03" rms="4.7910791635513306e-01" purity="4.1791883111000061e-01" nType="-99"/>
          <Node pos="r" depth="2" NCoef="0" IVar="-1" Cut="0.0000000000000000e+00" cType="1" res="-4.0778595954179764e-02" rms="3.9808154106140137e-01" purity="2.1252219378948212e-01" nType="-99"/>
        </Node>
        <Node pos="r" depth="1" NCoef="0" IVar="3" Cut="9.1394764184951782e-01" cType="1" res="9.6583306789398193e-02" rms="4.6310803294181824e-01" purity="6.6265022754669189e-01" nType="0">
          <Node pos="l" depth="2" NCoef="0" IVar="-1" Cut="0.0000000000000000e+00" cType="1" res="3.1096966937184334e-02" rms="4.3922191858291626e-01" purity="7.2260987758636475e-01" nType="-99"/>
          <Node pos="r" depth="2" NCoef="0" IVar="-1" Cut="0.0000000000000000e+00" cType="1" res="7.3271745350211859e-04" rms="4.8748007416725159e-01" purity="5.6007498502731323e-01" nType="-99"/>
        </Node>
      </Node>
    </BinaryTree>
    <BinaryTree type="DecisionTree" boostWeight="1.0000000000000000e+00" itree="7">
      <Node pos="s" depth="0" NCoef="0" IVar="10" Cut="4.0000000000000000e+00" cType="1" res="4.6945754438638687e-03" rms="4.6288651227951050e-01" purity="5.0808304548263550e-01" nType="0">
        <Node pos="l" depth="1" NCoef="0" IVar="5" Cut="2.4609153270721436e+00" cType="1" res="-6.7762479186058044e-02" rms="4.6050614118576050e-01" purity="3.9283251762390137e-01" nType="0">
          <Node pos="l" depth="2" NCoef="0" IVar="-1" Cut="0.0000000000000000e+00" cType="1" res="6.3110836781561375e-03" rms="4.7717669606208801e-01" purity="5.2855396270751953e-01" nType="-99"/>
          <Node pos="r" depth="2" NCoef="0" IVar="-1" Cut="0.0000000000000000e+00" cType="1" res="-3.0931631103157997e-02" rms="4.3065473437309265e-01" purity="2.8371822834014893e-01" nType="-99"/>
        </Node>
        <Node pos="r" depth="1" NCoef="0" IVar="5" Cut="1.5448533296585083e+00" cType="1" res="1.5013818442821503e-01" rms="4.3305176496505737e-01" purity="7.4035662412643433e-01" nType="0">
          <Node pos="l" depth="2" NCoef="0" IVar="-1" Cut="0.0000000000000000e+00" cType="1" res="5.4962113499641418e-02" rms="3.3349514007568359e-01" purity="8.7464094161987305e-01" nType="-99"/>
          <Node pos="r" depth="2" NCoef="0" IVar="-1" Cut="0.0000000000000000e+00" cType="1" res="2.5386242195963860e-02" rms="4.5026516914367676e-01" purity="7.0705646276473999e-01" nType="-99"/>
        </Node>
      </Node>
    </BinaryTree>
    <BinaryTree type="DecisionTree" boostWeight="1.0000000000000000e+00" itree="8">
      <Node pos="s" depth="0" NCoef="0" IVar="11" Cut="3.0000000000000000e+00" cType="1" res="-1.4744776301085949e-02" rms="4.5759376883506775e-01" purity="4.8401737213134766e-01" nType="0">
        <Node pos="l" depth="1" NCoef="0" IVar="9" Cut="3.0000000000000000e+00" cType="1" res="-1.0435789823532104e-01" rms="4.3948727846145630e-01" purity="3.2469481229782104e-01" nType="0">
          <Node pos="l" depth="2" NCoef="0" IVar="-1" Cut="0.0000000000000000e+00" cType="1" res="-3.9905801415443420e-02" rms="3.7600168585777283e-01" purity="1.8175320327281952e-01" nType="-99"/>
          <Node pos="r" depth="2" NCoef="0" IVar="-1" Cut="0.0000000000000000e+00" cType="1" res="-8.6119696497917175e-03" rms="4.7479447722434998e-01" purity="4.3796139955520630e-01" nType="-99"/>
        </Node>
        <Node pos="r" depth="1" NCoef="0" IVar="2" Cut="1.0000000000000000e+00" cType="1" res="6.5089404582977295e-02" rms="4.0453505516052246e-01" purity="6.8852043151855469e-01" nType="0">
          <Node pos="l" depth="2" NCoef="0" IVar="-1" Cut="0.0000000000000000e+00" cType="1" res="1.0182588361203671e-02" rms="4.7105684876441956e-01" purity="6.3491559028625488e-01" nType="-99"/>
          <Node pos="r" depth="2" NCoef="0" IVar="-1" Cut="0.0000000000000000e+00" cType="1" res="3.5303495824337006e-02" rms="4.2160409688949585e-01" purity="7.6045447587966919e-01" nType="-99"/>
        </Node>
      </Node>
    </BinaryTree>
    <BinaryTree type="DecisionTree" boostWeight="1.0000000000000000e+00" itree="9">
      <Node pos="s" depth="0" NCoef="0" IVar="9" Cut="3.0000000000000000e+00" cType="1" res="5.0123035907745361e-03" rms="4.5913144946098328e-01" purity="5.0951629877090454e-01" nType="0">
        <Node pos="l" depth="1" NCoef="0" IVar="0" Cut="9.8682708740234375e+01" cType="1" res="-1.4402003586292267e-01" rms="3.9331066608428955e-01" purity="2.0402197539806366e-01" nType="0">
          <Node pos="l" depth="2" NCoef="0" IVar="-1" Cut="0.0000000000000000e+00" cType="1" res="-4.1418731212615967e-02" rms="3.5104787349700928e-01" purity="1.4597494900226593e-01" nType="-99"/>
          <Node pos="r" depth="2" NCoef="0" IVar="-1" Cut="0.0000000000000000e+00" cType="1" res="-6.4049977809190750e-03" rms="4.7982704639434814e-01" purity="3.7525010108947754e-01" nType="-99"/>
        </Node>
        <Node pos="r" depth="1" NCoef="0" IVar="5" Cut="2.5452568531036377e+00" cType="1" res="5.0314135849475861e-02" rms="4.6803346276283264e-01" purity="6.0234934091567993e-01" nType="0">
          <Node pos="l" depth="2" NCoef="0" IVar="-1" Cut="0.0000000000000000e+00" cType="1" res="2.2450264543294907e-02" rms="4.4982653856277466e-01" purity="6.8339043855667114e-01" nType="-99"/>
          <Node pos="r" depth="2" NCoef="0" IVar="-1" Cut="0.0000000000000000e+00" cType="1" res="-5.7635200209915638e-03" rms="4.8122560977935791e-01" purity="4.9049690365791321e-01" nType="-99"/>
        </Node>
      </Node>
    </BinaryTree>
    <BinaryTree type="DecisionTree" boostWeight="1.0000000000000000e+00" itree="10">
      <Node pos="s" depth="0" NCoef="0" IVar="9" Cut="5.0000000000000000e+00" cType="1" res="-7.9908315092325211e-03" rms="4.5754432678222656e-01" purity="4.9550700187683105e-01" nType="0">
        <Node pos="l" depth="1" NCoef="0" IVar="11" Cut="2.0000000000000000e+00" cType="1" res="-5.8332819491624832e-02" rms="4.5014673471450806e-01" purity="4.0210583806037903e-01" nType="0">
          <Node pos="l" depth="2" NCoef="0" IVar="-1" Cut="0.0000000000000000e+00" cType="1" res="-3.2820351421833038e-02" rms="4.0057930350303650e-01" purity="2.2039090096950531e-01" nType="-99"/>
          <Node pos="r" depth="2" NCoef="0" IVar="-1" Cut="0.0000000000000000e+00" cType="1" res="-2.6141181588172913e-03" rms="4.7315707802772522e-01" purity="4.9146226048469543e-01" nType="-99"/>
        </Node>
        <Node pos="r" depth="1" NCoef="0" IVar="3" Cut="3.4272208809852600e-01" cType="1" res="1.0916459560394287e-01" rms="4.4264566898345947e-01" purity="7.1902626752853394e-01" nType="0">
          <Node pos="l" depth="2" NCoef="0" IVar="-1" Cut="0.0000000000000000e+00" cType="1" res="4.9718126654624939e-02" rms="3.5392731428146362e-01" purity="8.5600781440734863e-01" nType="-99"/>
          <Node pos="r" depth="2" NCoef="0" IVar="-1" Cut="0.0000000000000000e+00" cType="1" res="1.4636440202593803e-02" rms="4.6114033460617065e-01" purity="6.7411613464355469e-01" nType="-99"/>
        </Node>
      </Node>
    </BinaryTree>
    <BinaryTree type="DecisionTree" boostWeight="1.0000000000000000e+00" itree="11">
      <Node pos="s" depth="0" NCoef="0" IVar="9" Cut="4.0000000000000000e+00" cType="1" res="-1.4900276437401772e-03" rms="4.5410591363906860e-01" purity="5.0213962793350220e-01" nType="0">
        <Node pos="l" depth="1" NCoef="0" IVar="7" Cut="4.4171550750732422e+01" cType="1" res="-7.9612001776695251e-02" rms="4.3753668665885925e-01" purity="3.1208786368370056e-01" nType="0">
          <Node pos="l" depth="2" NCoef="0" IVar="-1" Cut="0.0000000000000000e+00" cType="1" res="-2.9735775664448738e-02" rms="4.0053173899650574e-01" purity="2.4131974577903748e-01" nType="-99"/>
          <Node pos="r" depth="2" NCoef="0" IVar="-1" Cut="0.0000000000000000e+00" cType="1" res="-2.3795734159648418e-03" rms="4.7081047296524048e-01" purity="4.0036755800247192e-01" nType="-99"/>
        </Node>
        <Node pos="r" depth="1" NCoef="0" IVar="3" Cut="1.5997174978256226e+00" cType="1" res="6.4588010311126709e-02" rms="4.5809188485145569e-01" purity="6.6498267650604248e-01" nType="0">
          <Node pos="l" depth="2" NCoef="0" IVar="-1" Cut="0.0000000000000000e+00" cType="1" res="1.8407758325338364e-02" rms="4.4953155517578125e-01" purity="6.9140052795410156e-01" nType="-99"/>
          <Node pos="r" depth="2" NCoef="0" IVar="-1" Cut="0.0000000000000000e+00" cType="1" res="-2.2793594747781754e-02" rms="4.8742446303367615e-01" purity="4.5392140746116638e-01" nType="-99"/>
        </Node>
      </Node>
    </BinaryTree>
    <BinaryTree type="DecisionTree" boostWeight="1.0000000000000000e+00" itree="12">
      <Node pos="s" depth="0" NCoef="0" IVar="10" Cut="3.0000000000000000e+00" cType="1" res="1.8982715904712677e-02" rms="4.4610774517059326e-01" purity="5.1842713356018066e-01" nType="0">
        <Node pos="l" depth="1" NCoef="0" IVar="1" Cut="1.2193984222412109e+02" cType="1" res="-8.5902817547321320e-02" rms="4.2451578378677368e-01" purity="2.7005359530448914e-01" nType="0">
          <Node pos="l" depth="2" NCoef="0" IVar="-1" Cut="0.0000000000000000e+00" cType="1" res="-2.9095549136400223e-02" rms="3.9717859029769897e-01" purity="2.1662825345993042e-01" nType="-99"/>
          <Node pos="r" depth="2" NCoef="0" IVar="-1" Cut="0.0000000000000000e+00" cType="1" res="8.7310662493109703e-03" rms="4.7433972358703613e-01" purity="4.2737582325935364e-01" nType="-99"/>
        </Node>
        <Node pos="r" depth="1" NCoef="0" IVar="4" Cut="1.7141598463058472e+00" cType="1" res="9.3314595520496368e-02" rms="4.4657805562019348e-01" purity="6.9556713104248047e-01" nType="0">
          <Node pos="l" depth="2" NCoef="0" IVar="-1" Cut="0.0000000000000000e+00" cType="1" res="2.5219799950718880e-02" rms="4.3516850471496582e-01" purity="7.2349661588668823e-01" nType="-99"/>
          <Node pos="r" depth="2" NCoef="0" IVar="-1" Cut="0.0000000000000000e+00" cType="1" res="-1.5981085598468781e-02" rms="4.8388832807540894e-01" purity="5.0749576091766357e-01" nType="-99"/>
        </Node>
      </Node>
    </BinaryTree>
    <BinaryTree type="DecisionTree" boostWeight="1.0000000000000000e+00" itree="13">
      <Node pos="s" depth="0" NCoef="0" IVar="5" Cut="1.8630776405334473e+00" cType="1" res="-4.9117195885628462e-04" rms="4.5125183463096619e-01" purity="5.0645405054092407e-01" nType="0">
        <Node pos="l" depth="1" NCoef="0" IVar="17" Cut="8.3712181091308594e+01" cType="1" res="1.2056882679462433e-01" rms="4.2911475896835327e-01" purity="7.2664111852645874e-01" nType="0">
          <Node pos="l" depth="2" NCoef="0" IVar="-1" Cut="0.0000000000000000e+00" cType="1" res="6.6085313446819782e-03" rms="4.6089515089988708e-01" purity="6.3922196626663208e-01" nType="-99"/>
          <Node pos="r" depth="2" NCoef="0" IVar="-1" Cut="0.0000000000000000e+00" cType="1" res="3.7739861756563187e-02" rms="4.0020501613616943e-01" purity="7.7754807472229004e-01" nType="-99"/>
        </Node>
        <Node pos="r" depth="1" NCoef="0" IVar="9" Cut="5.0000000000000000e+00" cType="1" res="-3.9350066334009171e-02" rms="4.5122563838958740e-01" purity="4.3583691120147705e-01" nType="0">
          <Node pos="l" depth="2" NCoef="0" IVar="-1" Cut="0.0000000000000000e+00" cType="1" res="-1.7817968502640724e-02" rms="4.4298329949378967e-01" purity="3.4260216355323792e-01" nType="-99"/>
          <Node pos="r" depth="2" NCoef="0" IVar="-1" Cut="0.0000000000000000e+00" cType="1" res="1.6445932909846306e-02" rms="4.5411098003387451e-01" purity="6.9681435823440552e-01" nType="-99"/>
        </Node>
      </Node>
    </BinaryTree>
    <BinaryTree type="DecisionTree" boostWeight="1.0000000000000000e+00" itree="14">
      <Node pos="s" depth="0" NCoef="0" IVar="10" Cut="3.0000000000000000e+00" cType="1" res="-1.9052250718232244e-04" rms="4.4533920288085938e-01" purity="5.0186103582382202e-01" nType="0">
        <Node pos="l" depth="1" NCoef="0" IVar="6" Cut="2.1665234565734863e+00" cType="1" res="-7.8407190740108490e-02" rms="4.1787198185920715e-01" purity="2.6416561007499695e-01" nType="0">
          <Node pos="l" depth="2" NCoef="0" IVar="-1" Cut="0.0000000000000000e+00" cType="1" res="7.5861900113523006e-03" rms="4.7076597809791565e-01" purity="4.3208095431327820e-01" nType="-99"/>
          <Node pos="r" depth="2" NCoef="0" IVar="-1" Cut="0.0000000000000000e+00" cType="1" res="-2.6720127090811729e-02" rms="3.9258274435997009e-01" purity="2.1039988100528717e-01" nType="-99"/>
        </Node>
        <Node pos="r" depth="1" NCoef="0" IVar="14" Cut="1.2692858886718750e+02" cType="1" res="5.5261999368667603e-02" rms="4.5579126477241516e-01" purity="6.7025607824325562e-01" nType="0">
          <Node pos="l" depth="2" NCoef="0" IVar="-1" Cut="0.0000000000000000e+00" cType="1" res="1.6660675406455994e-02" rms="4.4735127687454224e-01" purity="6.9851237535476685e-01" nType="-99"/>
          <Node pos="r" depth="2" NCoef="0" IVar="-1" Cut="0.0000000000000000e+00" cType="1" res="-2.5670560076832771e-02" rms="4.8472025990486145e-01" purity="4.3491140007972717e-01" nType="-99"/>
        </Node>
      </Node>
    </BinaryTree>
    <BinaryTree type="DecisionTree" boostWeight="1.0000000000000000e+00" itree="15">
      <Node pos="s" depth="0" NCoef="0" IVar="11" Cut="3.0000000000000000e+00" cType="1" res="-1.0621266439557076e-02" rms="4.4644305109977722e-01" purity="4.9117943644523621e-01" nType="0">
        <Node pos="l" depth="1" NCoef="0" IVar="1" Cut="9.7643638610839844e+01" cType="1" res="-6.2161542475223541e-02" rms="4.3504482507705688e-01" purity="3.3440911769866943e-01" nType="0">
          <Node pos="l" depth="2" NCoef="0" IVar="-1" Cut="0.0000000000000000e+00" cType="1" res="-2.5577312335371971e-02" rms="4.0981340408325195e-01" purity="2.6258316636085510e-01" nType="-99"/>
          <Node pos="r" depth="2" NCoef="0" IVar="-1" Cut="0.0000000000000000e+00" cType="1" res="8.3142012590542436e-04" rms="4.5876818895339966e-01" purity="4.3136188387870789e-01" nType="-99"/>
        </Node>
        <Node pos="r" depth="1" NCoef="0" IVar="4" Cut="1.5999871492385864e+00" cType="1" res="5.2100475877523422e-02" rms="4.5322284102439880e-01" purity="6.8557995557785034e-01" nType="0">
          <Node pos="l" depth="2" NCoef="0" IVar="-1" Cut="0.0000000000000000e+00" cType="1" res="1.6935398802161217e-02" rms="4.4236233830451965e-01" purity="7.1542251110076904e-01" nType="-99"/>
          <Node pos="r" depth="2" NCoef="0" IVar="-1" Cut="0.0000000000000000e+00" cType="1" res="-1.6835775226354599e-02" rms="4.8645764589309692e-01" purity="5.2725529670715332e-01" nType="-99"/>
        </Node>
      </Node>
    </BinaryTree>
    <BinaryTree type="DecisionTree" boostWeight="1.0000000000000000e+00" itree="16">
      <Node pos="s" depth="0" NCoef="0" IVar="10" Cut="2.0000000000000000e+00" cType="1" res="7.6702074147760868e-04" rms="4.4652909040451050e-01" purity="5.0636613368988037e-01" nType="0">
        <Node pos="l" depth="1" NCoef="0" IVar="-1" Cut="0.0000000000000000e+00" cType="1" res="-3.0889574438333511e-02" rms="3.5893294215202332e-01" purity="1.6580912470817566e-01" nType="-99"/>
        <Node pos="r" depth="1" NCoef="0" IVar="3" Cut="1.4856719970703125e+00" cType="1" res="2.3266445845365524e-02" rms="4.5796379446983337e-01" purity="5.6983083486557007e-01" nType="0">
          <Node pos="l" depth="2" NCoef="0" IVar="-1" Cut="0.0000000000000000e+00" cType="1" res="1.0004906915128231e-02" rms="4.5455437898635864e-01" purity="6.0233289003372192e-01" nType="-99"/>
          <Node pos="r" depth="2" NCoef="0" IVar="-1" Cut="0.0000000000000000e+00" cType="1" res="-2.0776014775037766e-02" rms="4.5795428752899170e-01" purity="3.9422491192817688e-01" nType="-99"/>
        </Node>
      </Node>
    </BinaryTree>
    <BinaryTree type="DecisionTree" boostWeight="1.0000000000000000e+00" itree="17">
      <Node pos="s" depth="0" NCoef="0" IVar="9" Cut="5.0000000000000000e+00" cType="1" res="-7.2769825346767902e-03" rms="4.4395127892494202e-01" purity="4.9616479873657227e-01" nType="0">
        <Node pos="l" depth="1" NCoef="0" IVar="5" Cut="1.7538263797760010e+00" cType="1" res="-4.9336280673742294e-02" rms="4.4581186771392822e-01" purity="3.9301851391792297e-01" nType="0">
          <Node pos="l" depth="2" NCoef="0" IVar="-1" Cut="0.0000000000000000e+00" cType="1" res="1.4032487757503986e-02" rms="4.5205673575401306e-01" purity="6.4548933506011963e-01" nType="-99"/>
          <Node pos="r" depth="2" NCoef="0" IVar="-1" Cut="0.0000000000000000e+00" cType="1" res="-1.6536304727196693e-02" rms="4.4078898429870605e-01" purity="3.4082019329071045e-01" nType="-99"/>
        </Node>
        <Node pos="r" depth="1" NCoef="0" IVar="16" Cut="1.1951509094238281e+02" cType="1" res="9.9681057035923004e-02" rms="4.2064541578292847e-01" purity="7.5835347175598145e-01" nType="0">
          <Node pos="l" depth="2" NCoef="0" IVar="-1" Cut="0.0000000000000000e+00" cType="1" res="1.3524426147341728e-02" rms="4.4542089104652405e-01" purity="7.1342903375625610e-01" nType="-99"/>
          <Node pos="r" depth="2" NCoef="0" IVar="-1" Cut="0.0000000000000000e+00" cType="1" res="4.4581435620784760e-02" rms="3.3698451519012451e-01" purity="8.6512696743011475e-01" nType="-99"/>
        </Node>
      </Node>
    </BinaryTree>
    <BinaryTree type="DecisionTree" boostWeight="1.0000000000000000e+00" itree="18">
      <Node pos="s" depth="0" NCoef="0" IVar="11" Cut="2.0000000000000000e+00" cType="1" res="-8.5559599101543427e-03" rms="4.3776142597198486e-01" purity="4.8626470565795898e-01" nType="0">
        <Node pos="l" depth="1" NCoef="0" IVar="3" Cut="6.8571913242340088e-01" cType="1" res="-1.0835378617048264e-01" rms="3.7758135795593262e-01" purity="2.0404170453548431e-01" nType="0">
          <Node pos="l" depth="2" NCoef="0" IVar="-1" Cut="0.0000000000000000e+00" cType="1" res="-1.3078789226710796e-02" rms="4.2367404699325562e-01" purity="2.8091266751289368e-01" nType="-99"/>
          <Node pos="r" depth="2" NCoef="0" IVar="-1" Cut="0.0000000000000000e+00" cType="1" res="-3.4833043813705444e-02" rms="3.4525647759437561e-01" purity="1.6078427433967590e-01" nType="-99"/>
        </Node>
        <Node pos="r" depth="1" NCoef="0" IVar="3" Cut="1.7140779495239258e+00" cType="1" res="2.8702707961201668e-02" rms="4.5311778783798218e-01" purity="5.9275627136230469e-01" nType="0">
          <Node pos="l" depth="2" NCoef="0" IVar="-1" Cut="0.0000000000000000e+00" cType="1" res="1.0701968334615231e-02" rms="4.4938972592353821e-01" purity="6.2049669027328491e-01" nType="-99"/>
          <Node pos="r" depth="2" NCoef="0" IVar="-1" Cut="0.0000000000000000e+00" cType="1" res="-3.1947847455739975e-02" rms="4.4869345426559448e-01" purity="3.3941715955734253e-01" nType="-99"/>
        </Node>
      </Node>
    </BinaryTree>
    <BinaryTree type="DecisionTree" boostWeight="1.0000000000000000e+00" itree="19">
      <Node pos="s" depth="0" NCoef="0" IVar="1" Cut="1.3433656311035156e+02" cType="1" res="-6.2643056735396385e-03" rms="4.4237300753593445e-01" purity="4.9641442298889160e-01" nType="0">
        <Node pos="l" depth="1" NCoef="0" IVar="1" Cut="1.0520781707763672e+02" cType="1" res="-3.4385975450277328e-02" rms="4.4270834326744080e-01" purity="4.5229226350784302e-01" nType="0">
          <Node pos="l" depth="2" NCoef="0" IVar="-1" Cut="0.0000000000000000e+00" cType="1" res="-1.3721687719225883e-02" rms="4.4000840187072754e-01" purity="4.1741928458213806e-01" nType="-99"/>
          <Node pos="r" depth="2" NCoef="0" IVar="-1" Cut="0.0000000000000000e+00" cType="1" res="1.7403272911906242e-02" rms="4.3751147389411926e-01" purity="6.0867142677307129e-01" nType="-99"/>
        </Node>
        <Node pos="r" depth="1" NCoef="0" IVar="9" Cut="5.0000000000000000e+00" cType="1" res="7.0649422705173492e-02" rms="4.3143072724342346e-01" purity="6.1563497781753540e-01" nType="0">
          <Node pos="l" depth="2" NCoef="0" IVar="-1" Cut="0.0000000000000000e+00" cType="1" res="4.3690548045560718e-04" rms="4.6385994553565979e-01" purity="4.9068436026573181e-01" nType="-99"/>
          <Node pos="r" depth="2" NCoef="0" IVar="-1" Cut="0.0000000000000000e+00" cType="1" res="5.5137678980827332e-02" rms="2.8308668732643127e-01" purity="9.1953647136688232e-01" nType="-99"/>
        </Node>
      </Node>
    </BinaryTree>
    <BinaryTree type="DecisionTree" boostWeight="1.0000000000000000e+00" itree="20">
      <Node pos="s" depth="0" NCoef="0" IVar="11" Cut="3.0000000000000000e+00" cType="1" res="-1.7101792618632317e-02" rms="4.4085049629211426e-01" purity="4.8264837265014648e-01" nType="0">
        <Node pos="l" depth="1" NCoef="0" IVar="17" Cut="1.2856399536132812e+02" cType="1" res="-5.9871975332498550e-02" rms="4.3054264783859253e-01" purity="3.2285815477371216e-01" nType="0">
          <Node pos="l" depth="2" NCoef="0" IVar="-1" Cut="0.0000000000000000e+00" cType="1" res="-2.0024636760354042e-02" rms="4.2342585325241089e-01" purity="2.9033994674682617e-01" nType="-99"/>
          <Node pos="r" depth="2" NCoef="0" IVar="-1" Cut="0.0000000000000000e+00" cType="1" res="6.9692814722657204e-03" rms="4.4276010990142822e-01" purity="4.3569314479827881e-01" nType="-99"/>
        </Node>
        <Node pos="r" depth="1" NCoef="0" IVar="3" Cut="6.8568426370620728e-01" cType="1" res="3.7441235035657883e-02" rms="4.4771224260330200e-01" purity="6.8598955869674683e-01" nType="0">
          <Node pos="l" depth="2" NCoef="0" IVar="-1" Cut="0.0000000000000000e+00" cType="1" res="2.1526148542761803e-02" rms="4.1213974356651306e-01" purity="7.6174455881118774e-01" nType="-99"/>
          <Node pos="r" depth="2" NCoef="0" IVar="-1" Cut="0.0000000000000000e+00" cType="1" res="-3.5084532573819160e-03" rms="4.7318872809410095e-01" purity="6.1343747377395630e-01" nType="-99"/>
        </Node>
      </Node>
    </BinaryTree>
    <BinaryTree type="DecisionTree" boostWeight="1.0000000000000000e+00" itree="21">
      <Node pos="s" depth="0" NCoef="0" IVar="9" Cut="3.0000000000000000e+00" cType="1" res="1.9412908004596829e-03" rms="4.3605098128318787e-01" purity="4.9882221221923828e-01" nType="0">
        <Node pos="l" depth="1" NCoef="0" IVar="3" Cut="9.1422086954116821e-01" cType="1" res="-9.3963958323001862e-02" rms="3.6531671881675720e-01" purity="1.7481663823127747e-01" nType="0">
          <Node pos="l" depth="2" NCoef="0" IVar="-1" Cut="0.0000000000000000e+00" cType="1" res="-1.7588349059224129e-02" rms="3.8878849148750305e-01" purity="2.0764908194541931e-01" nType="-99"/>
          <Node pos="r" depth="2" NCoef="0" IVar="-1" Cut="0.0000000000000000e+00" cType="1" res="-3.2546084374189377e-02" rms="3.3516344428062439e-01" purity="1.3853681087493896e-01" nType="-99"/>
        </Node>
        <Node pos="r" depth="1" NCoef="0" IVar="15" Cut="1.4344082641601562e+02" cType="1" res="3.5882394760847092e-02" rms="4.5366632938385010e-01" purity="6.1351335048675537e-01" nType="0">
          <Node pos="l" depth="2" NCoef="0" IVar="-1" Cut="0.0000000000000000e+00" cType="1" res="1.1938738636672497e-02" rms="4.4906422495841980e-01" purity="6.3698083162307739e-01" nType="-99"/>
          <Node pos="r" depth="2" NCoef="0" IVar="-1" Cut="0.0000000000000000e+00" cType="1" res="-3.3672865480184555e-02" rms="4.5941501855850220e-01" purity="3.5599938035011292e-01" nType="-99"/>
        </Node>
      </Node>
    </BinaryTree>
    <BinaryTree type="DecisionTree" boostWeight="1.0000000000000000e+00" itree="22">
      <Node pos="s" depth="0" NCoef="0" IVar="5" Cut="2.5445611476898193e+00" cType="1" res="9.6774252597242594e-05" rms="4.4209277629852295e-01" purity="5.0552785396575928e-01" nType="0">
        <Node pos="l" depth="1" NCoef="0" IVar="7" Cut="1.0602189636230469e+02" cType="1" res="4.8466358333826065e-02" rms="4.4777190685272217e-01" purity="6.2167686223983765e-01" nType="0">
          <Node pos="l" depth="2" NCoef="0" IVar="-1" Cut="0.0000000000000000e+00" cType="1" res="6.8432455882430077e-03" rms="4.5173576474189758e-01" purity="5.9697473049163818e-01" nType="-99"/>
          <Node pos="r" depth="2" NCoef="0" IVar="-1" Cut="0.0000000000000000e+00" cType="1" res="4.2825937271118164e-02" rms="3.9220455288887024e-01" purity="7.9942846298217773e-01" nType="-99"/>
        </Node>
        <Node pos="r" depth="1" NCoef="0" IVar="9" Cut="5.0000000000000000e+00" cType="1" res="-5.8443102985620499e-02" rms="4.2826226353645325e-01" purity="3.6959800124168396e-01" nType="0">
          <Node pos="l" depth="2" NCoef="0" IVar="-1" Cut="0.0000000000000000e+00" cType="1" res="-2.0141635090112686e-02" rms="4.1587430238723755e-01" purity="2.7854743599891663e-01" nType="-99"/>
          <Node pos="r" depth="2" NCoef="0" IVar="-1" Cut="0.0000000000000000e+00" cType="1" res="8.6048915982246399e-03" rms="4.5683863759040833e-01" purity="6.8455928564071655e-01" nType="-99"/>
        </Node>
      </Node>
    </BinaryTree>
    <BinaryTree type="DecisionTree" boostWeight="1.0000000000000000e+00" itree="23">
      <Node pos="s" depth="0" NCoef="0" IVar="14" Cut="1.2796959686279297e+02" cType="1" res="-3.5478585050441325e-04" rms="4.3795618414878845e-01" purity="5.0141197443008423e-01" nType="0">
        <Node pos="l" depth="1" NCoef="0" IVar="7" Cut="4.4688316345214844e+01" cType="1" res="1.5273212455213070e-02" rms="4.3396857380867004e-01" purity="5.2304673194885254e-01" nType="0">
          <Node pos="l" depth="2" NCoef="0" IVar="-1" Cut="0.0000000000000000e+00" cType="1" res="-9.0068951249122620e-03" rms="4.2770084738731384e-01" purity="4.3156263232231140e-01" nType="-99"/>
          <Node pos="r" depth="2" NCoef="0" IVar="-1" Cut="0.0000000000000000e+00" cType="1" res="1.8600581213831902e-02" rms="4.3281337618827820e-01" purity="6.3456261157989502e-01" nType="-99"/>
        </Node>
        <Node pos="r" depth="1" NCoef="0" IVar="-1" Cut="0.0000000000000000e+00" cType="1" res="-2.6270581409335136e-02" rms="4.4975075125694275e-01" purity="3.3738508820533752e-01" nType="-99"/>
      </Node>
    </BinaryTree>
    <BinaryTree type="DecisionTree" boostWeight="1.0000000000000000e+00" itree="24">
      <Node pos="s" depth="0" NCoef="0" IVar="14" Cut="1.1754637908935547e+02" cType="1" res="-1.2099576182663441e-02" rms="4.3178242444992065e-01" purity="4.8047187924385071e-01" nType="0">
        <Node pos="l" depth="1" NCoef="0" IVar="11" Cut="2.0000000000000000e+00" cType="1" res="1.4710597693920135e-02" rms="4.3228837847709656e-01" purity="5.2504348754882812e-01" nType="0">
          <Node pos="l" depth="2" NCoef="0" IVar="-1" Cut="0.0000000000000000e+00" cType="1" res="-1.8758792430162430e-02" rms="3.8977184891700745e-01" purity="2.2286896407604218e-01" nType="-99"/>
          <Node pos="r" depth="2" NCoef="0" IVar="-1" Cut="0.0000000000000000e+00" cType="1" res="1.0169478133320808e-02" rms="4.4236183166503906e-01" purity="6.2852895259857178e-01" nType="-99"/>
        </Node>
        <Node pos="r" depth="1" NCoef="0" IVar="6" Cut="2.1462094783782959e+00" cType="1" res="-1.3208645582199097e-01" rms="4.0720510482788086e-01" purity="2.7955612540245056e-01" nType="0">
          <Node pos="l" depth="2" NCoef="0" IVar="-1" Cut="0.0000000000000000e+00" cType="1" res="-7.3951752856373787e-03" rms="4.8658457398414612e-01" purity="4.8571294546127319e-01" nType="-99"/>
          <Node pos="r" depth="2" NCoef="0" IVar="-1" Cut="0.0000000000000000e+00" cType="1" res="-4.2016852647066116e-02" rms="3.6198264360427856e-01" purity="1.9475464522838593e-01" nType="-99"/>
        </Node>
      </Node>
    </BinaryTree>
    <BinaryTree type="DecisionTree" boostWeight="1.0000000000000000e+00" itree="25">
      <Node pos="s" depth="0" NCoef="0" IVar="11" Cut="3.0000000000000000e+00" cType="1" res="1.4617533423006535e-02" rms="4.2528167366981506e-01" purity="5.0690323114395142e-01" nType="0">
        <Node pos="l" depth="1" NCoef="0" IVar="7" Cut="5.8010448455810547e+01" cType="1" res="-2.9674455523490906e-02" rms="4.2166796326637268e-01" purity="3.3269423246383667e-01" nType="0">
          <Node pos="l" depth="2" NCoef="0" IVar="-1" Cut="0.0000000000000000e+00" cType="1" res="-1.7109740525484085e-02" rms="4.0235027670860291e-01" purity="2.7236035466194153e-01" nType="-99"/>
          <Node pos="r" depth="2" NCoef="0" IVar="-1" Cut="0.0000000000000000e+00" cType="1" res="1.4566471800208092e-02" rms="4.5065036416053772e-01" purity="4.7513550519943237e-01" nType="-99"/>
        </Node>
        <Node pos="r" depth="1" NCoef="0" IVar="2" Cut="1.0000000000000000e+00" cType="1" res="5.5327188223600388e-02" rms="3.7321382761001587e-01" purity="7.3684918880462646e-01" nType="0">
          <Node pos="l" depth="2" NCoef="0" IVar="-1" Cut="0.0000000000000000e+00" cType="1" res="6.5612639300525188e-03" rms="4.4818070530891418e-01" purity="6.8752717971801758e-01" nType="-99"/>
          <Node pos="r" depth="2" NCoef="0" IVar="-1" Cut="0.0000000000000000e+00" cType="1" res="2.9779201373457909e-02" rms="3.8567671179771423e-01" purity="8.0054700374603271e-01" nType="-99"/>
        </Node>
      </Node>
    </BinaryTree>
    <BinaryTree type="DecisionTree" boostWeight="1.0000000000000000e+00" itree="26">
      <Node pos="s" depth="0" NCoef="0" IVar="15" Cut="1.5487202453613281e+02" cType="1" res="6.7856474779546261e-03" rms="4.3221303820610046e-01" purity="5.0629389286041260e-01" nType="0">
        <Node pos="l" depth="1" NCoef="0" IVar="9" Cut="3.0000000000000000e+00" cType="1" res="2.4222679436206818e-02" rms="4.2629715800285339e-01" purity="5.2685320377349854e-01" nType="0">
          <Node pos="l" depth="2" NCoef="0" IVar="-1" Cut="0.0000000000000000e+00" cType="1" res="-1.6147954389452934e-02" rms="3.7170585989952087e-01" purity="1.8867702782154083e-01" nType="-99"/>
          <Node pos="r" depth="2" NCoef="0" IVar="-1" Cut="0.0000000000000000e+00" cType="1" res="1.1704456992447376e-02" rms="4.4022104144096375e-01" purity="6.4008867740631104e-01" nType="-99"/>
        </Node>
        <Node pos="r" depth="1" NCoef="0" IVar="-1" Cut="0.0000000000000000e+00" cType="1" res="-4.3397385627031326e-02" rms="4.4560471177101135e-01" purity="2.6229038834571838e-01" nType="-99"/>
      </Node>
    </BinaryTree>
    <BinaryTree type="DecisionTree" boostWeight="1.0000000000000000e+00" itree="27">
      <Node pos="s" depth="0" NCoef="0" IVar="1" Cut="9.7639495849609375e+01" cType="1" res="-7.9179927706718445e-03" rms="4.4081807136535645e-01" purity="5.0187915563583374e-01" nType="0">
        <Node pos="l" depth="1" NCoef="0" IVar="15" Cut="5.1625202178955078e+01" cType="1" res="-5.1309682428836823e-02" rms="4.3483167886734009e-01" purity="4.1737440228462219e-01" nType="0">
          <Node pos="l" depth="2" NCoef="0" IVar="-1" Cut="0.0000000000000000e+00" cType="1" res="-2.9297567903995514e-02" rms="4.3767336010932922e-01" purity="3.5592114925384521e-01" nType="-99"/>
          <Node pos="r" depth="2" NCoef="0" IVar="-1" Cut="0.0000000000000000e+00" cType="1" res="7.3611445259302855e-04" rms="4.2476525902748108e-01" purity="4.6597284078598022e-01" nType="-99"/>
        </Node>
        <Node pos="r" depth="1" NCoef="0" IVar="6" Cut="3.1104128360748291e+00" cType="1" res="4.4110316783189774e-02" rms="4.4231364130973816e-01" purity="6.0320359468460083e-01" nType="0">
          <Node pos="l" depth="2" NCoef="0" IVar="-1" Cut="0.0000000000000000e+00" cType="1" res="1.5510987490415573e-02" rms="4.3509301543235779e-01" purity="6.3674676418304443e-01" nType="-99"/>
          <Node pos="r" depth="2" NCoef="0" IVar="-1" Cut="0.0000000000000000e+00" cType="1" res="-1.4497702941298485e-02" rms="4.6154052019119263e-01" purity="4.4150871038436890e-01" nType="-99"/>
        </Node>
      </Node>
    </BinaryTree>
    <BinaryTree type="DecisionTree" boostWeight="1.0000000000000000e+00" itree="28">
      <Node pos="s" depth="0" NCoef="0" IVar="1" Cut="9.2493301391601562e+01" cType="1" res="4.3241219827905297e-04" rms="4.3733611702919006e-01" purity="5.1109957695007324e-01" nType="0">
        <Node pos="l" depth="1" NCoef="0" IVar="7" Cut="3.4639450073242188e+01" cType="1" res="-4.0436763316392899e-02" rms="4.3698310852050781e-01" purity="4.2928794026374817e-01" nType="0">
          <Node pos="l" depth="2" NCoef="0" IVar="-1" Cut="0.0000000000000000e+00" cType="1" res="-2.2002208977937698e-02" rms="4.2439177632331848e-01" purity="3.5965073108673096e-01" nType="-99"/>
          <Node pos="r" depth="2" NCoef="0" IVar="-1" Cut="0.0000000000000000e+00" cType="1" res="6.9538205862045288e-03" rms="4.4493949413299561e-01" purity="5.2811276912689209e-01" nType="-99"/>
        </Node>
        <Node pos="r" depth="1" NCoef="0" IVar="9" Cut="6.0000000000000000e+00" cType="1" res="4.4348753988742828e-02" rms="4.3234887719154358e-01" purity="5.9644740819931030e-01" nType="0">
          <Node pos="l" depth="2" NCoef="0" IVar="-1" Cut="0.0000000000000000e+00" cType="1" res="5.8111427351832390e-03" rms="4.4848188757896423e-01" purity="5.4931122064590454e-01" nType="-99"/>
          <Node pos="r" depth="2" NCoef="0" IVar="-1" Cut="0.0000000000000000e+00" cType="1" res="3.7939541041851044e-02" rms="3.1391564011573792e-01" purity="8.7096709012985229e-01" nType="-99"/>
        </Node>
      </Node>
    </BinaryTree>
    <BinaryTree type="DecisionTree" boostWeight="1.0000000000000000e+00" itree="29">
      <Node pos="s" depth="0" NCoef="0" IVar="7" Cut="5.8009750366210938e+01" cType="1" res="-3.8301744498312473e-03" rms="4.2957684397697449e-01" purity="4.9279218912124634e-01" nType="0">
        <Node pos="l" depth="1" NCoef="0" IVar="7" Cut="2.3723854064941406e+01" cType="1" res="-3.2426089048385620e-02" rms="4.2464283108711243e-01" purity="4.3368411064147949e-01" nType="0">
          <Node pos="l" depth="2" NCoef="0" IVar="-1" Cut="0.0000000000000000e+00" cType="1" res="-2.8289159759879112e-02" rms="3.9538615942001343e-01" purity="3.0402112007141113e-01" nType="-99"/>
          <Node pos="r" depth="2" NCoef="0" IVar="-1" Cut="0.0000000000000000e+00" cType="1" res="2.3942454718053341e-03" rms="4.3356835842132568e-01" purity="5.0290942192077637e-01" nType="-99"/>
        </Node>
        <Node pos="r" depth="1" NCoef="0" IVar="15" Cut="1.0840107727050781e+02" cType="1" res="4.8935573548078537e-02" rms="4.3361303210258484e-01" purity="6.0185962915420532e-01" nType="0">
          <Node pos="l" depth="2" NCoef="0" IVar="-1" Cut="0.0000000000000000e+00" cType="1" res="2.3135708644986153e-02" rms="4.1960772871971130e-01" purity="6.9828307628631592e-01" nType="-99"/>
          <Node pos="r" depth="2" NCoef="0" IVar="-1" Cut="0.0000000000000000e+00" cType="1" res="-1.0369717143476009e-02" rms="4.4493949413299561e-01" purity="4.1418358683586121e-01" nType="-99"/>
        </Node>
      </Node>
    </BinaryTree>
    <BinaryTree type="DecisionTree" boostWeight="1.0000000000000000e+00" itree="30">
      <Node pos="s" depth="0" NCoef="0" IVar="6" Cut="2.0867223739624023e+00" cType="1" res="-9.5937075093388557e-03" rms="4.3206447362899780e-01" purity="4.9394601583480835e-01" nType="0">
        <Node pos="l" depth="1" NCoef="0" IVar="4" Cut="9.1401159763336182e-01" cType="1" res="6.2284018844366074e-02" rms="4.2536744475364685e-01" purity="6.6691976785659790e-01" nType="0">
          <Node pos="l" depth="2" NCoef="0" IVar="-1" Cut="0.0000000000000000e+00" cType="1" res="2.8728773817420006e-02" rms="4.0553775429725647e-01" purity="7.5630062818527222e-01" nType="-99"/>
          <Node pos="r" depth="2" NCoef="0" IVar="-1" Cut="0.0000000000000000e+00" cType="1" res="-1.5648894477635622e-03" rms="4.3800044059753418e-01" purity="5.6035798788070679e-01" nType="-99"/>
        </Node>
        <Node pos="r" depth="1" NCoef="0" IVar="14" Cut="1.0663260650634766e+02" cType="1" res="-4.3277837336063385e-02" rms="4.3106257915496826e-01" purity="4.1288512945175171e-01" nType="0">
          <Node pos="l" depth="2" NCoef="0" IVar="-1" Cut="0.0000000000000000e+00" cType="1" res="-4.4793612323701382e-03" rms="4.3846607208251953e-01" purity="4.5898124575614929e-01" nType="-99"/>
          <Node pos="r" depth="2" NCoef="0" IVar="-1" Cut="0.0000000000000000e+00" cType="1" res="-3.1621009111404419e-02" rms="3.9194238185882568e-01" purity="2.5213170051574707e-01" nType="-99"/>
        </Node>
      </Node>
    </BinaryTree>
    <BinaryTree type="DecisionTree" boostWeight="1.0000000000000000e+00" itree="31">
      <Node pos="s" depth="0" NCoef="0" IVar="7" Cut="5.0598937988281250e+01" cType="1" res="8.2115260884165764e-03" rms="4.3096846342086792e-01" purity="5.1222419738769531e-01" nType="0">
        <Node pos="l" depth="1" NCoef="0" IVar="7" Cut="2.9336366653442383e+01" cType="1" res="-3.2461874186992645e-02" rms="4.3219441175460815e-01" purity="4.3983221054077148e-01" nType="0">
          <Node pos="l" depth="2" NCoef="0" IVar="-1" Cut="0.0000000000000000e+00" cType="1" res="-2.0517526194453239e-02" rms="4.2497989535331726e-01" purity="3.6412590742111206e-01" nType="-99"/>
          <Node pos="r" depth="2" NCoef="0" IVar="-1" Cut="0.0000000000000000e+00" cType="1" res="6.2305014580488205e-03" rms="4.3304082751274109e-01" purity="5.2660655975341797e-01" nType="-99"/>
        </Node>
        <Node pos="r" depth="1" NCoef="0" IVar="14" Cut="1.4613125610351562e+02" cType="1" res="6.2859155237674713e-02" rms="4.2320564389228821e-01" purity="6.0948807001113892e-01" nType="0">
          <Node pos="l" depth="2" NCoef="0" IVar="-1" Cut="0.0000000000000000e+00" cType="1" res="2.3628273978829384e-02" rms="4.1264656186103821e-01" purity="6.7356210947036743e-01" nType="-99"/>
          <Node pos="r" depth="2" NCoef="0" IVar="-1" Cut="0.0000000000000000e+00" cType="1" res="-2.0989082753658295e-02" rms="4.3655392527580261e-01" purity="3.1711387634277344e-01" nType="-99"/>
        </Node>
      </Node>
    </BinaryTree>
    <BinaryTree type="DecisionTree" boostWeight="1.0000000000000000e+00" itree="32">
      <Node pos="s" depth="0" NCoef="0" IVar="1" Cut="9.7648353576660156e+01" cType="1" res="-2.2761193104088306e-03" rms="4.3200331926345825e-01" purity="5.0394386053085327e-01" nType="0">
        <Node pos="l" depth="1" NCoef="0" IVar="2" Cut="1.0000000000000000e+00" cType="1" res="-2.5197044014930725e-02" rms="3.7117353081703186e-01" purity="4.1800945997238159e-01" nType="0">
          <Node pos="l" depth="2" NCoef="0" IVar="-1" Cut="0.0000000000000000e+00" cType="1" res="-1.9527303054928780e-02" rms="4.2796850204467773e-01" purity="3.6310392618179321e-01" nType="-99"/>
          <Node pos="r" depth="2" NCoef="0" IVar="-1" Cut="0.0000000000000000e+00" cType="1" res="6.5767844207584858e-03" rms="4.2541146278381348e-01" purity="4.9875247478485107e-01" nType="-99"/>
        </Node>
        <Node pos="r" depth="1" NCoef="0" IVar="4" Cut="1.7142854928970337e+00" cType="1" res="3.7692330777645111e-02" rms="4.3087404966354370e-01" purity="6.0585314035415649e-01" nType="0">
          <Node pos="l" depth="2" NCoef="0" IVar="-1" Cut="0.0000000000000000e+00" cType="1" res="1.2856209650635719e-02" rms="4.2717221379280090e-01" purity="6.3231784105300903e-01" nType="-99"/>
          <Node pos="r" depth="2" NCoef="0" IVar="-1" Cut="0.0000000000000000e+00" cType="1" res="-1.3292508199810982e-02" rms="4.4182205200195312e-01" purity="4.3993180990219116e-01" nType="-99"/>
        </Node>
      </Node>
    </BinaryTree>
    <BinaryTree type="DecisionTree" boostWeight="1.0000000000000000e+00" itree="33">
      <Node pos="s" depth="0" NCoef="0" IVar="15" Cut="1.4344023132324219e+02" cType="1" res="-8.6349071934819221e-03" rms="4.2713436484336853e-01" purity="4.9035462737083435e-01" nType="0">
        <Node pos="l" depth="1" NCoef="0" IVar="3" Cut="9.1425317525863647e-01" cType="1" res="5.3488449193537235e-03" rms="4.2523145675659180e-01" purity="5.1265531778335571e-01" nType="0">
          <Node pos="l" depth="2" NCoef="0" IVar="-1" Cut="0.0000000000000000e+00" cType="1" res="1.1054363101720810e-02" rms="4.1744717955589294e-01" purity="5.8523756265640259e-01" nType="-99"/>
          <Node pos="r" depth="2" NCoef="0" IVar="-1" Cut="0.0000000000000000e+00" cType="1" res="-1.2555997818708420e-02" rms="4.3006777763366699e-01" purity="4.0697163343429565e-01" nType="-99"/>
        </Node>
        <Node pos="r" depth="1" NCoef="0" IVar="-1" Cut="0.0000000000000000e+00" cType="1" res="-3.3191114664077759e-02" rms="4.2160740494728088e-01" purity="2.7283358573913574e-01" nType="-99"/>
      </Node>
    </BinaryTree>
    <BinaryTree type="DecisionTree" boostWeight="1.0000000000000000e+00" itree="34">
      <Node pos="s" depth="0" NCoef="0" IVar="3" Cut="1.7142615318298340e+00" cType="1" res="-1.3633694499731064e-02" rms="4.3279704451560974e-01" purity="4.8965027928352356e-01" nType="0">
        <Node pos="l" depth="1" NCoef="0" IVar="1" Cut="9.2493301391601562e+01" cType="1" res="-3.6597464350052178e-04" rms="4.3265655636787415e-01" purity="5.1503270864486694e-01" nType="0">
          <Node pos="l" depth="2" NCoef="0" IVar="-1" Cut="0.0000000000000000e+00" cType="1" res="-8.8044404983520508e-03" rms="4.3518388271331787e-01" purity="4.2692628502845764e-01" nType="-99"/>
          <Node pos="r" depth="2" NCoef="0" IVar="-1" Cut="0.0000000000000000e+00" cType="1" res="9.2092286795377731e-03" rms="4.2666485905647278e-01" purity="6.0936611890792847e-01" nType="-99"/>
        </Node>
        <Node pos="r" depth="1" NCoef="0" IVar="-1" Cut="0.0000000000000000e+00" cType="1" res="-3.1117767095565796e-02" rms="4.1702926158905029e-01" purity="2.7208334207534790e-01" nType="-99"/>
      </Node>
    </BinaryTree>
    <BinaryTree type="DecisionTree" boostWeight="1.0000000000000000e+00" itree="35">
      <Node pos="s" depth="0" NCoef="0" IVar="5" Cut="3.1986014842987061e+00" cType="1" res="3.0719453934580088e-03" rms="4.3613716959953308e-01" purity="5.1640903949737549e-01" nType="0">
        <Node pos="l" depth="1" NCoef="0" IVar="5" Cut="1.6144410371780396e+00" cType="1" res="1.5238432213664055e-02" rms="4.3739059567451477e-01" purity="5.4187762737274170e-01" nType="0">
          <Node pos="l" depth="2" NCoef="0" IVar="-1" Cut="0.0000000000000000e+00" cType="1" res="2.2375874221324921e-02" rms="3.9904379844665527e-01" purity="7.7635622024536133e-01" nType="-99"/>
          <Node pos="r" depth="2" NCoef="0" IVar="-1" Cut="0.0000000000000000e+00" cType="1" res="-7.8942161053419113e-05" rms="4.4361767172813416e-01" purity="4.9171820282936096e-01" nType="-99"/>
        </Node>
        <Node pos="r" depth="1" NCoef="0" IVar="-1" Cut="0.0000000000000000e+00" cType="1" res="-2.5964016094803810e-02" rms="4.0988484025001526e-01" purity="2.9354852437973022e-01" nType="-99"/>
      </Node>
    </BinaryTree>
    <BinaryTree type="DecisionTree" boostWeight="1.0000000000000000e+00" itree="36">
      <Node pos="s" depth="0" NCoef="0" IVar="11" Cut="3.0000000000000000e+00" cType="1" res="-4.5283501967787743e-03" rms="4.2256346344947815e-01" purity="4.9004754424095154e-01" nType="0">
        <Node pos="l" depth="1" NCoef="0" IVar="1" Cut="9.7658561706542969e+01" cType="1" res="-3.5486150532960892e-02" rms="4.1796848177909851e-01" purity="3.2265597581863403e-01" nType="0">
          <Node pos="l" depth="2" NCoef="0" IVar="-1" Cut="0.0000000000000000e+00" cType="1" res="-1.7152681946754456e-02" rms="3.9798521995544434e-01" purity="2.4577936530113220e-01" nType="-99"/>
          <Node pos="r" depth="2" NCoef="0" IVar="-1" Cut="0.0000000000000000e+00" cType="1" res="1.8502069870010018e-03" rms="4.4211754202842712e-01" purity="4.3552350997924805e-01" nType="-99"/>
        </Node>
        <Node pos="r" depth="1" NCoef="0" IVar="2" Cut="1.0000000000000000e+00" cType="1" res="2.6216825470328331e-02" rms="3.5452553629875183e-01" purity="7.1142059564590454e-01" nType="0">
          <Node pos="l" depth="2" NCoef="0" IVar="-1" Cut="0.0000000000000000e+00" cType="1" res="9.4414193881675601e-04" rms="4.4156426191329956e-01" purity="6.6065347194671631e-01" nType="-99"/>
          <Node pos="r" depth="2" NCoef="0" IVar="-1" Cut="0.0000000000000000e+00" cType="1" res="1.9799213856458664e-02" rms="3.9820665121078491e-01" purity="7.7845573425292969e-01" nType="-99"/>
        </Node>
      </Node>
    </BinaryTree>
    <BinaryTree type="DecisionTree" boostWeight="1.0000000000000000e+00" itree="37">
      <Node pos="s" depth="0" NCoef="0" IVar="15" Cut="1.5367633056640625e+02" cType="1" res="-9.7687551751732826e-03" rms="4.2937645316123962e-01" purity="4.9278005957603455e-01" nType="0">
        <Node pos="l" depth="1" NCoef="0" IVar="15" Cut="5.1208431243896484e+01" cType="1" res="1.2753203918691725e-04" rms="4.2925393581390381e-01" purity="5.1296496391296387e-01" nType="0">
          <Node pos="l" depth="2" NCoef="0" IVar="-1" Cut="0.0000000000000000e+00" cType="1" res="-1.0190115310251713e-02" rms="4.2765876650810242e-01" purity="4.6086478233337402e-01" nType="-99"/>
          <Node pos="r" depth="2" NCoef="0" IVar="-1" Cut="0.0000000000000000e+00" cType="1" res="7.3972367681562901e-03" rms="4.2796406149864197e-01" purity="5.5179387331008911e-01" nType="-99"/>
        </Node>
        <Node pos="r" depth="1" NCoef="0" IVar="-1" Cut="0.0000000000000000e+00" cType="1" res="-2.9880657792091370e-02" rms="4.1401144862174988e-01" purity="2.5984624028205872e-01" nType="-99"/>
      </Node>
    </BinaryTree>
    <BinaryTree type="DecisionTree" boostWeight="1.0000000000000000e+00" itree="38">
      <Node pos="s" depth="0" NCoef="0" IVar="15" Cut="1.5487802124023438e+02" cType="1" res="-1.2881190516054630e-02" rms="4.3457663059234619e-01" purity="4.9371606111526489e-01" nType="0">
        <Node pos="l" depth="1" NCoef="0" IVar="12" Cut="2.0000000000000000e+00" cType="1" res="-3.0203163623809814e-03" rms="4.3157830834388733e-01" purity="5.1167732477188110e-01" nType="0">
          <Node pos="l" depth="2" NCoef="0" IVar="-1" Cut="0.0000000000000000e+00" cType="1" res="-1.1454416438937187e-02" rms="4.1159370541572571e-01" purity="3.6201363801956177e-01" nType="-99"/>
          <Node pos="r" depth="2" NCoef="0" IVar="-1" Cut="0.0000000000000000e+00" cType="1" res="5.5262949317693710e-03" rms="4.4366469979286194e-01" purity="6.0383605957031250e-01" nType="-99"/>
        </Node>
        <Node pos="r" depth="1" NCoef="0" IVar="-1" Cut="0.0000000000000000e+00" cType="1" res="-3.1548421829938889e-02" rms="4.3518543243408203e-01" purity="2.7133688330650330e-01" nType="-99"/>
      </Node>
    </BinaryTree>
    <BinaryTree type="DecisionTree" boostWeight="1.0000000000000000e+00" itree="39">
      <Node pos="s" depth="0" NCoef="0" IVar="15" Cut="1.2917402648925781e+02" cType="1" res="3.9729411946609616e-04" rms="4.2666321992874146e-01" purity="5.0105404853820801e-01" nType="0">
        <Node pos="l" depth="1" NCoef="0" IVar="4" Cut="1.7142627239227295e+00" cType="1" res="1.5013811178505421e-02" rms="4.2710024118423462e-01" purity="5.3349673748016357e-01" nType="0">
          <Node pos="l" depth="2" NCoef="0" IVar="-1" Cut="0.0000000000000000e+00" cType="1" res="7.8656403347849846e-03" rms="4.2442905902862549e-01" purity="5.6062334775924683e-01" nType="-99"/>
          <Node pos="r" depth="2" NCoef="0" IVar="-1" Cut="0.0000000000000000e+00" cType="1" res="-2.0131237804889679e-02" rms="4.2998802661895752e-01" purity="3.7073361873626709e-01" nType="-99"/>
        </Node>
        <Node pos="r" depth="1" NCoef="0" IVar="-1" Cut="0.0000000000000000e+00" cType="1" res="-2.2628733888268471e-02" rms="4.1163775324821472e-01" purity="2.9254549741744995e-01" nType="-99"/>
      </Node>
    </BinaryTree>
    <BinaryTree type="DecisionTree" boostWeight="1.0000000000000000e+00" itree="40">
      <Node pos="s" depth="0" NCoef="0" IVar="3" Cut="9.1428411006927490e-01" cType="1" res="2.6278409641236067e-03" rms="4.3002825975418091e-01" purity="5.0866401195526123e-01" nType="0">
        <Node pos="l" depth="1" NCoef="0" IVar="4" Cut="9.1425997018814087e-01" cType="1" res="3.5450972616672516e-02" rms="4.2909425497055054e-01" purity="5.8553642034530640e-01" nType="0">
          <Node pos="l" depth="2" NCoef="0" IVar="-1" Cut="0.0000000000000000e+00" cType="1" res="1.5319604426622391e-02" rms="4.2583692073822021e-01" purity="6.3776588439941406e-01" nType="-99"/>
          <Node pos="r" depth="2" NCoef="0" IVar="-1" Cut="0.0000000000000000e+00" cType="1" res="8.9788925834000111e-04" rms="4.3112668395042419e-01" purity="5.1891010999679565e-01" nType="-99"/>
        </Node>
        <Node pos="r" depth="1" NCoef="0" IVar="15" Cut="4.0329013824462891e+01" cType="1" res="-4.3829269707202911e-02" rms="4.2705610394477844e-01" purity="3.9986056089401245e-01" nType="0">
          <Node pos="l" depth="2" NCoef="0" IVar="-1" Cut="0.0000000000000000e+00" cType="1" res="-2.4548821151256561e-02" rms="4.1393426060676575e-01" purity="3.3394896984100342e-01" nType="-99"/>
          <Node pos="r" depth="2" NCoef="0" IVar="-1" Cut="0.0000000000000000e+00" cType="1" res="-4.0800538845360279e-03" rms="4.3074211478233337e-01" purity="4.3216571211814880e-01" nType="-99"/>
        </Node>
      </Node>
    </BinaryTree>
    <BinaryTree type="DecisionTree" boostWeight="1.0000000000000000e+00" itree="41">
      <Node pos="s" depth="0" NCoef="0" IVar="4" Cut="2.0570595264434814e+00" cType="1" res="2.4186798837035894e-03" rms="4.2343524098396301e-01" purity="5.0036114454269409e-01" nType="0">
        <Node pos="l" depth="1" NCoef="0" IVar="15" Cut="1.5367808532714844e+02" cType="1" res="1.0446493513882160e-02" rms="4.2293298244476318e-01" purity="5.1326054334640503e-01" nType="0">
          <Node pos="l" depth="2" NCoef="0" IVar="-1" Cut="0.0000000000000000e+00" cType="1" res="4.8027927987277508e-03" rms="4.2106243968009949e-01" purity="5.3274101018905640e-01" nType="-99"/>
          <Node pos="r" depth="2" NCoef="0" IVar="-1" Cut="0.0000000000000000e+00" cType="1" res="-2.2550527006387711e-02" rms="4.3145439028739929e-01" purity="2.7981302142143250e-01" nType="-99"/>
        </Node>
        <Node pos="r" depth="1" NCoef="0" IVar="-1" Cut="0.0000000000000000e+00" cType="1" res="-3.2260071486234665e-02" rms="4.0881973505020142e-01" purity="2.8341183066368103e-01" nType="-99"/>
      </Node>
    </BinaryTree>
    <BinaryTree type="DecisionTree" boostWeight="1.0000000000000000e+00" itree="42">
      <Node pos="s" depth="0" NCoef="0" IVar="10" Cut="4.0000000000000000e+00" cType="1" res="3.7928172387182713e-03" rms="4.2151036858558655e-01" purity="4.9964582920074463e-01" nType="0">
        <Node pos="l" depth="1" NCoef="0" IVar="5" Cut="1.5545765161514282e+00" cType="1" res="-1.9159840419888496e-02" rms="4.2822787165641785e-01" purity="3.8150167465209961e-01" nType="0">
          <Node pos="l" depth="2" NCoef="0" IVar="-1" Cut="0.0000000000000000e+00" cType="1" res="1.9666783511638641e-02" rms="4.3720069527626038e-01" purity="7.1163505315780640e-01" nType="-99"/>
          <Node pos="r" depth="2" NCoef="0" IVar="-1" Cut="0.0000000000000000e+00" cType="1" res="-7.8340610489249229e-03" rms="4.2554098367691040e-01" purity="3.4324917197227478e-01" nType="-99"/>
        </Node>
        <Node pos="r" depth="1" NCoef="0" IVar="1" Cut="6.4000648498535156e+01" cType="1" res="5.2468497306108475e-02" rms="4.0355980396270752e-01" purity="7.5732356309890747e-01" nType="0">
          <Node pos="l" depth="2" NCoef="0" IVar="-1" Cut="0.0000000000000000e+00" cType="1" res="-3.3856611698865891e-03" rms="4.5228764414787292e-01" purity="6.4456033706665039e-01" nType="-99"/>
          <Node pos="r" depth="2" NCoef="0" IVar="-1" Cut="0.0000000000000000e+00" cType="1" res="2.0684309303760529e-02" rms="3.7936380505561829e-01" purity="8.0186009407043457e-01" nType="-99"/>
        </Node>
      </Node>
    </BinaryTree>
    <BinaryTree type="DecisionTree" boostWeight="1.0000000000000000e+00" itree="43">
      <Node pos="s" depth="0" NCoef="0" IVar="17" Cut="1.4595426940917969e+02" cType="1" res="9.0702353045344353e-03" rms="4.2450186610221863e-01" purity="5.1638776063919067e-01" nType="0">
        <Node pos="l" depth="1" NCoef="0" IVar="13" Cut="2.0000000000000000e+00" cType="1" res="-7.4365697801113129e-03" rms="4.2251521348953247e-01" purity="4.8302328586578369e-01" nType="0">
          <Node pos="l" depth="2" NCoef="0" IVar="-1" Cut="0.0000000000000000e+00" cType="1" res="-8.2727903500199318e-03" rms="4.3219283223152161e-01" purity="4.2580753564834595e-01" nType="-99"/>
          <Node pos="r" depth="2" NCoef="0" IVar="-1" Cut="0.0000000000000000e+00" cType="1" res="7.8804474323987961e-03" rms="4.1551008820533752e-01" purity="5.9296315908432007e-01" nType="-99"/>
        </Node>
        <Node pos="r" depth="1" NCoef="0" IVar="5" Cut="1.7062116861343384e+00" cType="1" res="9.7962968051433563e-02" rms="3.9776024222373962e-01" purity="6.6934192180633545e-01" nType="0">
          <Node pos="l" depth="2" NCoef="0" IVar="-1" Cut="0.0000000000000000e+00" cType="1" res="4.7381497919559479e-02" rms="2.7919960021972656e-01" purity="8.6981660127639771e-01" nType="-99"/>
          <Node pos="r" depth="2" NCoef="0" IVar="-1" Cut="0.0000000000000000e+00" cType="1" res="1.0248699225485325e-02" rms="4.4910657405853271e-01" purity="5.4076373577117920e-01" nType="-99"/>
        </Node>
      </Node>
    </BinaryTree>
    <BinaryTree type="DecisionTree" boostWeight="1.0000000000000000e+00" itree="44">
      <Node pos="s" depth="0" NCoef="0" IVar="4" Cut="1.9428565502166748e+00" cType="1" res="1.2474854476749897e-02" rms="4.2672395706176758e-01" purity="5.2064931392669678e-01" nType="0">
        <Node pos="l" depth="1" NCoef="0" IVar="1" Cut="9.7639495849609375e+01" cType="1" res="2.3613620549440384e-02" rms="4.2606666684150696e-01" purity="5.4068672657012939e-01" nType="0">
          <Node pos="l" depth="2" NCoef="0" IVar="-1" Cut="0.0000000000000000e+00" cType="1" res="-2.8067926177754998e-04" rms="4.2843189835548401e-01" purity="4.5076707005500793e-01" nType="-99"/>
          <Node pos="r" depth="2" NCoef="0" IVar="-1" Cut="0.0000000000000000e+00" cType="1" res="1.3461393304169178e-02" rms="4.2138621211051941e-01" purity="6.4700680971145630e-01" nType="-99"/>
        </Node>
        <Node pos="r" depth="1" NCoef="0" IVar="-1" Cut="0.0000000000000000e+00" cType="1" res="-2.6362486183643341e-02" rms="4.1526553034782410e-01" purity="3.0523335933685303e-01" nType="-99"/>
      </Node>
    </BinaryTree>
    <BinaryTree type="DecisionTree" boostWeight="1.0000000000000000e+00" itree="45">
      <Node pos="s" depth="0" NCoef="0" IVar="5" Cut="1.2738078832626343e+00" cType="1" res="-4.4736010022461414e-03" rms="4.2474582791328430e-01" purity="5.0004112720489502e-01" nType="0">
        <Node pos="l" depth="1" NCoef="0" IVar="-1" Cut="0.0000000000000000e+00" cType="1" res="3.5195775330066681e-02" rms="3.4147101640701294e-01" purity="8.6497557163238525e-01" nType="-99"/>
        <Node pos="r" depth="1" NCoef="0" IVar="3" Cut="6.8563091754913330e-01" cType="1" res="-1.4089667238295078e-02" rms="4.2880079150199890e-01" purity="4.7266641259193420e-01" nType="0">
          <Node pos="l" depth="2" NCoef="0" IVar="-1" Cut="0.0000000000000000e+00" cType="1" res="4.8738569021224976e-03" rms="4.2584404349327087e-01" purity="5.5033898353576660e-01" nType="-99"/>
          <Node pos="r" depth="2" NCoef="0" IVar="-1" Cut="0.0000000000000000e+00" cType="1" res="-1.0616182349622250e-02" rms="4.2925408482551575e-01" purity="4.0630626678466797e-01" nType="-99"/>
        </Node>
      </Node>
    </BinaryTree>
    <BinaryTree type="DecisionTree" boostWeight="1.0000000000000000e+00" itree="46">
      <Node pos="s" depth="0" NCoef="0" IVar="1" Cut="2.6891394042968750e+02" cType="1" res="1.8027526093646884e-03" rms="4.2781016230583191e-01" purity="5.1039797067642212e-01" nType="0">
        <Node pos="l" depth="1" NCoef="0" IVar="1" Cut="1.0987243652343750e+02" cType="1" res="9.4874575734138489e-03" rms="4.2466846108436584e-01" purity="5.1162546873092651e-01" nType="0">
          <Node pos="l" depth="2" NCoef="0" IVar="-1" Cut="0.0000000000000000e+00" cType="1" res="-3.8169473409652710e-03" rms="4.2759317159652710e-01" purity="4.4073900580406189e-01" nType="-99"/>
          <Node pos="r" depth="2" NCoef="0" IVar="-1" Cut="0.0000000000000000e+00" cType="1" res="1.4083584770560265e-02" rms="4.1511645913124084e-01" purity="6.4571654796600342e-01" nType="-99"/>
        </Node>
        <Node pos="r" depth="1" NCoef="0" IVar="-1" Cut="0.0000000000000000e+00" cType="1" res="-3.4555435180664062e-02" rms="4.5917496085166931e-01" purity="4.8875847458839417e-01" nType="-99"/>
      </Node>
    </BinaryTree>
    <BinaryTree type="DecisionTree" boostWeight="1.0000000000000000e+00" itree="47">
      <Node pos="s" depth="0" NCoef="0" IVar="15" Cut="1.4361671447753906e+02" cType="1" res="-1.4000840019434690e-03" rms="4.1753202676773071e-01" purity="4.9345290660858154e-01" nType="0">
        <Node pos="l" depth="1" NCoef="0" IVar="9" Cut="4.0000000000000000e+00" cType="1" res="8.3639109507203102e-03" rms="4.1492784023284912e-01" purity="5.1487433910369873e-01" nType="0">
          <Node pos="l" depth="2" NCoef="0" IVar="-1" Cut="0.0000000000000000e+00" cType="1" res="-7.4563310481607914e-03" rms="4.0630263090133667e-01" purity="2.9742994904518127e-01" nType="-99"/>
          <Node pos="r" depth="2" NCoef="0" IVar="-1" Cut="0.0000000000000000e+00" cType="1" res="1.0808198712766171e-02" rms="4.2003273963928223e-01" purity="7.2253996133804321e-01" nType="-99"/>
        </Node>
        <Node pos="r" depth="1" NCoef="0" IVar="-1" Cut="0.0000000000000000e+00" cType="1" res="-2.3575393483042717e-02" rms="4.3068322539329529e-01" purity="2.8321275115013123e-01" nType="-99"/>
      </Node>
    </BinaryTree>
    <BinaryTree type="DecisionTree" boostWeight="1.0000000000000000e+00" itree="48">
      <Node pos="s" depth="0" NCoef="0" IVar="4" Cut="5.7143855094909668e-01" cType="1" res="4.2594908736646175e-03" rms="4.2301562428474426e-01" purity="5.1219487190246582e-01" nType="0">
        <Node pos="l" depth="1" NCoef="0" IVar="3" Cut="1.3713692426681519e+00" cType="1" res="5.9716872870922089e-02" rms="3.9571511745452881e-01" purity="5.8320379257202148e-01" nType="0">
          <Node pos="l" depth="2" NCoef="0" IVar="-1" Cut="0.0000000000000000e+00" cType="1" res="2.5377918034791946e-02" rms="3.8044816255569458e-01" purity="6.5255731344223022e-01" nType="-99"/>
          <Node pos="r" depth="2" NCoef="0" IVar="-1" Cut="0.0000000000000000e+00" cType="1" res="-1.7151882871985435e-02" rms="4.2030087113380432e-01" purity="3.4258350729942322e-01" nType="-99"/>
        </Node>
        <Node pos="r" depth="1" NCoef="0" IVar="17" Cut="1.2856379699707031e+02" cType="1" res="-2.5157900527119637e-02" rms="4.3393766880035400e-01" purity="4.7452813386917114e-01" nType="0">
          <Node pos="l" depth="2" NCoef="0" IVar="-1" Cut="0.0000000000000000e+00" cType="1" res="-1.0352442041039467e-02" rms="4.3359231948852539e-01" purity="4.4191285967826843e-01" nType="-99"/>
          <Node pos="r" depth="2" NCoef="0" IVar="-1" Cut="0.0000000000000000e+00" cType="1" res="6.9518755190074444e-03" rms="4.3094170093536377e-01" purity="5.8150392770767212e-01" nType="-99"/>
        </Node>
      </Node>
    </BinaryTree>
    <BinaryTree type="DecisionTree" boostWeight="1.0000000000000000e+00" itree="49">
      <Node pos="s" depth="0" NCoef="0" IVar="15" Cut="5.4200561523437500e+01" cType="1" res="-1.2871406972408295e-02" rms="4.3363600969314575e-01" purity="5.0114375352859497e-01" nType="0">
        <Node pos="l" depth="1" NCoef="0" IVar="3" Cut="9.1418558359146118e-01" cType="1" res="-5.0834171473979950e-02" rms="4.3077552318572998e-01" purity="4.5675107836723328e-01" nType="0">
          <Node pos="l" depth="2" NCoef="0" IVar="-1" Cut="0.0000000000000000e+00" cType="1" res="-6.1585321091115475e-03" rms="4.2959073185920715e-01" purity="5.3090554475784302e-01" nType="-99"/>
          <Node pos="r" depth="2" NCoef="0" IVar="-1" Cut="0.0000000000000000e+00" cType="1" res="-2.2681925445795059e-02" rms="4.2956200242042542e-01" purity="3.5327929258346558e-01" nType="-99"/>
        </Node>
        <Node pos="r" depth="1" NCoef="0" IVar="1" Cut="1.9550154113769531e+02" cType="1" res="1.6370957717299461e-02" rms="4.3356612324714661e-01" purity="5.3533911705017090e-01" nType="0">
          <Node pos="l" depth="2" NCoef="0" IVar="-1" Cut="0.0000000000000000e+00" cType="1" res="8.6397686973214149e-03" rms="4.2616528272628784e-01" purity="5.3991144895553589e-01" nType="-99"/>
          <Node pos="r" depth="2" NCoef="0" IVar="-1" Cut="0.0000000000000000e+00" cType="1" res="-2.2134881466627121e-02" rms="4.6152570843696594e-01" purity="5.0824296474456787e-01" nType="-99"/>
        </Node>
      </Node>
    </BinaryTree>
  </Weights>
</MethodSetup>
