<?xml version="1.0"?>
<MethodSetup Method="BDT::BDTG_UF_v2">
  <GeneralInfo>
    <Info name="TMVA Release" value="4.2.1 [262657]"/>
    <Info name="ROOT Release" value="6.12/07 [396295]"/>
    <Info name="Creator" value="abrinke1"/>
    <Info name="Date" value="Thu Jul  4 08:23:23 2019"/>
    <Info name="Host" value="Linux cmsbuild92.cern.ch 2.6.32-696.30.1.el6.x86_64 #1 SMP Tue May 22 06:09:36 CEST 2018 x86_64 x86_64 x86_64 GNU/Linux"/>
    <Info name="Dir" value="/afs/cern.ch/user/a/abrinke1/HiggsToMuMu/2018/CMSSW_10_2_11_patch1/src/H2MuAnalyzer/TrainMVA"/>
    <Info name="Training events" value="154963"/>
    <Info name="TrainingTime" value="8.81525950e+01"/>
    <Info name="AnalysisType" value="Classification"/>
  </GeneralInfo>
  <Options>
    <Option name="V" modified="Yes">False</Option>
    <Option name="VerbosityLevel" modified="No">Default</Option>
    <Option name="VarTransform" modified="No">None</Option>
    <Option name="H" modified="Yes">False</Option>
    <Option name="CreateMVAPdfs" modified="No">False</Option>
    <Option name="IgnoreNegWeightsInTraining" modified="No">False</Option>
    <Option name="NTrees" modified="Yes">200</Option>
    <Option name="MaxDepth" modified="Yes">3</Option>
    <Option name="MinNodeSize" modified="No">5%</Option>
    <Option name="nCuts" modified="Yes">10</Option>
    <Option name="BoostType" modified="Yes">Grad</Option>
    <Option name="AdaBoostR2Loss" modified="No">quadratic</Option>
    <Option name="UseBaggedBoost" modified="Yes">True</Option>
    <Option name="Shrinkage" modified="Yes">1.000000e-01</Option>
    <Option name="AdaBoostBeta" modified="No">5.000000e-01</Option>
    <Option name="UseRandomisedTrees" modified="No">False</Option>
    <Option name="UseNvars" modified="No">8</Option>
    <Option name="UsePoissonNvars" modified="No">True</Option>
    <Option name="BaggedSampleFraction" modified="Yes">5.000000e-01</Option>
    <Option name="UseYesNoLeaf" modified="No">True</Option>
    <Option name="NegWeightTreatment" modified="No">pray</Option>
    <Option name="Css" modified="No">1.000000e+00</Option>
    <Option name="Cts_sb" modified="No">1.000000e+00</Option>
    <Option name="Ctb_ss" modified="No">1.000000e+00</Option>
    <Option name="Cbb" modified="No">1.000000e+00</Option>
    <Option name="NodePurityLimit" modified="No">5.000000e-01</Option>
    <Option name="SeparationType" modified="No">giniindex</Option>
    <Option name="RegressionLossFunctionBDTG" modified="No">huber</Option>
    <Option name="HuberQuantile" modified="No">7.000000e-01</Option>
    <Option name="DoBoostMonitor" modified="No">False</Option>
    <Option name="UseFisherCuts" modified="No">False</Option>
    <Option name="MinLinCorrForFisher" modified="No">8.000000e-01</Option>
    <Option name="UseExclusiveVars" modified="No">False</Option>
    <Option name="DoPreselection" modified="No">False</Option>
    <Option name="SigToBkgFraction" modified="No">1.000000e+00</Option>
    <Option name="PruneMethod" modified="No">nopruning</Option>
    <Option name="PruneStrength" modified="No">0.000000e+00</Option>
    <Option name="PruningValFraction" modified="No">5.000000e-01</Option>
    <Option name="SkipNormalization" modified="No">False</Option>
    <Option name="nEventsMin" modified="No">0</Option>
    <Option name="UseBaggedGrad" modified="No">False</Option>
    <Option name="GradBaggingFraction" modified="No">5.000000e-01</Option>
    <Option name="UseNTrainEvents" modified="No">0</Option>
    <Option name="NNodesMax" modified="No">0</Option>
  </Options>
  <Variables NVar="56">
    <Variable VarIndex="0" Expression="H_pair_mass" Label="H_pair_mass" Title="H_pair_mass" Unit="" Internal="H_pair_mass" Type="F" Min="1.05025375e+02" Max="1.59997498e+02"/>
    <Variable VarIndex="1" Expression="H_pair_pt" Label="H_pair_pt" Title="H_pair_pt" Unit="" Internal="H_pair_pt" Type="F" Min="1.74321592e-01" Max="1.59223572e+03"/>
    <Variable VarIndex="2" Expression="OS_pair_mass" Label="OS_pair_mass" Title="OS_pair_mass" Unit="" Internal="OS_pair_mass" Type="F" Min="1.20022650e+01" Max="1.81038403e+03"/>
    <Variable VarIndex="3" Expression="OS_pair_pt" Label="OS_pair_pt" Title="OS_pair_pt" Unit="" Internal="OS_pair_pt" Type="F" Min="3.18144977e-01" Max="1.07416772e+03"/>
    <Variable VarIndex="4" Expression="lep_charge" Label="lep_charge" Title="lep_charge" Unit="" Internal="lep_charge" Type="I" Min="-1.00000000e+00" Max="1.00000000e+00"/>
    <Variable VarIndex="5" Expression="nEles" Label="nEles" Title="Number of electrons" Unit="" Internal="nEles" Type="I" Min="0.00000000e+00" Max="1.00000000e+00"/>
    <Variable VarIndex="6" Expression="muH1_eta_abs" Label="muH1_eta_abs" Title="|#eta| #mu1 from Higgs" Unit="" Internal="muH1_eta_abs" Type="F" Min="4.18702621e-06" Max="2.39995646e+00"/>
    <Variable VarIndex="7" Expression="muH2_eta_abs" Label="muH2_eta_abs" Title="|#eta| #mu2 from Higgs" Unit="" Internal="muH2_eta_abs" Type="F" Min="2.60819365e-06" Max="2.39999866e+00"/>
    <Variable VarIndex="8" Expression="lep_H_pair_dEta" Label="lep_H_pair_dEta" Title="lep_H_pair_dEta" Unit="" Internal="lep_H_pair_dEta" Type="F" Min="-4.70963478e+00" Max="6.87605953e+00"/>
    <Variable VarIndex="9" Expression="lep_H_pair_dR" Label="lep_H_pair_dR" Title="lep_H_pair_dR" Unit="" Internal="lep_H_pair_dR" Type="F" Min="3.38603440e-03" Max="7.04665041e+00"/>
    <Variable VarIndex="10" Expression="lep_muOS_dEta" Label="lep_muOS_dEta" Title="lep_muOS_dEta" Unit="" Internal="lep_muOS_dEta" Type="F" Min="-4.72974968e+00" Max="4.65958643e+00"/>
    <Variable VarIndex="11" Expression="lep_muOS_dR" Label="lep_muOS_dR" Title="lep_muOS_dR" Unit="" Internal="lep_muOS_dR" Type="F" Min="5.62677830e-02" Max="5.27642107e+00"/>
    <Variable VarIndex="12" Expression="muSS_muOS_dR" Label="muSS_muOS_dR" Title="muSS_muOS_dR" Unit="" Internal="muSS_muOS_dR" Type="F" Min="1.71248823e-01" Max="5.13359118e+00"/>
    <Variable VarIndex="13" Expression="muSS_muOS_dEta" Label="muSS_muOS_dEta" Title="muSS_muOS_dEta" Unit="" Internal="muSS_muOS_dEta" Type="F" Min="-4.12032890e+00" Max="4.38115740e+00"/>
    <Variable VarIndex="14" Expression="muSS_OS_pair_dR" Label="muSS_OS_pair_dR" Title="muSS_OS_pair_dR" Unit="" Internal="muSS_OS_pair_dR" Type="F" Min="1.93049703e-02" Max="7.22482681e+00"/>
    <Variable VarIndex="15" Expression="muSS_OS_pair_dEta" Label="muSS_OS_pair_dEta" Title="muSS_OS_pair_dEta" Unit="" Internal="muSS_OS_pair_dEta" Type="F" Min="-4.59408426e+00" Max="7.15338182e+00"/>
    <Variable VarIndex="16" Expression="lep_pt" Label="lep_pt" Title="lep_pt" Unit="" Internal="lep_pt" Type="F" Min="1.00005035e+01" Max="1.10462170e+03"/>
    <Variable VarIndex="17" Expression="muSS_pt" Label="muSS_pt" Title="muSS_pt" Unit="" Internal="muSS_pt" Type="F" Min="1.00215931e+01" Max="1.14691748e+03"/>
    <Variable VarIndex="18" Expression="nJetsCent" Label="nJetsCent" Title="nJetsCent" Unit="" Internal="nJetsCent" Type="I" Min="1.00000000e+00" Max="1.50000000e+01"/>
    <Variable VarIndex="19" Expression="nJetsCent30" Label="nJetsCent30" Title="nJetsCent30" Unit="" Internal="nJetsCent30" Type="I" Min="0.00000000e+00" Max="1.30000000e+01"/>
    <Variable VarIndex="20" Expression="nJetsCent40" Label="nJetsCent40" Title="nJetsCent40" Unit="" Internal="nJetsCent40" Type="I" Min="0.00000000e+00" Max="1.10000000e+01"/>
    <Variable VarIndex="21" Expression="nJetsCent50" Label="nJetsCent50" Title="nJetsCent50" Unit="" Internal="nJetsCent50" Type="I" Min="0.00000000e+00" Max="1.00000000e+01"/>
    <Variable VarIndex="22" Expression="nBJetsLoose" Label="nBJetsLoose" Title="nBJetsLoose" Unit="" Internal="nBJetsLoose" Type="I" Min="1.00000000e+00" Max="7.00000000e+00"/>
    <Variable VarIndex="23" Expression="nBJetsMed" Label="nBJetsMed" Title="nBJetsMed" Unit="" Internal="nBJetsMed" Type="I" Min="0.00000000e+00" Max="6.00000000e+00"/>
    <Variable VarIndex="24" Expression="nBJetsTight" Label="nBJetsTight" Title="nBJetsTight" Unit="" Internal="nBJetsTight" Type="I" Min="0.00000000e+00" Max="5.00000000e+00"/>
    <Variable VarIndex="25" Expression="MASS" Label="MASS" Title="MASS" Unit="" Internal="MASS" Type="F" Min="1.76759964e+02" Max="7.42069434e+03"/>
    <Variable VarIndex="26" Expression="MET" Label="MET" Title="MET" Unit="" Internal="MET" Type="F" Min="3.58310252e-01" Max="1.20682898e+03"/>
    <Variable VarIndex="27" Expression="MHT" Label="MHT" Title="MHT" Unit="" Internal="MHT" Type="F" Min="1.39457062e-01" Max="1.20107520e+03"/>
    <Variable VarIndex="28" Expression="bjet1_muSS_dR" Label="bjet1_muSS_dR" Title="bjet1_muSS_dR" Unit="" Internal="bjet1_muSS_dR" Type="F" Min="-9.00000000e+00" Max="5.59707499e+00"/>
    <Variable VarIndex="29" Expression="bjet1_lep_dR" Label="bjet1_lep_dR" Title="bjet1_lep_dR" Unit="" Internal="bjet1_lep_dR" Type="F" Min="-9.00000000e+00" Max="5.78883648e+00"/>
    <Variable VarIndex="30" Expression="bjet1_muSS_pt" Label="bjet1_muSS_pt" Title="bjet1_muSS_pt" Unit="" Internal="bjet1_muSS_pt" Type="F" Min="-9.00000000e+00" Max="1.10784619e+03"/>
    <Variable VarIndex="31" Expression="bjet1_lep_pt" Label="bjet1_lep_pt" Title="bjet1_lep_pt" Unit="" Internal="bjet1_lep_pt" Type="F" Min="-9.00000000e+00" Max="1.09872717e+03"/>
    <Variable VarIndex="32" Expression="bjet1_muSS_mass" Label="bjet1_muSS_mass" Title="bjet1_muSS_mass" Unit="" Internal="bjet1_muSS_mass" Type="F" Min="-9.00000000e+00" Max="1.38510181e+03"/>
    <Variable VarIndex="33" Expression="bjet1_lep_mass" Label="bjet1_lep_mass" Title="bjet1_lep_mass" Unit="" Internal="bjet1_lep_mass" Type="F" Min="-9.00000000e+00" Max="1.37369287e+03"/>
    <Variable VarIndex="34" Expression="lep_MET_MT" Label="lep_MET_MT" Title="lep_MET_MT" Unit="" Internal="lep_MET_MT" Type="F" Min="5.42099879e-04" Max="1.18962781e+03"/>
    <Variable VarIndex="35" Expression="lep_MHT_MT" Label="lep_MHT_MT" Title="lep_MHT_MT" Unit="" Internal="lep_MHT_MT" Type="F" Min="4.15259201e-05" Max="1.13821094e+03"/>
    <Variable VarIndex="36" Expression="lep_MET_dPhi_abs" Label="lep_MET_dPhi_abs" Title="lep_MET_dPhi_abs" Unit="" Internal="lep_MET_dPhi_abs" Type="F" Min="6.43730164e-06" Max="3.14159250e+00"/>
    <Variable VarIndex="37" Expression="lep_MHT_dPhi_abs" Label="lep_MHT_dPhi_abs" Title="lep_MHT_dPhi_abs" Unit="" Internal="lep_MHT_dPhi_abs" Type="F" Min="1.36482072e-06" Max="3.14159226e+00"/>
    <Variable VarIndex="38" Expression="muSS_MET_MT" Label="muSS_MET_MT" Title="muSS_MET_MT" Unit="" Internal="muSS_MET_MT" Type="F" Min="3.72117804e-03" Max="1.59934998e+03"/>
    <Variable VarIndex="39" Expression="muSS_MHT_MT" Label="muSS_MHT_MT" Title="muSS_MHT_MT" Unit="" Internal="muSS_MHT_MT" Type="F" Min="9.12741525e-05" Max="1.75795398e+03"/>
    <Variable VarIndex="40" Expression="muSS_MET_dPhi_abs" Label="muSS_MET_dPhi_abs" Title="muSS_MET_dPhi_abs" Unit="" Internal="muSS_MET_dPhi_abs" Type="F" Min="6.10351562e-05" Max="3.14159131e+00"/>
    <Variable VarIndex="41" Expression="muSS_MHT_dPhi_abs" Label="muSS_MHT_dPhi_abs" Title="muSS_MHT_dPhi_abs" Unit="" Internal="muSS_MHT_dPhi_abs" Type="F" Min="1.42623048e-06" Max="3.14157462e+00"/>
    <Variable VarIndex="42" Expression="MAN_W_jet2_pt" Label="MAN_W_jet2_pt" Title="MAN_W_jet2_pt" Unit="" Internal="MAN_W_jet2_pt" Type="F" Min="-9.00000000e+00" Max="5.69684753e+02"/>
    <Variable VarIndex="43" Expression="MAN_W_jj_mass" Label="MAN_W_jj_mass" Title="MAN_W_jj_mass" Unit="" Internal="MAN_W_jj_mass" Type="F" Min="-9.00000000e+00" Max="2.90710889e+03"/>
    <Variable VarIndex="44" Expression="MAN_W_jj_pt" Label="MAN_W_jj_pt" Title="MAN_W_jj_pt" Unit="" Internal="MAN_W_jj_pt" Type="F" Min="-9.00000000e+00" Max="1.64410999e+03"/>
    <Variable VarIndex="45" Expression="MAN_W_jj_dR" Label="MAN_W_jj_dR" Title="MAN_W_jj_dR" Unit="" Internal="MAN_W_jj_dR" Type="F" Min="-9.00000000e+00" Max="5.47298956e+00"/>
    <Variable VarIndex="46" Expression="BDT_W_jj_mass" Label="BDT_W_jj_mass" Title="BDT_W_jj_mass" Unit="" Internal="BDT_W_jj_mass" Type="F" Min="-9.00000000e+00" Max="4.16235352e+03"/>
    <Variable VarIndex="47" Expression="BDT_W_jj_pt" Label="BDT_W_jj_pt" Title="BDT_W_jj_pt" Unit="" Internal="BDT_W_jj_pt" Type="F" Min="-9.00000000e+00" Max="1.62290381e+03"/>
    <Variable VarIndex="48" Expression="BDT_topH_mass" Label="BDT_topH_mass" Title="BDT_topH_mass" Unit="" Internal="BDT_topH_mass" Type="F" Min="-9.00000000e+00" Max="4.37221826e+03"/>
    <Variable VarIndex="49" Expression="BDT_topH_pt" Label="BDT_topH_pt" Title="BDT_topH_pt" Unit="" Internal="BDT_topH_pt" Type="F" Min="-9.00000000e+00" Max="1.56118176e+03"/>
    <Variable VarIndex="50" Expression="BDT_score_jj_blv" Label="BDT_score_jj_blv" Title="BDT_score_jj_blv" Unit="" Internal="BDT_score_jj_blv" Type="F" Min="-1.10000002e+00" Max="9.94074881e-01"/>
    <Variable VarIndex="51" Expression="BDT_score_bjj_lv" Label="BDT_score_bjj_lv" Title="BDT_score_bjj_lv" Unit="" Internal="BDT_score_bjj_lv" Type="F" Min="-1.10000002e+00" Max="9.92367208e-01"/>
    <Variable VarIndex="52" Expression="BDT_score_bj_blv" Label="BDT_score_bj_blv" Title="BDT_score_bj_blv" Unit="" Internal="BDT_score_bj_blv" Type="F" Min="-1.10000002e+00" Max="9.96518254e-01"/>
    <Variable VarIndex="53" Expression="BDT_score_bjj_blv" Label="BDT_score_bjj_blv" Title="BDT_score_bjj_blv" Unit="" Internal="BDT_score_bjj_blv" Type="F" Min="-1.10000002e+00" Max="9.97210264e-01"/>
    <Variable VarIndex="54" Expression="BDT_score_max" Label="BDT_score_max" Title="BDT_score_max" Unit="" Internal="BDT_score_max" Type="F" Min="-1.10000002e+00" Max="9.97210264e-01"/>
    <Variable VarIndex="55" Expression="BDT_best_match" Label="BDT_best_match" Title="BDT_best_match" Unit="" Internal="BDT_best_match" Type="I" Min="0.00000000e+00" Max="9.00000000e+00"/>
  </Variables>
  <Spectators NSpec="9">
    <Spectator SpecIndex="0" Expression="samp_ID" Label="samp_ID" Title="Sample ID" Unit="" Internal="samp_ID" Type="F" Min="-2.60000000e+01" Max="3.80000000e+01"/>
    <Spectator SpecIndex="1" Expression="event" Label="event" Title="Event number" Unit="" Internal="event" Type="F" Min="3.00000000e+00" Max="1.70579920e+08"/>
    <Spectator SpecIndex="2" Expression="event_wgt" Label="event_wgt" Title="Per-event scale factors" Unit="" Internal="event_wgt" Type="F" Min="-6.37165928e+00" Max="1.84841747e+01"/>
    <Spectator SpecIndex="3" Expression="samp_wgt" Label="samp_wgt" Title="Xsec x lumi for sample" Unit="" Internal="samp_wgt" Type="F" Min="2.80000004e-05" Max="3.92017388e+00"/>
    <Spectator SpecIndex="4" Expression="lepMVA_wgt" Label="lepMVA_wgt" Title="lepMVA efficiency SF" Unit="" Internal="lepMVA_wgt" Type="F" Min="4.16317880e-01" Max="1.15934420e+00"/>
    <Spectator SpecIndex="5" Expression="total_wgt" Label="total_wgt" Title="Overall weight" Unit="" Internal="total_wgt" Type="F" Min="-4.12183315e-01" Max="1.73373699e+00"/>
    <Spectator SpecIndex="6" Expression="res_wgt" Label="res_wgt" Title="Mass resolution weight" Unit="" Internal="res_wgt" Type="F" Min="1.00000000e+00" Max="1.00000000e+00"/>
    <Spectator SpecIndex="7" Expression="dimu_mass" Label="dimu_mass" Title="mass(#mu#mu)" Unit="GeV" Internal="dimu_mass" Type="F" Min="1.05025375e+02" Max="1.59997498e+02"/>
    <Spectator SpecIndex="8" Expression="nEles" Label="nEles" Title="Number of electrons" Unit="" Internal="nEles" Type="F" Min="0.00000000e+00" Max="1.00000000e+00"/>
  </Spectators>
  <Classes NClass="2">
    <Class Name="Signal" Index="0"/>
    <Class Name="Background" Index="1"/>
  </Classes>
  <Transformations NTransformations="0"/>
  <MVAPdfs/>
  <Weights NTrees="200" AnalysisType="1">
    <BinaryTree type="DecisionTree" boostWeight="1.0000000000000000e+00" itree="0">
      <Node pos="s" depth="0" NCoef="0" IVar="0" Cut="1.3001196289062500e+02" cType="1" res="1.3840449973940849e-02" rms="4.9980840086936951e-01" purity="5.1384049654006958e-01" nType="0">
        <Node pos="l" depth="1" NCoef="0" IVar="0" Cut="1.2092482757568359e+02" cType="1" res="1.6955147683620453e-01" rms="4.7037464380264282e-01" purity="6.6955149173736572e-01" nType="0">
          <Node pos="l" depth="2" NCoef="0" IVar="0" Cut="1.1803372192382812e+02" cType="1" res="-2.8771686553955078e-01" rms="4.0892419219017029e-01" purity="2.1228314936161041e-01" nType="0">
            <Node pos="l" depth="3" NCoef="0" IVar="-1" Cut="0.0000000000000000e+00" cType="1" res="-7.8627079725265503e-02" rms="3.0894103646278381e-01" purity="1.0686460882425308e-01" nType="-99"/>
            <Node pos="r" depth="3" NCoef="0" IVar="-1" Cut="0.0000000000000000e+00" cType="1" res="-5.4436470381915569e-03" rms="4.9925860762596130e-01" purity="4.7278177738189697e-01" nType="-99"/>
          </Node>
          <Node pos="r" depth="2" NCoef="0" IVar="54" Cut="-7.1876418590545654e-01" cType="1" res="3.3254969120025635e-01" rms="3.7337744235992432e-01" purity="8.3254963159561157e-01" nType="0">
            <Node pos="l" depth="3" NCoef="0" IVar="-1" Cut="0.0000000000000000e+00" cType="1" res="1.1431848630309105e-02" rms="4.9672207236289978e-01" purity="5.5715924501419067e-01" nType="-99"/>
            <Node pos="r" depth="3" NCoef="0" IVar="-1" Cut="0.0000000000000000e+00" cType="1" res="7.6777212321758270e-02" rms="3.2036149501800537e-01" purity="8.8388603925704956e-01" nType="-99"/>
          </Node>
        </Node>
        <Node pos="r" depth="1" NCoef="0" IVar="-1" Cut="0.0000000000000000e+00" cType="1" res="-9.3252502381801605e-02" rms="1.8055269122123718e-01" purity="3.3737495541572571e-02" nType="-99"/>
      </Node>
    </BinaryTree>
    <BinaryTree type="DecisionTree" boostWeight="1.0000000000000000e+00" itree="1">
      <Node pos="s" depth="0" NCoef="0" IVar="0" Cut="1.3004039001464844e+02" cType="1" res="9.0110948076471686e-04" rms="4.7121742367744446e-01" purity="5.0088119506835938e-01" nType="0">
        <Node pos="l" depth="1" NCoef="0" IVar="0" Cut="1.1869290161132812e+02" cType="1" res="1.5375918149948120e-01" rms="4.5090302824974060e-01" purity="6.7044967412948608e-01" nType="0">
          <Node pos="l" depth="2" NCoef="0" IVar="-1" Cut="0.0000000000000000e+00" cType="1" res="-6.8261809647083282e-02" rms="3.2804429531097412e-01" purity="1.2385938316583633e-01" nType="-99"/>
          <Node pos="r" depth="2" NCoef="0" IVar="20" Cut="2.0000000000000000e+00" cType="1" res="0.0000000000000000e+00" rms="0.0000000000000000e+00" purity="8.1247377395629883e-01" nType="0">
            <Node pos="l" depth="3" NCoef="0" IVar="-1" Cut="0.0000000000000000e+00" cType="1" res="4.7685785102657974e-04" rms="4.9541234970092773e-01" purity="5.2039676904678345e-01" nType="-99"/>
            <Node pos="r" depth="3" NCoef="0" IVar="-1" Cut="0.0000000000000000e+00" cType="1" res="6.8805076181888580e-02" rms="3.2731035351753235e-01" purity="8.7557858228683472e-01" nType="-99"/>
          </Node>
        </Node>
        <Node pos="r" depth="1" NCoef="0" IVar="-1" Cut="0.0000000000000000e+00" cType="1" res="-8.5579097270965576e-02" rms="1.6868093609809875e-01" purity="2.9312482103705406e-02" nType="-99"/>
      </Node>
    </BinaryTree>
    <BinaryTree type="DecisionTree" boostWeight="1.0000000000000000e+00" itree="2">
      <Node pos="s" depth="0" NCoef="0" IVar="0" Cut="1.3003114318847656e+02" cType="1" res="1.6546083614230156e-02" rms="4.4748339056968689e-01" purity="5.2028542757034302e-01" nType="0">
        <Node pos="l" depth="1" NCoef="0" IVar="0" Cut="1.2095606994628906e+02" cType="1" res="1.4247559010982513e-01" rms="4.3396371603012085e-01" purity="6.7553788423538208e-01" nType="0">
          <Node pos="l" depth="2" NCoef="0" IVar="20" Cut="3.0000000000000000e+00" cType="1" res="-2.4258030951023102e-01" rms="3.4098723530769348e-01" purity="2.1681548655033112e-01" nType="0">
            <Node pos="l" depth="3" NCoef="0" IVar="-1" Cut="0.0000000000000000e+00" cType="1" res="-6.5586887300014496e-02" rms="3.2016775012016296e-01" purity="1.2490344047546387e-01" nType="-99"/>
            <Node pos="r" depth="3" NCoef="0" IVar="-1" Cut="0.0000000000000000e+00" cType="1" res="-1.5968741849064827e-02" rms="4.7055631875991821e-01" purity="3.8597857952117920e-01" nType="-99"/>
          </Node>
          <Node pos="r" depth="2" NCoef="0" IVar="54" Cut="-5.2803355455398560e-01" cType="1" res="2.7773219347000122e-01" rms="3.5998508334159851e-01" purity="8.3918178081512451e-01" nType="0">
            <Node pos="l" depth="3" NCoef="0" IVar="-1" Cut="0.0000000000000000e+00" cType="1" res="6.0930568724870682e-03" rms="4.9522152543067932e-01" purity="5.5306923389434814e-01" nType="-99"/>
            <Node pos="r" depth="3" NCoef="0" IVar="-1" Cut="0.0000000000000000e+00" cType="1" res="6.7192405462265015e-02" rms="3.0004087090492249e-01" purity="8.9888077974319458e-01" nType="-99"/>
          </Node>
        </Node>
        <Node pos="r" depth="1" NCoef="0" IVar="-1" Cut="0.0000000000000000e+00" cType="1" res="-7.8328266739845276e-02" rms="1.7632524669170380e-01" purity="3.2164618372917175e-02" nType="-99"/>
      </Node>
    </BinaryTree>
    <BinaryTree type="DecisionTree" boostWeight="1.0000000000000000e+00" itree="3">
      <Node pos="s" depth="0" NCoef="0" IVar="0" Cut="1.3022541809082031e+02" cType="1" res="-1.3237547129392624e-02" rms="4.2493674159049988e-01" purity="4.8503419756889343e-01" nType="0">
        <Node pos="l" depth="1" NCoef="0" IVar="0" Cut="1.1894827270507812e+02" cType="1" res="1.0118906199932098e-01" rms="4.2677322030067444e-01" purity="6.4198476076126099e-01" nType="0">
          <Node pos="l" depth="2" NCoef="0" IVar="-1" Cut="0.0000000000000000e+00" cType="1" res="-5.9777297079563141e-02" rms="3.1765428185462952e-01" purity="1.1903519928455353e-01" nType="-99"/>
          <Node pos="r" depth="2" NCoef="0" IVar="54" Cut="4.2524382472038269e-01" cType="1" res="2.1914002299308777e-01" rms="3.8329100608825684e-01" purity="8.0041968822479248e-01" nType="0">
            <Node pos="l" depth="3" NCoef="0" IVar="-1" Cut="0.0000000000000000e+00" cType="1" res="7.3271989822387695e-03" rms="4.7964340448379517e-01" purity="5.8243489265441895e-01" nType="-99"/>
            <Node pos="r" depth="3" NCoef="0" IVar="-1" Cut="0.0000000000000000e+00" cType="1" res="6.2262203544378281e-02" rms="2.9964458942413330e-01" purity="8.9527821540832520e-01" nType="-99"/>
          </Node>
        </Node>
        <Node pos="r" depth="1" NCoef="0" IVar="-1" Cut="0.0000000000000000e+00" cType="1" res="-7.4123352766036987e-02" rms="1.6217829287052155e-01" purity="2.7032561600208282e-02" nType="-99"/>
      </Node>
    </BinaryTree>
    <BinaryTree type="DecisionTree" boostWeight="1.0000000000000000e+00" itree="4">
      <Node pos="s" depth="0" NCoef="0" IVar="0" Cut="1.3003965759277344e+02" cType="1" res="-2.1497840061783791e-03" rms="4.1175821423530579e-01" purity="5.0182491540908813e-01" nType="0">
        <Node pos="l" depth="1" NCoef="0" IVar="0" Cut="1.1869226837158203e+02" cType="1" res="9.7791709005832672e-02" rms="4.1711056232452393e-01" purity="6.5499377250671387e-01" nType="0">
          <Node pos="l" depth="2" NCoef="0" IVar="-1" Cut="0.0000000000000000e+00" cType="1" res="-5.3322892636060715e-02" rms="3.2918667793273926e-01" purity="1.2706388533115387e-01" nType="-99"/>
          <Node pos="r" depth="2" NCoef="0" IVar="19" Cut="3.0000000000000000e+00" cType="1" res="1.5457436442375183e-02" rms="4.8855602741241455e-02" purity="7.9049241542816162e-01" nType="0">
            <Node pos="l" depth="3" NCoef="0" IVar="-1" Cut="0.0000000000000000e+00" cType="1" res="2.8758521657437086e-03" rms="4.8050391674041748e-01" purity="5.6912761926651001e-01" nType="-99"/>
            <Node pos="r" depth="3" NCoef="0" IVar="-1" Cut="0.0000000000000000e+00" cType="1" res="5.6207854300737381e-02" rms="3.1340438127517700e-01" purity="8.8738894462585449e-01" nType="-99"/>
          </Node>
        </Node>
        <Node pos="r" depth="1" NCoef="0" IVar="-1" Cut="0.0000000000000000e+00" cType="1" res="-6.8506747484207153e-02" rms="1.7873056232929230e-01" purity="3.3261358737945557e-02" nType="-99"/>
      </Node>
    </BinaryTree>
    <BinaryTree type="DecisionTree" boostWeight="1.0000000000000000e+00" itree="5">
      <Node pos="s" depth="0" NCoef="0" IVar="0" Cut="1.3003964233398438e+02" cType="1" res="2.1046749316155910e-03" rms="3.9942845702171326e-01" purity="5.0977259874343872e-01" nType="0">
        <Node pos="l" depth="1" NCoef="0" IVar="0" Cut="1.2096062469482422e+02" cType="1" res="9.2604845762252808e-02" rms="4.0925350785255432e-01" purity="6.6401731967926025e-01" nType="0">
          <Node pos="l" depth="2" NCoef="0" IVar="53" Cut="-5.2831196784973145e-01" cType="1" res="-1.7967779934406281e-01" rms="3.8511222600936890e-01" purity="2.1908465027809143e-01" nType="0">
            <Node pos="l" depth="3" NCoef="0" IVar="-1" Cut="0.0000000000000000e+00" cType="1" res="-5.1623430103063583e-02" rms="3.3238753676414490e-01" purity="1.4738120138645172e-01" nType="-99"/>
            <Node pos="r" depth="3" NCoef="0" IVar="-1" Cut="0.0000000000000000e+00" cType="1" res="-7.1180746890604496e-03" rms="4.5944902300834656e-01" purity="3.9508324861526489e-01" nType="-99"/>
          </Node>
          <Node pos="r" depth="2" NCoef="0" IVar="54" Cut="-1.4672261476516724e-01" cType="1" res="1.8554918467998505e-01" rms="3.7428432703018188e-01" purity="8.1589615345001221e-01" nType="0">
            <Node pos="l" depth="3" NCoef="0" IVar="-1" Cut="0.0000000000000000e+00" cType="1" res="5.5735148489475250e-03" rms="4.9055331945419312e-01" purity="5.7101804018020630e-01" nType="-99"/>
            <Node pos="r" depth="3" NCoef="0" IVar="-1" Cut="0.0000000000000000e+00" cType="1" res="4.9475174397230148e-02" rms="3.2832914590835571e-01" purity="8.7595462799072266e-01" nType="-99"/>
          </Node>
        </Node>
        <Node pos="r" depth="1" NCoef="0" IVar="-1" Cut="0.0000000000000000e+00" cType="1" res="-6.4895324409008026e-02" rms="1.7682310938835144e-01" purity="3.2657604664564133e-02" nType="-99"/>
      </Node>
    </BinaryTree>
    <BinaryTree type="DecisionTree" boostWeight="1.0000000000000000e+00" itree="6">
      <Node pos="s" depth="0" NCoef="0" IVar="0" Cut="1.3001992797851562e+02" cType="1" res="-9.9448831751942635e-03" rms="3.8468238711357117e-01" purity="4.9124589562416077e-01" nType="0">
        <Node pos="l" depth="1" NCoef="0" IVar="0" Cut="1.2093914794921875e+02" cType="1" res="7.1204803884029388e-02" rms="4.0171349048614502e-01" purity="6.4451414346694946e-01" nType="0">
          <Node pos="l" depth="2" NCoef="0" IVar="20" Cut="3.0000000000000000e+00" cType="1" res="-1.7828829586505890e-01" rms="3.1215938925743103e-01" purity="1.9887359440326691e-01" nType="0">
            <Node pos="l" depth="3" NCoef="0" IVar="-1" Cut="0.0000000000000000e+00" cType="1" res="-5.5902022868394852e-02" rms="2.9362052679061890e-01" purity="1.0709100961685181e-01" nType="-99"/>
            <Node pos="r" depth="3" NCoef="0" IVar="-1" Cut="0.0000000000000000e+00" cType="1" res="-4.2021656408905983e-03" rms="4.5217624306678772e-01" purity="3.9924818277359009e-01" nType="-99"/>
          </Node>
          <Node pos="r" depth="2" NCoef="0" IVar="0" Cut="1.2754231262207031e+02" cType="1" res="1.6688211262226105e-01" rms="3.7203368544578552e-01" purity="8.1506294012069702e-01" nType="0">
            <Node pos="l" depth="3" NCoef="0" IVar="-1" Cut="0.0000000000000000e+00" cType="1" res="4.4070988893508911e-02" rms="3.4410351514816284e-01" purity="8.4789657592773438e-01" nType="-99"/>
            <Node pos="r" depth="3" NCoef="0" IVar="-1" Cut="0.0000000000000000e+00" cType="1" res="-1.6648206859827042e-02" rms="4.7738686203956604e-01" purity="5.5915111303329468e-01" nType="-99"/>
          </Node>
        </Node>
        <Node pos="r" depth="1" NCoef="0" IVar="-1" Cut="0.0000000000000000e+00" cType="1" res="-6.2666475772857666e-02" rms="1.6692936420440674e-01" purity="2.9094647616147995e-02" nType="-99"/>
      </Node>
    </BinaryTree>
    <BinaryTree type="DecisionTree" boostWeight="1.0000000000000000e+00" itree="7">
      <Node pos="s" depth="0" NCoef="0" IVar="0" Cut="1.3001194763183594e+02" cType="1" res="9.0095633640885353e-03" rms="3.6694914102554321e-01" purity="5.0783264636993408e-01" nType="0">
        <Node pos="l" depth="1" NCoef="0" IVar="0" Cut="1.2092572784423828e+02" cType="1" res="8.7307676672935486e-02" rms="3.8030630350112915e-01" purity="6.6694843769073486e-01" nType="0">
          <Node pos="l" depth="2" NCoef="0" IVar="12" Cut="2.1545212268829346e+00" cType="1" res="-1.6165706515312195e-01" rms="3.6519041657447815e-01" purity="1.9751173257827759e-01" nType="0">
            <Node pos="l" depth="3" NCoef="0" IVar="-1" Cut="0.0000000000000000e+00" cType="1" res="-6.5205809660255909e-03" rms="4.3237847089767456e-01" purity="3.4444832801818848e-01" nType="-99"/>
            <Node pos="r" depth="3" NCoef="0" IVar="-1" Cut="0.0000000000000000e+00" cType="1" res="-5.2132882177829742e-02" rms="3.0284535884857178e-01" purity="1.2117695808410645e-01" nType="-99"/>
          </Node>
          <Node pos="r" depth="2" NCoef="0" IVar="13" Cut="-1.1882419586181641e+00" cType="1" res="1.8586724996566772e-01" rms="3.3888363838195801e-01" purity="8.5278791189193726e-01" nType="0">
            <Node pos="l" depth="3" NCoef="0" IVar="-1" Cut="0.0000000000000000e+00" cType="1" res="1.1519339866936207e-02" rms="4.3173807859420776e-01" purity="7.1152722835540771e-01" nType="-99"/>
            <Node pos="r" depth="3" NCoef="0" IVar="-1" Cut="0.0000000000000000e+00" cType="1" res="4.9738366156816483e-02" rms="3.0444008111953735e-01" purity="8.8606470823287964e-01" nType="-99"/>
          </Node>
        </Node>
        <Node pos="r" depth="1" NCoef="0" IVar="-1" Cut="0.0000000000000000e+00" cType="1" res="-5.8362912386655807e-02" rms="1.8038691580295563e-01" purity="3.4705262631177902e-02" nType="-99"/>
      </Node>
    </BinaryTree>
    <BinaryTree type="DecisionTree" boostWeight="1.0000000000000000e+00" itree="8">
      <Node pos="s" depth="0" NCoef="0" IVar="0" Cut="1.3003442382812500e+02" cType="1" res="-1.1081096716225147e-02" rms="3.6066421866416931e-01" purity="4.8421555757522583e-01" nType="0">
        <Node pos="l" depth="1" NCoef="0" IVar="0" Cut="1.2095610809326172e+02" cType="1" res="5.8241285383701324e-02" rms="3.8456955552101135e-01" purity="6.4489740133285522e-01" nType="0">
          <Node pos="l" depth="2" NCoef="0" IVar="52" Cut="-1.4778181910514832e-01" cType="1" res="-1.4711843430995941e-01" rms="3.6387711763381958e-01" purity="1.9703498482704163e-01" nType="0">
            <Node pos="l" depth="3" NCoef="0" IVar="-1" Cut="0.0000000000000000e+00" cType="1" res="-4.8495233058929443e-02" rms="2.9913523793220520e-01" purity="1.1633755266666412e-01" nType="-99"/>
            <Node pos="r" depth="3" NCoef="0" IVar="-1" Cut="0.0000000000000000e+00" cType="1" res="-7.7399984002113342e-03" rms="4.3954914808273315e-01" purity="3.4760430455207825e-01" nType="-99"/>
          </Node>
          <Node pos="r" depth="2" NCoef="0" IVar="54" Cut="2.3451331257820129e-01" cType="1" res="1.3796721398830414e-01" rms="3.6218440532684326e-01" purity="8.1876909732818604e-01" nType="0">
            <Node pos="l" depth="3" NCoef="0" IVar="-1" Cut="0.0000000000000000e+00" cType="1" res="-6.8526952527463436e-03" rms="4.8281469941139221e-01" purity="5.6763190031051636e-01" nType="-99"/>
            <Node pos="r" depth="3" NCoef="0" IVar="-1" Cut="0.0000000000000000e+00" cType="1" res="4.8640139400959015e-02" rms="2.8229400515556335e-01" purity="9.1010487079620361e-01" nType="-99"/>
          </Node>
        </Node>
        <Node pos="r" depth="1" NCoef="0" IVar="-1" Cut="0.0000000000000000e+00" cType="1" res="-5.7492382824420929e-02" rms="1.6523060202598572e-01" purity="2.8603915125131607e-02" nType="-99"/>
      </Node>
    </BinaryTree>
    <BinaryTree type="DecisionTree" boostWeight="1.0000000000000000e+00" itree="9">
      <Node pos="s" depth="0" NCoef="0" IVar="0" Cut="1.3002560424804688e+02" cType="1" res="2.2548004053533077e-03" rms="3.5658603906631470e-01" purity="5.0969690084457397e-01" nType="0">
        <Node pos="l" depth="1" NCoef="0" IVar="0" Cut="1.1867302703857422e+02" cType="1" res="6.1740648001432419e-02" rms="3.7826925516128540e-01" purity="6.6192770004272461e-01" nType="0">
          <Node pos="l" depth="2" NCoef="0" IVar="-1" Cut="0.0000000000000000e+00" cType="1" res="-4.0428910404443741e-02" rms="3.2190391421318054e-01" purity="1.2478207796812057e-01" nType="-99"/>
          <Node pos="r" depth="2" NCoef="0" IVar="54" Cut="-3.3747187256813049e-01" cType="1" res="1.1941740661859512e-01" rms="3.6967021226882935e-01" purity="7.9817223548889160e-01" nType="0">
            <Node pos="l" depth="3" NCoef="0" IVar="-1" Cut="0.0000000000000000e+00" cType="1" res="-8.4471469745039940e-03" rms="4.8063158988952637e-01" purity="5.0823199748992920e-01" nType="-99"/>
            <Node pos="r" depth="3" NCoef="0" IVar="-1" Cut="0.0000000000000000e+00" cType="1" res="3.9115961641073227e-02" rms="3.2594561576843262e-01" purity="8.6798930168151855e-01" nType="-99"/>
          </Node>
        </Node>
        <Node pos="r" depth="1" NCoef="0" IVar="-1" Cut="0.0000000000000000e+00" cType="1" res="-5.4153058677911758e-02" rms="1.7748177051544189e-01" purity="3.3076763153076172e-02" nType="-99"/>
      </Node>
    </BinaryTree>
    <BinaryTree type="DecisionTree" boostWeight="1.0000000000000000e+00" itree="10">
      <Node pos="s" depth="0" NCoef="0" IVar="0" Cut="1.3002633666992188e+02" cType="1" res="-5.4217926226556301e-03" rms="3.5187596082687378e-01" purity="4.9579128623008728e-01" nType="0">
        <Node pos="l" depth="1" NCoef="0" IVar="0" Cut="1.2094386291503906e+02" cType="1" res="4.9623612314462662e-02" rms="3.7902364134788513e-01" purity="6.5365809202194214e-01" nType="0">
          <Node pos="l" depth="2" NCoef="0" IVar="0" Cut="1.1805398559570312e+02" cType="1" res="-1.1956839263439178e-01" rms="3.7154215574264526e-01" purity="2.0818038284778595e-01" nType="0">
            <Node pos="l" depth="3" NCoef="0" IVar="-1" Cut="0.0000000000000000e+00" cType="1" res="-4.0823515504598618e-02" rms="3.0930304527282715e-01" purity="1.1213409155607224e-01" nType="-99"/>
            <Node pos="r" depth="3" NCoef="0" IVar="-1" Cut="0.0000000000000000e+00" cType="1" res="-3.7035804707556963e-03" rms="4.7623583674430847e-01" purity="4.4255653023719788e-01" nType="-99"/>
          </Node>
          <Node pos="r" depth="2" NCoef="0" IVar="0" Cut="1.2754906463623047e+02" cType="1" res="1.1397535353899002e-01" rms="3.6161547899246216e-01" purity="8.2309436798095703e-01" nType="0">
            <Node pos="l" depth="3" NCoef="0" IVar="-1" Cut="0.0000000000000000e+00" cType="1" res="3.6518260836601257e-02" rms="3.3263063430786133e-01" purity="8.6104929447174072e-01" nType="-99"/>
            <Node pos="r" depth="3" NCoef="0" IVar="-1" Cut="0.0000000000000000e+00" cType="1" res="-2.8823850676417351e-02" rms="4.6739262342453003e-01" purity="5.3597199916839600e-01" nType="-99"/>
          </Node>
        </Node>
        <Node pos="r" depth="1" NCoef="0" IVar="-1" Cut="0.0000000000000000e+00" cType="1" res="-5.2428875118494034e-02" rms="1.7452460527420044e-01" purity="3.1959909945726395e-02" nType="-99"/>
      </Node>
    </BinaryTree>
    <BinaryTree type="DecisionTree" boostWeight="1.0000000000000000e+00" itree="11">
      <Node pos="s" depth="0" NCoef="0" IVar="0" Cut="1.3006488037109375e+02" cType="1" res="-1.3356133422348648e-04" rms="3.4131541848182678e-01" purity="5.0187170505523682e-01" nType="0">
        <Node pos="l" depth="1" NCoef="0" IVar="0" Cut="1.1873221588134766e+02" cType="1" res="5.3932216018438339e-02" rms="3.6942663788795471e-01" purity="6.6799038648605347e-01" nType="0">
          <Node pos="l" depth="2" NCoef="0" IVar="-1" Cut="0.0000000000000000e+00" cType="1" res="-3.4075446426868439e-02" rms="3.2730373740196228e-01" purity="1.3036812841892242e-01" nType="-99"/>
          <Node pos="r" depth="2" NCoef="0" IVar="19" Cut="3.0000000000000000e+00" cType="1" res="1.5363018959760666e-02" rms="4.9031842499971390e-02" purity="8.0176699161529541e-01" nType="0">
            <Node pos="l" depth="3" NCoef="0" IVar="-1" Cut="0.0000000000000000e+00" cType="1" res="-5.2129747346043587e-03" rms="4.5757499337196350e-01" purity="5.8139151334762573e-01" nType="-99"/>
            <Node pos="r" depth="3" NCoef="0" IVar="-1" Cut="0.0000000000000000e+00" cType="1" res="4.0645048022270203e-02" rms="3.0197295546531677e-01" purity="8.9621037244796753e-01" nType="-99"/>
          </Node>
        </Node>
        <Node pos="r" depth="1" NCoef="0" IVar="-1" Cut="0.0000000000000000e+00" cType="1" res="-5.1644545048475266e-02" rms="1.6579434275627136e-01" purity="2.8466386720538139e-02" nType="-99"/>
      </Node>
    </BinaryTree>
    <BinaryTree type="DecisionTree" boostWeight="1.0000000000000000e+00" itree="12">
      <Node pos="s" depth="0" NCoef="0" IVar="19" Cut="3.0000000000000000e+00" cType="1" res="8.5816159844398499e-03" rms="3.8362115621566772e-02" purity="5.1826655864715576e-01" nType="0">
        <Node pos="l" depth="1" NCoef="0" IVar="12" Cut="1.9240204095840454e+00" cType="1" res="-1.0464176535606384e-01" rms="3.3979249000549316e-01" purity="2.7122017741203308e-01" nType="0">
          <Node pos="l" depth="2" NCoef="0" IVar="-1" Cut="0.0000000000000000e+00" cType="1" res="1.2739673256874084e-02" rms="3.7838739156723022e-01" purity="5.0639253854751587e-01" nType="-99"/>
          <Node pos="r" depth="2" NCoef="0" IVar="31" Cut="4.6401306152343750e+01" cType="1" res="-1.4347133040428162e-01" rms="3.1779631972312927e-01" purity="2.1268165111541748e-01" nType="0">
            <Node pos="l" depth="3" NCoef="0" IVar="-1" Cut="0.0000000000000000e+00" cType="1" res="-4.5966908335685730e-02" rms="3.0956244468688965e-01" purity="1.8083518743515015e-01" nType="-99"/>
            <Node pos="r" depth="3" NCoef="0" IVar="-1" Cut="0.0000000000000000e+00" cType="1" res="-2.1811624988913536e-02" rms="3.2882550358772278e-01" purity="2.9301160573959351e-01" nType="-99"/>
          </Node>
        </Node>
        <Node pos="r" depth="1" NCoef="0" IVar="0" Cut="1.2003549957275391e+02" cType="1" res="9.2963464558124542e-02" rms="3.0175897479057312e-01" purity="6.9504481554031372e-01" nType="0">
          <Node pos="l" depth="2" NCoef="0" IVar="-1" Cut="0.0000000000000000e+00" cType="1" res="-1.3173642568290234e-02" rms="4.1635158658027649e-01" purity="2.6500725746154785e-01" nType="-99"/>
          <Node pos="r" depth="2" NCoef="0" IVar="0" Cut="1.2730223083496094e+02" cType="1" res="1.1910087615251541e-01" rms="2.6811772584915161e-01" purity="7.7160960435867310e-01" nType="0">
            <Node pos="l" depth="3" NCoef="0" IVar="-1" Cut="0.0000000000000000e+00" cType="1" res="4.9725312739610672e-02" rms="2.2953522205352783e-01" purity="9.4356918334960938e-01" nType="-99"/>
            <Node pos="r" depth="3" NCoef="0" IVar="-1" Cut="0.0000000000000000e+00" cType="1" res="-1.1082349345088005e-02" rms="3.0300334095954895e-01" purity="3.0449774861335754e-01" nType="-99"/>
          </Node>
        </Node>
      </Node>
    </BinaryTree>
    <BinaryTree type="DecisionTree" boostWeight="1.0000000000000000e+00" itree="13">
      <Node pos="s" depth="0" NCoef="0" IVar="0" Cut="1.3501016235351562e+02" cType="1" res="-8.2489126361906528e-04" rms="3.3562237024307251e-01" purity="5.0710439682006836e-01" nType="0">
        <Node pos="l" depth="1" NCoef="0" IVar="1" Cut="1.1899897766113281e+02" cType="1" res="3.6369863897562027e-02" rms="3.6241185665130615e-01" purity="6.2751078605651855e-01" nType="0">
          <Node pos="l" depth="2" NCoef="0" IVar="54" Cut="-1.4677621424198151e-01" cType="1" res="-1.7867406830191612e-02" rms="3.6941552162170410e-01" purity="5.4359668493270874e-01" nType="0">
            <Node pos="l" depth="3" NCoef="0" IVar="-1" Cut="0.0000000000000000e+00" cType="1" res="-3.1079063192009926e-02" rms="3.6197453737258911e-01" purity="2.5826361775398254e-01" nType="-99"/>
            <Node pos="r" depth="3" NCoef="0" IVar="-1" Cut="0.0000000000000000e+00" cType="1" res="9.1462507843971252e-03" rms="3.6211118102073669e-01" purity="6.7735803127288818e-01" nType="-99"/>
          </Node>
          <Node pos="r" depth="2" NCoef="0" IVar="18" Cut="4.0000000000000000e+00" cType="1" res="2.3309513926506042e-03" rms="7.1435019373893738e-02" purity="7.8166514635086060e-01" nType="0">
            <Node pos="l" depth="3" NCoef="0" IVar="-1" Cut="0.0000000000000000e+00" cType="1" res="1.6781337559223175e-02" rms="4.0513452887535095e-01" purity="6.3299024105072021e-01" nType="-99"/>
            <Node pos="r" depth="3" NCoef="0" IVar="-1" Cut="0.0000000000000000e+00" cType="1" res="4.8583395779132843e-02" rms="2.7201476693153381e-01" purity="8.5672545433044434e-01" nType="-99"/>
          </Node>
        </Node>
        <Node pos="r" depth="1" NCoef="0" IVar="-1" Cut="0.0000000000000000e+00" cType="1" res="-5.7798974215984344e-02" rms="6.9231174886226654e-02" purity="4.8390175215899944e-03" nType="-99"/>
      </Node>
    </BinaryTree>
    <BinaryTree type="DecisionTree" boostWeight="1.0000000000000000e+00" itree="14">
      <Node pos="s" depth="0" NCoef="0" IVar="0" Cut="1.3000538635253906e+02" cType="1" res="3.8054294418543577e-03" rms="3.2272908091545105e-01" purity="5.0159698724746704e-01" nType="0">
        <Node pos="l" depth="1" NCoef="0" IVar="0" Cut="1.1865015411376953e+02" cType="1" res="5.0996027886867523e-02" rms="3.5470211505889893e-01" purity="6.8164372444152832e-01" nType="0">
          <Node pos="l" depth="2" NCoef="0" IVar="-1" Cut="0.0000000000000000e+00" cType="1" res="-2.8797687962651253e-02" rms="3.3335763216018677e-01" purity="1.3745988905429840e-01" nType="-99"/>
          <Node pos="r" depth="2" NCoef="0" IVar="18" Cut="4.0000000000000000e+00" cType="1" res="2.5199232622981071e-02" rms="4.5420337468385696e-02" purity="8.0956733226776123e-01" nType="0">
            <Node pos="l" depth="3" NCoef="0" IVar="-1" Cut="0.0000000000000000e+00" cType="1" res="1.5299180522561073e-03" rms="4.3736416101455688e-01" purity="6.3673961162567139e-01" nType="-99"/>
            <Node pos="r" depth="3" NCoef="0" IVar="-1" Cut="0.0000000000000000e+00" cType="1" res="3.9522271603345871e-02" rms="2.7592834830284119e-01" purity="9.0990942716598511e-01" nType="-99"/>
          </Node>
        </Node>
        <Node pos="r" depth="1" NCoef="0" IVar="-1" Cut="0.0000000000000000e+00" cType="1" res="-4.7344084829092026e-02" rms="1.6155721247196198e-01" purity="2.8942698612809181e-02" nType="-99"/>
      </Node>
    </BinaryTree>
    <BinaryTree type="DecisionTree" boostWeight="1.0000000000000000e+00" itree="15">
      <Node pos="s" depth="0" NCoef="0" IVar="19" Cut="3.0000000000000000e+00" cType="1" res="8.1270830705761909e-03" rms="3.7416022270917892e-02" purity="4.9125251173973083e-01" nType="0">
        <Node pos="l" depth="1" NCoef="0" IVar="12" Cut="1.9396680593490601e+00" cType="1" res="-8.1845223903656006e-02" rms="3.2456994056701660e-01" purity="2.6024463772773743e-01" nType="0">
          <Node pos="l" depth="2" NCoef="0" IVar="-1" Cut="0.0000000000000000e+00" cType="1" res="1.0437005199491978e-02" rms="3.7293767929077148e-01" purity="4.9654319882392883e-01" nType="-99"/>
          <Node pos="r" depth="2" NCoef="0" IVar="50" Cut="-5.3134113550186157e-01" cType="1" res="-1.1136720329523087e-01" rms="3.0450457334518433e-01" purity="2.0324489474296570e-01" nType="0">
            <Node pos="l" depth="3" NCoef="0" IVar="-1" Cut="0.0000000000000000e+00" cType="1" res="-3.7643756717443466e-02" rms="2.9567590355873108e-01" purity="1.6587188839912415e-01" nType="-99"/>
            <Node pos="r" depth="3" NCoef="0" IVar="-1" Cut="0.0000000000000000e+00" cType="1" res="-1.5726152807474136e-02" rms="3.3185577392578125e-01" purity="3.5559171438217163e-01" nType="-99"/>
          </Node>
        </Node>
        <Node pos="r" depth="1" NCoef="0" IVar="12" Cut="2.6109201908111572e+00" cType="1" res="4.9974642693996429e-02" rms="3.1154540181159973e-01" purity="6.5646713972091675e-01" nType="0">
          <Node pos="l" depth="2" NCoef="0" IVar="13" Cut="1.1862282752990723e+00" cType="1" res="8.2335658371448517e-02" rms="2.9750758409500122e-01" purity="7.1462535858154297e-01" nType="0">
            <Node pos="l" depth="3" NCoef="0" IVar="-1" Cut="0.0000000000000000e+00" cType="1" res="3.2797321677207947e-02" rms="2.7385070919990540e-01" purity="7.3982089757919312e-01" nType="-99"/>
            <Node pos="r" depth="3" NCoef="0" IVar="-1" Cut="0.0000000000000000e+00" cType="1" res="-1.2000737711787224e-02" rms="3.8073992729187012e-01" purity="5.7784885168075562e-01" nType="-99"/>
          </Node>
          <Node pos="r" depth="2" NCoef="0" IVar="18" Cut="5.0000000000000000e+00" cType="1" res="-1.2129930779337883e-02" rms="3.2802715897560120e-01" purity="5.4485476016998291e-01" nType="0">
            <Node pos="l" depth="3" NCoef="0" IVar="-1" Cut="0.0000000000000000e+00" cType="1" res="-1.7688212916254997e-02" rms="3.4051179885864258e-01" purity="4.6003666520118713e-01" nType="-99"/>
            <Node pos="r" depth="3" NCoef="0" IVar="-1" Cut="0.0000000000000000e+00" cType="1" res="1.5218494459986687e-02" rms="2.9998925328254700e-01" purity="6.6178846359252930e-01" nType="-99"/>
          </Node>
        </Node>
      </Node>
    </BinaryTree>
    <BinaryTree type="DecisionTree" boostWeight="1.0000000000000000e+00" itree="16">
      <Node pos="s" depth="0" NCoef="0" IVar="0" Cut="1.3503324890136719e+02" cType="1" res="1.5312582254409790e-03" rms="3.2418638467788696e-01" purity="5.0679892301559448e-01" nType="0">
        <Node pos="l" depth="1" NCoef="0" IVar="0" Cut="1.2141537475585938e+02" cType="1" res="3.2500132918357849e-02" rms="3.5254025459289551e-01" purity="6.2706422805786133e-01" nType="0">
          <Node pos="l" depth="2" NCoef="0" IVar="36" Cut="1.7134128808975220e+00" cType="1" res="-7.9462535679340363e-02" rms="3.6942026019096375e-01" purity="2.4942807853221893e-01" nType="0">
            <Node pos="l" depth="3" NCoef="0" IVar="-1" Cut="0.0000000000000000e+00" cType="1" res="-2.7879383414983749e-03" rms="3.8362079858779907e-01" purity="3.2298883795738220e-01" nType="-99"/>
            <Node pos="r" depth="3" NCoef="0" IVar="-1" Cut="0.0000000000000000e+00" cType="1" res="-3.9798613637685776e-02" rms="3.4049373865127563e-01" purity="1.7490720748901367e-01" nType="-99"/>
          </Node>
          <Node pos="r" depth="2" NCoef="0" IVar="0" Cut="1.2760450744628906e+02" cType="1" res="7.2254650294780731e-02" rms="3.3752933144569397e-01" purity="7.6115125417709351e-01" nType="0">
            <Node pos="l" depth="3" NCoef="0" IVar="-1" Cut="0.0000000000000000e+00" cType="1" res="3.1724143773317337e-02" rms="3.1181287765502930e-01" purity="8.7179082632064819e-01" nType="-99"/>
            <Node pos="r" depth="3" NCoef="0" IVar="-1" Cut="0.0000000000000000e+00" cType="1" res="-2.0823463797569275e-02" rms="3.9218026399612427e-01" purity="3.3199012279510498e-01" nType="-99"/>
          </Node>
        </Node>
        <Node pos="r" depth="1" NCoef="0" IVar="-1" Cut="0.0000000000000000e+00" cType="1" res="-5.5845912545919418e-02" rms="6.4329445362091064e-02" purity="4.1441344656050205e-03" nType="-99"/>
      </Node>
    </BinaryTree>
    <BinaryTree type="DecisionTree" boostWeight="1.0000000000000000e+00" itree="17">
      <Node pos="s" depth="0" NCoef="0" IVar="18" Cut="5.0000000000000000e+00" cType="1" res="2.3688267916440964e-02" rms="3.1217889860272408e-02" purity="4.9610939621925354e-01" nType="0">
        <Node pos="l" depth="1" NCoef="0" IVar="12" Cut="1.4776839017868042e+00" cType="1" res="-4.2234033346176147e-02" rms="3.2536843419075012e-01" purity="3.9399266242980957e-01" nType="0">
          <Node pos="l" depth="2" NCoef="0" IVar="-1" Cut="0.0000000000000000e+00" cType="1" res="3.3626820892095566e-02" rms="3.0068218708038330e-01" purity="7.0211297273635864e-01" nType="-99"/>
          <Node pos="r" depth="2" NCoef="0" IVar="55" Cut="6.0000000000000000e+00" cType="1" res="-5.7909831404685974e-02" rms="3.2271650433540344e-01" purity="3.5242250561714172e-01" nType="0">
            <Node pos="l" depth="3" NCoef="0" IVar="-1" Cut="0.0000000000000000e+00" cType="1" res="-2.7834685519337654e-02" rms="3.2291102409362793e-01" purity="2.9215964674949646e-01" nType="-99"/>
            <Node pos="r" depth="3" NCoef="0" IVar="-1" Cut="0.0000000000000000e+00" cType="1" res="8.9036086574196815e-03" rms="3.0491575598716736e-01" purity="5.6875568628311157e-01" nType="-99"/>
          </Node>
        </Node>
        <Node pos="r" depth="1" NCoef="0" IVar="1" Cut="1.1363937377929688e+02" cType="1" res="8.8455803692340851e-02" rms="2.8730249404907227e-01" purity="7.5726705789566040e-01" nType="0">
          <Node pos="l" depth="2" NCoef="0" IVar="11" Cut="1.4302837848663330e+00" cType="1" res="4.5687563717365265e-02" rms="3.0886271595954895e-01" purity="6.8252885341644287e-01" nType="0">
            <Node pos="l" depth="3" NCoef="0" IVar="-1" Cut="0.0000000000000000e+00" cType="1" res="-1.2717246077954769e-02" rms="3.6337479948997498e-01" purity="5.6334251165390015e-01" nType="-99"/>
            <Node pos="r" depth="3" NCoef="0" IVar="-1" Cut="0.0000000000000000e+00" cType="1" res="2.9080430045723915e-02" rms="2.6526185870170593e-01" purity="7.4546349048614502e-01" nType="-99"/>
          </Node>
          <Node pos="r" depth="2" NCoef="0" IVar="38" Cut="1.1410755920410156e+02" cType="1" res="1.4578819274902344e-01" rms="2.4407619237899780e-01" purity="8.5745644569396973e-01" nType="0">
            <Node pos="l" depth="3" NCoef="0" IVar="-1" Cut="0.0000000000000000e+00" cType="1" res="3.2995756715536118e-02" rms="2.8966799378395081e-01" purity="8.1287711858749390e-01" nType="-99"/>
            <Node pos="r" depth="3" NCoef="0" IVar="-1" Cut="0.0000000000000000e+00" cType="1" res="6.6492803394794464e-02" rms="1.6188853979110718e-01" purity="9.0976709127426147e-01" nType="-99"/>
          </Node>
        </Node>
      </Node>
    </BinaryTree>
    <BinaryTree type="DecisionTree" boostWeight="1.0000000000000000e+00" itree="18">
      <Node pos="s" depth="0" NCoef="0" IVar="12" Cut="1.8881983757019043e+00" cType="1" res="-1.0107885114848614e-02" rms="3.1928825378417969e-01" purity="4.8618537187576294e-01" nType="0">
        <Node pos="l" depth="1" NCoef="0" IVar="2" Cut="1.3221604919433594e+02" cType="1" res="8.9881792664527893e-02" rms="3.0760920047760010e-01" purity="7.2306770086288452e-01" nType="0">
          <Node pos="l" depth="2" NCoef="0" IVar="17" Cut="8.4085929870605469e+01" cType="1" res="3.7556890398263931e-02" rms="3.2487809658050537e-01" purity="6.4191573858261108e-01" nType="0">
            <Node pos="l" depth="3" NCoef="0" IVar="-1" Cut="0.0000000000000000e+00" cType="1" res="-8.7423035874962807e-03" rms="3.5773617029190063e-01" purity="5.5610680580139160e-01" nType="-99"/>
            <Node pos="r" depth="3" NCoef="0" IVar="-1" Cut="0.0000000000000000e+00" cType="1" res="2.5538163259625435e-02" rms="2.9432711005210876e-01" purity="6.9656527042388916e-01" nType="-99"/>
          </Node>
          <Node pos="r" depth="2" NCoef="0" IVar="36" Cut="1.1422864198684692e+00" cType="1" res="1.5788243710994720e-01" rms="2.6878744363784790e-01" purity="8.2853168249130249e-01" nType="0">
            <Node pos="l" depth="3" NCoef="0" IVar="-1" Cut="0.0000000000000000e+00" cType="1" res="6.7872703075408936e-02" rms="2.1309441328048706e-01" purity="9.2166709899902344e-01" nType="-99"/>
            <Node pos="r" depth="3" NCoef="0" IVar="-1" Cut="0.0000000000000000e+00" cType="1" res="2.8001023456454277e-02" rms="3.0740916728973389e-01" purity="7.2360521554946899e-01" nType="-99"/>
          </Node>
        </Node>
        <Node pos="r" depth="1" NCoef="0" IVar="20" Cut="3.0000000000000000e+00" cType="1" res="-4.5747265219688416e-02" rms="3.1578612327575684e-01" purity="4.0175330638885498e-01" nType="0">
          <Node pos="l" depth="2" NCoef="0" IVar="54" Cut="8.0507880449295044e-01" cType="1" res="-8.9997589588165283e-02" rms="3.1274726986885071e-01" purity="2.5832441449165344e-01" nType="0">
            <Node pos="l" depth="3" NCoef="0" IVar="-1" Cut="0.0000000000000000e+00" cType="1" res="-3.2927036285400391e-02" rms="3.0857393145561218e-01" purity="2.1575798094272614e-01" nType="-99"/>
            <Node pos="r" depth="3" NCoef="0" IVar="-1" Cut="0.0000000000000000e+00" cType="1" res="-2.0129578188061714e-03" rms="3.2580482959747314e-01" purity="5.2823489904403687e-01" nType="-99"/>
          </Node>
          <Node pos="r" depth="2" NCoef="0" IVar="5" Cut="1.0000000000000000e+00" cType="1" res="-9.8920660093426704e-03" rms="8.8743418455123901e-02" purity="6.3303780555725098e-01" nType="0">
            <Node pos="l" depth="3" NCoef="0" IVar="-1" Cut="0.0000000000000000e+00" cType="1" res="-3.7810546346008778e-03" rms="3.4550541639328003e-01" purity="6.0224330425262451e-01" nType="-99"/>
            <Node pos="r" depth="3" NCoef="0" IVar="-1" Cut="0.0000000000000000e+00" cType="1" res="2.4715254083275795e-02" rms="2.4165485799312592e-01" purity="6.7286515235900879e-01" nType="-99"/>
          </Node>
        </Node>
      </Node>
    </BinaryTree>
    <BinaryTree type="DecisionTree" boostWeight="1.0000000000000000e+00" itree="19">
      <Node pos="s" depth="0" NCoef="0" IVar="0" Cut="1.3001271057128906e+02" cType="1" res="1.9697512034326792e-03" rms="3.1103977560997009e-01" purity="4.9652960896492004e-01" nType="0">
        <Node pos="l" depth="1" NCoef="0" IVar="0" Cut="1.2092636108398438e+02" cType="1" res="3.9224386215209961e-02" rms="3.4653109312057495e-01" purity="6.8221110105514526e-01" nType="0">
          <Node pos="l" depth="2" NCoef="0" IVar="51" Cut="4.1872984170913696e-01" cType="1" res="-6.8315707147121429e-02" rms="3.6071598529815674e-01" purity="2.2228862345218658e-01" nType="0">
            <Node pos="l" depth="3" NCoef="0" IVar="-1" Cut="0.0000000000000000e+00" cType="1" res="-3.0047481879591942e-02" rms="3.1680712103843689e-01" purity="1.4513738453388214e-01" nType="-99"/>
            <Node pos="r" depth="3" NCoef="0" IVar="-1" Cut="0.0000000000000000e+00" cType="1" res="3.5206574830226600e-04" rms="4.3084603548049927e-01" purity="3.8487711548805237e-01" nType="-99"/>
          </Node>
          <Node pos="r" depth="2" NCoef="0" IVar="15" Cut="-5.6367558240890503e-01" cType="1" res="7.6446466147899628e-02" rms="3.3350121974945068e-01" purity="8.4140074253082275e-01" nType="0">
            <Node pos="l" depth="3" NCoef="0" IVar="-1" Cut="0.0000000000000000e+00" cType="1" res="-2.8420877060852945e-04" rms="3.9511957764625549e-01" purity="7.5338113307952881e-01" nType="-99"/>
            <Node pos="r" depth="3" NCoef="0" IVar="-1" Cut="0.0000000000000000e+00" cType="1" res="3.2147549092769623e-02" rms="3.0182811617851257e-01" purity="8.7471979856491089e-01" nType="-99"/>
          </Node>
        </Node>
        <Node pos="r" depth="1" NCoef="0" IVar="-1" Cut="0.0000000000000000e+00" cType="1" res="-4.3357376009225845e-02" rms="1.6042418777942657e-01" purity="2.9275665059685707e-02" nType="-99"/>
      </Node>
    </BinaryTree>
    <BinaryTree type="DecisionTree" boostWeight="1.0000000000000000e+00" itree="20">
      <Node pos="s" depth="0" NCoef="0" IVar="18" Cut="4.0000000000000000e+00" cType="1" res="0.0000000000000000e+00" rms="3.8805607706308365e-02" purity="4.8240545392036438e-01" nType="0">
        <Node pos="l" depth="1" NCoef="0" IVar="17" Cut="7.3254364013671875e+01" cType="1" res="-6.2665142118930817e-02" rms="3.2239428162574768e-01" purity="2.9154524207115173e-01" nType="0">
          <Node pos="l" depth="2" NCoef="0" IVar="2" Cut="1.0877027893066406e+02" cType="1" res="-9.3830421566963196e-02" rms="3.2126605510711670e-01" purity="2.4377693235874176e-01" nType="0">
            <Node pos="l" depth="3" NCoef="0" IVar="-1" Cut="0.0000000000000000e+00" cType="1" res="-3.9767600595951080e-02" rms="3.0080041289329529e-01" purity="1.8652363121509552e-01" nType="-99"/>
            <Node pos="r" depth="3" NCoef="0" IVar="-1" Cut="0.0000000000000000e+00" cType="1" res="-1.5969740226864815e-02" rms="3.4633949398994446e-01" purity="3.3223626017570496e-01" nType="-99"/>
          </Node>
          <Node pos="r" depth="2" NCoef="0" IVar="12" Cut="1.8898540735244751e+00" cType="1" res="-7.3621263727545738e-03" rms="3.1693014502525330e-01" purity="3.7631046772003174e-01" nType="0">
            <Node pos="l" depth="3" NCoef="0" IVar="-1" Cut="0.0000000000000000e+00" cType="1" res="1.8238397315144539e-02" rms="3.4563502669334412e-01" purity="6.0283535718917847e-01" nType="-99"/>
            <Node pos="r" depth="3" NCoef="0" IVar="-1" Cut="0.0000000000000000e+00" cType="1" res="-1.5913739800453186e-02" rms="2.9376852512359619e-01" purity="2.5608539581298828e-01" nType="-99"/>
          </Node>
        </Node>
        <Node pos="r" depth="1" NCoef="0" IVar="52" Cut="8.0592566728591919e-01" cType="1" res="3.6183394491672516e-02" rms="3.0426788330078125e-01" purity="6.5929621458053589e-01" nType="0">
          <Node pos="l" depth="2" NCoef="0" IVar="34" Cut="1.0814955139160156e+02" cType="1" res="5.1008258014917374e-03" rms="3.2593387365341187e-01" purity="5.9839129447937012e-01" nType="0">
            <Node pos="l" depth="3" NCoef="0" IVar="-1" Cut="0.0000000000000000e+00" cType="1" res="8.7405042722821236e-03" rms="3.1668210029602051e-01" purity="6.3335943222045898e-01" nType="-99"/>
            <Node pos="r" depth="3" NCoef="0" IVar="-1" Cut="0.0000000000000000e+00" cType="1" res="-3.1097611412405968e-02" rms="3.5167270898818970e-01" purity="4.2898383736610413e-01" nType="-99"/>
          </Node>
          <Node pos="r" depth="2" NCoef="0" IVar="9" Cut="1.6964610815048218e+00" cType="1" res="1.0473143309354782e-01" rms="2.3587647080421448e-01" purity="7.9361319541931152e-01" nType="0">
            <Node pos="l" depth="3" NCoef="0" IVar="-1" Cut="0.0000000000000000e+00" cType="1" res="1.7080890014767647e-02" rms="2.9580679535865784e-01" purity="7.0352703332901001e-01" nType="-99"/>
            <Node pos="r" depth="3" NCoef="0" IVar="-1" Cut="0.0000000000000000e+00" cType="1" res="4.8292752355337143e-02" rms="1.8191006779670715e-01" purity="8.4854817390441895e-01" nType="-99"/>
          </Node>
        </Node>
      </Node>
    </BinaryTree>
    <BinaryTree type="DecisionTree" boostWeight="1.0000000000000000e+00" itree="21">
      <Node pos="s" depth="0" NCoef="0" IVar="55" Cut="3.0000000000000000e+00" cType="1" res="3.6812215112149715e-03" rms="3.0603489279747009e-01" purity="4.9869608879089355e-01" nType="0">
        <Node pos="l" depth="1" NCoef="0" IVar="12" Cut="2.4524159431457520e+00" cType="1" res="-8.1849813461303711e-02" rms="3.1343212723731995e-01" purity="2.2777993977069855e-01" nType="0">
          <Node pos="l" depth="2" NCoef="0" IVar="-1" Cut="0.0000000000000000e+00" cType="1" res="-1.0520418174564838e-02" rms="3.5050296783447266e-01" purity="3.4364435076713562e-01" nType="-99"/>
          <Node pos="r" depth="2" NCoef="0" IVar="-1" Cut="0.0000000000000000e+00" cType="1" res="-3.8216341286897659e-02" rms="2.8184086084365845e-01" purity="1.5006905794143677e-01" nType="-99"/>
        </Node>
        <Node pos="r" depth="1" NCoef="0" IVar="0" Cut="1.3002557373046875e+02" cType="1" res="3.8044221699237823e-02" rms="2.9592290520668030e-01" purity="6.2576746940612793e-01" nType="0">
          <Node pos="l" depth="2" NCoef="0" IVar="0" Cut="1.1867317962646484e+02" cType="1" res="6.4415216445922852e-02" rms="3.0872592329978943e-01" purity="7.6975518465042114e-01" nType="0">
            <Node pos="l" depth="3" NCoef="0" IVar="-1" Cut="0.0000000000000000e+00" cType="1" res="-2.1760065108537674e-02" rms="3.6755669116973877e-01" purity="1.7254360020160675e-01" nType="-99"/>
            <Node pos="r" depth="3" NCoef="0" IVar="-1" Cut="0.0000000000000000e+00" cType="1" res="3.0920336022973061e-02" rms="2.8650003671646118e-01" purity="8.9154523611068726e-01" nType="-99"/>
          </Node>
          <Node pos="r" depth="2" NCoef="0" IVar="-1" Cut="0.0000000000000000e+00" cType="1" res="-3.2500959932804108e-02" rms="2.0673781633377075e-01" purity="5.0270039588212967e-02" nType="-99"/>
        </Node>
      </Node>
    </BinaryTree>
    <BinaryTree type="DecisionTree" boostWeight="1.0000000000000000e+00" itree="22">
      <Node pos="s" depth="0" NCoef="0" IVar="12" Cut="2.4375765323638916e+00" cType="1" res="-6.0420378576964140e-04" rms="3.1293109059333801e-01" purity="5.0610411167144775e-01" nType="0">
        <Node pos="l" depth="1" NCoef="0" IVar="0" Cut="1.2000632476806641e+02" cType="1" res="4.8736467957496643e-02" rms="3.1220778822898865e-01" purity="6.4910608530044556e-01" nType="0">
          <Node pos="l" depth="2" NCoef="0" IVar="-1" Cut="0.0000000000000000e+00" cType="1" res="-1.2882762588560581e-02" rms="3.6879771947860718e-01" purity="2.2652496397495270e-01" nType="-99"/>
          <Node pos="r" depth="2" NCoef="0" IVar="2" Cut="1.2715763854980469e+02" cType="1" res="7.0231556892395020e-02" rms="2.9378202557563782e-01" purity="7.4388802051544189e-01" nType="0">
            <Node pos="l" depth="3" NCoef="0" IVar="-1" Cut="0.0000000000000000e+00" cType="1" res="1.1113735847175121e-02" rms="3.2297882437705994e-01" purity="6.7868232727050781e-01" nType="-99"/>
            <Node pos="r" depth="3" NCoef="0" IVar="-1" Cut="0.0000000000000000e+00" cType="1" res="4.7188565135002136e-02" rms="2.2928524017333984e-01" purity="8.4489059448242188e-01" nType="-99"/>
          </Node>
        </Node>
        <Node pos="r" depth="1" NCoef="0" IVar="18" Cut="5.0000000000000000e+00" cType="1" res="0.0000000000000000e+00" rms="0.0000000000000000e+00" purity="3.6312267184257507e-01" nType="0">
          <Node pos="l" depth="2" NCoef="0" IVar="0" Cut="1.2543861389160156e+02" cType="1" res="-7.1043163537979126e-02" rms="3.0394968390464783e-01" purity="2.7286311984062195e-01" nType="0">
            <Node pos="l" depth="3" NCoef="0" IVar="-1" Cut="0.0000000000000000e+00" cType="1" res="-8.9333541691303253e-03" rms="3.6290132999420166e-01" purity="4.3975362181663513e-01" nType="-99"/>
            <Node pos="r" depth="3" NCoef="0" IVar="-1" Cut="0.0000000000000000e+00" cType="1" res="-4.2105697095394135e-02" rms="2.5012412667274475e-01" purity="1.5478575229644775e-01" nType="-99"/>
          </Node>
          <Node pos="r" depth="2" NCoef="0" IVar="55" Cut="7.0000000000000000e+00" cType="1" res="2.7187224477529526e-02" rms="2.9976925253868103e-01" purity="6.7810612916946411e-01" nType="0">
            <Node pos="l" depth="3" NCoef="0" IVar="-1" Cut="0.0000000000000000e+00" cType="1" res="-4.9404576420783997e-03" rms="3.1742227077484131e-01" purity="5.9376674890518188e-01" nType="-99"/>
            <Node pos="r" depth="3" NCoef="0" IVar="-1" Cut="0.0000000000000000e+00" cType="1" res="2.1619357168674469e-02" rms="2.7967253327369690e-01" purity="7.5680065155029297e-01" nType="-99"/>
          </Node>
        </Node>
      </Node>
    </BinaryTree>
    <BinaryTree type="DecisionTree" boostWeight="1.0000000000000000e+00" itree="23">
      <Node pos="s" depth="0" NCoef="0" IVar="0" Cut="1.3505973815917969e+02" cType="1" res="-3.5900110378861427e-03" rms="3.1212249398231506e-01" purity="5.0125676393508911e-01" nType="0">
        <Node pos="l" depth="1" NCoef="0" IVar="0" Cut="1.2145591735839844e+02" cType="1" res="1.5380578115582466e-02" rms="3.3989679813385010e-01" purity="6.0927248001098633e-01" nType="0">
          <Node pos="l" depth="2" NCoef="0" IVar="0" Cut="1.1700459289550781e+02" cType="1" res="-7.1623533964157104e-02" rms="3.4010863304138184e-01" purity="2.2188159823417664e-01" nType="0">
            <Node pos="l" depth="3" NCoef="0" IVar="-1" Cut="0.0000000000000000e+00" cType="1" res="-3.8445580750703812e-02" rms="2.6229667663574219e-01" purity="7.9693622887134552e-02" nType="-99"/>
            <Node pos="r" depth="3" NCoef="0" IVar="-1" Cut="0.0000000000000000e+00" cType="1" res="-1.3044381048530340e-03" rms="4.1744631528854370e-01" purity="4.2265507578849792e-01" nType="-99"/>
          </Node>
          <Node pos="r" depth="2" NCoef="0" IVar="0" Cut="1.2763849639892578e+02" cType="1" res="5.0151385366916656e-02" rms="3.3352369070053101e-01" purity="7.6409161090850830e-01" nType="0">
            <Node pos="l" depth="3" NCoef="0" IVar="-1" Cut="0.0000000000000000e+00" cType="1" res="2.4859208613634109e-02" rms="3.1960317492485046e-01" purity="8.6931568384170532e-01" nType="-99"/>
            <Node pos="r" depth="3" NCoef="0" IVar="-1" Cut="0.0000000000000000e+00" cType="1" res="-1.6240552067756653e-02" rms="3.6884307861328125e-01" purity="3.3584874868392944e-01" nType="-99"/>
          </Node>
        </Node>
        <Node pos="r" depth="1" NCoef="0" IVar="-1" Cut="0.0000000000000000e+00" cType="1" res="-5.2700545638799667e-02" rms="7.0453256368637085e-02" purity="4.9641644582152367e-03" nType="-99"/>
      </Node>
    </BinaryTree>
    <BinaryTree type="DecisionTree" boostWeight="1.0000000000000000e+00" itree="24">
      <Node pos="s" depth="0" NCoef="0" IVar="20" Cut="2.0000000000000000e+00" cType="1" res="-1.8266294151544571e-02" rms="3.1908965110778809e-01" purity="4.8072430491447449e-01" nType="0">
        <Node pos="l" depth="1" NCoef="0" IVar="37" Cut="1.4278619289398193e+00" cType="1" res="-8.5653141140937805e-02" rms="2.9757398366928101e-01" purity="1.9616349041461945e-01" nType="0">
          <Node pos="l" depth="2" NCoef="0" IVar="-1" Cut="0.0000000000000000e+00" cType="1" res="-1.4212426729500294e-02" rms="2.9447996616363525e-01" purity="2.5290998816490173e-01" nType="-99"/>
          <Node pos="r" depth="2" NCoef="0" IVar="-1" Cut="0.0000000000000000e+00" cType="1" res="-4.0496695786714554e-02" rms="2.9584285616874695e-01" purity="1.6068047285079956e-01" nType="-99"/>
        </Node>
        <Node pos="r" depth="1" NCoef="0" IVar="34" Cut="1.4960433959960938e+02" cType="1" res="7.6284985989332199e-03" rms="3.2326641678810120e-01" purity="5.9007263183593750e-01" nType="0">
          <Node pos="l" depth="2" NCoef="0" IVar="0" Cut="1.3003964233398438e+02" cType="1" res="2.3073529824614525e-02" rms="3.1349673867225647e-01" purity="6.1838185787200928e-01" nType="0">
            <Node pos="l" depth="3" NCoef="0" IVar="-1" Cut="0.0000000000000000e+00" cType="1" res="1.3834705576300621e-02" rms="3.3197695016860962e-01" purity="7.5312685966491699e-01" nType="-99"/>
            <Node pos="r" depth="3" NCoef="0" IVar="-1" Cut="0.0000000000000000e+00" cType="1" res="-2.9172586277127266e-02" rms="2.0194445550441742e-01" purity="4.8140905797481537e-02" nType="-99"/>
          </Node>
          <Node pos="r" depth="2" NCoef="0" IVar="-1" Cut="0.0000000000000000e+00" cType="1" res="-5.7012915611267090e-02" rms="3.7522745132446289e-01" purity="2.9893350601196289e-01" nType="-99"/>
        </Node>
      </Node>
    </BinaryTree>
    <BinaryTree type="DecisionTree" boostWeight="1.0000000000000000e+00" itree="25">
      <Node pos="s" depth="0" NCoef="0" IVar="0" Cut="1.3502153015136719e+02" cType="1" res="1.1886417865753174e-02" rms="2.9482635855674744e-01" purity="5.0700366497039795e-01" nType="0">
        <Node pos="l" depth="1" NCoef="0" IVar="19" Cut="2.0000000000000000e+00" cType="1" res="1.3491496210917830e-03" rms="4.2589075863361359e-02" purity="6.3540679216384888e-01" nType="0">
          <Node pos="l" depth="2" NCoef="0" IVar="-1" Cut="0.0000000000000000e+00" cType="1" res="-2.6055131107568741e-02" rms="3.3210137486457825e-01" purity="2.1851633489131927e-01" nType="-99"/>
          <Node pos="r" depth="2" NCoef="0" IVar="0" Cut="1.1867326354980469e+02" cType="1" res="5.5016495287418365e-02" rms="3.1893840432167053e-01" purity="7.0630282163619995e-01" nType="0">
            <Node pos="l" depth="3" NCoef="0" IVar="-1" Cut="0.0000000000000000e+00" cType="1" res="-1.4265716075897217e-02" rms="3.4845101833343506e-01" purity="1.6125135123729706e-01" nType="-99"/>
            <Node pos="r" depth="3" NCoef="0" IVar="-1" Cut="0.0000000000000000e+00" cType="1" res="2.6129791513085365e-02" rms="3.0900177359580994e-01" purity="8.1342154741287231e-01" nType="-99"/>
          </Node>
        </Node>
        <Node pos="r" depth="1" NCoef="0" IVar="-1" Cut="0.0000000000000000e+00" cType="1" res="-5.1498625427484512e-02" rms="6.7986726760864258e-02" purity="4.6248952858150005e-03" nType="-99"/>
      </Node>
    </BinaryTree>
    <BinaryTree type="DecisionTree" boostWeight="1.0000000000000000e+00" itree="26">
      <Node pos="s" depth="0" NCoef="0" IVar="12" Cut="1.5246149301528931e+00" cType="1" res="5.5136089213192463e-03" rms="2.9725652933120728e-01" purity="5.0589787960052490e-01" nType="0">
        <Node pos="l" depth="1" NCoef="0" IVar="40" Cut="2.2847867012023926e+00" cType="1" res="9.6974790096282959e-02" rms="2.6210409402847290e-01" purity="7.7718073129653931e-01" nType="0">
          <Node pos="l" depth="2" NCoef="0" IVar="-1" Cut="0.0000000000000000e+00" cType="1" res="1.9362973049283028e-02" rms="2.9783380031585693e-01" purity="7.2845762968063354e-01" nType="-99"/>
          <Node pos="r" depth="2" NCoef="0" IVar="-1" Cut="0.0000000000000000e+00" cType="1" res="5.7914920151233673e-02" rms="1.7926833033561707e-01" purity="8.4895861148834229e-01" nType="-99"/>
        </Node>
        <Node pos="r" depth="1" NCoef="0" IVar="53" Cut="8.0655479431152344e-01" cType="1" res="-1.1665127240121365e-02" rms="3.0031371116638184e-01" purity="4.5494401454925537e-01" nType="0">
          <Node pos="l" depth="2" NCoef="0" IVar="0" Cut="1.2013425445556641e+02" cType="1" res="-3.0971026048064232e-02" rms="3.0668091773986816e-01" purity="3.7213090062141418e-01" nType="0">
            <Node pos="l" depth="3" NCoef="0" IVar="-1" Cut="0.0000000000000000e+00" cType="1" res="-3.1809106469154358e-02" rms="2.6634529232978821e-01" purity="9.4667196273803711e-02" nType="-99"/>
            <Node pos="r" depth="3" NCoef="0" IVar="-1" Cut="0.0000000000000000e+00" cType="1" res="-5.6714983657002449e-03" rms="3.1517538428306580e-01" purity="4.4923448562622070e-01" nType="-99"/>
          </Node>
          <Node pos="r" depth="2" NCoef="0" IVar="41" Cut="1.9992433786392212e+00" cType="1" res="6.0538429766893387e-02" rms="2.6291927695274353e-01" purity="7.6466304063796997e-01" nType="0">
            <Node pos="l" depth="3" NCoef="0" IVar="-1" Cut="0.0000000000000000e+00" cType="1" res="1.0475822724401951e-02" rms="2.9329895973205566e-01" purity="7.0728063583374023e-01" nType="-99"/>
            <Node pos="r" depth="3" NCoef="0" IVar="-1" Cut="0.0000000000000000e+00" cType="1" res="5.4233238101005554e-02" rms="1.6331070661544800e-01" purity="8.8340544700622559e-01" nType="-99"/>
          </Node>
        </Node>
      </Node>
    </BinaryTree>
    <BinaryTree type="DecisionTree" boostWeight="1.0000000000000000e+00" itree="27">
      <Node pos="s" depth="0" NCoef="0" IVar="0" Cut="1.2003594970703125e+02" cType="1" res="-3.9368877187371254e-03" rms="3.0689546465873718e-01" purity="5.0186085700988770e-01" nType="0">
        <Node pos="l" depth="1" NCoef="0" IVar="-1" Cut="0.0000000000000000e+00" cType="1" res="-2.5528654456138611e-02" rms="3.2800817489624023e-01" purity="1.4998115599155426e-01" nType="-99"/>
        <Node pos="r" depth="1" NCoef="0" IVar="0" Cut="1.2730289459228516e+02" cType="1" res="1.3776428997516632e-02" rms="2.9898223280906677e-01" purity="5.8434504270553589e-01" nType="0">
          <Node pos="l" depth="2" NCoef="0" IVar="0" Cut="1.2267938995361328e+02" cType="1" res="5.8884873986244202e-02" rms="3.2008963823318481e-01" purity="8.5600268840789795e-01" nType="0">
            <Node pos="l" depth="3" NCoef="0" IVar="-1" Cut="0.0000000000000000e+00" cType="1" res="-4.5124529860913754e-03" rms="3.9926835894584656e-01" purity="7.2469705343246460e-01" nType="-99"/>
            <Node pos="r" depth="3" NCoef="0" IVar="-1" Cut="0.0000000000000000e+00" cType="1" res="2.7103604748845100e-02" rms="2.9716771841049194e-01" purity="8.8522613048553467e-01" nType="-99"/>
          </Node>
          <Node pos="r" depth="2" NCoef="0" IVar="12" Cut="1.8963124752044678e+00" cType="1" res="-5.6258838623762131e-02" rms="2.4705967307090759e-01" purity="1.6256988048553467e-01" nType="0">
            <Node pos="l" depth="3" NCoef="0" IVar="-1" Cut="0.0000000000000000e+00" cType="1" res="1.8838047981262207e-02" rms="3.2325583696365356e-01" purity="4.5855936408042908e-01" nType="-99"/>
            <Node pos="r" depth="3" NCoef="0" IVar="-1" Cut="0.0000000000000000e+00" cType="1" res="-4.2498294264078140e-02" rms="2.2089536488056183e-01" purity="9.8834276199340820e-02" nType="-99"/>
          </Node>
        </Node>
      </Node>
    </BinaryTree>
    <BinaryTree type="DecisionTree" boostWeight="1.0000000000000000e+00" itree="28">
      <Node pos="s" depth="0" NCoef="0" IVar="12" Cut="1.4688318967819214e+00" cType="1" res="-9.0234065428376198e-03" rms="3.1652712821960449e-01" purity="5.1078486442565918e-01" nType="0">
        <Node pos="l" depth="1" NCoef="0" IVar="38" Cut="1.4541638183593750e+02" cType="1" res="8.8947869837284088e-02" rms="2.6968148350715637e-01" purity="7.7907639741897583e-01" nType="0">
          <Node pos="l" depth="2" NCoef="0" IVar="-1" Cut="0.0000000000000000e+00" cType="1" res="2.1472714841365814e-02" rms="2.6841500401496887e-01" purity="6.9505566358566284e-01" nType="-99"/>
          <Node pos="r" depth="2" NCoef="0" IVar="-1" Cut="0.0000000000000000e+00" cType="1" res="5.0088606774806976e-02" rms="2.6570519804954529e-01" purity="8.8095384836196899e-01" nType="-99"/>
        </Node>
        <Node pos="r" depth="1" NCoef="0" IVar="2" Cut="1.0744666290283203e+02" cType="1" res="-2.5627262890338898e-02" rms="3.2084432244300842e-01" purity="4.6531572937965393e-01" nType="0">
          <Node pos="l" depth="2" NCoef="0" IVar="19" Cut="4.0000000000000000e+00" cType="1" res="0.0000000000000000e+00" rms="8.4504473209381104e-01" purity="3.9974150061607361e-01" nType="0">
            <Node pos="l" depth="3" NCoef="0" IVar="-1" Cut="0.0000000000000000e+00" cType="1" res="-2.5869717821478844e-02" rms="3.2315298914909363e-01" purity="3.0523911118507385e-01" nType="-99"/>
            <Node pos="r" depth="3" NCoef="0" IVar="-1" Cut="0.0000000000000000e+00" cType="1" res="1.0704756714403629e-03" rms="2.9421779513359070e-01" purity="6.2404990196228027e-01" nType="-99"/>
          </Node>
          <Node pos="r" depth="2" NCoef="0" IVar="37" Cut="1.7136126756668091e+00" cType="1" res="1.6200888901948929e-02" rms="3.2459729909896851e-01" purity="5.8791941404342651e-01" nType="0">
            <Node pos="l" depth="3" NCoef="0" IVar="-1" Cut="0.0000000000000000e+00" cType="1" res="2.2918069735169411e-02" rms="2.9362821578979492e-01" purity="6.7523318529129028e-01" nType="-99"/>
            <Node pos="r" depth="3" NCoef="0" IVar="-1" Cut="0.0000000000000000e+00" cType="1" res="-1.5893615782260895e-02" rms="3.5461220145225525e-01" purity="4.6676722168922424e-01" nType="-99"/>
          </Node>
        </Node>
      </Node>
    </BinaryTree>
    <BinaryTree type="DecisionTree" boostWeight="1.0000000000000000e+00" itree="29">
      <Node pos="s" depth="0" NCoef="0" IVar="52" Cut="8.0592566728591919e-01" cType="1" res="-2.8306508902460337e-03" rms="2.9650098085403442e-01" purity="4.9291279911994934e-01" nType="0">
        <Node pos="l" depth="1" NCoef="0" IVar="12" Cut="1.9293451309204102e+00" cType="1" res="-2.2606251761317253e-02" rms="3.0434858798980713e-01" purity="4.2122134566307068e-01" nType="0">
          <Node pos="l" depth="2" NCoef="0" IVar="41" Cut="1.1427133083343506e+00" cType="1" res="3.7191387265920639e-02" rms="3.0056241154670715e-01" purity="6.4454847574234009e-01" nType="0">
            <Node pos="l" depth="3" NCoef="0" IVar="-1" Cut="0.0000000000000000e+00" cType="1" res="-1.2109676375985146e-02" rms="3.1754022836685181e-01" purity="4.9940863251686096e-01" nType="-99"/>
            <Node pos="r" depth="3" NCoef="0" IVar="-1" Cut="0.0000000000000000e+00" cType="1" res="2.4587485939264297e-02" rms="2.8717967867851257e-01" purity="7.0910400152206421e-01" nType="-99"/>
          </Node>
          <Node pos="r" depth="2" NCoef="0" IVar="45" Cut="-7.6972365379333496e+00" cType="1" res="-4.4142518192529678e-02" rms="3.0282220244407654e-01" purity="3.4078952670097351e-01" nType="0">
            <Node pos="l" depth="3" NCoef="0" IVar="-1" Cut="0.0000000000000000e+00" cType="1" res="-2.9663622379302979e-02" rms="3.0107754468917847e-01" purity="1.8011008203029633e-01" nType="-99"/>
            <Node pos="r" depth="3" NCoef="0" IVar="-1" Cut="0.0000000000000000e+00" cType="1" res="-5.0939051434397697e-03" rms="3.0101561546325684e-01" purity="4.8618021607398987e-01" nType="-99"/>
          </Node>
        </Node>
        <Node pos="r" depth="1" NCoef="0" IVar="26" Cut="7.2857818603515625e+01" cType="1" res="8.3550289273262024e-02" rms="2.4113599956035614e-01" purity="8.0606520175933838e-01" nType="0">
          <Node pos="l" depth="2" NCoef="0" IVar="-1" Cut="0.0000000000000000e+00" cType="1" res="7.0871606469154358e-02" rms="1.4203648269176483e-01" purity="9.7821033000946045e-01" nType="-99"/>
          <Node pos="r" depth="2" NCoef="0" IVar="34" Cut="8.1450645446777344e+01" cType="1" res="2.1394032984972000e-02" rms="2.8059861063957214e-01" purity="6.7261785268783569e-01" nType="0">
            <Node pos="l" depth="3" NCoef="0" IVar="-1" Cut="0.0000000000000000e+00" cType="1" res="3.6322701722383499e-02" rms="2.1251517534255981e-01" purity="7.7164268493652344e-01" nType="-99"/>
            <Node pos="r" depth="3" NCoef="0" IVar="-1" Cut="0.0000000000000000e+00" cType="1" res="-1.7928143963217735e-02" rms="3.2890757918357849e-01" purity="5.6095266342163086e-01" nType="-99"/>
          </Node>
        </Node>
      </Node>
    </BinaryTree>
    <BinaryTree type="DecisionTree" boostWeight="1.0000000000000000e+00" itree="30">
      <Node pos="s" depth="0" NCoef="0" IVar="0" Cut="1.3503324890136719e+02" cType="1" res="-2.1610064432024956e-03" rms="2.9440107941627502e-01" purity="4.9401238560676575e-01" nType="0">
        <Node pos="l" depth="1" NCoef="0" IVar="0" Cut="1.2140955352783203e+02" cType="1" res="1.3382470235228539e-02" rms="3.2551109790802002e-01" purity="6.1604768037796021e-01" nType="0">
          <Node pos="l" depth="2" NCoef="0" IVar="42" Cut="2.5703998565673828e+01" cType="1" res="-5.0285242497920990e-02" rms="3.2664644718170166e-01" purity="2.1907953917980194e-01" nType="0">
            <Node pos="l" depth="3" NCoef="0" IVar="-1" Cut="0.0000000000000000e+00" cType="1" res="-3.0334493145346642e-02" rms="2.8288665413856506e-01" purity="1.3389408588409424e-01" nType="-99"/>
            <Node pos="r" depth="3" NCoef="0" IVar="-1" Cut="0.0000000000000000e+00" cType="1" res="7.9262442886829376e-03" rms="3.9871534705162048e-01" purity="4.1473561525344849e-01" nType="-99"/>
          </Node>
          <Node pos="r" depth="2" NCoef="0" IVar="0" Cut="1.2759655761718750e+02" cType="1" res="3.8488317281007767e-02" rms="3.2161590456962585e-01" purity="7.7258259057998657e-01" nType="0">
            <Node pos="l" depth="3" NCoef="0" IVar="-1" Cut="0.0000000000000000e+00" cType="1" res="2.2254869341850281e-02" rms="3.0496963858604431e-01" purity="8.7671202421188354e-01" nType="-99"/>
            <Node pos="r" depth="3" NCoef="0" IVar="-1" Cut="0.0000000000000000e+00" cType="1" res="-1.6080262139439583e-02" rms="3.7031704187393188e-01" purity="3.4720337390899658e-01" nType="-99"/>
          </Node>
        </Node>
        <Node pos="r" depth="1" NCoef="0" IVar="-1" Cut="0.0000000000000000e+00" cType="1" res="-5.0651390105485916e-02" rms="6.6714718937873840e-02" purity="4.4654007069766521e-03" nType="-99"/>
      </Node>
    </BinaryTree>
    <BinaryTree type="DecisionTree" boostWeight="1.0000000000000000e+00" itree="31">
      <Node pos="s" depth="0" NCoef="0" IVar="12" Cut="1.8892529010772705e+00" cType="1" res="-8.6616713088005781e-04" rms="3.0517897009849548e-01" purity="5.1213985681533813e-01" nType="0">
        <Node pos="l" depth="1" NCoef="0" IVar="41" Cut="1.1423929929733276e+00" cType="1" res="5.5586602538824081e-02" rms="2.9180642962455750e-01" purity="7.4442547559738159e-01" nType="0">
          <Node pos="l" depth="2" NCoef="0" IVar="-1" Cut="0.0000000000000000e+00" cType="1" res="-7.7611901797354221e-03" rms="3.7017112970352173e-01" purity="6.6667485237121582e-01" nType="-99"/>
          <Node pos="r" depth="2" NCoef="0" IVar="13" Cut="5.1347744464874268e-01" cType="1" res="8.4633745253086090e-02" rms="2.4881221354007721e-01" purity="7.7475631237030029e-01" nType="0">
            <Node pos="l" depth="3" NCoef="0" IVar="-1" Cut="0.0000000000000000e+00" cType="1" res="2.3171266540884972e-02" rms="2.9155293107032776e-01" purity="7.4863547086715698e-01" nType="-99"/>
            <Node pos="r" depth="3" NCoef="0" IVar="-1" Cut="0.0000000000000000e+00" cType="1" res="6.0111861675977707e-02" rms="-nan" purity="8.3825623989105225e-01" nType="-99"/>
          </Node>
        </Node>
        <Node pos="r" depth="1" NCoef="0" IVar="48" Cut="2.9279235839843750e+02" cType="1" res="-2.1805318072438240e-02" rms="3.0736747384071350e-01" purity="4.2598173022270203e-01" nType="0">
          <Node pos="l" depth="2" NCoef="0" IVar="18" Cut="4.0000000000000000e+00" cType="1" res="0.0000000000000000e+00" rms="0.0000000000000000e+00" purity="4.2792478203773499e-01" nType="0">
            <Node pos="l" depth="3" NCoef="0" IVar="-1" Cut="0.0000000000000000e+00" cType="1" res="-1.5677837654948235e-02" rms="3.0702865123748779e-01" purity="2.4751728773117065e-01" nType="-99"/>
            <Node pos="r" depth="3" NCoef="0" IVar="-1" Cut="0.0000000000000000e+00" cType="1" res="9.7149014472961426e-03" rms="2.9587689042091370e-01" purity="6.6690671443939209e-01" nType="-99"/>
          </Node>
          <Node pos="r" depth="2" NCoef="0" IVar="-1" Cut="0.0000000000000000e+00" cType="1" res="-3.9771735668182373e-02" rms="3.2310014963150024e-01" purity="4.1194581985473633e-01" nType="-99"/>
        </Node>
      </Node>
    </BinaryTree>
    <BinaryTree type="DecisionTree" boostWeight="1.0000000000000000e+00" itree="32">
      <Node pos="s" depth="0" NCoef="0" IVar="1" Cut="1.4490718078613281e+02" cType="1" res="7.4264151044189930e-04" rms="2.9737842082977295e-01" purity="5.0456899404525757e-01" nType="0">
        <Node pos="l" depth="1" NCoef="0" IVar="2" Cut="1.0745512390136719e+02" cType="1" res="-1.6130968928337097e-02" rms="3.0303713679313660e-01" purity="4.4252306222915649e-01" nType="0">
          <Node pos="l" depth="2" NCoef="0" IVar="15" Cut="1.3985935449600220e+00" cType="1" res="-3.6120865494012833e-02" rms="3.0302000045776367e-01" purity="3.7921902537345886e-01" nType="0">
            <Node pos="l" depth="3" NCoef="0" IVar="-1" Cut="0.0000000000000000e+00" cType="1" res="-8.4444191306829453e-03" rms="2.9545825719833374e-01" purity="3.9889457821846008e-01" nType="-99"/>
            <Node pos="r" depth="3" NCoef="0" IVar="-1" Cut="0.0000000000000000e+00" cType="1" res="-3.8587465882301331e-02" rms="3.2346951961517334e-01" purity="3.0301424860954285e-01" nType="-99"/>
          </Node>
          <Node pos="r" depth="2" NCoef="0" IVar="36" Cut="1.9990663528442383e+00" cType="1" res="2.4250380694866180e-02" rms="2.9902279376983643e-01" purity="5.7040286064147949e-01" nType="0">
            <Node pos="l" depth="3" NCoef="0" IVar="-1" Cut="0.0000000000000000e+00" cType="1" res="2.5242744013667107e-02" rms="2.7083352208137512e-01" purity="6.6321372985839844e-01" nType="-99"/>
            <Node pos="r" depth="3" NCoef="0" IVar="-1" Cut="0.0000000000000000e+00" cType="1" res="-1.6023155301809311e-02" rms="3.3101436495780945e-01" purity="4.1370785236358643e-01" nType="-99"/>
          </Node>
        </Node>
        <Node pos="r" depth="1" NCoef="0" IVar="40" Cut="2.5703845024108887e+00" cType="1" res="5.6703407317399979e-02" rms="2.7035179734230042e-01" purity="7.1034234762191772e-01" nType="0">
          <Node pos="l" depth="2" NCoef="0" IVar="6" Cut="4.3641728162765503e-01" cType="1" res="2.5229083374142647e-02" rms="2.9663139581680298e-01" purity="6.6160327196121216e-01" nType="0">
            <Node pos="l" depth="3" NCoef="0" IVar="-1" Cut="0.0000000000000000e+00" cType="1" res="-1.6340123489499092e-02" rms="3.1058397889137268e-01" purity="5.9224289655685425e-01" nType="-99"/>
            <Node pos="r" depth="3" NCoef="0" IVar="-1" Cut="0.0000000000000000e+00" cType="1" res="2.6516417041420937e-02" rms="2.8043118119239807e-01" purity="7.0326393842697144e-01" nType="-99"/>
          </Node>
          <Node pos="r" depth="2" NCoef="0" IVar="-1" Cut="0.0000000000000000e+00" cType="1" res="6.3503384590148926e-02" rms="1.2640523910522461e-01" purity="8.5772782564163208e-01" nType="-99"/>
        </Node>
      </Node>
    </BinaryTree>
    <BinaryTree type="DecisionTree" boostWeight="1.0000000000000000e+00" itree="33">
      <Node pos="s" depth="0" NCoef="0" IVar="52" Cut="8.0532217025756836e-01" cType="1" res="-6.1390735208988190e-03" rms="2.9582041501998901e-01" purity="4.9039673805236816e-01" nType="0">
        <Node pos="l" depth="1" NCoef="0" IVar="34" Cut="1.3756192016601562e+02" cType="1" res="-2.0683605223894119e-02" rms="3.0741563439369202e-01" purity="4.2335653305053711e-01" nType="0">
          <Node pos="l" depth="2" NCoef="0" IVar="13" Cut="-1.0123112201690674e+00" cType="1" res="-9.9923722445964813e-03" rms="3.0196002125740051e-01" purity="4.4538488984107971e-01" nType="0">
            <Node pos="l" depth="3" NCoef="0" IVar="-1" Cut="0.0000000000000000e+00" cType="1" res="-2.3228414356708527e-02" rms="3.0019751191139221e-01" purity="3.2919034361839294e-01" nType="-99"/>
            <Node pos="r" depth="3" NCoef="0" IVar="-1" Cut="0.0000000000000000e+00" cType="1" res="2.5199607480317354e-03" rms="3.0090764164924622e-01" purity="4.8644667863845825e-01" nType="-99"/>
          </Node>
          <Node pos="r" depth="2" NCoef="0" IVar="-1" Cut="0.0000000000000000e+00" cType="1" res="-4.4014070183038712e-02" rms="3.3593922853469849e-01" purity="2.4737723171710968e-01" nType="-99"/>
        </Node>
        <Node pos="r" depth="1" NCoef="0" IVar="6" Cut="4.3637242913246155e-01" cType="1" res="5.2565764635801315e-02" rms="2.3447319865226746e-01" purity="7.6098525524139404e-01" nType="0">
          <Node pos="l" depth="2" NCoef="0" IVar="-1" Cut="0.0000000000000000e+00" cType="1" res="6.4639970660209656e-02" rms="-nan" purity="8.4740597009658813e-01" nType="-99"/>
          <Node pos="r" depth="2" NCoef="0" IVar="13" Cut="-8.9387893676757812e-02" cType="1" res="1.4562629163265228e-02" rms="3.0387243628501892e-01" purity="7.2514152526855469e-01" nType="0">
            <Node pos="l" depth="3" NCoef="0" IVar="-1" Cut="0.0000000000000000e+00" cType="1" res="2.8548609465360641e-02" rms="2.6419180631637573e-01" purity="8.0057960748672485e-01" nType="-99"/>
            <Node pos="r" depth="3" NCoef="0" IVar="-1" Cut="0.0000000000000000e+00" cType="1" res="-9.2452950775623322e-03" rms="3.2574474811553955e-01" purity="6.6824656724929810e-01" nType="-99"/>
          </Node>
        </Node>
      </Node>
    </BinaryTree>
    <BinaryTree type="DecisionTree" boostWeight="1.0000000000000000e+00" itree="34">
      <Node pos="s" depth="0" NCoef="0" IVar="0" Cut="1.2001367187500000e+02" cType="1" res="-1.1370183201506734e-03" rms="2.9140898585319519e-01" purity="4.8973357677459717e-01" nType="0">
        <Node pos="l" depth="1" NCoef="0" IVar="-1" Cut="0.0000000000000000e+00" cType="1" res="-2.1945985034108162e-02" rms="3.1489947438240051e-01" purity="1.4894032478332520e-01" nType="-99"/>
        <Node pos="r" depth="1" NCoef="0" IVar="0" Cut="1.2728106689453125e+02" cType="1" res="1.4184393920004368e-02" rms="2.8327229619026184e-01" purity="5.7302027940750122e-01" nType="0">
          <Node pos="l" depth="2" NCoef="0" IVar="5" Cut="1.0000000000000000e+00" cType="1" res="-1.1067794403061271e-03" rms="1.0829886794090271e-01" purity="8.6085498332977295e-01" nType="0">
            <Node pos="l" depth="3" NCoef="0" IVar="-1" Cut="0.0000000000000000e+00" cType="1" res="8.0619435757398605e-03" rms="3.3962944149971008e-01" purity="8.2170045375823975e-01" nType="-99"/>
            <Node pos="r" depth="3" NCoef="0" IVar="-1" Cut="0.0000000000000000e+00" cType="1" res="3.8275394588708878e-02" rms="2.4484495818614960e-01" purity="9.0978240966796875e-01" nType="-99"/>
          </Node>
          <Node pos="r" depth="2" NCoef="0" IVar="1" Cut="1.4559020996093750e+02" cType="1" res="-4.7398421913385391e-02" rms="2.3752664029598236e-01" purity="1.5375214815139771e-01" nType="0">
            <Node pos="l" depth="3" NCoef="0" IVar="-1" Cut="0.0000000000000000e+00" cType="1" res="-3.7199605256319046e-02" rms="2.0884433388710022e-01" purity="9.8664551973342896e-02" nType="-99"/>
            <Node pos="r" depth="3" NCoef="0" IVar="-1" Cut="0.0000000000000000e+00" cType="1" res="2.3162269826570991e-06" rms="3.2336521148681641e-01" purity="3.7301003932952881e-01" nType="-99"/>
          </Node>
        </Node>
      </Node>
    </BinaryTree>
    <BinaryTree type="DecisionTree" boostWeight="1.0000000000000000e+00" itree="35">
      <Node pos="s" depth="0" NCoef="0" IVar="1" Cut="1.4538766479492188e+02" cType="1" res="2.9196433024480939e-04" rms="3.0267351865768433e-01" purity="5.1621347665786743e-01" nType="0">
        <Node pos="l" depth="1" NCoef="0" IVar="0" Cut="1.3009965515136719e+02" cType="1" res="-1.3696638867259026e-02" rms="3.0554276704788208e-01" purity="4.4980520009994507e-01" nType="0">
          <Node pos="l" depth="2" NCoef="0" IVar="0" Cut="1.2330332946777344e+02" cType="1" res="-4.0718234959058464e-04" rms="3.5094806551933289e-01" purity="6.1444193124771118e-01" nType="0">
            <Node pos="l" depth="3" NCoef="0" IVar="-1" Cut="0.0000000000000000e+00" cType="1" res="-1.2676157057285309e-02" rms="3.4328052401542664e-01" purity="3.6105889081954956e-01" nType="-99"/>
            <Node pos="r" depth="3" NCoef="0" IVar="-1" Cut="0.0000000000000000e+00" cType="1" res="8.5337124764919281e-03" rms="3.5427078604698181e-01" purity="7.9881256818771362e-01" nType="-99"/>
          </Node>
          <Node pos="r" depth="2" NCoef="0" IVar="-1" Cut="0.0000000000000000e+00" cType="1" res="-4.2737521231174469e-02" rms="1.1216115206480026e-01" purity="1.3111085630953312e-02" nType="-99"/>
        </Node>
        <Node pos="r" depth="1" NCoef="0" IVar="45" Cut="1.2746526002883911e+00" cType="1" res="4.9433689564466476e-02" rms="2.8701618313789368e-01" purity="7.4950456619262695e-01" nType="0">
          <Node pos="l" depth="2" NCoef="0" IVar="37" Cut="1.1423237323760986e+00" cType="1" res="9.5218591392040253e-02" rms="2.1790383756160736e-01" purity="7.7387797832489014e-01" nType="0">
            <Node pos="l" depth="3" NCoef="0" IVar="-1" Cut="0.0000000000000000e+00" cType="1" res="1.0302483104169369e-02" rms="3.1794983148574829e-01" purity="7.2576922178268433e-01" nType="-99"/>
            <Node pos="r" depth="3" NCoef="0" IVar="-1" Cut="0.0000000000000000e+00" cType="1" res="7.8915752470493317e-02" rms="-nan" purity="8.3479869365692139e-01" nType="-99"/>
          </Node>
          <Node pos="r" depth="2" NCoef="0" IVar="-1" Cut="0.0000000000000000e+00" cType="1" res="-1.5670811757445335e-02" rms="3.6864945292472839e-01" purity="7.0439577102661133e-01" nType="-99"/>
        </Node>
      </Node>
    </BinaryTree>
    <BinaryTree type="DecisionTree" boostWeight="1.0000000000000000e+00" itree="36">
      <Node pos="s" depth="0" NCoef="0" IVar="20" Cut="3.0000000000000000e+00" cType="1" res="0.0000000000000000e+00" rms="0.0000000000000000e+00" purity="4.8986110091209412e-01" nType="0">
        <Node pos="l" depth="1" NCoef="0" IVar="48" Cut="1.7197349548339844e+02" cType="1" res="-4.2981117963790894e-02" rms="3.1412029266357422e-01" purity="3.2186031341552734e-01" nType="0">
          <Node pos="l" depth="2" NCoef="0" IVar="10" Cut="-1.0463556051254272e+00" cType="1" res="-2.8229381889104843e-02" rms="3.0006888508796692e-01" purity="3.0824878811836243e-01" nType="0">
            <Node pos="l" depth="3" NCoef="0" IVar="-1" Cut="0.0000000000000000e+00" cType="1" res="-3.8110248744487762e-02" rms="3.3372414112091064e-01" purity="2.6081416010856628e-01" nType="-99"/>
            <Node pos="r" depth="3" NCoef="0" IVar="-1" Cut="0.0000000000000000e+00" cType="1" res="-3.1978785991668701e-03" rms="2.8700017929077148e-01" purity="3.2094883918762207e-01" nType="-99"/>
          </Node>
          <Node pos="r" depth="2" NCoef="0" IVar="-1" Cut="0.0000000000000000e+00" cType="1" res="-4.2577933520078659e-02" rms="3.6103573441505432e-01" purity="3.7940320372581482e-01" nType="-99"/>
        </Node>
        <Node pos="r" depth="1" NCoef="0" IVar="5" Cut="1.0000000000000000e+00" cType="1" res="-4.1940109804272652e-03" rms="8.5014596581459045e-02" purity="7.1162331104278564e-01" nType="0">
          <Node pos="l" depth="2" NCoef="0" IVar="6" Cut="4.3642017245292664e-01" cType="1" res="-3.0722396331839263e-04" rms="3.1051036715507507e-01" purity="6.6131585836410522e-01" nType="0">
            <Node pos="l" depth="3" NCoef="0" IVar="-1" Cut="0.0000000000000000e+00" cType="1" res="3.2800734043121338e-02" rms="1.7254769802093506e-01" purity="7.2460520267486572e-01" nType="-99"/>
            <Node pos="r" depth="3" NCoef="0" IVar="-1" Cut="0.0000000000000000e+00" cType="1" res="-1.2319869361817837e-02" rms="3.4816941618919373e-01" purity="6.3517820835113525e-01" nType="-99"/>
          </Node>
          <Node pos="r" depth="2" NCoef="0" IVar="32" Cut="1.0724718475341797e+02" cType="1" res="7.2170063853263855e-02" rms="2.0951153337955475e-01" purity="7.7824479341506958e-01" nType="0">
            <Node pos="l" depth="3" NCoef="0" IVar="-1" Cut="0.0000000000000000e+00" cType="1" res="4.8689980059862137e-02" rms="1.2470933794975281e-01" purity="8.0305296182632446e-01" nType="-99"/>
            <Node pos="r" depth="3" NCoef="0" IVar="-1" Cut="0.0000000000000000e+00" cType="1" res="1.4668993651866913e-02" rms="2.7388864755630493e-01" purity="7.4835306406021118e-01" nType="-99"/>
          </Node>
        </Node>
      </Node>
    </BinaryTree>
    <BinaryTree type="DecisionTree" boostWeight="1.0000000000000000e+00" itree="37">
      <Node pos="s" depth="0" NCoef="0" IVar="8" Cut="-4.7084549069404602e-01" cType="1" res="-8.2140816375613213e-03" rms="3.0028581619262695e-01" purity="4.9283671379089355e-01" nType="0">
        <Node pos="l" depth="1" NCoef="0" IVar="18" Cut="4.0000000000000000e+00" cType="1" res="7.3113762773573399e-03" rms="7.3729887604713440e-02" purity="4.8810976743698120e-01" nType="0">
          <Node pos="l" depth="2" NCoef="0" IVar="-1" Cut="0.0000000000000000e+00" cType="1" res="-3.1866788864135742e-02" rms="3.1285035610198975e-01" purity="2.7588301897048950e-01" nType="-99"/>
          <Node pos="r" depth="2" NCoef="0" IVar="53" Cut="6.1528593301773071e-01" cType="1" res="-5.5608958937227726e-03" rms="2.8782272338867188e-01" purity="6.8662881851196289e-01" nType="0">
            <Node pos="l" depth="3" NCoef="0" IVar="-1" Cut="0.0000000000000000e+00" cType="1" res="1.9902471452951431e-02" rms="2.3399008810520172e-01" purity="6.6009187698364258e-01" nType="-99"/>
            <Node pos="r" depth="3" NCoef="0" IVar="-1" Cut="0.0000000000000000e+00" cType="1" res="-1.6952974721789360e-02" rms="3.1414842605590820e-01" purity="7.0400333404541016e-01" nType="-99"/>
          </Node>
        </Node>
        <Node pos="r" depth="1" NCoef="0" IVar="40" Cut="8.5688966512680054e-01" cType="1" res="4.6858922578394413e-03" rms="2.9832610487937927e-01" purity="4.9454304575920105e-01" nType="0">
          <Node pos="l" depth="2" NCoef="0" IVar="6" Cut="1.0907214879989624e+00" cType="1" res="-4.3740894645452499e-02" rms="3.2750633358955383e-01" purity="4.2751160264015198e-01" nType="0">
            <Node pos="l" depth="3" NCoef="0" IVar="-1" Cut="0.0000000000000000e+00" cType="1" res="-3.3390033990144730e-02" rms="3.5117673873901367e-01" purity="4.2917165160179138e-01" nType="-99"/>
            <Node pos="r" depth="3" NCoef="0" IVar="-1" Cut="0.0000000000000000e+00" cType="1" res="3.8753380067646503e-03" rms="2.7699309587478638e-01" purity="4.2483073472976685e-01" nType="-99"/>
          </Node>
          <Node pos="r" depth="2" NCoef="0" IVar="4" Cut="0.0000000000000000e+00" cType="1" res="-2.3469065781682730e-03" rms="1.3579747080802917e-01" purity="5.1829314231872559e-01" nType="0">
            <Node pos="l" depth="3" NCoef="0" IVar="-1" Cut="0.0000000000000000e+00" cType="1" res="2.3972263559699059e-02" rms="2.5959351658821106e-01" purity="5.6000399589538574e-01" nType="-99"/>
            <Node pos="r" depth="3" NCoef="0" IVar="-1" Cut="0.0000000000000000e+00" cType="1" res="-2.2874800488352776e-03" rms="3.0334720015525818e-01" purity="4.8197406530380249e-01" nType="-99"/>
          </Node>
        </Node>
      </Node>
    </BinaryTree>
    <BinaryTree type="DecisionTree" boostWeight="1.0000000000000000e+00" itree="38">
      <Node pos="s" depth="0" NCoef="0" IVar="52" Cut="8.0592566728591919e-01" cType="1" res="-1.2897257693111897e-02" rms="3.0555307865142822e-01" purity="4.9416655302047729e-01" nType="0">
        <Node pos="l" depth="1" NCoef="0" IVar="36" Cut="1.7135831117630005e+00" cType="1" res="-2.3802125826478004e-02" rms="3.1455680727958679e-01" purity="4.3012562394142151e-01" nType="0">
          <Node pos="l" depth="2" NCoef="0" IVar="2" Cut="1.1678866577148438e+02" cType="1" res="-4.4671101495623589e-03" rms="3.0125236511230469e-01" purity="4.7491919994354248e-01" nType="0">
            <Node pos="l" depth="3" NCoef="0" IVar="-1" Cut="0.0000000000000000e+00" cType="1" res="-1.1841518804430962e-02" rms="2.9833456873893738e-01" purity="3.8708418607711792e-01" nType="-99"/>
            <Node pos="r" depth="3" NCoef="0" IVar="-1" Cut="0.0000000000000000e+00" cType="1" res="1.4903097413480282e-02" rms="3.0188921093940735e-01" purity="6.2374776601791382e-01" nType="-99"/>
          </Node>
          <Node pos="r" depth="2" NCoef="0" IVar="17" Cut="8.5263633728027344e+01" cType="1" res="-4.7760333865880966e-02" rms="3.2872596383094788e-01" purity="3.7462154030799866e-01" nType="0">
            <Node pos="l" depth="3" NCoef="0" IVar="-1" Cut="0.0000000000000000e+00" cType="1" res="-2.6222826912999153e-02" rms="3.3196961879730225e-01" purity="3.3138313889503479e-01" nType="-99"/>
            <Node pos="r" depth="3" NCoef="0" IVar="-1" Cut="0.0000000000000000e+00" cType="1" res="3.0105526093393564e-03" rms="3.1223511695861816e-01" purity="5.0720125436782837e-01" nType="-99"/>
          </Node>
        </Node>
        <Node pos="r" depth="1" NCoef="0" IVar="26" Cut="7.2908058166503906e+01" cType="1" res="2.9833296313881874e-02" rms="2.6304519176483154e-01" purity="7.4510985612869263e-01" nType="0">
          <Node pos="l" depth="2" NCoef="0" IVar="-1" Cut="0.0000000000000000e+00" cType="1" res="3.8995966315269470e-02" rms="2.1310196816921234e-01" purity="8.7057286500930786e-01" nType="-99"/>
          <Node pos="r" depth="2" NCoef="0" IVar="4" Cut="0.0000000000000000e+00" cType="1" res="-1.0528260841965675e-02" rms="1.5615472197532654e-01" purity="6.4068585634231567e-01" nType="0">
            <Node pos="l" depth="3" NCoef="0" IVar="-1" Cut="0.0000000000000000e+00" cType="1" res="1.1175503022968769e-02" rms="2.4585728347301483e-01" purity="6.6002506017684937e-01" nType="-99"/>
            <Node pos="r" depth="3" NCoef="0" IVar="-1" Cut="0.0000000000000000e+00" cType="1" res="-1.9939221441745758e-02" rms="3.2596367597579956e-01" purity="6.2240958213806152e-01" nType="-99"/>
          </Node>
        </Node>
      </Node>
    </BinaryTree>
    <BinaryTree type="DecisionTree" boostWeight="1.0000000000000000e+00" itree="39">
      <Node pos="s" depth="0" NCoef="0" IVar="1" Cut="1.2330817413330078e+02" cType="1" res="1.5090437373146415e-03" rms="2.9235467314720154e-01" purity="5.0187909603118896e-01" nType="0">
        <Node pos="l" depth="1" NCoef="0" IVar="35" Cut="1.2386354827880859e+02" cType="1" res="-1.6185054555535316e-02" rms="3.0177518725395203e-01" purity="4.2143750190734863e-01" nType="0">
