<?xml version="1.0"?>
<MethodSetup Method="BDT::BDTG_AWB_lite">
  <GeneralInfo>
    <Info name="TMVA Release" value="4.2.1 [262657]"/>
    <Info name="ROOT Release" value="6.12/07 [396295]"/>
    <Info name="Creator" value="abrinke1"/>
    <Info name="Date" value="Thu Jul  4 07:44:55 2019"/>
    <Info name="Host" value="Linux cmsbuild92.cern.ch 2.6.32-696.30.1.el6.x86_64 #1 SMP Tue May 22 06:09:36 CEST 2018 x86_64 x86_64 x86_64 GNU/Linux"/>
    <Info name="Dir" value="/afs/cern.ch/user/a/abrinke1/HiggsToMuMu/2018/CMSSW_10_2_11_patch1/src/H2MuAnalyzer/TrainMVA"/>
    <Info name="Training events" value="154963"/>
    <Info name="TrainingTime" value="1.61550438e+01"/>
    <Info name="AnalysisType" value="Classification"/>
  </GeneralInfo>
  <Options>
    <Option name="V" modified="Yes">False</Option>
    <Option name="VerbosityLevel" modified="No">Default</Option>
    <Option name="VarTransform" modified="No">None</Option>
    <Option name="H" modified="Yes">False</Option>
    <Option name="CreateMVAPdfs" modified="No">False</Option>
    <Option name="IgnoreNegWeightsInTraining" modified="No">False</Option>
    <Option name="NTrees" modified="Yes">50</Option>
    <Option name="MaxDepth" modified="Yes">2</Option>
    <Option name="MinNodeSize" modified="No">5%</Option>
    <Option name="nCuts" modified="Yes">20</Option>
    <Option name="BoostType" modified="Yes">Grad</Option>
    <Option name="AdaBoostR2Loss" modified="No">quadratic</Option>
    <Option name="UseBaggedBoost" modified="Yes">True</Option>
    <Option name="Shrinkage" modified="Yes">1.000000e-01</Option>
    <Option name="AdaBoostBeta" modified="No">5.000000e-01</Option>
    <Option name="UseRandomisedTrees" modified="No">False</Option>
    <Option name="UseNvars" modified="No">5</Option>
    <Option name="UsePoissonNvars" modified="No">True</Option>
    <Option name="BaggedSampleFraction" modified="Yes">5.000000e-01</Option>
    <Option name="UseYesNoLeaf" modified="No">True</Option>
    <Option name="NegWeightTreatment" modified="No">pray</Option>
    <Option name="Css" modified="No">1.000000e+00</Option>
    <Option name="Cts_sb" modified="No">1.000000e+00</Option>
    <Option name="Ctb_ss" modified="No">1.000000e+00</Option>
    <Option name="Cbb" modified="No">1.000000e+00</Option>
    <Option name="NodePurityLimit" modified="No">5.000000e-01</Option>
    <Option name="SeparationType" modified="No">giniindex</Option>
    <Option name="RegressionLossFunctionBDTG" modified="No">huber</Option>
    <Option name="HuberQuantile" modified="No">7.000000e-01</Option>
    <Option name="DoBoostMonitor" modified="No">False</Option>
    <Option name="UseFisherCuts" modified="No">False</Option>
    <Option name="MinLinCorrForFisher" modified="No">8.000000e-01</Option>
    <Option name="UseExclusiveVars" modified="No">False</Option>
    <Option name="DoPreselection" modified="No">False</Option>
    <Option name="SigToBkgFraction" modified="No">1.000000e+00</Option>
    <Option name="PruneMethod" modified="No">nopruning</Option>
    <Option name="PruneStrength" modified="No">0.000000e+00</Option>
    <Option name="PruningValFraction" modified="No">5.000000e-01</Option>
    <Option name="SkipNormalization" modified="No">False</Option>
    <Option name="nEventsMin" modified="No">0</Option>
    <Option name="UseBaggedGrad" modified="No">False</Option>
    <Option name="GradBaggingFraction" modified="No">5.000000e-01</Option>
    <Option name="UseNTrainEvents" modified="No">0</Option>
    <Option name="NNodesMax" modified="No">0</Option>
  </Options>
  <Variables NVar="25">
    <Variable VarIndex="0" Expression="H_pair_pt" Label="H_pair_pt" Title="H_pair_pt" Unit="" Internal="H_pair_pt" Type="F" Min="1.74321592e-01" Max="1.59223572e+03"/>
    <Variable VarIndex="1" Expression="OS_pair_mass" Label="OS_pair_mass" Title="OS_pair_mass" Unit="" Internal="OS_pair_mass" Type="F" Min="1.20022650e+01" Max="1.81038403e+03"/>
    <Variable VarIndex="2" Expression="nEles" Label="nEles" Title="Number of electrons" Unit="" Internal="nEles" Type="I" Min="0.00000000e+00" Max="1.00000000e+00"/>
    <Variable VarIndex="3" Expression="muH1_eta_abs" Label="muH1_eta_abs" Title="|#eta| #mu1 from Higgs" Unit="" Internal="muH1_eta_abs" Type="F" Min="4.18702621e-06" Max="2.39995646e+00"/>
    <Variable VarIndex="4" Expression="muH2_eta_abs" Label="muH2_eta_abs" Title="|#eta| #mu2 from Higgs" Unit="" Internal="muH2_eta_abs" Type="F" Min="2.60819365e-06" Max="2.39999866e+00"/>
    <Variable VarIndex="5" Expression="muSS_muOS_dR" Label="muSS_muOS_dR" Title="muSS_muOS_dR" Unit="" Internal="muSS_muOS_dR" Type="F" Min="1.71248823e-01" Max="5.13359118e+00"/>
    <Variable VarIndex="6" Expression="muSS_OS_pair_dR" Label="muSS_OS_pair_dR" Title="muSS_OS_pair_dR" Unit="" Internal="muSS_OS_pair_dR" Type="F" Min="1.93049703e-02" Max="7.22482681e+00"/>
    <Variable VarIndex="7" Expression="lep_pt" Label="lep_pt" Title="lep_pt" Unit="" Internal="lep_pt" Type="F" Min="1.00005035e+01" Max="1.10462170e+03"/>
    <Variable VarIndex="8" Expression="muSS_pt" Label="muSS_pt" Title="muSS_pt" Unit="" Internal="muSS_pt" Type="F" Min="1.00215931e+01" Max="1.14691748e+03"/>
    <Variable VarIndex="9" Expression="nJetsCent" Label="nJetsCent" Title="nJetsCent" Unit="" Internal="nJetsCent" Type="I" Min="1.00000000e+00" Max="1.50000000e+01"/>
    <Variable VarIndex="10" Expression="nJetsCent30" Label="nJetsCent30" Title="nJetsCent30" Unit="" Internal="nJetsCent30" Type="I" Min="0.00000000e+00" Max="1.30000000e+01"/>
    <Variable VarIndex="11" Expression="nJetsCent40" Label="nJetsCent40" Title="nJetsCent40" Unit="" Internal="nJetsCent40" Type="I" Min="0.00000000e+00" Max="1.10000000e+01"/>
    <Variable VarIndex="12" Expression="nBJetsLoose" Label="nBJetsLoose" Title="nBJetsLoose" Unit="" Internal="nBJetsLoose" Type="I" Min="1.00000000e+00" Max="7.00000000e+00"/>
    <Variable VarIndex="13" Expression="nBJetsMed" Label="nBJetsMed" Title="nBJetsMed" Unit="" Internal="nBJetsMed" Type="I" Min="0.00000000e+00" Max="6.00000000e+00"/>
    <Variable VarIndex="14" Expression="lep_MET_MT" Label="lep_MET_MT" Title="lep_MET_MT" Unit="" Internal="lep_MET_MT" Type="F" Min="5.42099879e-04" Max="1.18962781e+03"/>
    <Variable VarIndex="15" Expression="lep_MHT_MT" Label="lep_MHT_MT" Title="lep_MHT_MT" Unit="" Internal="lep_MHT_MT" Type="F" Min="4.15259201e-05" Max="1.13821094e+03"/>
    <Variable VarIndex="16" Expression="muSS_MET_MT" Label="muSS_MET_MT" Title="muSS_MET_MT" Unit="" Internal="muSS_MET_MT" Type="F" Min="3.72117804e-03" Max="1.59934998e+03"/>
    <Variable VarIndex="17" Expression="muSS_MHT_MT" Label="muSS_MHT_MT" Title="muSS_MHT_MT" Unit="" Internal="muSS_MHT_MT" Type="F" Min="9.12741525e-05" Max="1.75795398e+03"/>
    <Variable VarIndex="18" Expression="BDT_W_jj_mass" Label="BDT_W_jj_mass" Title="BDT_W_jj_mass" Unit="" Internal="BDT_W_jj_mass" Type="F" Min="-9.00000000e+00" Max="4.16235352e+03"/>
    <Variable VarIndex="19" Expression="BDT_score_jj_blv" Label="BDT_score_jj_blv" Title="BDT_score_jj_blv" Unit="" Internal="BDT_score_jj_blv" Type="F" Min="-1.10000002e+00" Max="9.94074881e-01"/>
    <Variable VarIndex="20" Expression="BDT_score_bjj_lv" Label="BDT_score_bjj_lv" Title="BDT_score_bjj_lv" Unit="" Internal="BDT_score_bjj_lv" Type="F" Min="-1.10000002e+00" Max="9.92367208e-01"/>
    <Variable VarIndex="21" Expression="BDT_score_bj_blv" Label="BDT_score_bj_blv" Title="BDT_score_bj_blv" Unit="" Internal="BDT_score_bj_blv" Type="F" Min="-1.10000002e+00" Max="9.96518254e-01"/>
    <Variable VarIndex="22" Expression="BDT_score_bjj_blv" Label="BDT_score_bjj_blv" Title="BDT_score_bjj_blv" Unit="" Internal="BDT_score_bjj_blv" Type="F" Min="-1.10000002e+00" Max="9.97210264e-01"/>
    <Variable VarIndex="23" Expression="BDT_score_max" Label="BDT_score_max" Title="BDT_score_max" Unit="" Internal="BDT_score_max" Type="F" Min="-1.10000002e+00" Max="9.97210264e-01"/>
    <Variable VarIndex="24" Expression="BDT_best_match" Label="BDT_best_match" Title="BDT_best_match" Unit="" Internal="BDT_best_match" Type="I" Min="0.00000000e+00" Max="9.00000000e+00"/>
  </Variables>
  <Spectators NSpec="9">
    <Spectator SpecIndex="0" Expression="samp_ID" Label="samp_ID" Title="Sample ID" Unit="" Internal="samp_ID" Type="F" Min="-2.60000000e+01" Max="3.80000000e+01"/>
    <Spectator SpecIndex="1" Expression="event" Label="event" Title="Event number" Unit="" Internal="event" Type="F" Min="3.00000000e+00" Max="1.70579920e+08"/>
    <Spectator SpecIndex="2" Expression="event_wgt" Label="event_wgt" Title="Per-event scale factors" Unit="" Internal="event_wgt" Type="F" Min="-6.37165928e+00" Max="1.84841747e+01"/>
    <Spectator SpecIndex="3" Expression="samp_wgt" Label="samp_wgt" Title="Xsec x lumi for sample" Unit="" Internal="samp_wgt" Type="F" Min="2.80000004e-05" Max="3.92017388e+00"/>
    <Spectator SpecIndex="4" Expression="lepMVA_wgt" Label="lepMVA_wgt" Title="lepMVA efficiency SF" Unit="" Internal="lepMVA_wgt" Type="F" Min="4.16317880e-01" Max="1.15934420e+00"/>
    <Spectator SpecIndex="5" Expression="total_wgt" Label="total_wgt" Title="Overall weight" Unit="" Internal="total_wgt" Type="F" Min="-4.12183315e-01" Max="1.73373699e+00"/>
    <Spectator SpecIndex="6" Expression="res_wgt" Label="res_wgt" Title="Mass resolution weight" Unit="" Internal="res_wgt" Type="F" Min="2.07156241e-02" Max="1.94245529e+00"/>
    <Spectator SpecIndex="7" Expression="dimu_mass" Label="dimu_mass" Title="mass(#mu#mu)" Unit="GeV" Internal="dimu_mass" Type="F" Min="1.05025375e+02" Max="1.59997498e+02"/>
    <Spectator SpecIndex="8" Expression="nEles" Label="nEles" Title="Number of electrons" Unit="" Internal="nEles" Type="F" Min="0.00000000e+00" Max="1.00000000e+00"/>
  </Spectators>
  <Classes NClass="2">
    <Class Name="Signal" Index="0"/>
    <Class Name="Background" Index="1"/>
  </Classes>
  <Transformations NTransformations="0"/>
  <MVAPdfs/>
  <Weights NTrees="50" AnalysisType="1">
    <BinaryTree type="DecisionTree" boostWeight="1.0000000000000000e+00" itree="0">
      <Node pos="s" depth="0" NCoef="0" IVar="10" Cut="3.0000000000000000e+00" cType="1" res="1.4148485846817493e-02" rms="4.9963635206222534e-01" purity="5.1384562253952026e-01" nType="0">
        <Node pos="l" depth="1" NCoef="0" IVar="23" Cut="-2.0172929763793945e-01" cType="1" res="-2.1911798417568207e-01" rms="4.4942998886108398e-01" purity="2.8088200092315674e-01" nType="0">
          <Node pos="l" depth="2" NCoef="0" IVar="-1" Cut="0.0000000000000000e+00" cType="1" res="-5.8237049728631973e-02" rms="4.0646174550056458e-01" purity="2.0881475508213043e-01" nType="-99"/>
          <Node pos="r" depth="2" NCoef="0" IVar="-1" Cut="0.0000000000000000e+00" cType="1" res="-1.3318744488060474e-02" rms="4.9554544687271118e-01" purity="4.3340632319450378e-01" nType="-99"/>
        </Node>
        <Node pos="r" depth="1" NCoef="0" IVar="5" Cut="2.3069651126861572e+00" cType="1" res="1.6841256618499756e-01" rms="4.7078362107276917e-01" purity="6.6841256618499756e-01" nType="0">
          <Node pos="l" depth="2" NCoef="0" IVar="-1" Cut="0.0000000000000000e+00" cType="1" res="5.1395520567893982e-02" rms="4.2890849709510803e-01" purity="7.5697761774063110e-01" nType="-99"/>
          <Node pos="r" depth="2" NCoef="0" IVar="-1" Cut="0.0000000000000000e+00" cType="1" res="1.6606030985713005e-02" rms="4.9305778741836548e-01" purity="5.8303016424179077e-01" nType="-99"/>
        </Node>
      </Node>
    </BinaryTree>
    <BinaryTree type="DecisionTree" boostWeight="1.0000000000000000e+00" itree="1">
      <Node pos="s" depth="0" NCoef="0" IVar="10" Cut="3.0000000000000000e+00" cType="1" res="-4.1052253800444305e-04" rms="4.9190419912338257e-01" purity="5.0103652477264404e-01" nType="0">
        <Node pos="l" depth="1" NCoef="0" IVar="5" Cut="1.7773220539093018e+00" cType="1" res="-2.0194905996322632e-01" rms="4.4528853893280029e-01" purity="2.7660650014877319e-01" nType="0">
          <Node pos="l" depth="2" NCoef="0" IVar="-1" Cut="0.0000000000000000e+00" cType="1" res="1.9033059477806091e-02" rms="4.9439188838005066e-01" purity="5.7784056663513184e-01" nType="-99"/>
          <Node pos="r" depth="2" NCoef="0" IVar="-1" Cut="0.0000000000000000e+00" cType="1" res="-4.9372542649507523e-02" rms="4.1984173655509949e-01" purity="2.3164221644401550e-01" nType="-99"/>
        </Node>
        <Node pos="r" depth="1" NCoef="0" IVar="21" Cut="7.9624921083450317e-01" cType="1" res="1.3086445629596710e-01" rms="4.7669899463653564e-01" purity="6.4818078279495239e-01" nType="0">
          <Node pos="l" depth="2" NCoef="0" IVar="-1" Cut="0.0000000000000000e+00" cType="1" res="1.2535265646874905e-02" rms="4.9252152442932129e-01" purity="5.7960456609725952e-01" nType="-99"/>
          <Node pos="r" depth="2" NCoef="0" IVar="-1" Cut="0.0000000000000000e+00" cType="1" res="5.7128783315420151e-02" rms="3.9777806401252747e-01" purity="8.0317586660385132e-01" nType="-99"/>
        </Node>
      </Node>
    </BinaryTree>
    <BinaryTree type="DecisionTree" boostWeight="1.0000000000000000e+00" itree="2">
      <Node pos="s" depth="0" NCoef="0" IVar="23" Cut="-1.0132845491170883e-01" cType="1" res="1.8383946269750595e-02" rms="4.8406961560249329e-01" purity="5.2049618959426880e-01" nType="0">
        <Node pos="l" depth="1" NCoef="0" IVar="0" Cut="1.0429650115966797e+02" cType="1" res="-2.2032938897609711e-01" rms="4.2063924670219421e-01" purity="2.3761768639087677e-01" nType="0">
          <Node pos="l" depth="2" NCoef="0" IVar="-1" Cut="0.0000000000000000e+00" cType="1" res="-5.5222518742084503e-02" rms="3.8274309039115906e-01" purity="1.8092441558837891e-01" nType="-99"/>
          <Node pos="r" depth="2" NCoef="0" IVar="-1" Cut="0.0000000000000000e+00" cType="1" res="-9.4329584389925003e-03" rms="4.8726415634155273e-01" purity="4.2338752746582031e-01" nType="-99"/>
        </Node>
        <Node pos="r" depth="1" NCoef="0" IVar="14" Cut="1.3507966613769531e+02" cType="1" res="1.2340492010116577e-01" rms="4.7272700071334839e-01" purity="6.4494746923446655e-01" nType="0">
          <Node pos="l" depth="2" NCoef="0" IVar="-1" Cut="0.0000000000000000e+00" cType="1" res="3.0427914112806320e-02" rms="4.6298146247863770e-01" purity="6.7323446273803711e-01" nType="-99"/>
          <Node pos="r" depth="2" NCoef="0" IVar="-1" Cut="0.0000000000000000e+00" cType="1" res="-2.6410009711980820e-02" rms="4.8391336202621460e-01" purity="3.8801360130310059e-01" nType="-99"/>
        </Node>
      </Node>
    </BinaryTree>
    <BinaryTree type="DecisionTree" boostWeight="1.0000000000000000e+00" itree="3">
      <Node pos="s" depth="0" NCoef="0" IVar="10" Cut="3.0000000000000000e+00" cType="1" res="-1.6961494460701942e-02" rms="4.7759300470352173e-01" purity="4.8500299453735352e-01" nType="0">
        <Node pos="l" depth="1" NCoef="0" IVar="10" Cut="2.0000000000000000e+00" cType="1" res="-1.8734292685985565e-01" rms="3.8767114281654358e-01" purity="2.5268360972404480e-01" nType="0">
          <Node pos="l" depth="2" NCoef="0" IVar="-1" Cut="0.0000000000000000e+00" cType="1" res="-6.0879364609718323e-02" rms="3.3996686339378357e-01" purity="1.3706670701503754e-01" nType="-99"/>
          <Node pos="r" depth="2" NCoef="0" IVar="-1" Cut="0.0000000000000000e+00" cType="1" res="-2.4132924154400826e-02" rms="4.6464419364929199e-01" purity="3.3583322167396545e-01" nType="-99"/>
        </Node>
        <Node pos="r" depth="1" NCoef="0" IVar="20" Cut="-4.0731970220804214e-03" cType="1" res="1.0639069974422455e-01" rms="4.7312074899673462e-01" purity="6.4788609743118286e-01" nType="0">
          <Node pos="l" depth="2" NCoef="0" IVar="-1" Cut="0.0000000000000000e+00" cType="1" res="-5.3083952516317368e-03" rms="4.9582031369209290e-01" purity="5.0751626491546631e-01" nType="-99"/>
          <Node pos="r" depth="2" NCoef="0" IVar="-1" Cut="0.0000000000000000e+00" cType="1" res="3.1682621687650681e-02" rms="4.5406836271286011e-01" purity="7.0139932632446289e-01" nType="-99"/>
        </Node>
      </Node>
    </BinaryTree>
    <BinaryTree type="DecisionTree" boostWeight="1.0000000000000000e+00" itree="4">
      <Node pos="s" depth="0" NCoef="0" IVar="10" Cut="3.0000000000000000e+00" cType="1" res="-8.4509910084307194e-04" rms="4.7335276007652283e-01" purity="5.0160902738571167e-01" nType="0">
        <Node pos="l" depth="1" NCoef="0" IVar="5" Cut="2.0204765796661377e+00" cType="1" res="-1.5572628378868103e-01" rms="4.3419858813285828e-01" purity="2.7167728543281555e-01" nType="0">
          <Node pos="l" depth="2" NCoef="0" IVar="-1" Cut="0.0000000000000000e+00" cType="1" res="9.4003519043326378e-03" rms="4.9443098902702332e-01" purity="5.0771903991699219e-01" nType="-99"/>
          <Node pos="r" depth="2" NCoef="0" IVar="-1" Cut="0.0000000000000000e+00" cType="1" res="-4.2725145816802979e-02" rms="4.0154659748077393e-01" purity="2.1161714196205139e-01" nType="-99"/>
        </Node>
        <Node pos="r" depth="1" NCoef="0" IVar="14" Cut="1.2797236633300781e+02" cType="1" res="1.0345514863729477e-01" rms="4.7007951140403748e-01" purity="6.5646100044250488e-01" nType="0">
          <Node pos="l" depth="2" NCoef="0" IVar="-1" Cut="0.0000000000000000e+00" cType="1" res="2.7299752458930016e-02" rms="4.5880463719367981e-01" purity="6.9006371498107910e-01" nType="-99"/>
          <Node pos="r" depth="2" NCoef="0" IVar="-1" Cut="0.0000000000000000e+00" cType="1" res="-2.8090778738260269e-02" rms="4.8594015836715698e-01" purity="3.9399847388267517e-01" nType="-99"/>
        </Node>
      </Node>
    </BinaryTree>
    <BinaryTree type="DecisionTree" boostWeight="1.0000000000000000e+00" itree="5">
      <Node pos="s" depth="0" NCoef="0" IVar="9" Cut="4.0000000000000000e+00" cType="1" res="3.9234510622918606e-03" rms="4.7161042690277100e-01" purity="5.0960874557495117e-01" nType="0">
        <Node pos="l" depth="1" NCoef="0" IVar="5" Cut="1.7611222267150879e+00" cType="1" res="-1.2029962241649628e-01" rms="4.4906488060951233e-01" purity="3.2526022195816040e-01" nType="0">
          <Node pos="l" depth="2" NCoef="0" IVar="-1" Cut="0.0000000000000000e+00" cType="1" res="1.9593834877014160e-02" rms="4.8044258356094360e-01" purity="6.0662978887557983e-01" nType="-99"/>
          <Node pos="r" depth="2" NCoef="0" IVar="-1" Cut="0.0000000000000000e+00" cType="1" res="-3.2734122127294540e-02" rms="4.3262311816215515e-01" purity="2.7700525522232056e-01" nType="-99"/>
        </Node>
        <Node pos="r" depth="1" NCoef="0" IVar="14" Cut="1.1755039978027344e+02" cType="1" res="1.0840605944395065e-01" rms="4.6509853005409241e-01" purity="6.6543614864349365e-01" nType="0">
          <Node pos="l" depth="2" NCoef="0" IVar="-1" Cut="0.0000000000000000e+00" cType="1" res="2.8108557686209679e-02" rms="4.5402240753173828e-01" purity="6.9990265369415283e-01" nType="-99"/>
          <Node pos="r" depth="2" NCoef="0" IVar="-1" Cut="0.0000000000000000e+00" cType="1" res="-1.5813048928976059e-02" rms="4.9117931723594666e-01" purity="4.4463261961936951e-01" nType="-99"/>
        </Node>
      </Node>
    </BinaryTree>
    <BinaryTree type="DecisionTree" boostWeight="1.0000000000000000e+00" itree="6">
      <Node pos="s" depth="0" NCoef="0" IVar="23" Cut="1.9801731407642365e-01" cType="1" res="-1.1419357731938362e-02" rms="4.6545192599296570e-01" purity="4.9111846089363098e-01" nType="0">
        <Node pos="l" depth="1" NCoef="0" IVar="5" Cut="2.4520423412322998e+00" cType="1" res="-1.7233681678771973e-01" rms="4.1202303767204285e-01" purity="2.3683093488216400e-01" nType="0">
          <Node pos="l" depth="2" NCoef="0" IVar="-1" Cut="0.0000000000000000e+00" cType="1" res="-1.4397277496755123e-02" rms="4.6973460912704468e-01" purity="3.6860102415084839e-01" nType="-99"/>
          <Node pos="r" depth="2" NCoef="0" IVar="-1" Cut="0.0000000000000000e+00" cType="1" res="-4.9574509263038635e-02" rms="3.6010915040969849e-01" purity="1.5880014002323151e-01" nType="-99"/>
        </Node>
        <Node pos="r" depth="1" NCoef="0" IVar="3" Cut="1.7139568328857422e+00" cType="1" res="8.1059806048870087e-02" rms="4.6920672059059143e-01" purity="6.3725727796554565e-01" nType="0">
          <Node pos="l" depth="2" NCoef="0" IVar="-1" Cut="0.0000000000000000e+00" cType="1" res="2.1127188578248024e-02" rms="4.6140807867050171e-01" purity="6.5955787897109985e-01" nType="-99"/>
          <Node pos="r" depth="2" NCoef="0" IVar="-1" Cut="0.0000000000000000e+00" cType="1" res="-3.0037868767976761e-02" rms="4.8803606629371643e-01" purity="4.0672582387924194e-01" nType="-99"/>
        </Node>
      </Node>
    </BinaryTree>
    <BinaryTree type="DecisionTree" boostWeight="1.0000000000000000e+00" itree="7">
      <Node pos="s" depth="0" NCoef="0" IVar="10" Cut="4.0000000000000000e+00" cType="1" res="4.4335951097309589e-03" rms="4.6116065979003906e-01" purity="5.0808304548263550e-01" nType="0">
        <Node pos="l" depth="1" NCoef="0" IVar="5" Cut="2.4609153270721436e+00" cType="1" res="-6.9751828908920288e-02" rms="4.5828679203987122e-01" purity="3.9283251762390137e-01" nType="0">
          <Node pos="l" depth="2" NCoef="0" IVar="-1" Cut="0.0000000000000000e+00" cType="1" res="5.9735355898737907e-03" rms="4.7626587748527527e-01" purity="5.2855396270751953e-01" nType="-99"/>
          <Node pos="r" depth="2" NCoef="0" IVar="-1" Cut="0.0000000000000000e+00" cType="1" res="-3.1585525721311569e-02" rms="4.2705008387565613e-01" purity="2.8371822834014893e-01" nType="-99"/>
        </Node>
        <Node pos="r" depth="1" NCoef="0" IVar="5" Cut="1.5448533296585083e+00" cType="1" res="1.5338402986526489e-01" rms="4.3043124675750732e-01" purity="7.4035662412643433e-01" nType="0">
          <Node pos="l" depth="2" NCoef="0" IVar="-1" Cut="0.0000000000000000e+00" cType="1" res="5.7458914816379547e-02" rms="3.3081227540969849e-01" purity="8.7464094161987305e-01" nType="-99"/>
          <Node pos="r" depth="2" NCoef="0" IVar="-1" Cut="0.0000000000000000e+00" cType="1" res="2.5455877184867859e-02" rms="4.4662898778915405e-01" purity="7.0705646276473999e-01" nType="-99"/>
        </Node>
      </Node>
    </BinaryTree>
    <BinaryTree type="DecisionTree" boostWeight="1.0000000000000000e+00" itree="8">
      <Node pos="s" depth="0" NCoef="0" IVar="23" Cut="1.9820003211498260e-01" cType="1" res="-1.4888940379023552e-02" rms="4.5561283826828003e-01" purity="4.8401737213134766e-01" nType="0">
        <Node pos="l" depth="1" NCoef="0" IVar="1" Cut="1.0954953765869141e+02" cType="1" res="-1.5317380428314209e-01" rms="4.0384885668754578e-01" purity="2.2991520166397095e-01" nType="0">
          <Node pos="l" depth="2" NCoef="0" IVar="-1" Cut="0.0000000000000000e+00" cType="1" res="-4.1844345629215240e-02" rms="3.6916777491569519e-01" purity="1.8130239844322205e-01" nType="-99"/>
          <Node pos="r" depth="2" NCoef="0" IVar="-1" Cut="0.0000000000000000e+00" cType="1" res="-1.1278234422206879e-02" rms="4.6707794070243835e-01" purity="3.5498726367950439e-01" nType="-99"/>
        </Node>
        <Node pos="r" depth="1" NCoef="0" IVar="14" Cut="1.2797006988525391e+02" cType="1" res="6.6818289458751678e-02" rms="4.6464508771896362e-01" purity="6.3415658473968506e-01" nType="0">
          <Node pos="l" depth="2" NCoef="0" IVar="-1" Cut="0.0000000000000000e+00" cType="1" res="1.9234087318181992e-02" rms="4.5751923322677612e-01" purity="6.6882342100143433e-01" nType="-99"/>
          <Node pos="r" depth="2" NCoef="0" IVar="-1" Cut="0.0000000000000000e+00" cType="1" res="-2.4856310337781906e-02" rms="4.7266206145286560e-01" purity="3.7886604666709900e-01" nType="-99"/>
        </Node>
      </Node>
    </BinaryTree>
    <BinaryTree type="DecisionTree" boostWeight="1.0000000000000000e+00" itree="9">
      <Node pos="s" depth="0" NCoef="0" IVar="23" Cut="-4.0101590752601624e-01" cType="1" res="4.3162158690392971e-03" rms="4.5758217573165894e-01" purity="5.0951629877090454e-01" nType="0">
        <Node pos="l" depth="1" NCoef="0" IVar="0" Cut="9.8050720214843750e+01" cType="1" res="-1.3165214657783508e-01" rms="3.9834526181221008e-01" purity="2.1708086133003235e-01" nType="0">
          <Node pos="l" depth="2" NCoef="0" IVar="-1" Cut="0.0000000000000000e+00" cType="1" res="-3.8949102163314819e-02" rms="3.5773009061813354e-01" purity="1.5551304817199707e-01" nType="-99"/>
          <Node pos="r" depth="2" NCoef="0" IVar="-1" Cut="0.0000000000000000e+00" cType="1" res="-4.0467716753482819e-03" rms="4.8077610135078430e-01" purity="3.9632046222686768e-01" nType="-99"/>
        </Node>
        <Node pos="r" depth="1" NCoef="0" IVar="5" Cut="2.7610757350921631e+00" cType="1" res="5.6450363248586655e-02" rms="4.6799108386039734e-01" purity="6.2164437770843506e-01" nType="0">
          <Node pos="l" depth="2" NCoef="0" IVar="-1" Cut="0.0000000000000000e+00" cType="1" res="2.1319253370165825e-02" rms="4.5415264368057251e-01" purity="6.8067556619644165e-01" nType="-99"/>
          <Node pos="r" depth="2" NCoef="0" IVar="-1" Cut="0.0000000000000000e+00" cType="1" res="-9.4742598012089729e-03" rms="4.8214948177337646e-01" purity="4.8929515480995178e-01" nType="-99"/>
        </Node>
      </Node>
    </BinaryTree>
    <BinaryTree type="DecisionTree" boostWeight="1.0000000000000000e+00" itree="10">
      <Node pos="s" depth="0" NCoef="0" IVar="9" Cut="4.0000000000000000e+00" cType="1" res="-9.1174924746155739e-03" rms="4.5628136396408081e-01" purity="4.9550700187683105e-01" nType="0">
        <Node pos="l" depth="1" NCoef="0" IVar="7" Cut="4.6726058959960938e+01" cType="1" res="-9.4360992312431335e-02" rms="4.3676161766052246e-01" purity="3.1160461902618408e-01" nType="0">
          <Node pos="l" depth="2" NCoef="0" IVar="-1" Cut="0.0000000000000000e+00" cType="1" res="-3.3235590904951096e-02" rms="4.0725466609001160e-01" purity="2.4331068992614746e-01" nType="-99"/>
          <Node pos="r" depth="2" NCoef="0" IVar="-1" Cut="0.0000000000000000e+00" cType="1" res="-3.3986486960202456e-03" rms="4.6293285489082336e-01" purity="4.0538266301155090e-01" nType="-99"/>
        </Node>
        <Node pos="r" depth="1" NCoef="0" IVar="4" Cut="1.5999294519424438e+00" cType="1" res="6.4392723143100739e-02" rms="4.6043139696121216e-01" purity="6.5517693758010864e-01" nType="0">
          <Node pos="l" depth="2" NCoef="0" IVar="-1" Cut="0.0000000000000000e+00" cType="1" res="1.9736262038350105e-02" rms="4.4956949353218079e-01" purity="6.8625986576080322e-01" nType="-99"/>
          <Node pos="r" depth="2" NCoef="0" IVar="-1" Cut="0.0000000000000000e+00" cType="1" res="-1.7261151224374771e-02" rms="4.8550674319267273e-01" purity="4.9903917312622070e-01" nType="-99"/>
        </Node>
      </Node>
    </BinaryTree>
    <BinaryTree type="DecisionTree" boostWeight="1.0000000000000000e+00" itree="11">
      <Node pos="s" depth="0" NCoef="0" IVar="9" Cut="4.0000000000000000e+00" cType="1" res="-2.0167639013379812e-03" rms="4.5218464732170105e-01" purity="5.0213962793350220e-01" nType="0">
        <Node pos="l" depth="1" NCoef="0" IVar="6" Cut="1.8854100704193115e+00" cType="1" res="-8.3546958863735199e-02" rms="4.3346834182739258e-01" purity="3.1208786368370056e-01" nType="0">
          <Node pos="l" depth="2" NCoef="0" IVar="-1" Cut="0.0000000000000000e+00" cType="1" res="8.8671930134296417e-03" rms="4.8414045572280884e-01" purity="5.1899957656860352e-01" nType="-99"/>
          <Node pos="r" depth="2" NCoef="0" IVar="-1" Cut="0.0000000000000000e+00" cType="1" res="-2.4957962334156036e-02" rms="4.1570228338241577e-01" purity="2.6482746005058289e-01" nType="-99"/>
        </Node>
        <Node pos="r" depth="1" NCoef="0" IVar="3" Cut="1.5997174978256226e+00" cType="1" res="6.6977113485336304e-02" rms="4.5694386959075928e-01" purity="6.6498267650604248e-01" nType="0">
          <Node pos="l" depth="2" NCoef="0" IVar="-1" Cut="0.0000000000000000e+00" cType="1" res="1.9106468185782433e-02" rms="4.4769501686096191e-01" purity="6.9140052795410156e-01" nType="-99"/>
          <Node pos="r" depth="2" NCoef="0" IVar="-1" Cut="0.0000000000000000e+00" cType="1" res="-2.4427929893136024e-02" rms="4.8738446831703186e-01" purity="4.5392140746116638e-01" nType="-99"/>
        </Node>
      </Node>
    </BinaryTree>
    <BinaryTree type="DecisionTree" boostWeight="1.0000000000000000e+00" itree="12">
      <Node pos="s" depth="0" NCoef="0" IVar="23" Cut="7.9747593402862549e-01" cType="1" res="1.8163157626986504e-02" rms="4.4382223486900330e-01" purity="5.1842713356018066e-01" nType="0">
        <Node pos="l" depth="1" NCoef="0" IVar="11" Cut="3.0000000000000000e+00" cType="1" res="-6.2899045646190643e-02" rms="4.3974024057388306e-01" purity="3.6170256137847900e-01" nType="0">
          <Node pos="l" depth="2" NCoef="0" IVar="-1" Cut="0.0000000000000000e+00" cType="1" res="-2.1373361349105835e-02" rms="4.2593833804130554e-01" purity="2.8832086920738220e-01" nType="-99"/>
          <Node pos="r" depth="2" NCoef="0" IVar="-1" Cut="0.0000000000000000e+00" cType="1" res="1.3084185309708118e-02" rms="4.6794226765632629e-01" purity="6.3782948255538940e-01" nType="-99"/>
        </Node>
        <Node pos="r" depth="1" NCoef="0" IVar="4" Cut="1.5998827219009399e+00" cType="1" res="1.3644418120384216e-01" rms="4.2252299189567566e-01" purity="7.4766111373901367e-01" nType="0">
          <Node pos="l" depth="2" NCoef="0" IVar="-1" Cut="0.0000000000000000e+00" cType="1" res="3.8092363625764847e-02" rms="3.9660814404487610e-01" purity="7.9430097341537476e-01" nType="-99"/>
          <Node pos="r" depth="2" NCoef="0" IVar="-1" Cut="0.0000000000000000e+00" cType="1" res="-1.1945719830691814e-02" rms="4.8352956771850586e-01" purity="5.2653139829635620e-01" nType="-99"/>
        </Node>
      </Node>
    </BinaryTree>
    <BinaryTree type="DecisionTree" boostWeight="1.0000000000000000e+00" itree="13">
      <Node pos="s" depth="0" NCoef="0" IVar="5" Cut="1.8630776405334473e+00" cType="1" res="-1.3845501234754920e-03" rms="4.4935759902000427e-01" purity="5.0645405054092407e-01" nType="0">
        <Node pos="l" depth="1" NCoef="0" IVar="17" Cut="8.3712181091308594e+01" cType="1" res="1.2536586821079254e-01" rms="4.3009343743324280e-01" purity="7.2664111852645874e-01" nType="0">
          <Node pos="l" depth="2" NCoef="0" IVar="-1" Cut="0.0000000000000000e+00" cType="1" res="6.9426880218088627e-03" rms="4.6213656663894653e-01" purity="6.3922196626663208e-01" nType="-99"/>
          <Node pos="r" depth="2" NCoef="0" IVar="-1" Cut="0.0000000000000000e+00" cType="1" res="3.8834586739540100e-02" rms="4.0037366747856140e-01" purity="7.7754807472229004e-01" nType="-99"/>
        </Node>
        <Node pos="r" depth="1" NCoef="0" IVar="9" Cut="5.0000000000000000e+00" cType="1" res="-4.2063001543283463e-02" rms="4.4775304198265076e-01" purity="4.3583691120147705e-01" nType="0">
          <Node pos="l" depth="2" NCoef="0" IVar="-1" Cut="0.0000000000000000e+00" cType="1" res="-1.8731039017438889e-02" rms="4.3887433409690857e-01" purity="3.4260216355323792e-01" nType="-99"/>
          <Node pos="r" depth="2" NCoef="0" IVar="-1" Cut="0.0000000000000000e+00" cType="1" res="1.6403324902057648e-02" rms="4.5142638683319092e-01" purity="6.9681435823440552e-01" nType="-99"/>
        </Node>
      </Node>
    </BinaryTree>
    <BinaryTree type="DecisionTree" boostWeight="1.0000000000000000e+00" itree="14">
      <Node pos="s" depth="0" NCoef="0" IVar="10" Cut="3.0000000000000000e+00" cType="1" res="-1.1862022802233696e-03" rms="4.4335815310478210e-01" purity="5.0186103582382202e-01" nType="0">
        <Node pos="l" depth="1" NCoef="0" IVar="6" Cut="2.1665234565734863e+00" cType="1" res="-8.3377256989479065e-02" rms="4.1581252217292786e-01" purity="2.6416561007499695e-01" nType="0">
          <Node pos="l" depth="2" NCoef="0" IVar="-1" Cut="0.0000000000000000e+00" cType="1" res="4.7452091239392757e-03" rms="4.6900081634521484e-01" purity="4.3208095431327820e-01" nType="-99"/>
          <Node pos="r" depth="2" NCoef="0" IVar="-1" Cut="0.0000000000000000e+00" cType="1" res="-2.7468593791127205e-02" rms="3.9132729172706604e-01" purity="2.1039988100528717e-01" nType="-99"/>
        </Node>
        <Node pos="r" depth="1" NCoef="0" IVar="18" Cut="1.5384523010253906e+02" cType="1" res="5.7080503553152084e-02" rms="4.5297318696975708e-01" purity="6.7025607824325562e-01" nType="0">
          <Node pos="l" depth="2" NCoef="0" IVar="-1" Cut="0.0000000000000000e+00" cType="1" res="2.1193495020270348e-02" rms="4.3550664186477661e-01" purity="7.0650720596313477e-01" nType="-99"/>
          <Node pos="r" depth="2" NCoef="0" IVar="-1" Cut="0.0000000000000000e+00" cType="1" res="-1.0662255808711052e-02" rms="4.7882631421089172e-01" purity="5.7743823528289795e-01" nType="-99"/>
        </Node>
      </Node>
    </BinaryTree>
    <BinaryTree type="DecisionTree" boostWeight="1.0000000000000000e+00" itree="15">
      <Node pos="s" depth="0" NCoef="0" IVar="21" Cut="5.9718143939971924e-01" cType="1" res="-1.1242883279919624e-02" rms="4.4387707114219666e-01" purity="4.9117943644523621e-01" nType="0">
        <Node pos="l" depth="1" NCoef="0" IVar="5" Cut="1.5362470149993896e+00" cType="1" res="-6.0024410486221313e-02" rms="4.4045707583427429e-01" purity="3.8642132282257080e-01" nType="0">
          <Node pos="l" depth="2" NCoef="0" IVar="-1" Cut="0.0000000000000000e+00" cType="1" res="1.6958065330982208e-02" rms="4.5251479744911194e-01" purity="6.6684573888778687e-01" nType="-99"/>
          <Node pos="r" depth="2" NCoef="0" IVar="-1" Cut="0.0000000000000000e+00" cType="1" res="-1.7697306349873543e-02" rms="4.3556883931159973e-01" purity="3.4964275360107422e-01" nType="-99"/>
        </Node>
        <Node pos="r" depth="1" NCoef="0" IVar="18" Cut="1.5315267944335938e+02" cType="1" res="9.6580542623996735e-02" rms="4.3223387002944946e-01" purity="7.2272962331771851e-01" nType="0">
          <Node pos="l" depth="2" NCoef="0" IVar="-1" Cut="0.0000000000000000e+00" cType="1" res="2.7627788484096527e-02" rms="4.1388407349586487e-01" purity="7.4545824527740479e-01" nType="-99"/>
          <Node pos="r" depth="2" NCoef="0" IVar="-1" Cut="0.0000000000000000e+00" cType="1" res="-5.0964881666004658e-03" rms="4.8160538077354431e-01" purity="6.3064193725585938e-01" nType="-99"/>
        </Node>
      </Node>
    </BinaryTree>
    <BinaryTree type="DecisionTree" boostWeight="1.0000000000000000e+00" itree="16">
      <Node pos="s" depth="0" NCoef="0" IVar="1" Cut="9.2502403259277344e+01" cType="1" res="-1.4448903966695070e-03" rms="4.4555336236953735e-01" purity="5.0636613368988037e-01" nType="0">
        <Node pos="l" depth="1" NCoef="0" IVar="11" Cut="3.0000000000000000e+00" cType="1" res="-5.5208563804626465e-02" rms="4.3901607394218445e-01" purity="4.2404159903526306e-01" nType="0">
          <Node pos="l" depth="2" NCoef="0" IVar="-1" Cut="0.0000000000000000e+00" cType="1" res="-2.4570629000663757e-02" rms="4.1167572140693665e-01" purity="2.6816657185554504e-01" nType="-99"/>
          <Node pos="r" depth="2" NCoef="0" IVar="-1" Cut="0.0000000000000000e+00" cType="1" res="3.1975198071449995e-03" rms="4.6604192256927490e-01" purity="6.4294999837875366e-01" nType="-99"/>
        </Node>
        <Node pos="r" depth="1" NCoef="0" IVar="15" Cut="9.5745101928710938e+01" cType="1" res="5.4285053163766861e-02" rms="4.4542929530143738e-01" purity="5.9204709529876709e-01" nType="0">
          <Node pos="l" depth="2" NCoef="0" IVar="-1" Cut="0.0000000000000000e+00" cType="1" res="2.1108087152242661e-02" rms="4.3415945768356323e-01" purity="6.5087044239044189e-01" nType="-99"/>
          <Node pos="r" depth="2" NCoef="0" IVar="-1" Cut="0.0000000000000000e+00" cType="1" res="-8.5896160453557968e-03" rms="4.5695671439170837e-01" purity="4.5577853918075562e-01" nType="-99"/>
        </Node>
      </Node>
    </BinaryTree>
    <BinaryTree type="DecisionTree" boostWeight="1.0000000000000000e+00" itree="17">
      <Node pos="s" depth="0" NCoef="0" IVar="9" Cut="5.0000000000000000e+00" cType="1" res="-8.5545936599373817e-03" rms="4.4156071543693542e-01" purity="4.9616479873657227e-01" nType="0">
        <Node pos="l" depth="1" NCoef="0" IVar="21" Cut="7.9624921083450317e-01" cType="1" res="-5.3327821195125580e-02" rms="4.4215101003646851e-01" purity="3.9301851391792297e-01" nType="0">
          <Node pos="l" depth="2" NCoef="0" IVar="-1" Cut="0.0000000000000000e+00" cType="1" res="-1.6916077584028244e-02" rms="4.4007736444473267e-01" purity="3.4446567296981812e-01" nType="-99"/>
          <Node pos="r" depth="2" NCoef="0" IVar="-1" Cut="0.0000000000000000e+00" cType="1" res="1.7010148614645004e-02" rms="4.3200531601905823e-01" purity="6.9152671098709106e-01" nType="-99"/>
        </Node>
        <Node pos="r" depth="1" NCoef="0" IVar="16" Cut="1.1951509094238281e+02" cType="1" res="1.0529851913452148e-01" rms="4.1904222965240479e-01" purity="7.5835347175598145e-01" nType="0">
          <Node pos="l" depth="2" NCoef="0" IVar="-1" Cut="0.0000000000000000e+00" cType="1" res="1.4293629676103592e-02" rms="4.4385895133018494e-01" purity="7.1342903375625610e-01" nType="-99"/>
          <Node pos="r" depth="2" NCoef="0" IVar="-1" Cut="0.0000000000000000e+00" cType="1" res="4.6182360500097275e-02" rms="3.3324301242828369e-01" purity="8.6512696743011475e-01" nType="-99"/>
        </Node>
      </Node>
    </BinaryTree>
    <BinaryTree type="DecisionTree" boostWeight="1.0000000000000000e+00" itree="18">
      <Node pos="s" depth="0" NCoef="0" IVar="20" Cut="-5.0218081474304199e-01" cType="1" res="-8.3464039489626884e-03" rms="4.3428593873977661e-01" purity="4.8626470565795898e-01" nType="0">
        <Node pos="l" depth="1" NCoef="0" IVar="5" Cut="1.7589265108108521e+00" cType="1" res="-8.2752600312232971e-02" rms="3.9893969893455505e-01" purity="2.5524830818176270e-01" nType="0">
          <Node pos="l" depth="2" NCoef="0" IVar="-1" Cut="0.0000000000000000e+00" cType="1" res="1.2504986487329006e-02" rms="4.7051435708999634e-01" purity="5.6598043441772461e-01" nType="-99"/>
          <Node pos="r" depth="2" NCoef="0" IVar="-1" Cut="0.0000000000000000e+00" cType="1" res="-2.5387570261955261e-02" rms="3.8403898477554321e-01" purity="2.1284550428390503e-01" nType="-99"/>
        </Node>
        <Node pos="r" depth="1" NCoef="0" IVar="3" Cut="1.7139519453048706e+00" cType="1" res="4.5765280723571777e-02" rms="4.5063111186027527e-01" purity="6.5427064895629883e-01" nType="0">
          <Node pos="l" depth="2" NCoef="0" IVar="-1" Cut="0.0000000000000000e+00" cType="1" res="1.5061481855809689e-02" rms="4.4241282343864441e-01" purity="6.8263536691665649e-01" nType="-99"/>
          <Node pos="r" depth="2" NCoef="0" IVar="-1" Cut="0.0000000000000000e+00" cType="1" res="-3.4746024757623672e-02" rms="4.7277718782424927e-01" purity="3.8619360327720642e-01" nType="-99"/>
        </Node>
      </Node>
    </BinaryTree>
    <BinaryTree type="DecisionTree" boostWeight="1.0000000000000000e+00" itree="19">
      <Node pos="s" depth="0" NCoef="0" IVar="11" Cut="2.0000000000000000e+00" cType="1" res="-8.1112682819366455e-03" rms="4.4080793857574463e-01" purity="4.9641442298889160e-01" nType="0">
        <Node pos="l" depth="1" NCoef="0" IVar="7" Cut="4.0975955963134766e+01" cType="1" res="-9.8654560744762421e-02" rms="3.9624682068824768e-01" purity="2.2428141534328461e-01" nType="0">
          <Node pos="l" depth="2" NCoef="0" IVar="-1" Cut="0.0000000000000000e+00" cType="1" res="-3.4390781074762344e-02" rms="3.4106597304344177e-01" purity="1.5378637611865997e-01" nType="-99"/>
          <Node pos="r" depth="2" NCoef="0" IVar="-1" Cut="0.0000000000000000e+00" cType="1" res="-1.3379716314375401e-02" rms="4.4985303282737732e-01" purity="3.0830365419387817e-01" nType="-99"/>
        </Node>
        <Node pos="r" depth="1" NCoef="0" IVar="1" Cut="1.3434127807617188e+02" cType="1" res="2.1804707124829292e-02" rms="4.5097798109054565e-01" purity="5.8724319934844971e-01" nType="0">
          <Node pos="l" depth="2" NCoef="0" IVar="-1" Cut="0.0000000000000000e+00" cType="1" res="-2.0365139935165644e-03" rms="4.5864698290824890e-01" purity="5.4357057809829712e-01" nType="-99"/>
          <Node pos="r" depth="2" NCoef="0" IVar="-1" Cut="0.0000000000000000e+00" cType="1" res="2.2645367309451103e-02" rms="4.2044833302497864e-01" purity="6.9923937320709229e-01" nType="-99"/>
        </Node>
      </Node>
    </BinaryTree>
    <BinaryTree type="DecisionTree" boostWeight="1.0000000000000000e+00" itree="20">
      <Node pos="s" depth="0" NCoef="0" IVar="21" Cut="1.9784462451934814e-01" cType="1" res="-1.6480974853038788e-02" rms="4.3754896521568298e-01" purity="4.8264837265014648e-01" nType="0">
        <Node pos="l" depth="1" NCoef="0" IVar="17" Cut="1.6196585083007812e+02" cType="1" res="-5.8638665825128555e-02" rms="4.2836415767669678e-01" purity="3.5121691226959229e-01" nType="0">
          <Node pos="l" depth="2" NCoef="0" IVar="-1" Cut="0.0000000000000000e+00" cType="1" res="-1.8735125660896301e-02" rms="4.2579424381256104e-01" purity="3.2396271824836731e-01" nType="-99"/>
          <Node pos="r" depth="2" NCoef="0" IVar="-1" Cut="0.0000000000000000e+00" cType="1" res="1.8514942377805710e-02" rms="4.1960301995277405e-01" purity="5.3115743398666382e-01" nType="-99"/>
        </Node>
        <Node pos="r" depth="1" NCoef="0" IVar="3" Cut="6.8568426370620728e-01" cType="1" res="4.4686317443847656e-02" rms="4.4347324967384338e-01" purity="6.7334455251693726e-01" nType="0">
          <Node pos="l" depth="2" NCoef="0" IVar="-1" Cut="0.0000000000000000e+00" cType="1" res="2.2003401070833206e-02" rms="4.1705769300460815e-01" purity="7.3787879943847656e-01" nType="-99"/>
          <Node pos="r" depth="2" NCoef="0" IVar="-1" Cut="0.0000000000000000e+00" cType="1" res="-1.3276269892230630e-03" rms="4.6212300658226013e-01" purity="6.1061757802963257e-01" nType="-99"/>
        </Node>
      </Node>
    </BinaryTree>
    <BinaryTree type="DecisionTree" boostWeight="1.0000000000000000e+00" itree="21">
      <Node pos="s" depth="0" NCoef="0" IVar="24" Cut="3.0000000000000000e+00" cType="1" res="2.3872219026088715e-03" rms="4.3194919824600220e-01" purity="4.9882221221923828e-01" nType="0">
        <Node pos="l" depth="1" NCoef="0" IVar="5" Cut="2.5588116645812988e+00" cType="1" res="-8.1543371081352234e-02" rms="3.8767358660697937e-01" purity="2.2572892904281616e-01" nType="0">
          <Node pos="l" depth="2" NCoef="0" IVar="-1" Cut="0.0000000000000000e+00" cType="1" res="-9.1495001688599586e-03" rms="4.3098640441894531e-01" purity="3.1896606087684631e-01" nType="-99"/>
          <Node pos="r" depth="2" NCoef="0" IVar="-1" Cut="0.0000000000000000e+00" cType="1" res="-3.2034188508987427e-02" rms="3.4446275234222412e-01" purity="1.4972411096096039e-01" nType="-99"/>
        </Node>
        <Node pos="r" depth="1" NCoef="0" IVar="3" Cut="1.8283469676971436e+00" cType="1" res="4.1697535663843155e-02" rms="4.4578534364700317e-01" purity="6.2636977434158325e-01" nType="0">
          <Node pos="l" depth="2" NCoef="0" IVar="-1" Cut="0.0000000000000000e+00" cType="1" res="1.2728455476462841e-02" rms="4.4277733564376831e-01" purity="6.4982843399047852e-01" nType="-99"/>
          <Node pos="r" depth="2" NCoef="0" IVar="-1" Cut="0.0000000000000000e+00" cType="1" res="-3.2402686774730682e-02" rms="4.3928402662277222e-01" purity="3.2992929220199585e-01" nType="-99"/>
        </Node>
      </Node>
    </BinaryTree>
    <BinaryTree type="DecisionTree" boostWeight="1.0000000000000000e+00" itree="22">
      <Node pos="s" depth="0" NCoef="0" IVar="5" Cut="2.5445611476898193e+00" cType="1" res="9.4531955255661160e-05" rms="4.3864402174949646e-01" purity="5.0552785396575928e-01" nType="0">
        <Node pos="l" depth="1" NCoef="0" IVar="7" Cut="1.0602189636230469e+02" cType="1" res="4.8694271594285965e-02" rms="4.4525271654129028e-01" purity="6.2167686223983765e-01" nType="0">
          <Node pos="l" depth="2" NCoef="0" IVar="-1" Cut="0.0000000000000000e+00" cType="1" res="7.1158115752041340e-03" rms="4.4938242435455322e-01" purity="5.9697473049163818e-01" nType="-99"/>
          <Node pos="r" depth="2" NCoef="0" IVar="-1" Cut="0.0000000000000000e+00" cType="1" res="4.0808625519275665e-02" rms="3.9100652933120728e-01" purity="7.9942846298217773e-01" nType="-99"/>
        </Node>
        <Node pos="r" depth="1" NCoef="0" IVar="9" Cut="5.0000000000000000e+00" cType="1" res="-5.8695118874311447e-02" rms="4.2356869578361511e-01" purity="3.6959800124168396e-01" nType="0">
          <Node pos="l" depth="2" NCoef="0" IVar="-1" Cut="0.0000000000000000e+00" cType="1" res="-2.1013099700212479e-02" rms="4.1208046674728394e-01" purity="2.7854743599891663e-01" nType="-99"/>
          <Node pos="r" depth="2" NCoef="0" IVar="-1" Cut="0.0000000000000000e+00" cType="1" res="9.8663279786705971e-03" rms="4.4735002517700195e-01" purity="6.8455928564071655e-01" nType="-99"/>
        </Node>
      </Node>
    </BinaryTree>
    <BinaryTree type="DecisionTree" boostWeight="1.0000000000000000e+00" itree="23">
      <Node pos="s" depth="0" NCoef="0" IVar="14" Cut="1.2796959686279297e+02" cType="1" res="-1.1423928663134575e-03" rms="4.3567791581153870e-01" purity="5.0141197443008423e-01" nType="0">
        <Node pos="l" depth="1" NCoef="0" IVar="21" Cut="7.9624921083450317e-01" cType="1" res="1.4801069162786007e-02" rms="4.3081653118133545e-01" purity="5.2304673194885254e-01" nType="0">
          <Node pos="l" depth="2" NCoef="0" IVar="-1" Cut="0.0000000000000000e+00" cType="1" res="-3.5399605985730886e-03" rms="4.4018620252609253e-01" purity="4.4760537147521973e-01" nType="-99"/>
          <Node pos="r" depth="2" NCoef="0" IVar="-1" Cut="0.0000000000000000e+00" cType="1" res="3.1406566500663757e-02" rms="3.6986988782882690e-01" purity="8.1772994995117188e-01" nType="-99"/>
        </Node>
        <Node pos="r" depth="1" NCoef="0" IVar="-1" Cut="0.0000000000000000e+00" cType="1" res="-2.7017813175916672e-02" rms="4.5300486683845520e-01" purity="3.3738508820533752e-01" nType="-99"/>
      </Node>
    </BinaryTree>
    <BinaryTree type="DecisionTree" boostWeight="1.0000000000000000e+00" itree="24">
      <Node pos="s" depth="0" NCoef="0" IVar="14" Cut="1.1754637908935547e+02" cType="1" res="-1.2567465193569660e-02" rms="4.2941275238990784e-01" purity="4.8047187924385071e-01" nType="0">
        <Node pos="l" depth="1" NCoef="0" IVar="11" Cut="2.0000000000000000e+00" cType="1" res="1.4387628063559532e-02" rms="4.2937096953392029e-01" purity="5.2504348754882812e-01" nType="0">
          <Node pos="l" depth="2" NCoef="0" IVar="-1" Cut="0.0000000000000000e+00" cType="1" res="-1.8787482753396034e-02" rms="3.8552030920982361e-01" purity="2.2286896407604218e-01" nType="-99"/>
          <Node pos="r" depth="2" NCoef="0" IVar="-1" Cut="0.0000000000000000e+00" cType="1" res="1.0093647986650467e-02" rms="4.3990242481231689e-01" purity="6.2852895259857178e-01" nType="-99"/>
        </Node>
        <Node pos="r" depth="1" NCoef="0" IVar="6" Cut="2.1462094783782959e+00" cType="1" res="-1.3325750827789307e-01" rms="4.0710383653640747e-01" purity="2.7955612540245056e-01" nType="0">
          <Node pos="l" depth="2" NCoef="0" IVar="-1" Cut="0.0000000000000000e+00" cType="1" res="-7.5083496049046516e-03" rms="4.8140862584114075e-01" purity="4.8571294546127319e-01" nType="-99"/>
          <Node pos="r" depth="2" NCoef="0" IVar="-1" Cut="0.0000000000000000e+00" cType="1" res="-4.2801532894372940e-02" rms="3.6456897854804993e-01" purity="1.9475464522838593e-01" nType="-99"/>
        </Node>
      </Node>
    </BinaryTree>
    <BinaryTree type="DecisionTree" boostWeight="1.0000000000000000e+00" itree="25">
      <Node pos="s" depth="0" NCoef="0" IVar="24" Cut="3.0000000000000000e+00" cType="1" res="1.4740517362952232e-02" rms="4.2251205444335938e-01" purity="5.0690323114395142e-01" nType="0">
        <Node pos="l" depth="1" NCoef="0" IVar="6" Cut="2.0359506607055664e+00" cType="1" res="-6.4759410917758942e-02" rms="3.8657832145690918e-01" purity="2.2502127289772034e-01" nType="0">
          <Node pos="l" depth="2" NCoef="0" IVar="-1" Cut="0.0000000000000000e+00" cType="1" res="5.4756053723394871e-03" rms="4.4796508550643921e-01" purity="4.0417733788490295e-01" nType="-99"/>
          <Node pos="r" depth="2" NCoef="0" IVar="-1" Cut="0.0000000000000000e+00" cType="1" res="-2.3830087855458260e-02" rms="3.6827495694160461e-01" purity="1.8432416021823883e-01" nType="-99"/>
        </Node>
        <Node pos="r" depth="1" NCoef="0" IVar="7" Cut="6.2132488250732422e+01" cType="1" res="5.1803704351186752e-02" rms="4.3468233942985535e-01" purity="6.4200657606124878e-01" nType="0">
          <Node pos="l" depth="2" NCoef="0" IVar="-1" Cut="0.0000000000000000e+00" cType="1" res="2.0665628835558891e-03" rms="4.4624918699264526e-01" purity="5.8141481876373291e-01" nType="-99"/>
          <Node pos="r" depth="2" NCoef="0" IVar="-1" Cut="0.0000000000000000e+00" cType="1" res="3.3512622117996216e-02" rms="3.9238974452018738e-01" purity="7.7446657419204712e-01" nType="-99"/>
        </Node>
      </Node>
    </BinaryTree>
    <BinaryTree type="DecisionTree" boostWeight="1.0000000000000000e+00" itree="26">
      <Node pos="s" depth="0" NCoef="0" IVar="15" Cut="1.5487202453613281e+02" cType="1" res="5.8083538897335529e-03" rms="4.2980942130088806e-01" purity="5.0629389286041260e-01" nType="0">
        <Node pos="l" depth="1" NCoef="0" IVar="20" Cut="-5.0220960378646851e-01" cType="1" res="2.2960107773542404e-02" rms="4.2415192723274231e-01" purity="5.2685320377349854e-01" nType="0">
          <Node pos="l" depth="2" NCoef="0" IVar="-1" Cut="0.0000000000000000e+00" cType="1" res="-1.0012187995016575e-02" rms="4.0883758664131165e-01" purity="2.7931749820709229e-01" nType="-99"/>
          <Node pos="r" depth="2" NCoef="0" IVar="-1" Cut="0.0000000000000000e+00" cType="1" res="1.5137405134737492e-02" rms="4.2933148145675659e-01" purity="6.9941920042037964e-01" nType="-99"/>
        </Node>
        <Node pos="r" depth="1" NCoef="0" IVar="-1" Cut="0.0000000000000000e+00" cType="1" res="-4.4206388294696808e-02" rms="4.4401142001152039e-01" purity="2.6229038834571838e-01" nType="-99"/>
      </Node>
    </BinaryTree>
    <BinaryTree type="DecisionTree" boostWeight="1.0000000000000000e+00" itree="27">
      <Node pos="s" depth="0" NCoef="0" IVar="1" Cut="9.7639495849609375e+01" cType="1" res="-7.5239073485136032e-03" rms="4.3733239173889160e-01" purity="5.0187915563583374e-01" nType="0">
        <Node pos="l" depth="1" NCoef="0" IVar="15" Cut="5.1625202178955078e+01" cType="1" res="-5.1410268992185593e-02" rms="4.3319556117057800e-01" purity="4.1737440228462219e-01" nType="0">
          <Node pos="l" depth="2" NCoef="0" IVar="-1" Cut="0.0000000000000000e+00" cType="1" res="-2.8377914801239967e-02" rms="4.3356063961982727e-01" purity="3.5592114925384521e-01" nType="-99"/>
          <Node pos="r" depth="2" NCoef="0" IVar="-1" Cut="0.0000000000000000e+00" cType="1" res="-4.1546759894117713e-04" rms="4.2639619112014771e-01" purity="4.6597284078598022e-01" nType="-99"/>
        </Node>
        <Node pos="r" depth="1" NCoef="0" IVar="18" Cut="1.4908171081542969e+02" cType="1" res="4.5097529888153076e-02" rms="4.3646216392517090e-01" purity="6.0320359468460083e-01" nType="0">
          <Node pos="l" depth="2" NCoef="0" IVar="-1" Cut="0.0000000000000000e+00" cType="1" res="1.6668576747179031e-02" rms="4.2364400625228882e-01" purity="6.0219097137451172e-01" nType="-99"/>
          <Node pos="r" depth="2" NCoef="0" IVar="-1" Cut="0.0000000000000000e+00" cType="1" res="-1.0369802825152874e-02" rms="4.6953672170639038e-01" purity="6.0689806938171387e-01" nType="-99"/>
        </Node>
      </Node>
    </BinaryTree>
    <BinaryTree type="DecisionTree" boostWeight="1.0000000000000000e+00" itree="28">
      <Node pos="s" depth="0" NCoef="0" IVar="1" Cut="9.2493301391601562e+01" cType="1" res="4.6463346734526567e-06" rms="4.3465393781661987e-01" purity="5.1109957695007324e-01" nType="0">
        <Node pos="l" depth="1" NCoef="0" IVar="7" Cut="3.4639450073242188e+01" cType="1" res="-3.8675978779792786e-02" rms="4.3297281861305237e-01" purity="4.2928794026374817e-01" nType="0">
          <Node pos="l" depth="2" NCoef="0" IVar="-1" Cut="0.0000000000000000e+00" cType="1" res="-2.0509846508502960e-02" rms="4.2079570889472961e-01" purity="3.5965073108673096e-01" nType="-99"/>
          <Node pos="r" depth="2" NCoef="0" IVar="-1" Cut="0.0000000000000000e+00" cType="1" res="5.7880342938005924e-03" rms="4.4210872054100037e-01" purity="5.2811276912689209e-01" nType="-99"/>
        </Node>
        <Node pos="r" depth="1" NCoef="0" IVar="9" Cut="6.0000000000000000e+00" cType="1" res="4.1611026972532272e-02" rms="4.3151235580444336e-01" purity="5.9644740819931030e-01" nType="0">
          <Node pos="l" depth="2" NCoef="0" IVar="-1" Cut="0.0000000000000000e+00" cType="1" res="4.6130372211337090e-03" rms="4.4598168134689331e-01" purity="5.4931122064590454e-01" nType="-99"/>
          <Node pos="r" depth="2" NCoef="0" IVar="-1" Cut="0.0000000000000000e+00" cType="1" res="3.9997428655624390e-02" rms="3.1988984346389771e-01" purity="8.7096709012985229e-01" nType="-99"/>
        </Node>
      </Node>
    </BinaryTree>
    <BinaryTree type="DecisionTree" boostWeight="1.0000000000000000e+00" itree="29">
      <Node pos="s" depth="0" NCoef="0" IVar="21" Cut="8.9668405055999756e-01" cType="1" res="-3.3665630035102367e-03" rms="4.2632347345352173e-01" purity="4.9279218912124634e-01" nType="0">
        <Node pos="l" depth="1" NCoef="0" IVar="3" Cut="9.1417801380157471e-01" cType="1" res="-1.8514275550842285e-02" rms="4.3188953399658203e-01" purity="4.5346641540527344e-01" nType="0">
          <Node pos="l" depth="2" NCoef="0" IVar="-1" Cut="0.0000000000000000e+00" cType="1" res="4.6539213508367538e-03" rms="4.3414154648780823e-01" purity="5.1821714639663696e-01" nType="-99"/>
          <Node pos="r" depth="2" NCoef="0" IVar="-1" Cut="0.0000000000000000e+00" cType="1" res="-1.7714705318212509e-02" rms="4.2287203669548035e-01" purity="3.6107325553894043e-01" nType="-99"/>
        </Node>
        <Node pos="r" depth="1" NCoef="0" IVar="3" Cut="5.7065945863723755e-01" cType="1" res="1.3095076382160187e-01" rms="3.4542512893676758e-01" purity="8.4150004386901855e-01" nType="0">
          <Node pos="l" depth="2" NCoef="0" IVar="-1" Cut="0.0000000000000000e+00" cType="1" res="1.9897358492016792e-02" rms="3.8125154376029968e-01" purity="7.9581111669540405e-01" nType="-99"/>
          <Node pos="r" depth="2" NCoef="0" IVar="-1" Cut="0.0000000000000000e+00" cType="1" res="4.6170327812433243e-02" rms="2.9376763105392456e-01" purity="8.8885569572448730e-01" nType="-99"/>
        </Node>
      </Node>
    </BinaryTree>
    <BinaryTree type="DecisionTree" boostWeight="1.0000000000000000e+00" itree="30">
      <Node pos="s" depth="0" NCoef="0" IVar="6" Cut="2.0867223739624023e+00" cType="1" res="-1.1675626039505005e-02" rms="4.3128108978271484e-01" purity="4.9394601583480835e-01" nType="0">
        <Node pos="l" depth="1" NCoef="0" IVar="4" Cut="9.1401159763336182e-01" cType="1" res="5.8122090995311737e-02" rms="4.2518758773803711e-01" purity="6.6691976785659790e-01" nType="0">
          <Node pos="l" depth="2" NCoef="0" IVar="-1" Cut="0.0000000000000000e+00" cType="1" res="2.7691790834069252e-02" rms="4.0577682852745056e-01" purity="7.5630062818527222e-01" nType="-99"/>
          <Node pos="r" depth="2" NCoef="0" IVar="-1" Cut="0.0000000000000000e+00" cType="1" res="-2.5243374984711409e-03" rms="4.3737643957138062e-01" purity="5.6035798788070679e-01" nType="-99"/>
        </Node>
        <Node pos="r" depth="1" NCoef="0" IVar="14" Cut="1.0663260650634766e+02" cType="1" res="-4.4384997338056564e-02" rms="4.3022802472114563e-01" purity="4.1288512945175171e-01" nType="0">
          <Node pos="l" depth="2" NCoef="0" IVar="-1" Cut="0.0000000000000000e+00" cType="1" res="-4.5300056226551533e-03" rms="4.3613323569297791e-01" purity="4.5898124575614929e-01" nType="-99"/>
          <Node pos="r" depth="2" NCoef="0" IVar="-1" Cut="0.0000000000000000e+00" cType="1" res="-3.3334076404571533e-02" rms="3.9574068784713745e-01" purity="2.5213170051574707e-01" nType="-99"/>
        </Node>
      </Node>
    </BinaryTree>
    <BinaryTree type="DecisionTree" boostWeight="1.0000000000000000e+00" itree="31">
      <Node pos="s" depth="0" NCoef="0" IVar="7" Cut="5.0598937988281250e+01" cType="1" res="6.0956287197768688e-03" rms="4.3078812956809998e-01" purity="5.1222419738769531e-01" nType="0">
        <Node pos="l" depth="1" NCoef="0" IVar="18" Cut="1.2986233520507812e+02" cType="1" res="-3.4739084541797638e-02" rms="4.3069386482238770e-01" purity="4.3983221054077148e-01" nType="0">
          <Node pos="l" depth="2" NCoef="0" IVar="-1" Cut="0.0000000000000000e+00" cType="1" res="-1.4980067498981953e-03" rms="4.1398787498474121e-01" purity="4.3341377377510071e-01" nType="-99"/>
          <Node pos="r" depth="2" NCoef="0" IVar="-1" Cut="0.0000000000000000e+00" cType="1" res="-3.2009717077016830e-02" rms="4.7283235192298889e-01" purity="4.6383911371231079e-01" nType="-99"/>
        </Node>
        <Node pos="r" depth="1" NCoef="0" IVar="15" Cut="1.5367575073242188e+02" cType="1" res="6.0959998518228531e-02" rms="4.2477884888648987e-01" purity="6.0948807001113892e-01" nType="0">
          <Node pos="l" depth="2" NCoef="0" IVar="-1" Cut="0.0000000000000000e+00" cType="1" res="2.2968748584389687e-02" rms="4.0953823924064636e-01" purity="6.6036415100097656e-01" nType="-99"/>
          <Node pos="r" depth="2" NCoef="0" IVar="-1" Cut="0.0000000000000000e+00" cType="1" res="-2.7218442410230637e-02" rms="4.6272668242454529e-01" purity="3.2294166088104248e-01" nType="-99"/>
        </Node>
      </Node>
    </BinaryTree>
    <BinaryTree type="DecisionTree" boostWeight="1.0000000000000000e+00" itree="32">
      <Node pos="s" depth="0" NCoef="0" IVar="1" Cut="9.7648353576660156e+01" cType="1" res="-5.7139602722600102e-04" rms="4.2777341604232788e-01" purity="5.0394386053085327e-01" nType="0">
        <Node pos="l" depth="1" NCoef="0" IVar="21" Cut="7.9619765281677246e-01" cType="1" res="-3.4995403140783310e-02" rms="4.2427891492843628e-01" purity="4.1800945997238159e-01" nType="0">
          <Node pos="l" depth="2" NCoef="0" IVar="-1" Cut="0.0000000000000000e+00" cType="1" res="-1.4605273492634296e-02" rms="4.2608430981636047e-01" purity="3.5035553574562073e-01" nType="-99"/>
          <Node pos="r" depth="2" NCoef="0" IVar="-1" Cut="0.0000000000000000e+00" cType="1" res="2.1298438310623169e-02" rms="3.9250326156616211e-01" purity="7.7174550294876099e-01" nType="-99"/>
        </Node>
        <Node pos="r" depth="1" NCoef="0" IVar="14" Cut="1.1329944610595703e+02" cType="1" res="4.0251862257719040e-02" rms="4.2830976843833923e-01" purity="6.0585314035415649e-01" nType="0">
          <Node pos="l" depth="2" NCoef="0" IVar="-1" Cut="0.0000000000000000e+00" cType="1" res="1.5046205371618271e-02" rms="4.1716918349266052e-01" purity="6.4990085363388062e-01" nType="-99"/>
          <Node pos="r" depth="2" NCoef="0" IVar="-1" Cut="0.0000000000000000e+00" cType="1" res="-8.7300818413496017e-03" rms="4.5989125967025757e-01" purity="4.3818145990371704e-01" nType="-99"/>
        </Node>
      </Node>
    </BinaryTree>
    <BinaryTree type="DecisionTree" boostWeight="1.0000000000000000e+00" itree="33">
      <Node pos="s" depth="0" NCoef="0" IVar="3" Cut="9.1425317525863647e-01" cType="1" res="-7.7705802395939827e-03" rms="4.2428666353225708e-01" purity="4.9035462737083435e-01" nType="0">
        <Node pos="l" depth="1" NCoef="0" IVar="4" Cut="6.8572342395782471e-01" cType="1" res="3.0396630987524986e-02" rms="4.2057123780250549e-01" purity="5.5984318256378174e-01" nType="0">
          <Node pos="l" depth="2" NCoef="0" IVar="-1" Cut="0.0000000000000000e+00" cType="1" res="1.9590646028518677e-02" rms="3.9687737822532654e-01" purity="6.1614990234375000e-01" nType="-99"/>
          <Node pos="r" depth="2" NCoef="0" IVar="-1" Cut="0.0000000000000000e+00" cType="1" res="-1.3765516923740506e-03" rms="4.3434646725654602e-01" purity="5.1689320802688599e-01" nType="-99"/>
        </Node>
        <Node pos="r" depth="1" NCoef="0" IVar="2" Cut="1.0000000000000000e+00" cType="1" res="-4.4049281626939774e-02" rms="3.5422924160957336e-01" purity="3.8908675312995911e-01" nType="0">
          <Node pos="l" depth="2" NCoef="0" IVar="-1" Cut="0.0000000000000000e+00" cType="1" res="-2.4695146828889847e-02" rms="4.2298939824104309e-01" purity="3.5224711894989014e-01" nType="-99"/>
          <Node pos="r" depth="2" NCoef="0" IVar="-1" Cut="0.0000000000000000e+00" cType="1" res="-2.8800114523619413e-03" rms="4.1895171999931335e-01" purity="4.4274097681045532e-01" nType="-99"/>
        </Node>
      </Node>
    </BinaryTree>
    <BinaryTree type="DecisionTree" boostWeight="1.0000000000000000e+00" itree="34">
      <Node pos="s" depth="0" NCoef="0" IVar="18" Cut="1.6984509277343750e+02" cType="1" res="-1.3360894285142422e-02" rms="4.2999565601348877e-01" purity="4.8965027928352356e-01" nType="0">
        <Node pos="l" depth="1" NCoef="0" IVar="19" Cut="-3.0300506949424744e-01" cType="1" res="4.0904134511947632e-03" rms="4.2171180248260498e-01" purity="4.8480105400085449e-01" nType="0">
          <Node pos="l" depth="2" NCoef="0" IVar="-1" Cut="0.0000000000000000e+00" cType="1" res="-9.4654001295566559e-03" rms="4.1469851136207581e-01" purity="3.0250817537307739e-01" nType="-99"/>
          <Node pos="r" depth="2" NCoef="0" IVar="-1" Cut="0.0000000000000000e+00" cType="1" res="1.2328198179602623e-02" rms="4.2497870326042175e-01" purity="6.9896149635314941e-01" nType="-99"/>
        </Node>
        <Node pos="r" depth="1" NCoef="0" IVar="4" Cut="5.7130426168441772e-01" cType="1" res="-9.8091907799243927e-02" rms="4.5879665017127991e-01" purity="5.1319456100463867e-01" nType="0">
          <Node pos="l" depth="2" NCoef="0" IVar="-1" Cut="0.0000000000000000e+00" cType="1" res="2.2377469576895237e-03" rms="4.5312383770942688e-01" purity="6.6292220354080200e-01" nType="-99"/>
          <Node pos="r" depth="2" NCoef="0" IVar="-1" Cut="0.0000000000000000e+00" cType="1" res="-3.2970413565635681e-02" rms="4.5276084542274475e-01" purity="4.4325321912765503e-01" nType="-99"/>
        </Node>
      </Node>
    </BinaryTree>
    <BinaryTree type="DecisionTree" boostWeight="1.0000000000000000e+00" itree="35">
      <Node pos="s" depth="0" NCoef="0" IVar="18" Cut="1.5234263610839844e+02" cType="1" res="2.2341888397932053e-03" rms="4.3384093046188354e-01" purity="5.1640903949737549e-01" nType="0">
        <Node pos="l" depth="1" NCoef="0" IVar="5" Cut="1.4705790281295776e+00" cType="1" res="2.2187469527125359e-02" rms="4.2242753505706787e-01" purity="5.1209700107574463e-01" nType="0">
          <Node pos="l" depth="2" NCoef="0" IVar="-1" Cut="0.0000000000000000e+00" cType="1" res="4.2349472641944885e-02" rms="3.2771947979927063e-01" purity="8.5213017463684082e-01" nType="-99"/>
          <Node pos="r" depth="2" NCoef="0" IVar="-1" Cut="0.0000000000000000e+00" cType="1" res="1.4750258997082710e-03" rms="4.2866343259811401e-01" purity="4.7408157587051392e-01" nType="-99"/>
        </Node>
        <Node pos="r" depth="1" NCoef="0" IVar="10" Cut="5.0000000000000000e+00" cType="1" res="-7.6982617378234863e-02" rms="4.6756306290626526e-01" purity="5.3393399715423584e-01" nType="0">
          <Node pos="l" depth="2" NCoef="0" IVar="-1" Cut="0.0000000000000000e+00" cType="1" res="-2.7210693806409836e-02" rms="4.7215515375137329e-01" purity="4.5432865619659424e-01" nType="-99"/>
          <Node pos="r" depth="2" NCoef="0" IVar="-1" Cut="0.0000000000000000e+00" cType="1" res="6.3032824546098709e-03" rms="4.4331514835357666e-01" purity="7.2638517618179321e-01" nType="-99"/>
        </Node>
      </Node>
    </BinaryTree>
    <BinaryTree type="DecisionTree" boostWeight="1.0000000000000000e+00" itree="36">
      <Node pos="s" depth="0" NCoef="0" IVar="11" Cut="3.0000000000000000e+00" cType="1" res="-5.3143161348998547e-03" rms="4.2040473222732544e-01" purity="4.9004754424095154e-01" nType="0">
        <Node pos="l" depth="1" NCoef="0" IVar="1" Cut="9.7658561706542969e+01" cType="1" res="-4.1336461901664734e-02" rms="4.1729068756103516e-01" purity="3.2265597581863403e-01" nType="0">
          <Node pos="l" depth="2" NCoef="0" IVar="-1" Cut="0.0000000000000000e+00" cType="1" res="-1.9916145130991936e-02" rms="3.9729404449462891e-01" purity="2.4577936530113220e-01" nType="-99"/>
          <Node pos="r" depth="2" NCoef="0" IVar="-1" Cut="0.0000000000000000e+00" cType="1" res="1.8009711056947708e-03" rms="4.4048222899436951e-01" purity="4.3552350997924805e-01" nType="-99"/>
        </Node>
        <Node pos="r" depth="1" NCoef="0" IVar="2" Cut="1.0000000000000000e+00" cType="1" res="2.7150701731443405e-02" rms="3.5165265202522278e-01" purity="7.1142059564590454e-01" nType="0">
          <Node pos="l" depth="2" NCoef="0" IVar="-1" Cut="0.0000000000000000e+00" cType="1" res="4.2589014628902078e-04" rms="4.3397411704063416e-01" purity="6.6065347194671631e-01" nType="-99"/>
          <Node pos="r" depth="2" NCoef="0" IVar="-1" Cut="0.0000000000000000e+00" cType="1" res="2.3437215015292168e-02" rms="3.9389026165008545e-01" purity="7.7845573425292969e-01" nType="-99"/>
        </Node>
      </Node>
    </BinaryTree>
    <BinaryTree type="DecisionTree" boostWeight="1.0000000000000000e+00" itree="37">
      <Node pos="s" depth="0" NCoef="0" IVar="3" Cut="6.8571740388870239e-01" cType="1" res="-9.2928968369960785e-03" rms="4.2597275972366333e-01" purity="4.9278005957603455e-01" nType="0">
        <Node pos="l" depth="1" NCoef="0" IVar="4" Cut="1.1424974203109741e+00" cType="1" res="3.0587205663323402e-02" rms="4.1680195927619934e-01" purity="5.6480830907821655e-01" nType="0">
          <Node pos="l" depth="2" NCoef="0" IVar="-1" Cut="0.0000000000000000e+00" cType="1" res="1.6605623066425323e-02" rms="4.0614616870880127e-01" purity="6.1906665563583374e-01" nType="-99"/>
          <Node pos="r" depth="2" NCoef="0" IVar="-1" Cut="0.0000000000000000e+00" cType="1" res="-8.5086552426218987e-03" rms="4.2867958545684814e-01" purity="4.6247684955596924e-01" nType="-99"/>
        </Node>
        <Node pos="r" depth="1" NCoef="0" IVar="15" Cut="1.1037026214599609e+02" cType="1" res="-4.4629681855440140e-02" rms="4.3086341023445129e-01" purity="4.2895752191543579e-01" nType="0">
          <Node pos="l" depth="2" NCoef="0" IVar="-1" Cut="0.0000000000000000e+00" cType="1" res="-6.5677869133651257e-03" rms="4.3115419149398804e-01" purity="4.5997983217239380e-01" nType="-99"/>
          <Node pos="r" depth="2" NCoef="0" IVar="-1" Cut="0.0000000000000000e+00" cType="1" res="-2.9916962608695030e-02" rms="4.2068269848823547e-01" purity="2.9564282298088074e-01" nType="-99"/>
        </Node>
      </Node>
    </BinaryTree>
    <BinaryTree type="DecisionTree" boostWeight="1.0000000000000000e+00" itree="38">
      <Node pos="s" depth="0" NCoef="0" IVar="15" Cut="1.5487802124023438e+02" cType="1" res="-1.2590496800839901e-02" rms="4.3109014630317688e-01" purity="4.9371606111526489e-01" nType="0">
        <Node pos="l" depth="1" NCoef="0" IVar="4" Cut="1.8285695314407349e+00" cType="1" res="-1.3153258478268981e-03" rms="4.2871004343032837e-01" purity="5.1167732477188110e-01" nType="0">
          <Node pos="l" depth="2" NCoef="0" IVar="-1" Cut="0.0000000000000000e+00" cType="1" res="2.1606744267046452e-03" rms="4.2700764536857605e-01" purity="5.2741855382919312e-01" nType="-99"/>
          <Node pos="r" depth="2" NCoef="0" IVar="-1" Cut="0.0000000000000000e+00" cType="1" res="-2.1900381892919540e-02" rms="4.3365794420242310e-01" purity="3.6740428209304810e-01" nType="-99"/>
        </Node>
        <Node pos="r" depth="1" NCoef="0" IVar="-1" Cut="0.0000000000000000e+00" cType="1" res="-3.5043194890022278e-02" rms="4.3602016568183899e-01" purity="2.7133688330650330e-01" nType="-99"/>
      </Node>
    </BinaryTree>
    <BinaryTree type="DecisionTree" boostWeight="1.0000000000000000e+00" itree="39">
      <Node pos="s" depth="0" NCoef="0" IVar="15" Cut="1.2917402648925781e+02" cType="1" res="-1.6356054693460464e-03" rms="4.2501941323280334e-01" purity="5.0105404853820801e-01" nType="0">
        <Node pos="l" depth="1" NCoef="0" IVar="4" Cut="1.7142627239227295e+00" cType="1" res="1.4094763435423374e-02" rms="4.2428588867187500e-01" purity="5.3349673748016357e-01" nType="0">
          <Node pos="l" depth="2" NCoef="0" IVar="-1" Cut="0.0000000000000000e+00" cType="1" res="7.4158688075840473e-03" rms="4.2166039347648621e-01" purity="5.6062334775924683e-01" nType="-99"/>
          <Node pos="r" depth="2" NCoef="0" IVar="-1" Cut="0.0000000000000000e+00" cType="1" res="-1.8971316516399384e-02" rms="4.2845621705055237e-01" purity="3.7073361873626709e-01" nType="-99"/>
        </Node>
        <Node pos="r" depth="1" NCoef="0" IVar="-1" Cut="0.0000000000000000e+00" cType="1" res="-2.5082562118768692e-02" rms="4.1573330760002136e-01" purity="2.9254549741744995e-01" nType="-99"/>
      </Node>
    </BinaryTree>
    <BinaryTree type="DecisionTree" boostWeight="1.0000000000000000e+00" itree="40">
      <Node pos="s" depth="0" NCoef="0" IVar="3" Cut="9.1428411006927490e-01" cType="1" res="2.3796192836016417e-03" rms="4.2706897854804993e-01" purity="5.0866401195526123e-01" nType="0">
        <Node pos="l" depth="1" NCoef="0" IVar="10" Cut="5.0000000000000000e+00" cType="1" res="3.5371329635381699e-02" rms="4.2747858166694641e-01" purity="5.8553642034530640e-01" nType="0">
          <Node pos="l" depth="2" NCoef="0" IVar="-1" Cut="0.0000000000000000e+00" cType="1" res="5.3128013387322426e-03" rms="4.3942174315452576e-01" purity="5.3773820400238037e-01" nType="-99"/>
          <Node pos="r" depth="2" NCoef="0" IVar="-1" Cut="0.0000000000000000e+00" cType="1" res="3.0881764367222786e-02" rms="3.4240570664405823e-01" purity="8.5426664352416992e-01" nType="-99"/>
        </Node>
        <Node pos="r" depth="1" NCoef="0" IVar="15" Cut="4.0329013824462891e+01" cType="1" res="-4.4414415955543518e-02" rms="4.2208519577980042e-01" purity="3.9986056089401245e-01" nType="0">
          <Node pos="l" depth="2" NCoef="0" IVar="-1" Cut="0.0000000000000000e+00" cType="1" res="-2.5616168975830078e-02" rms="4.0756323933601379e-01" purity="3.3394896984100342e-01" nType="-99"/>
          <Node pos="r" depth="2" NCoef="0" IVar="-1" Cut="0.0000000000000000e+00" cType="1" res="-4.0682731196284294e-03" rms="4.2621272802352905e-01" purity="4.3216571211814880e-01" nType="-99"/>
        </Node>
      </Node>
    </BinaryTree>
    <BinaryTree type="DecisionTree" boostWeight="1.0000000000000000e+00" itree="41">
      <Node pos="s" depth="0" NCoef="0" IVar="15" Cut="1.5367808532714844e+02" cType="1" res="2.1926993504166603e-03" rms="4.2028424143791199e-01" purity="5.0036114454269409e-01" nType="0">
        <Node pos="l" depth="1" NCoef="0" IVar="7" Cut="8.3451614379882812e+01" cType="1" res="1.3068568892776966e-02" rms="4.1781708598136902e-01" purity="5.2101373672485352e-01" nType="0">
          <Node pos="l" depth="2" NCoef="0" IVar="-1" Cut="0.0000000000000000e+00" cType="1" res="-5.2947847871109843e-04" rms="4.2079752683639526e-01" purity="4.8490694165229797e-01" nType="-99"/>
          <Node pos="r" depth="2" NCoef="0" IVar="-1" Cut="0.0000000000000000e+00" cType="1" res="2.3385262116789818e-02" rms="3.9267134666442871e-01" purity="7.0858216285705566e-01" nType="-99"/>
        </Node>
        <Node pos="r" depth="1" NCoef="0" IVar="-1" Cut="0.0000000000000000e+00" cType="1" res="-2.9972530901432037e-02" rms="4.2825385928153992e-01" purity="2.6250880956649780e-01" nType="-99"/>
      </Node>
    </BinaryTree>
    <BinaryTree type="DecisionTree" boostWeight="1.0000000000000000e+00" itree="42">
      <Node pos="s" depth="0" NCoef="0" IVar="10" Cut="4.0000000000000000e+00" cType="1" res="3.1855732668191195e-03" rms="4.1816636919975281e-01" purity="4.9964582920074463e-01" nType="0">
        <Node pos="l" depth="1" NCoef="0" IVar="18" Cut="1.0486057281494141e+02" cType="1" res="-2.1557345986366272e-02" rms="4.2686688899993896e-01" purity="3.8150167465209961e-01" nType="0">
          <Node pos="l" depth="2" NCoef="0" IVar="-1" Cut="0.0000000000000000e+00" cType="1" res="-6.2959297792986035e-04" rms="4.2040795087814331e-01" purity="3.8195899128913879e-01" nType="-99"/>
          <Node pos="r" depth="2" NCoef="0" IVar="-1" Cut="0.0000000000000000e+00" cType="1" res="-2.3938486352562904e-02" rms="4.4478303194046021e-01" purity="3.7942987680435181e-01" nType="-99"/>
        </Node>
        <Node pos="r" depth="1" NCoef="0" IVar="3" Cut="1.1427938938140869e+00" cType="1" res="5.5888395756483078e-02" rms="3.9457899332046509e-01" purity="7.5732356309890747e-01" nType="0">
          <Node pos="l" depth="2" NCoef="0" IVar="-1" Cut="0.0000000000000000e+00" cType="1" res="2.1691245958209038e-02" rms="3.7013581395149231e-01" purity="8.0558037757873535e-01" nType="-99"/>
          <Node pos="r" depth="2" NCoef="0" IVar="-1" Cut="0.0000000000000000e+00" cType="1" res="-4.8800427466630936e-03" rms="4.4873914122581482e-01" purity="6.1880505084991455e-01" nType="-99"/>
        </Node>
      </Node>
    </BinaryTree>
    <BinaryTree type="DecisionTree" boostWeight="1.0000000000000000e+00" itree="43">
      <Node pos="s" depth="0" NCoef="0" IVar="18" Cut="1.5384523010253906e+02" cType="1" res="1.1277523823082447e-02" rms="4.1800519824028015e-01" purity="5.1638776063919067e-01" nType="0">
        <Node pos="l" depth="1" NCoef="0" IVar="17" Cut="1.4095101928710938e+02" cType="1" res="3.2084710896015167e-02" rms="4.0692284703254700e-01" purity="5.1547694206237793e-01" nType="0">
          <Node pos="l" depth="2" NCoef="0" IVar="-1" Cut="0.0000000000000000e+00" cType="1" res="2.0547211170196533e-03" rms="4.1062057018280029e-01" purity="4.7594544291496277e-01" nType="-99"/>
          <Node pos="r" depth="2" NCoef="0" IVar="-1" Cut="0.0000000000000000e+00" cType="1" res="3.6323368549346924e-02" rms="3.7022665143013000e-01" purity="6.9554769992828369e-01" nType="-99"/>
        </Node>
        <Node pos="r" depth="1" NCoef="0" IVar="4" Cut="5.7132560014724731e-01" cType="1" res="-7.2500616312026978e-02" rms="4.5030692219734192e-01" purity="5.2005499601364136e-01" nType="0">
          <Node pos="l" depth="2" NCoef="0" IVar="-1" Cut="0.0000000000000000e+00" cType="1" res="-1.3811944518238306e-03" rms="4.3218076229095459e-01" purity="6.1898183822631836e-01" nType="-99"/>
          <Node pos="r" depth="2" NCoef="0" IVar="-1" Cut="0.0000000000000000e+00" cType="1" res="-2.4259246885776520e-02" rms="4.5561030507087708e-01" purity="4.6855607628822327e-01" nType="-99"/>
        </Node>
      </Node>
    </BinaryTree>
    <BinaryTree type="DecisionTree" boostWeight="1.0000000000000000e+00" itree="44">
      <Node pos="s" depth="0" NCoef="0" IVar="4" Cut="1.8285710811614990e+00" cType="1" res="1.2236586771905422e-02" rms="4.2233422398567200e-01" purity="5.2064931392669678e-01" nType="0">
        <Node pos="l" depth="1" NCoef="0" IVar="1" Cut="9.7639495849609375e+01" cType="1" res="2.5599999353289604e-02" rms="4.2091649770736694e-01" purity="5.4533559083938599e-01" nType="0">
          <Node pos="l" depth="2" NCoef="0" IVar="-1" Cut="0.0000000000000000e+00" cType="1" res="-9.5447758212685585e-04" rms="4.2063134908676147e-01" purity="4.5332965254783630e-01" nType="-99"/>
          <Node pos="r" depth="2" NCoef="0" IVar="-1" Cut="0.0000000000000000e+00" cType="1" res="1.5352618880569935e-02" rms="4.1858547925949097e-01" purity="6.5490132570266724e-01" nType="-99"/>
        </Node>
        <Node pos="r" depth="1" NCoef="0" IVar="-1" Cut="0.0000000000000000e+00" cType="1" res="-2.3310165852308273e-02" rms="4.1863262653350830e-01" purity="3.2560604810714722e-01" nType="-99"/>
      </Node>
    </BinaryTree>
    <BinaryTree type="DecisionTree" boostWeight="1.0000000000000000e+00" itree="45">
      <Node pos="s" depth="0" NCoef="0" IVar="5" Cut="1.2738078832626343e+00" cType="1" res="-5.4805879481136799e-03" rms="4.2221876978874207e-01" purity="5.0004112720489502e-01" nType="0">
        <Node pos="l" depth="1" NCoef="0" IVar="-1" Cut="0.0000000000000000e+00" cType="1" res="3.6523208022117615e-02" rms="3.3895316720008850e-01" purity="8.6497557163238525e-01" nType="-99"/>
        <Node pos="r" depth="1" NCoef="0" IVar="3" Cut="6.8563091754913330e-01" cType="1" res="-1.5861438587307930e-02" rms="4.2600303888320923e-01" purity="4.7266641259193420e-01" nType="0">
          <Node pos="l" depth="2" NCoef="0" IVar="-1" Cut="0.0000000000000000e+00" cType="1" res="4.4839568436145782e-03" rms="4.2382800579071045e-01" purity="5.5033898353576660e-01" nType="-99"/>
          <Node pos="r" depth="2" NCoef="0" IVar="-1" Cut="0.0000000000000000e+00" cType="1" res="-1.1220519430935383e-02" rms="4.2576798796653748e-01" purity="4.0630626678466797e-01" nType="-99"/>
        </Node>
      </Node>
    </BinaryTree>
    <BinaryTree type="DecisionTree" boostWeight="1.0000000000000000e+00" itree="46">
      <Node pos="s" depth="0" NCoef="0" IVar="1" Cut="2.6891394042968750e+02" cType="1" res="6.8758794805034995e-04" rms="4.2392748594284058e-01" purity="5.1039797067642212e-01" nType="0">
        <Node pos="l" depth="1" NCoef="0" IVar="1" Cut="1.0987243652343750e+02" cType="1" res="7.8991446644067764e-03" rms="4.2118865251541138e-01" purity="5.1162546873092651e-01" nType="0">
          <Node pos="l" depth="2" NCoef="0" IVar="-1" Cut="0.0000000000000000e+00" cType="1" res="-5.3837960585951805e-03" rms="4.2425072193145752e-01" purity="4.4073900580406189e-01" nType="-99"/>
          <Node pos="r" depth="2" NCoef="0" IVar="-1" Cut="0.0000000000000000e+00" cType="1" res="1.5757128596305847e-02" rms="4.0974229574203491e-01" purity="6.4571654796600342e-01" nType="-99"/>
        </Node>
        <Node pos="r" depth="1" NCoef="0" IVar="-1" Cut="0.0000000000000000e+00" cType="1" res="-3.2204769551753998e-02" rms="4.5104303956031799e-01" purity="4.8875847458839417e-01" nType="-99"/>
      </Node>
    </BinaryTree>
    <BinaryTree type="DecisionTree" boostWeight="1.0000000000000000e+00" itree="47">
      <Node pos="s" depth="0" NCoef="0" IVar="15" Cut="1.4361671447753906e+02" cType="1" res="-3.0147084034979343e-03" rms="4.1580682992935181e-01" purity="4.9345290660858154e-01" nType="0">
        <Node pos="l" depth="1" NCoef="0" IVar="1" Cut="9.7643638610839844e+01" cType="1" res="8.3909491077065468e-03" rms="4.1179826855659485e-01" purity="5.1487433910369873e-01" nType="0">
          <Node pos="l" depth="2" NCoef="0" IVar="-1" Cut="0.0000000000000000e+00" cType="1" res="-5.6211757473647594e-03" rms="4.1570144891738892e-01" purity="4.1976922750473022e-01" nType="-99"/>
          <Node pos="r" depth="2" NCoef="0" IVar="-1" Cut="0.0000000000000000e+00" cType="1" res="1.2304215691983700e-02" rms="4.0316599607467651e-01" purity="6.4088672399520874e-01" nType="-99"/>
        </Node>
        <Node pos="r" depth="1" NCoef="0" IVar="-1" Cut="0.0000000000000000e+00" cType="1" res="-2.7898417785763741e-02" rms="4.3777576088905334e-01" purity="2.8321275115013123e-01" nType="-99"/>
      </Node>
    </BinaryTree>
    <BinaryTree type="DecisionTree" boostWeight="1.0000000000000000e+00" itree="48">
      <Node pos="s" depth="0" NCoef="0" IVar="4" Cut="5.7143855094909668e-01" cType="1" res="4.7079077921807766e-03" rms="4.1814127564430237e-01" purity="5.1219487190246582e-01" nType="0">
        <Node pos="l" depth="1" NCoef="0" IVar="3" Cut="1.3713692426681519e+00" cType="1" res="5.2163083106279373e-02" rms="3.9446210861206055e-01" purity="5.8320379257202148e-01" nType="0">
          <Node pos="l" depth="2" NCoef="0" IVar="-1" Cut="0.0000000000000000e+00" cType="1" res="2.3988887667655945e-02" rms="3.7833189964294434e-01" purity="6.5255731344223022e-01" nType="-99"/>
          <Node pos="r" depth="2" NCoef="0" IVar="-1" Cut="0.0000000000000000e+00" cType="1" res="-2.0486677065491676e-02" rms="4.1947883367538452e-01" purity="3.4258350729942322e-01" nType="-99"/>
        </Node>
        <Node pos="r" depth="1" NCoef="0" IVar="18" Cut="1.8963587951660156e+02" cType="1" res="-2.0464709028601646e-02" rms="4.2804285883903503e-01" purity="4.7452813386917114e-01" nType="0">
          <Node pos="l" depth="2" NCoef="0" IVar="-1" Cut="0.0000000000000000e+00" cType="1" res="-1.8950027879327536e-03" rms="4.2074963450431824e-01" purity="4.7270953655242920e-01" nType="-99"/>
          <Node pos="r" depth="2" NCoef="0" IVar="-1" Cut="0.0000000000000000e+00" cType="1" res="-2.1703656762838364e-02" rms="4.6045744419097900e-01" purity="4.8492434620857239e-01" nType="-99"/>
        </Node>
      </Node>
    </BinaryTree>
    <BinaryTree type="DecisionTree" boostWeight="1.0000000000000000e+00" itree="49">
      <Node pos="s" depth="0" NCoef="0" IVar="20" Cut="7.9309415817260742e-01" cType="1" res="-1.1703802272677422e-02" rms="4.2841958999633789e-01" purity="5.0114375352859497e-01" nType="0">
        <Node pos="l" depth="1" NCoef="0" IVar="15" Cut="5.4200561523437500e+01" cType="1" res="9.8077440634369850e-03" rms="4.2014941573143005e-01" purity="4.6594434976577759e-01" nType="0">
          <Node pos="l" depth="2" NCoef="0" IVar="-1" Cut="0.0000000000000000e+00" cType="1" res="-1.1163085699081421e-02" rms="4.1482320427894592e-01" purity="4.0657529234886169e-01" nType="-99"/>
          <Node pos="r" depth="2" NCoef="0" IVar="-1" Cut="0.0000000000000000e+00" cType="1" res="1.3440074399113655e-02" rms="4.1950815916061401e-01" purity="5.1372277736663818e-01" nType="-99"/>
        </Node>
        <Node pos="r" depth="1" NCoef="0" IVar="21" Cut="2.9767882823944092e-01" cType="1" res="-8.0959580838680267e-02" rms="4.4704672694206238e-01" purity="6.1446732282638550e-01" nType="0">
          <Node pos="l" depth="2" NCoef="0" IVar="-1" Cut="0.0000000000000000e+00" cType="1" res="-4.0317840874195099e-02" rms="4.5662990212440491e-01" purity="4.5612761378288269e-01" nType="-99"/>
          <Node pos="r" depth="2" NCoef="0" IVar="-1" Cut="0.0000000000000000e+00" cType="1" res="-5.1697362214326859e-03" rms="4.2938920855522156e-01" purity="7.2347110509872437e-01" nType="-99"/>
        </Node>
      </Node>
    </BinaryTree>
  </Weights>
</MethodSetup>
