<?xml version="1.0"?>
<MethodSetup Method="BDT::BDTG_UF_v1">
  <GeneralInfo>
    <Info name="TMVA Release" value="4.2.1 [262657]"/>
    <Info name="ROOT Release" value="6.10/09 [395785]"/>
    <Info name="Creator" value="abrinke1"/>
    <Info name="Date" value="Mon May 20 14:04:38 2019"/>
    <Info name="Host" value="Linux cmsbuild76.cern.ch 2.6.32-696.30.1.el6.x86_64 #1 SMP Tue May 22 06:09:36 CEST 2018 x86_64 x86_64 x86_64 GNU/Linux"/>
    <Info name="Dir" value="/afs/cern.ch/user/a/abrinke1/HiggsToMuMu/2017/CMSSW_9_4_10/src/H2MuAnalyzer/TrainMVA"/>
    <Info name="Training events" value="155178"/>
    <Info name="TrainingTime" value="6.75794969e+01"/>
    <Info name="AnalysisType" value="Classification"/>
  </GeneralInfo>
  <Options>
    <Option name="V" modified="Yes">False</Option>
    <Option name="VerbosityLevel" modified="No">Default</Option>
    <Option name="VarTransform" modified="No">None</Option>
    <Option name="H" modified="Yes">False</Option>
    <Option name="CreateMVAPdfs" modified="No">False</Option>
    <Option name="IgnoreNegWeightsInTraining" modified="No">False</Option>
    <Option name="NTrees" modified="Yes">500</Option>
    <Option name="MaxDepth" modified="Yes">5</Option>
    <Option name="MinNodeSize" modified="No">5%</Option>
    <Option name="nCuts" modified="Yes">20</Option>
    <Option name="BoostType" modified="Yes">Grad</Option>
    <Option name="AdaBoostR2Loss" modified="No">quadratic</Option>
    <Option name="UseBaggedBoost" modified="Yes">True</Option>
    <Option name="Shrinkage" modified="Yes">1.000000e-01</Option>
    <Option name="AdaBoostBeta" modified="No">5.000000e-01</Option>
    <Option name="UseRandomisedTrees" modified="No">False</Option>
    <Option name="UseNvars" modified="No">2</Option>
    <Option name="UsePoissonNvars" modified="No">True</Option>
    <Option name="BaggedSampleFraction" modified="Yes">5.000000e-01</Option>
    <Option name="UseYesNoLeaf" modified="No">True</Option>
    <Option name="NegWeightTreatment" modified="No">pray</Option>
    <Option name="Css" modified="No">1.000000e+00</Option>
    <Option name="Cts_sb" modified="No">1.000000e+00</Option>
    <Option name="Ctb_ss" modified="No">1.000000e+00</Option>
    <Option name="Cbb" modified="No">1.000000e+00</Option>
    <Option name="NodePurityLimit" modified="No">5.000000e-01</Option>
    <Option name="SeparationType" modified="No">giniindex</Option>
    <Option name="RegressionLossFunctionBDTG" modified="No">huber</Option>
    <Option name="HuberQuantile" modified="No">7.000000e-01</Option>
    <Option name="DoBoostMonitor" modified="No">False</Option>
    <Option name="UseFisherCuts" modified="No">False</Option>
    <Option name="MinLinCorrForFisher" modified="No">8.000000e-01</Option>
    <Option name="UseExclusiveVars" modified="No">False</Option>
    <Option name="DoPreselection" modified="No">False</Option>
    <Option name="SigToBkgFraction" modified="No">1.000000e+00</Option>
    <Option name="PruneMethod" modified="No">nopruning</Option>
    <Option name="PruneStrength" modified="No">0.000000e+00</Option>
    <Option name="PruningValFraction" modified="No">5.000000e-01</Option>
    <Option name="SkipNormalization" modified="No">False</Option>
    <Option name="nEventsMin" modified="No">0</Option>
    <Option name="UseBaggedGrad" modified="No">False</Option>
    <Option name="GradBaggingFraction" modified="No">5.000000e-01</Option>
    <Option name="UseNTrainEvents" modified="No">0</Option>
    <Option name="NNodesMax" modified="No">0</Option>
  </Options>
  <Variables NVar="2">
    <Variable VarIndex="0" Expression="BDTG_UF_v1" Label="BDTG_UF_v1" Title="BDT output" Unit="" Internal="BDTG_UF_v1" Type="F" Min="-8.50140691e-01" Max="9.47332084e-01"/>
    <Variable VarIndex="1" Expression="dimu_mass" Label="dimu_mass" Title="mass(#mu#mu)" Unit="" Internal="dimu_mass" Type="F" Min="1.00041374e+02" Max="1.59996078e+02"/>
  </Variables>
  <Spectators NSpec="7">
    <Spectator SpecIndex="0" Expression="classID" Label="classID" Title="0 for Sig, 1 for Bkg" Unit="" Internal="classID" Type="F" Min="0.00000000e+00" Max="1.00000000e+00"/>
    <Spectator SpecIndex="1" Expression="samp_ID" Label="samp_ID" Title="Sample ID" Unit="" Internal="samp_ID" Type="F" Min="-2.50000000e+01" Max="3.80000000e+01"/>
    <Spectator SpecIndex="2" Expression="event" Label="event" Title="Event number" Unit="" Internal="event" Type="F" Min="-7.70000000e+01" Max="-7.70000000e+01"/>
    <Spectator SpecIndex="3" Expression="total_wgt" Label="total_wgt" Title="Overall weight" Unit="" Internal="total_wgt" Type="F" Min="-9.59984288e-02" Max="3.55146825e-01"/>
    <Spectator SpecIndex="4" Expression="res_wgt" Label="res_wgt" Title="Mass resolution weight" Unit="" Internal="res_wgt" Type="F" Min="-7.70000000e+01" Max="-7.70000000e+01"/>
    <Spectator SpecIndex="5" Expression="dimu_mass" Label="dimu_mass" Title="mass(#mu#mu)" Unit="GeV" Internal="dimu_mass" Type="F" Min="1.00041374e+02" Max="1.59996078e+02"/>
    <Spectator SpecIndex="6" Expression="nEles" Label="nEles" Title="Number of electrons" Unit="" Internal="nEles" Type="F" Min="0.00000000e+00" Max="1.00000000e+00"/>
  </Spectators>
  <Classes NClass="2">
    <Class Name="Signal" Index="0"/>
    <Class Name="Background" Index="1"/>
  </Classes>
  <Transformations NTransformations="0"/>
  <MVAPdfs/>
  <Weights NTrees="500" AnalysisType="1">
    <BinaryTree type="DecisionTree" boostWeight="1.0000000000000000e+00" itree="0">
      <Node pos="s" depth="0" NCoef="0" IVar="0" Cut="-8.1298150122165680e-02" cType="1" res="4.1944971308112144e-03" rms="4.9998241662979126e-01" purity="5.0419449806213379e-01" nType="0">
        <Node pos="l" depth="1" NCoef="0" IVar="1" Cut="1.2014310455322266e+02" cType="1" res="-2.6321998238563538e-01" rms="4.2510613799095154e-01" purity="2.3678001761436462e-01" nType="0">
          <Node pos="l" depth="2" NCoef="0" IVar="1" Cut="1.1445190429687500e+02" cType="1" res="-4.4688701629638672e-01" rms="2.2425879538059235e-01" purity="5.3112998604774475e-02" nType="0">
            <Node pos="l" depth="3" NCoef="0" IVar="0" Cut="-4.4299918413162231e-01" cType="1" res="-4.7859466075897217e-01" rms="1.4473131299018860e-01" purity="2.1405342966318130e-02" nType="0">
              <Node pos="l" depth="4" NCoef="0" IVar="-1" Cut="0.0000000000000000e+00" cType="1" res="-8.1201782450079918e-03" rms="9.0587504208087921e-02" purity="8.2745635882019997e-03" nType="-99"/>
              <Node pos="r" depth="4" NCoef="0" IVar="-1" Cut="0.0000000000000000e+00" cType="1" res="-7.5219641439616680e-03" rms="1.8777874112129211e-01" purity="3.6600448191165924e-02" nType="-99"/>
            </Node>
            <Node pos="r" depth="3" NCoef="0" IVar="-1" Cut="0.0000000000000000e+00" cType="1" res="-6.1599989421665668e-03" rms="3.3030867576599121e-01" purity="1.2463859468698502e-01" nType="-99"/>
          </Node>
          <Node pos="r" depth="2" NCoef="0" IVar="1" Cut="1.2773133850097656e+02" cType="1" res="-1.5389819443225861e-01" rms="4.7572612762451172e-01" purity="3.4610182046890259e-01" nType="0">
            <Node pos="l" depth="3" NCoef="0" IVar="0" Cut="-4.1082477569580078e-01" cType="1" res="1.5445964038372040e-01" rms="4.7554412484169006e-01" purity="6.5445959568023682e-01" nType="0">
              <Node pos="l" depth="4" NCoef="0" IVar="-1" Cut="0.0000000000000000e+00" cType="1" res="-1.1390681611374021e-03" rms="4.9821329116821289e-01" purity="4.5776832103729248e-01" nType="-99"/>
              <Node pos="r" depth="4" NCoef="0" IVar="-1" Cut="0.0000000000000000e+00" cType="1" res="1.6833759844303131e-02" rms="4.1026559472084045e-01" purity="7.8580093383789062e-01" nType="-99"/>
            </Node>
            <Node pos="r" depth="3" NCoef="0" IVar="1" Cut="1.3694587707519531e+02" cType="1" res="-4.4886055588722229e-01" rms="2.2028210759162903e-01" purity="5.1139444112777710e-02" nType="0">
              <Node pos="l" depth="4" NCoef="0" IVar="-1" Cut="0.0000000000000000e+00" cType="1" res="-6.4947633072733879e-03" rms="3.3598631620407104e-01" purity="1.2971201539039612e-01" nType="-99"/>
              <Node pos="r" depth="4" NCoef="0" IVar="-1" Cut="0.0000000000000000e+00" cType="1" res="-7.0027196779847145e-03" rms="3.8045242428779602e-02" purity="1.4495417708531022e-03" nType="-99"/>
            </Node>
          </Node>
        </Node>
        <Node pos="r" depth="1" NCoef="0" IVar="1" Cut="1.1722616577148438e+02" cType="1" res="2.2608837485313416e-01" rms="4.4596418738365173e-01" purity="7.2608840465545654e-01" nType="0">
          <Node pos="l" depth="2" NCoef="0" IVar="-1" Cut="0.0000000000000000e+00" cType="1" res="-4.9450164660811424e-03" rms="3.7490957975387573e-01" purity="1.6917857527732849e-01" nType="-99"/>
          <Node pos="r" depth="2" NCoef="0" IVar="1" Cut="1.2944340515136719e+02" cType="1" res="3.1545734405517578e-01" rms="3.8792610168457031e-01" purity="8.1545734405517578e-01" nType="0">
            <Node pos="l" depth="3" NCoef="0" IVar="1" Cut="1.2187971496582031e+02" cType="1" res="4.1328334808349609e-01" rms="2.8141936659812927e-01" purity="9.1328334808349609e-01" nType="0">
              <Node pos="l" depth="4" NCoef="0" IVar="-1" Cut="0.0000000000000000e+00" cType="1" res="1.1145875789225101e-02" rms="4.2949238419532776e-01" purity="7.5600051879882812e-01" nType="-99"/>
              <Node pos="r" depth="4" NCoef="0" IVar="0" Cut="4.5551782846450806e-01" cType="1" res="4.3822789192199707e-01" rms="2.4074117839336395e-01" purity="9.3822789192199707e-01" nType="0">
                <Node pos="l" depth="5" NCoef="0" IVar="-1" Cut="0.0000000000000000e+00" cType="1" res="3.5515211522579193e-02" rms="2.8581950068473816e-01" purity="9.1025263071060181e-01" nType="-99"/>
                <Node pos="r" depth="5" NCoef="0" IVar="-1" Cut="0.0000000000000000e+00" cType="1" res="6.1552651226520538e-02" rms="1.6139443218708038e-01" purity="9.7323548793792725e-01" nType="-99"/>
              </Node>
            </Node>
            <Node pos="r" depth="3" NCoef="0" IVar="-1" Cut="0.0000000000000000e+00" cType="1" res="-5.2595236338675022e-03" rms="3.8690838217735291e-01" purity="1.8329523503780365e-01" nType="-99"/>
          </Node>
        </Node>
      </Node>
    </BinaryTree>
    <BinaryTree type="DecisionTree" boostWeight="1.0000000000000000e+00" itree="1">
      <Node pos="s" depth="0" NCoef="0" IVar="0" Cut="-1.6612176597118378e-01" cType="1" res="-8.2571087405085564e-03" rms="4.9104523658752441e-01" purity="4.9950101971626282e-01" nType="0">
        <Node pos="l" depth="1" NCoef="0" IVar="1" Cut="1.2009127044677734e+02" cType="1" res="-2.8776693344116211e-01" rms="4.0533930063247681e-01" purity="2.1089595556259155e-01" nType="0">
          <Node pos="l" depth="2" NCoef="0" IVar="1" Cut="1.1344007110595703e+02" cType="1" res="-4.4901368021965027e-01" rms="2.1225769817829132e-01" purity="4.7329571098089218e-02" nType="0">
            <Node pos="l" depth="3" NCoef="0" IVar="-1" Cut="0.0000000000000000e+00" cType="1" res="-7.5793708674609661e-03" rms="1.2455506622791290e-01" purity="1.5765324234962463e-02" nType="-99"/>
            <Node pos="r" depth="3" NCoef="0" IVar="-1" Cut="0.0000000000000000e+00" cType="1" res="-6.6983080469071865e-03" rms="3.0219790339469910e-01" purity="1.0167368501424789e-01" nType="-99"/>
          </Node>
          <Node pos="r" depth="2" NCoef="0" IVar="1" Cut="1.2769396972656250e+02" cType="1" res="-1.9147728383541107e-01" rms="4.5903250575065613e-01" purity="3.0857080221176147e-01" nType="0">
            <Node pos="l" depth="3" NCoef="0" IVar="0" Cut="-4.2676964402198792e-01" cType="1" res="8.4730245172977448e-02" rms="4.9058276414871216e-01" purity="5.8846217393875122e-01" nType="0">
              <Node pos="l" depth="4" NCoef="0" IVar="-1" Cut="0.0000000000000000e+00" cType="1" res="-2.3147098254412413e-03" rms="4.9232265353202820e-01" purity="4.1272965073585510e-01" nType="-99"/>
              <Node pos="r" depth="4" NCoef="0" IVar="-1" Cut="0.0000000000000000e+00" cType="1" res="1.2083638459444046e-02" rms="4.3178308010101318e-01" purity="7.5168347358703613e-01" nType="-99"/>
            </Node>
            <Node pos="r" depth="3" NCoef="0" IVar="1" Cut="1.3846235656738281e+02" cType="1" res="-4.4798582792282104e-01" rms="2.1503670513629913e-01" purity="4.8641119152307510e-02" nType="0">
              <Node pos="l" depth="4" NCoef="0" IVar="-1" Cut="0.0000000000000000e+00" cType="1" res="-6.8785538896918297e-03" rms="3.1226298213005066e-01" purity="1.0955283790826797e-01" nType="-99"/>
              <Node pos="r" depth="4" NCoef="0" IVar="-1" Cut="0.0000000000000000e+00" cType="1" res="-6.6769896075129509e-03" rms="3.3817537128925323e-02" purity="1.1449367739260197e-03" nType="-99"/>
            </Node>
          </Node>
        </Node>
        <Node pos="r" depth="1" NCoef="0" IVar="1" Cut="1.1716861724853516e+02" cType="1" res="1.7499098181724548e-01" rms="4.5463511347770691e-01" purity="6.8871200084686279e-01" nType="0">
          <Node pos="l" depth="2" NCoef="0" IVar="-1" Cut="0.0000000000000000e+00" cType="1" res="-5.6075812317430973e-03" rms="3.4975194931030273e-01" purity="1.4271971583366394e-01" nType="-99"/>
          <Node pos="r" depth="2" NCoef="0" IVar="1" Cut="1.3144171142578125e+02" cType="1" res="2.7063700556755066e-01" rms="4.0264552831649780e-01" purity="7.8731238842010498e-01" nType="0">
            <Node pos="l" depth="3" NCoef="0" IVar="1" Cut="1.2192594146728516e+02" cType="1" res="3.6681863665580750e-01" rms="3.1486836075782776e-01" purity="8.8616102933883667e-01" nType="0">
              <Node pos="l" depth="4" NCoef="0" IVar="-1" Cut="0.0000000000000000e+00" cType="1" res="7.0074386894702911e-03" rms="4.5311424136161804e-01" purity="7.1057540178298950e-01" nType="-99"/>
              <Node pos="r" depth="4" NCoef="0" IVar="1" Cut="1.2736227416992188e+02" cType="1" res="3.9248412847518921e-01" rms="2.7838566899299622e-01" purity="9.1399312019348145e-01" nType="0">
                <Node pos="l" depth="5" NCoef="0" IVar="-1" Cut="0.0000000000000000e+00" cType="1" res="4.6503312885761261e-02" rms="2.3281702399253845e-01" purity="9.4214195013046265e-01" nType="-99"/>
                <Node pos="r" depth="5" NCoef="0" IVar="-1" Cut="0.0000000000000000e+00" cType="1" res="9.0884836390614510e-03" rms="4.3810141086578369e-01" purity="7.3390734195709229e-01" nType="-99"/>
              </Node>
            </Node>
            <Node pos="r" depth="3" NCoef="0" IVar="-1" Cut="0.0000000000000000e+00" cType="1" res="-6.2779439613223076e-03" rms="2.4746435880661011e-01" purity="6.5552547574043274e-02" nType="-99"/>
          </Node>
        </Node>
      </Node>
    </BinaryTree>
    <BinaryTree type="DecisionTree" boostWeight="1.0000000000000000e+00" itree="2">
      <Node pos="s" depth="0" NCoef="0" IVar="0" Cut="-7.4431136250495911e-02" cType="1" res="-1.0474585928022861e-02" rms="4.8255819082260132e-01" purity="5.0432682037353516e-01" nType="0">
        <Node pos="l" depth="1" NCoef="0" IVar="1" Cut="1.2014787292480469e+02" cType="1" res="-2.5394824147224426e-01" rms="4.2313313484191895e-01" purity="2.4480946362018585e-01" nType="0">
          <Node pos="l" depth="2" NCoef="0" IVar="1" Cut="1.1445481109619141e+02" cType="1" res="-4.3747082352638245e-01" rms="2.2855557501316071e-01" purity="5.5466014891862869e-02" nType="0">
            <Node pos="l" depth="3" NCoef="0" IVar="0" Cut="-4.3942168354988098e-01" cType="1" res="-4.7196567058563232e-01" rms="1.4154914021492004e-01" purity="2.0464567467570305e-02" nType="0">
              <Node pos="l" depth="4" NCoef="0" IVar="-1" Cut="0.0000000000000000e+00" cType="1" res="-8.0601954832673073e-03" rms="9.7450949251651764e-02" purity="9.5889531075954437e-03" nType="-99"/>
              <Node pos="r" depth="4" NCoef="0" IVar="-1" Cut="0.0000000000000000e+00" cType="1" res="-7.1063763462007046e-03" rms="1.7718595266342163e-01" purity="3.2456126064062119e-02" nType="-99"/>
            </Node>
            <Node pos="r" depth="3" NCoef="0" IVar="-1" Cut="0.0000000000000000e+00" cType="1" res="-6.0313469730317593e-03" rms="3.4040442109107971e-01" purity="1.3406281173229218e-01" nType="-99"/>
          </Node>
          <Node pos="r" depth="2" NCoef="0" IVar="1" Cut="1.2963601684570312e+02" cType="1" res="-1.4537067711353302e-01" rms="4.7153711318969727e-01" purity="3.5683080554008484e-01" nType="0">
            <Node pos="l" depth="3" NCoef="0" IVar="0" Cut="-4.3197467923164368e-01" cType="1" res="1.0992074012756348e-01" rms="4.8098132014274597e-01" purity="6.1906057596206665e-01" nType="0">
              <Node pos="l" depth="4" NCoef="0" IVar="-1" Cut="0.0000000000000000e+00" cType="1" res="-2.5374323595315218e-03" rms="4.8660549521446228e-01" purity="3.8620090484619141e-01" nType="-99"/>
              <Node pos="r" depth="4" NCoef="0" IVar="-1" Cut="0.0000000000000000e+00" cType="1" res="1.3688064180314541e-02" rms="4.2311057448387146e-01" purity="7.6289713382720947e-01" nType="-99"/>
            </Node>
            <Node pos="r" depth="3" NCoef="0" IVar="1" Cut="1.4120521545410156e+02" cType="1" res="-4.7347477078437805e-01" rms="1.3918085396289825e-01" purity="1.9809497520327568e-02" nType="0">
              <Node pos="l" depth="4" NCoef="0" IVar="-1" Cut="0.0000000000000000e+00" cType="1" res="-7.1161738596856594e-03" rms="2.0196799933910370e-01" purity="4.2706210166215897e-02" nType="-99"/>
              <Node pos="r" depth="4" NCoef="0" IVar="-1" Cut="0.0000000000000000e+00" cType="1" res="-6.2727592885494232e-03" rms="3.2075658440589905e-02" purity="1.0298533597961068e-03" nType="-99"/>
            </Node>
          </Node>
        </Node>
        <Node pos="r" depth="1" NCoef="0" IVar="1" Cut="1.1754414367675781e+02" cType="1" res="1.9692790508270264e-01" rms="4.3034484982490540e-01" purity="7.2539609670639038e-01" nType="0">
          <Node pos="l" depth="2" NCoef="0" IVar="-1" Cut="0.0000000000000000e+00" cType="1" res="-4.7604572027921677e-03" rms="3.7073472142219543e-01" purity="1.6494898498058319e-01" nType="-99"/>
          <Node pos="r" depth="2" NCoef="0" IVar="1" Cut="1.2967112731933594e+02" cType="1" res="2.8804451227188110e-01" rms="3.7029668688774109e-01" purity="8.2227385044097900e-01" nType="0">
            <Node pos="l" depth="3" NCoef="0" IVar="0" Cut="2.6616933941841125e-01" cType="1" res="3.7690657377243042e-01" rms="2.7247384190559387e-01" purity="9.1684710979461670e-01" nType="0">
              <Node pos="l" depth="4" NCoef="0" IVar="1" Cut="1.2389477539062500e+02" cType="1" res="3.1739550828933716e-01" rms="3.5227760672569275e-01" purity="8.5189378261566162e-01" nType="0">
                <Node pos="l" depth="5" NCoef="0" IVar="-1" Cut="0.0000000000000000e+00" cType="1" res="1.3643768616020679e-02" rms="4.0484556555747986e-01" purity="7.8907918930053711e-01" nType="-99"/>
                <Node pos="r" depth="5" NCoef="0" IVar="-1" Cut="0.0000000000000000e+00" cType="1" res="2.5689806789159775e-02" rms="3.1238600611686707e-01" purity="8.8887745141983032e-01" nType="-99"/>
              </Node>
              <Node pos="r" depth="4" NCoef="0" IVar="0" Cut="6.8785846233367920e-01" cType="1" res="4.0922850370407104e-01" rms="2.1022590994834900e-01" purity="9.5212483406066895e-01" nType="0">
                <Node pos="l" depth="5" NCoef="0" IVar="-1" Cut="0.0000000000000000e+00" cType="1" res="3.9380297064781189e-02" rms="2.4049189686775208e-01" purity="9.3628817796707153e-01" nType="-99"/>
                <Node pos="r" depth="5" NCoef="0" IVar="-1" Cut="0.0000000000000000e+00" cType="1" res="5.9278003871440887e-02" rms="7.6561078429222107e-02" purity="9.9440038204193115e-01" nType="-99"/>
              </Node>
            </Node>
            <Node pos="r" depth="3" NCoef="0" IVar="-1" Cut="0.0000000000000000e+00" cType="1" res="-5.0112721510231495e-03" rms="3.8262516260147095e-01" purity="1.8015782535076141e-01" nType="-99"/>
          </Node>
        </Node>
      </Node>
    </BinaryTree>
    <BinaryTree type="DecisionTree" boostWeight="1.0000000000000000e+00" itree="3">
      <Node pos="s" depth="0" NCoef="0" IVar="0" Cut="-1.6663047671318054e-01" cType="1" res="-3.2353408634662628e-02" rms="4.7558891773223877e-01" purity="4.8864731192588806e-01" nType="0">
        <Node pos="l" depth="1" NCoef="0" IVar="1" Cut="1.1763920593261719e+02" cType="1" res="-2.8819569945335388e-01" rms="3.9857405424118042e-01" purity="2.0761638879776001e-01" nType="0">
          <Node pos="l" depth="2" NCoef="0" IVar="1" Cut="1.1118479156494141e+02" cType="1" res="-4.6291089057922363e-01" rms="1.5890061855316162e-01" purity="2.5964381173253059e-02" nType="0">
            <Node pos="l" depth="3" NCoef="0" IVar="-1" Cut="0.0000000000000000e+00" cType="1" res="-7.7975746244192123e-03" rms="9.1085754334926605e-02" purity="8.3710523322224617e-03" nType="-99"/>
            <Node pos="r" depth="3" NCoef="0" IVar="-1" Cut="0.0000000000000000e+00" cType="1" res="-6.9439448416233063e-03" rms="2.1210618317127228e-01" purity="4.7269973903894424e-02" nType="-99"/>
          </Node>
          <Node pos="r" depth="2" NCoef="0" IVar="1" Cut="1.2974310302734375e+02" cType="1" res="-1.9695512950420380e-01" rms="4.5207381248474121e-01" purity="3.0247953534126282e-01" nType="0">
            <Node pos="l" depth="3" NCoef="0" IVar="0" Cut="-4.9190056324005127e-01" cType="1" res="1.4967166818678379e-02" rms="4.9512341618537903e-01" purity="5.2166008949279785e-01" nType="0">
              <Node pos="l" depth="4" NCoef="0" IVar="-1" Cut="0.0000000000000000e+00" cType="1" res="-3.3868839964270592e-03" rms="4.6374088525772095e-01" purity="3.1475397944450378e-01" nType="-99"/>
              <Node pos="r" depth="4" NCoef="0" IVar="-1" Cut="0.0000000000000000e+00" cType="1" res="4.7645876184105873e-03" rms="4.7907668352127075e-01" purity="6.3382434844970703e-01" nType="-99"/>
            </Node>
            <Node pos="r" depth="3" NCoef="0" IVar="0" Cut="-4.8619958758354187e-01" cType="1" res="-4.7625496983528137e-01" rms="1.1589520424604416e-01" purity="1.3613778166472912e-02" nType="0">
              <Node pos="l" depth="4" NCoef="0" IVar="-1" Cut="0.0000000000000000e+00" cType="1" res="-7.3972702957689762e-03" rms="7.1531891822814941e-02" purity="5.1419022493064404e-03" nType="-99"/>
              <Node pos="r" depth="4" NCoef="0" IVar="-1" Cut="0.0000000000000000e+00" cType="1" res="-6.9919405505061150e-03" rms="1.5480434894561768e-01" purity="2.4562474340200424e-02" nType="-99"/>
            </Node>
          </Node>
        </Node>
        <Node pos="r" depth="1" NCoef="0" IVar="1" Cut="1.1716773986816406e+02" cType="1" res="1.3849009573459625e-01" rms="4.4524696469306946e-01" purity="6.7631101608276367e-01" nType="0">
          <Node pos="l" depth="2" NCoef="0" IVar="-1" Cut="0.0000000000000000e+00" cType="1" res="-4.9637523479759693e-03" rms="3.4775650501251221e-01" purity="1.4081060886383057e-01" nType="-99"/>
          <Node pos="r" depth="2" NCoef="0" IVar="1" Cut="1.3144186401367188e+02" cType="1" res="2.2341929376125336e-01" rms="4.0354835987091064e-01" purity="7.6918548345565796e-01" nType="0">
            <Node pos="l" depth="3" NCoef="0" IVar="1" Cut="1.2124757385253906e+02" cType="1" res="3.2061508297920227e-01" rms="3.2486760616302490e-01" purity="8.7447160482406616e-01" nType="0">
              <Node pos="l" depth="4" NCoef="0" IVar="-1" Cut="0.0000000000000000e+00" cType="1" res="3.2930730376392603e-03" rms="4.8319235444068909e-01" purity="6.1902242898941040e-01" nType="-99"/>
              <Node pos="r" depth="4" NCoef="0" IVar="1" Cut="1.2707154846191406e+02" cType="1" res="3.4873509407043457e-01" rms="2.8698801994323730e-01" purity="9.0662717819213867e-01" nType="0">
                <Node pos="l" depth="5" NCoef="0" IVar="-1" Cut="0.0000000000000000e+00" cType="1" res="3.8251403719186783e-02" rms="2.5584647059440613e-01" purity="9.2859339714050293e-01" nType="-99"/>
                <Node pos="r" depth="5" NCoef="0" IVar="-1" Cut="0.0000000000000000e+00" cType="1" res="1.0746336542069912e-02" rms="4.0633654594421387e-01" purity="7.8236556053161621e-01" nType="-99"/>
              </Node>
            </Node>
            <Node pos="r" depth="3" NCoef="0" IVar="-1" Cut="0.0000000000000000e+00" cType="1" res="-5.9208399616181850e-03" rms="2.4128636717796326e-01" purity="6.2095735222101212e-02" nType="-99"/>
          </Node>
        </Node>
      </Node>
    </BinaryTree>
    <BinaryTree type="DecisionTree" boostWeight="1.0000000000000000e+00" itree="4">
      <Node pos="s" depth="0" NCoef="0" IVar="0" Cut="9.1411478817462921e-02" cType="1" res="-3.3239219337701797e-02" rms="4.6851664781570435e-01" purity="4.9335706233978271e-01" nType="0">
        <Node pos="l" depth="1" NCoef="0" IVar="1" Cut="1.1729659271240234e+02" cType="1" res="-2.1372936666011810e-01" rms="4.3559014797210693e-01" purity="2.8991520404815674e-01" nType="0">
          <Node pos="l" depth="2" NCoef="0" IVar="0" Cut="-3.0809476971626282e-01" cType="1" res="-4.5174512267112732e-01" rms="1.8163016438484192e-01" purity="3.4287102520465851e-02" nType="0">
            <Node pos="l" depth="3" NCoef="0" IVar="-1" Cut="0.0000000000000000e+00" cType="1" res="-7.3981974273920059e-03" rms="1.1661451309919357e-01" purity="1.3815946877002716e-02" nType="-99"/>
            <Node pos="r" depth="3" NCoef="0" IVar="-1" Cut="0.0000000000000000e+00" cType="1" res="-6.7213852889835835e-03" rms="2.4169027805328369e-01" purity="6.2423143535852432e-02" nType="-99"/>
          </Node>
          <Node pos="r" depth="2" NCoef="0" IVar="1" Cut="1.2949633789062500e+02" cType="1" res="-1.1678998172283173e-01" rms="4.7022283077239990e-01" purity="3.9402776956558228e-01" nType="0">
            <Node pos="l" depth="3" NCoef="0" IVar="0" Cut="-4.4637054204940796e-01" cType="1" res="9.4229541718959808e-02" rms="4.7335493564605713e-01" purity="6.1955434083938599e-01" nType="0">
              <Node pos="l" depth="4" NCoef="0" IVar="-1" Cut="0.0000000000000000e+00" cType="1" res="-3.5314890556037426e-03" rms="4.6793192625045776e-01" purity="3.2631972432136536e-01" nType="-99"/>
              <Node pos="r" depth="4" NCoef="0" IVar="1" Cut="1.2311012268066406e+02" cType="1" res="1.9079521298408508e-01" rms="4.3737849593162537e-01" purity="7.2754782438278198e-01" nType="0">
                <Node pos="l" depth="5" NCoef="0" IVar="-1" Cut="0.0000000000000000e+00" cType="1" res="1.6954084858298302e-03" rms="4.8529884219169617e-01" purity="5.7526606321334839e-01" nType="-99"/>
                <Node pos="r" depth="5" NCoef="0" IVar="-1" Cut="0.0000000000000000e+00" cType="1" res="1.4243068173527718e-02" rms="4.0032678842544556e-01" purity="7.9370599985122681e-01" nType="-99"/>
              </Node>
            </Node>
            <Node pos="r" depth="3" NCoef="0" IVar="1" Cut="1.3965696716308594e+02" cType="1" res="-4.6051055192947388e-01" rms="1.6006259620189667e-01" purity="2.6677351444959641e-02" nType="0">
              <Node pos="l" depth="4" NCoef="0" IVar="-1" Cut="0.0000000000000000e+00" cType="1" res="-7.2659221477806568e-03" rms="2.4170337617397308e-01" purity="6.3173994421958923e-02" nType="-99"/>
              <Node pos="r" depth="4" NCoef="0" IVar="-1" Cut="0.0000000000000000e+00" cType="1" res="-6.5760556608438492e-03" rms="3.6821920424699783e-02" purity="1.3592453906312585e-03" nType="-99"/>
            </Node>
          </Node>
        </Node>
        <Node pos="r" depth="1" NCoef="0" IVar="1" Cut="1.1716861724853516e+02" cType="1" res="2.1043333411216736e-01" rms="3.9539989829063416e-01" purity="7.6801586151123047e-01" nType="0">
          <Node pos="l" depth="2" NCoef="0" IVar="-1" Cut="0.0000000000000000e+00" cType="1" res="-4.2429850436747074e-03" rms="4.0366691350936890e-01" purity="2.0495252311229706e-01" nType="-99"/>
          <Node pos="r" depth="2" NCoef="0" IVar="1" Cut="1.2736581420898438e+02" cType="1" res="2.7658906579017639e-01" rms="3.4396570920944214e-01" purity="8.4321594238281250e-01" nType="0">
            <Node pos="l" depth="3" NCoef="0" IVar="1" Cut="1.2299691772460938e+02" cType="1" res="3.4888491034507751e-01" rms="2.5460880994796753e-01" purity="9.2678606510162354e-01" nType="0">
              <Node pos="l" depth="4" NCoef="0" IVar="-1" Cut="0.0000000000000000e+00" cType="1" res="1.3899903744459152e-02" rms="3.8428241014480591e-01" purity="8.1301611661911011e-01" nType="-99"/>
              <Node pos="r" depth="4" NCoef="0" IVar="0" Cut="3.7658953666687012e-01" cType="1" res="3.7962293624877930e-01" rms="1.8187661468982697e-01" purity="9.6524637937545776e-01" nType="0">
                <Node pos="l" depth="5" NCoef="0" IVar="-1" Cut="0.0000000000000000e+00" cType="1" res="3.6553949117660522e-02" rms="2.5797042250633240e-01" purity="9.2811524868011475e-01" nType="-99"/>
                <Node pos="r" depth="5" NCoef="0" IVar="-1" Cut="0.0000000000000000e+00" cType="1" res="5.3758613765239716e-02" rms="1.1193731427192688e-01" purity="9.8735344409942627e-01" nType="-99"/>
              </Node>
            </Node>
            <Node pos="r" depth="3" NCoef="0" IVar="-1" Cut="0.0000000000000000e+00" cType="1" res="-8.4806093946099281e-04" rms="4.7879493236541748e-01" purity="4.8242840170860291e-01" nType="-99"/>
          </Node>
        </Node>
      </Node>
    </BinaryTree>
    <BinaryTree type="DecisionTree" boostWeight="1.0000000000000000e+00" itree="5">
      <Node pos="s" depth="0" NCoef="0" IVar="1" Cut="1.1729912567138672e+02" cType="1" res="-2.6698328554630280e-02" rms="4.6200892329216003e-01" purity="5.0597816705703735e-01" nType="0">
        <Node pos="l" depth="1" NCoef="0" IVar="0" Cut="8.9771613478660583e-02" cType="1" res="-4.0809279680252075e-01" rms="2.6386520266532898e-01" purity="7.5786389410495758e-02" nType="0">
          <Node pos="l" depth="2" NCoef="0" IVar="0" Cut="-3.4782195091247559e-01" cType="1" res="-4.4429311156272888e-01" rms="1.9124211370944977e-01" purity="3.8150515407323837e-02" nType="0">
            <Node pos="l" depth="3" NCoef="0" IVar="-1" Cut="0.0000000000000000e+00" cType="1" res="-8.0331601202487946e-03" rms="1.2266783416271210e-01" purity="1.5305551700294018e-02" nType="-99"/>
            <Node pos="r" depth="3" NCoef="0" IVar="-1" Cut="0.0000000000000000e+00" cType="1" res="-5.7494984939694405e-03" rms="2.5873425602912903e-01" purity="7.2243966162204742e-02" nType="-99"/>
          </Node>
          <Node pos="r" depth="2" NCoef="0" IVar="-1" Cut="0.0000000000000000e+00" cType="1" res="-4.2847730219364166e-03" rms="3.8766136765480042e-01" purity="1.8435262143611908e-01" nType="-99"/>
        </Node>
        <Node pos="r" depth="1" NCoef="0" IVar="1" Cut="1.2949569702148438e+02" cType="1" res="8.0629475414752960e-02" rms="4.4885751605033875e-01" purity="6.2703794240951538e-01" nType="0">
          <Node pos="l" depth="2" NCoef="0" IVar="0" Cut="-2.5183010101318359e-01" cType="1" res="2.3988431692123413e-01" rms="3.7590393424034119e-01" purity="8.0592525005340576e-01" nType="0">
            <Node pos="l" depth="3" NCoef="0" IVar="0" Cut="-4.7961595654487610e-01" cType="1" res="-2.0273109897971153e-02" rms="4.9335122108459473e-01" purity="4.8533394932746887e-01" nType="0">
              <Node pos="l" depth="4" NCoef="0" IVar="-1" Cut="0.0000000000000000e+00" cType="1" res="-3.3454496879130602e-03" rms="4.6866917610168457e-01" purity="3.2808530330657959e-01" nType="-99"/>
              <Node pos="r" depth="4" NCoef="0" IVar="-1" Cut="0.0000000000000000e+00" cType="1" res="3.8201177958399057e-03" rms="4.8045834898948669e-01" purity="6.2042522430419922e-01" nType="-99"/>
            </Node>
            <Node pos="r" depth="3" NCoef="0" IVar="1" Cut="1.2136277008056641e+02" cType="1" res="3.1053513288497925e-01" rms="3.0034467577934265e-01" purity="8.9298814535140991e-01" nType="0">
              <Node pos="l" depth="4" NCoef="0" IVar="-1" Cut="0.0000000000000000e+00" cType="1" res="4.6162935905158520e-03" rms="4.6908858418464661e-01" purity="6.6074532270431519e-01" nType="-99"/>
              <Node pos="r" depth="4" NCoef="0" IVar="0" Cut="2.6061007380485535e-01" cType="1" res="3.3293089270591736e-01" rms="2.6344227790832520e-01" purity="9.2216384410858154e-01" nType="0">
                <Node pos="l" depth="5" NCoef="0" IVar="-1" Cut="0.0000000000000000e+00" cType="1" res="2.2261362522840500e-02" rms="3.4196141362190247e-01" purity="8.6253279447555542e-01" nType="-99"/>
                <Node pos="r" depth="5" NCoef="0" IVar="-1" Cut="0.0000000000000000e+00" cType="1" res="4.2786587029695511e-02" rms="1.8083286285400391e-01" purity="9.6588152647018433e-01" nType="-99"/>
              </Node>
            </Node>
          </Node>
          <Node pos="r" depth="2" NCoef="0" IVar="1" Cut="1.3530418395996094e+02" cType="1" res="-4.1247269511222839e-01" rms="2.5709378719329834e-01" purity="7.3147602379322052e-02" nType="0">
            <Node pos="l" depth="3" NCoef="0" IVar="-1" Cut="0.0000000000000000e+00" cType="1" res="-4.3415552936494350e-03" rms="4.1986131668090820e-01" purity="2.3641766607761383e-01" nType="-99"/>
            <Node pos="r" depth="3" NCoef="0" IVar="1" Cut="1.4470858764648438e+02" cType="1" res="-4.7542968392372131e-01" rms="9.2863664031028748e-02" purity="8.7484065443277359e-03" nType="0">
              <Node pos="l" depth="4" NCoef="0" IVar="-1" Cut="0.0000000000000000e+00" cType="1" res="-7.5015975162386894e-03" rms="1.2761461734771729e-01" purity="1.6656713560223579e-02" nType="-99"/>
              <Node pos="r" depth="4" NCoef="0" IVar="-1" Cut="0.0000000000000000e+00" cType="1" res="-6.6242325119674206e-03" rms="4.7372870147228241e-02" purity="2.2622575052082539e-03" nType="-99"/>
            </Node>
          </Node>
        </Node>
      </Node>
    </BinaryTree>
    <BinaryTree type="DecisionTree" boostWeight="1.0000000000000000e+00" itree="6">
      <Node pos="s" depth="0" NCoef="0" IVar="1" Cut="1.1732529449462891e+02" cType="1" res="-3.7976726889610291e-02" rms="4.5582056045532227e-01" purity="5.0043630599975586e-01" nType="0">
        <Node pos="l" depth="1" NCoef="0" IVar="0" Cut="7.3500186204910278e-02" cType="1" res="-4.0700235962867737e-01" rms="2.6029431819915771e-01" purity="7.3799014091491699e-02" nType="0">
          <Node pos="l" depth="2" NCoef="0" IVar="1" Cut="1.1244659423828125e+02" cType="1" res="-4.4313681125640869e-01" rms="1.8555004894733429e-01" purity="3.5869706422090530e-02" nType="0">
            <Node pos="l" depth="3" NCoef="0" IVar="0" Cut="-3.6263364553451538e-01" cType="1" res="-4.5922347903251648e-01" rms="1.3705226778984070e-01" purity="1.9211284816265106e-02" nType="0">
              <Node pos="l" depth="4" NCoef="0" IVar="-1" Cut="0.0000000000000000e+00" cType="1" res="-8.1139104440808296e-03" rms="9.3761347234249115e-02" purity="8.8718980550765991e-03" nType="-99"/>
              <Node pos="r" depth="4" NCoef="0" IVar="-1" Cut="0.0000000000000000e+00" cType="1" res="-6.6881212405860424e-03" rms="1.7457203567028046e-01" purity="3.1510379165410995e-02" nType="-99"/>
            </Node>
            <Node pos="r" depth="3" NCoef="0" IVar="-1" Cut="0.0000000000000000e+00" cType="1" res="-6.4826118759810925e-03" rms="2.5626334547996521e-01" purity="7.0935346186161041e-02" nType="-99"/>
          </Node>
          <Node pos="r" depth="2" NCoef="0" IVar="-1" Cut="0.0000000000000000e+00" cType="1" res="-4.7723124735057354e-03" rms="3.8510000705718994e-01" purity="1.8174538016319275e-01" nType="-99"/>
        </Node>
        <Node pos="r" depth="1" NCoef="0" IVar="1" Cut="1.2951657104492188e+02" cType="1" res="7.0812977850437164e-02" rms="4.4392454624176025e-01" purity="6.2621015310287476e-01" nType="0">
          <Node pos="l" depth="2" NCoef="0" IVar="0" Cut="-3.3623209595680237e-01" cType="1" res="2.1341158449649811e-01" rms="3.8359394669532776e-01" purity="7.9044693708419800e-01" nType="0">
            <Node pos="l" depth="3" NCoef="0" IVar="-1" Cut="0.0000000000000000e+00" cType="1" res="-2.3317977320402861e-03" rms="4.8619937896728516e-01" purity="4.0723073482513428e-01" nType="-99"/>
            <Node pos="r" depth="3" NCoef="0" IVar="1" Cut="1.2138935852050781e+02" cType="1" res="2.7700704336166382e-01" rms="3.2417604327201843e-01" purity="8.6993479728698730e-01" nType="0">
              <Node pos="l" depth="4" NCoef="0" IVar="-1" Cut="0.0000000000000000e+00" cType="1" res="3.0110215302556753e-03" rms="4.7956883907318115e-01" purity="6.1871916055679321e-01" nType="-99"/>
              <Node pos="r" depth="4" NCoef="0" IVar="0" Cut="1.5276923775672913e-01" cType="1" res="3.0287039279937744e-01" rms="2.8684872388839722e-01" purity="9.0475940704345703e-01" nType="0">
                <Node pos="l" depth="5" NCoef="0" IVar="-1" Cut="0.0000000000000000e+00" cType="1" res="1.5607587993144989e-02" rms="3.8357225060462952e-01" purity="8.1889486312866211e-01" nType="-99"/>
                <Node pos="r" depth="5" NCoef="0" IVar="-1" Cut="0.0000000000000000e+00" cType="1" res="3.7243399769067764e-02" rms="2.1194066107273102e-01" purity="9.5116448402404785e-01" nType="-99"/>
              </Node>
            </Node>
          </Node>
          <Node pos="r" depth="2" NCoef="0" IVar="1" Cut="1.3532337951660156e+02" cType="1" res="-4.0844050049781799e-01" rms="2.5852274894714355e-01" purity="7.4233844876289368e-02" nType="0">
            <Node pos="l" depth="3" NCoef="0" IVar="-1" Cut="0.0000000000000000e+00" cType="1" res="-5.0716865807771683e-03" rms="4.1195899248123169e-01" purity="2.2452998161315918e-01" nType="-99"/>
            <Node pos="r" depth="3" NCoef="0" IVar="1" Cut="1.4472421264648438e+02" cType="1" res="-4.7217187285423279e-01" rms="9.2815048992633820e-02" purity="8.7271109223365784e-03" nType="0">
              <Node pos="l" depth="4" NCoef="0" IVar="-1" Cut="0.0000000000000000e+00" cType="1" res="-6.4723151735961437e-03" rms="1.3358314335346222e-01" purity="1.8263032659888268e-02" nType="-99"/>
              <Node pos="r" depth="4" NCoef="0" IVar="-1" Cut="0.0000000000000000e+00" cType="1" res="-6.0554840601980686e-03" rms="3.6155179142951965e-02" purity="1.3151268940418959e-03" nType="-99"/>
            </Node>
          </Node>
        </Node>
      </Node>
    </BinaryTree>
    <BinaryTree type="DecisionTree" boostWeight="1.0000000000000000e+00" itree="7">
      <Node pos="s" depth="0" NCoef="0" IVar="1" Cut="1.1717128753662109e+02" cType="1" res="-4.7958355396986008e-02" rms="4.5022678375244141e-01" purity="4.9425470829010010e-01" nType="0">
        <Node pos="l" depth="1" NCoef="0" IVar="0" Cut="6.6248007351532578e-04" cType="1" res="-4.0530052781105042e-01" rms="2.5769329071044922e-01" purity="7.2093032300472260e-02" nType="0">
          <Node pos="l" depth="2" NCoef="0" IVar="0" Cut="-3.1960022449493408e-01" cType="1" res="-4.4034075736999512e-01" rms="1.8264047801494598e-01" purity="3.4687597304582596e-02" nType="0">
            <Node pos="l" depth="3" NCoef="0" IVar="-1" Cut="0.0000000000000000e+00" cType="1" res="-7.6065119355916977e-03" rms="1.3109830021858215e-01" purity="1.7536845058202744e-02" nType="-99"/>
            <Node pos="r" depth="3" NCoef="0" IVar="-1" Cut="0.0000000000000000e+00" cType="1" res="-6.4912117086350918e-03" rms="2.4440646171569824e-01" purity="6.3865669071674347e-02" nType="-99"/>
          </Node>
          <Node pos="r" depth="2" NCoef="0" IVar="-1" Cut="0.0000000000000000e+00" cType="1" res="-5.1603261381387711e-03" rms="3.6386844515800476e-01" purity="1.5712994337081909e-01" nType="-99"/>
        </Node>
        <Node pos="r" depth="1" NCoef="0" IVar="1" Cut="1.3144685363769531e+02" cType="1" res="5.3213089704513550e-02" rms="4.4148015975952148e-01" purity="6.1377799510955811e-01" nType="0">
          <Node pos="l" depth="2" NCoef="0" IVar="0" Cut="-3.3669221401214600e-01" cType="1" res="1.9231221079826355e-01" rms="3.8984969258308411e-01" purity="7.7567791938781738e-01" nType="0">
            <Node pos="l" depth="3" NCoef="0" IVar="0" Cut="-5.0787776708602905e-01" cType="1" res="-1.1189641058444977e-01" rms="4.8152327537536621e-01" purity="3.8618502020835876e-01" nType="0">
              <Node pos="l" depth="4" NCoef="0" IVar="-1" Cut="0.0000000000000000e+00" cType="1" res="-4.1943606920540333e-03" rms="4.3618395924568176e-01" purity="2.5778859853744507e-01" nType="-99"/>
              <Node pos="r" depth="4" NCoef="0" IVar="-1" Cut="0.0000000000000000e+00" cType="1" res="7.3772243922576308e-04" rms="4.9523290991783142e-01" purity="5.3413903713226318e-01" nType="-99"/>
            </Node>
            <Node pos="r" depth="3" NCoef="0" IVar="1" Cut="1.2125012207031250e+02" cType="1" res="2.5894498825073242e-01" rms="3.3132389187812805e-01" purity="8.6099106073379517e-01" nType="0">
              <Node pos="l" depth="4" NCoef="0" IVar="-1" Cut="0.0000000000000000e+00" cType="1" res="2.5562036316841841e-03" rms="4.8267087340354919e-01" purity="6.1546283960342407e-01" nType="-99"/>
              <Node pos="r" depth="4" NCoef="0" IVar="1" Cut="1.2756152343750000e+02" cType="1" res="2.8009924292564392e-01" rms="3.0096754431724548e-01" purity="8.9107358455657959e-01" nType="0">
                <Node pos="l" depth="5" NCoef="0" IVar="-1" Cut="0.0000000000000000e+00" cType="1" res="2.9698632657527924e-02" rms="2.7005910873413086e-01" purity="9.1749989986419678e-01" nType="-99"/>
                <Node pos="r" depth="5" NCoef="0" IVar="-1" Cut="0.0000000000000000e+00" cType="1" res="5.3882873617112637e-03" rms="4.4662386178970337e-01" purity="6.9639170169830322e-01" nType="-99"/>
              </Node>
            </Node>
          </Node>
          <Node pos="r" depth="2" NCoef="0" IVar="1" Cut="1.3960607910156250e+02" cType="1" res="-4.5052382349967957e-01" rms="1.6285926103591919e-01" purity="2.7469603344798088e-02" nType="0">
            <Node pos="l" depth="3" NCoef="0" IVar="-1" Cut="0.0000000000000000e+00" cType="1" res="-6.8202414549887180e-03" rms="2.5344061851501465e-01" purity="6.9536015391349792e-02" nType="-99"/>
            <Node pos="r" depth="3" NCoef="0" IVar="-1" Cut="0.0000000000000000e+00" cType="1" res="-6.3196094706654549e-03" rms="6.2897257506847382e-02" purity="3.9886208251118660e-03" nType="-99"/>
          </Node>
        </Node>
      </Node>
    </BinaryTree>
    <BinaryTree type="DecisionTree" boostWeight="1.0000000000000000e+00" itree="8">
      <Node pos="s" depth="0" NCoef="0" IVar="1" Cut="1.1724163055419922e+02" cType="1" res="-5.0766970962285995e-02" rms="4.4458335638046265e-01" purity="4.9575772881507874e-01" nType="0">
        <Node pos="l" depth="1" NCoef="0" IVar="0" Cut="-9.7614843398332596e-03" cType="1" res="-4.0170359611511230e-01" rms="2.5794085860252380e-01" purity="7.2393305599689484e-02" nType="0">
          <Node pos="l" depth="2" NCoef="0" IVar="0" Cut="-4.0625581145286560e-01" cType="1" res="-4.3904051184654236e-01" rms="1.7608171701431274e-01" purity="3.2194726169109344e-02" nType="0">
            <Node pos="l" depth="3" NCoef="0" IVar="-1" Cut="0.0000000000000000e+00" cType="1" res="-7.9250428825616837e-03" rms="1.1027919501066208e-01" purity="1.2345341965556145e-02" nType="-99"/>
            <Node pos="r" depth="3" NCoef="0" IVar="-1" Cut="0.0000000000000000e+00" cType="1" res="-6.3764210790395737e-03" rms="2.3457473516464233e-01" purity="5.8587305247783661e-02" nType="-99"/>
          </Node>
          <Node pos="r" depth="2" NCoef="0" IVar="-1" Cut="0.0000000000000000e+00" cType="1" res="-4.7975224442780018e-03" rms="3.6646631360054016e-01" purity="1.5999121963977814e-01" nType="-99"/>
        </Node>
        <Node pos="r" depth="1" NCoef="0" IVar="1" Cut="1.2945742797851562e+02" cType="1" res="5.1032528281211853e-02" rms="4.3543258309364319e-01" purity="6.1856698989868164e-01" nType="0">
          <Node pos="l" depth="2" NCoef="0" IVar="0" Cut="-4.2357653379440308e-01" cType="1" res="1.9268205761909485e-01" rms="3.7886485457420349e-01" purity="7.8834062814712524e-01" nType="0">
            <Node pos="l" depth="3" NCoef="0" IVar="-1" Cut="0.0000000000000000e+00" cType="1" res="-3.3639792818576097e-03" rms="4.7193661332130432e-01" purity="3.4055492281913757e-01" nType="-99"/>
            <Node pos="r" depth="3" NCoef="0" IVar="1" Cut="1.2073464202880859e+02" cType="1" res="2.4427706003189087e-01" rms="3.3358916640281677e-01" purity="8.5585731267929077e-01" nType="0">
              <Node pos="l" depth="4" NCoef="0" IVar="-1" Cut="0.0000000000000000e+00" cType="1" res="-8.9970217231893912e-06" rms="4.9192035198211670e-01" purity="5.2391034364700317e-01" nType="-99"/>
              <Node pos="r" depth="4" NCoef="0" IVar="0" Cut="2.2647240757942200e-01" cType="1" res="2.7070772647857666e-01" rms="2.9999136924743652e-01" purity="8.9172607660293579e-01" nType="0">
                <Node pos="l" depth="5" NCoef="0" IVar="-1" Cut="0.0000000000000000e+00" cType="1" res="1.3989725150167942e-02" rms="3.8864964246749878e-01" purity="8.0706536769866943e-01" nType="-99"/>
                <Node pos="r" depth="5" NCoef="0" IVar="-1" Cut="0.0000000000000000e+00" cType="1" res="3.9802439510822296e-02" rms="1.8791775405406952e-01" purity="9.6242815256118774e-01" nType="-99"/>
              </Node>
            </Node>
          </Node>
          <Node pos="r" depth="2" NCoef="0" IVar="1" Cut="1.3527481079101562e+02" cType="1" res="-4.0207350254058838e-01" rms="2.5972980260848999e-01" purity="7.5497917830944061e-02" nType="0">
            <Node pos="l" depth="3" NCoef="0" IVar="-1" Cut="0.0000000000000000e+00" cType="1" res="-4.5625455677509308e-03" rms="4.1205367445945740e-01" purity="2.2499343752861023e-01" nType="-99"/>
            <Node pos="r" depth="3" NCoef="0" IVar="1" Cut="1.4469293212890625e+02" cType="1" res="-4.6466252207756042e-01" rms="9.8235055804252625e-02" purity="9.7849350422620773e-03" nType="0">
              <Node pos="l" depth="4" NCoef="0" IVar="-1" Cut="0.0000000000000000e+00" cType="1" res="-7.3274038732051849e-03" rms="1.3631889224052429e-01" purity="1.9047837704420090e-02" nType="-99"/>
              <Node pos="r" depth="4" NCoef="0" IVar="-1" Cut="0.0000000000000000e+00" cType="1" res="-6.0654296539723873e-03" rms="3.8920074701309204e-02" purity="1.5213578008115292e-03" nType="-99"/>
            </Node>
          </Node>
        </Node>
      </Node>
    </BinaryTree>
    <BinaryTree type="DecisionTree" boostWeight="1.0000000000000000e+00" itree="9">
      <Node pos="s" depth="0" NCoef="0" IVar="1" Cut="1.1724163055419922e+02" cType="1" res="-5.4051984101533890e-02" rms="4.3962398171424866e-01" purity="4.9783405661582947e-01" nType="0">
        <Node pos="l" depth="1" NCoef="0" IVar="0" Cut="8.3459995687007904e-02" cType="1" res="-3.9610409736633301e-01" rms="2.6166173815727234e-01" purity="7.4820220470428467e-02" nType="0">
          <Node pos="l" depth="2" NCoef="0" IVar="1" Cut="1.1235391235351562e+02" cType="1" res="-4.3319177627563477e-01" rms="1.8361961841583252e-01" purity="3.5147357732057571e-02" nType="0">
            <Node pos="l" depth="3" NCoef="0" IVar="0" Cut="-4.0154647827148438e-01" cType="1" res="-4.4934028387069702e-01" rms="1.3381925225257874e-01" purity="1.8332805484533310e-02" nType="0">
              <Node pos="l" depth="4" NCoef="0" IVar="-1" Cut="0.0000000000000000e+00" cType="1" res="-8.0954190343618393e-03" rms="8.1857495009899139e-02" purity="6.7468727938830853e-03" nType="-99"/>
              <Node pos="r" depth="4" NCoef="0" IVar="-1" Cut="0.0000000000000000e+00" cType="1" res="-6.9938912056386471e-03" rms="1.7080809175968170e-01" purity="3.0146626755595207e-02" nType="-99"/>
            </Node>
            <Node pos="r" depth="3" NCoef="0" IVar="-1" Cut="0.0000000000000000e+00" cType="1" res="-6.4573846757411957e-03" rms="2.5784859061241150e-01" purity="7.1937106549739838e-02" nType="-99"/>
          </Node>
          <Node pos="r" depth="2" NCoef="0" IVar="-1" Cut="0.0000000000000000e+00" cType="1" res="-4.5632384717464447e-03" rms="3.9273935556411743e-01" purity="1.9074293971061707e-01" nType="-99"/>
        </Node>
        <Node pos="r" depth="1" NCoef="0" IVar="1" Cut="1.3149330139160156e+02" cType="1" res="4.8234518617391586e-02" rms="4.3027898669242859e-01" purity="6.2433123588562012e-01" nType="0">
          <Node pos="l" depth="2" NCoef="0" IVar="0" Cut="-3.3712649345397949e-01" cType="1" res="1.7355459928512573e-01" rms="3.8477677106857300e-01" purity="7.7627259492874146e-01" nType="0">
            <Node pos="l" depth="3" NCoef="0" IVar="0" Cut="-5.0824463367462158e-01" cType="1" res="-1.2297135591506958e-01" rms="4.7701826691627502e-01" purity="3.7373417615890503e-01" nType="0">
              <Node pos="l" depth="4" NCoef="0" IVar="-1" Cut="0.0000000000000000e+00" cType="1" res="-4.5205107890069485e-03" rms="4.3659147620201111e-01" purity="2.5890392065048218e-01" nType="-99"/>
              <Node pos="r" depth="4" NCoef="0" IVar="-1" Cut="0.0000000000000000e+00" cType="1" res="-2.0398986816871911e-04" rms="4.9433624744415283e-01" purity="5.0433409214019775e-01" nType="-99"/>
            </Node>
            <Node pos="r" depth="3" NCoef="0" IVar="1" Cut="1.2131376647949219e+02" cType="1" res="2.3982448875904083e-01" rms="3.2595238089561462e-01" purity="8.6623501777648926e-01" nType="0">
              <Node pos="l" depth="4" NCoef="0" IVar="-1" Cut="0.0000000000000000e+00" cType="1" res="2.8349622152745724e-03" rms="4.7699406743049622e-01" purity="6.2921476364135742e-01" nType="-99"/>
              <Node pos="r" depth="4" NCoef="0" IVar="0" Cut="2.7360743284225464e-01" cType="1" res="2.5758567452430725e-01" rms="2.9746121168136597e-01" purity="8.9530438184738159e-01" nType="0">
                <Node pos="l" depth="5" NCoef="0" IVar="-1" Cut="0.0000000000000000e+00" cType="1" res="1.4143675565719604e-02" rms="3.7126749753952026e-01" purity="8.2812899351119995e-01" nType="-99"/>
                <Node pos="r" depth="5" NCoef="0" IVar="-1" Cut="0.0000000000000000e+00" cType="1" res="3.3302824944257736e-02" rms="2.0839492976665497e-01" purity="9.5440024137496948e-01" nType="-99"/>
              </Node>
            </Node>
          </Node>
          <Node pos="r" depth="2" NCoef="0" IVar="1" Cut="1.3963961791992188e+02" cType="1" res="-4.4318309426307678e-01" rms="1.6580985486507416e-01" purity="2.8523361310362816e-02" nType="0">
            <Node pos="l" depth="3" NCoef="0" IVar="-1" Cut="0.0000000000000000e+00" cType="1" res="-6.3527435995638371e-03" rms="2.4831770360469818e-01" purity="6.6615395247936249e-02" nType="-99"/>
            <Node pos="r" depth="3" NCoef="0" IVar="-1" Cut="0.0000000000000000e+00" cType="1" res="-5.9237447567284107e-03" rms="6.0433745384216309e-02" purity="3.6763304378837347e-03" nType="-99"/>
          </Node>
        </Node>
      </Node>
    </BinaryTree>
    <BinaryTree type="DecisionTree" boostWeight="1.0000000000000000e+00" itree="10">
      <Node pos="s" depth="0" NCoef="0" IVar="1" Cut="1.1717128753662109e+02" cType="1" res="-5.3703658282756805e-02" rms="4.3356725573539734e-01" purity="5.0083822011947632e-01" nType="0">
        <Node pos="l" depth="1" NCoef="0" IVar="0" Cut="8.3459995687007904e-02" cType="1" res="-3.9461454749107361e-01" rms="2.5862574577331543e-01" purity="7.2957366704940796e-02" nType="0">
          <Node pos="l" depth="2" NCoef="0" IVar="1" Cut="1.1230395507812500e+02" cType="1" res="-4.2806667089462280e-01" rms="1.8750850856304169e-01" purity="3.6724165081977844e-02" nType="0">
            <Node pos="l" depth="3" NCoef="0" IVar="0" Cut="-3.5754206776618958e-01" cType="1" res="-4.4472733139991760e-01" rms="1.3750392198562622e-01" purity="1.9385442137718201e-02" nType="0">
              <Node pos="l" depth="4" NCoef="0" IVar="-1" Cut="0.0000000000000000e+00" cType="1" res="-7.8929690644145012e-03" rms="8.5879206657409668e-02" purity="7.4324221350252628e-03" nType="-99"/>
              <Node pos="r" depth="4" NCoef="0" IVar="-1" Cut="0.0000000000000000e+00" cType="1" res="-6.4045400358736515e-03" rms="1.7910104990005493e-01" purity="3.3242940902709961e-02" nType="-99"/>
            </Node>
            <Node pos="r" depth="3" NCoef="0" IVar="-1" Cut="0.0000000000000000e+00" cType="1" res="-6.1010993085801601e-03" rms="2.6101297140121460e-01" purity="7.3892362415790558e-02" nType="-99"/>
          </Node>
          <Node pos="r" depth="2" NCoef="0" IVar="-1" Cut="0.0000000000000000e+00" cType="1" res="-4.6817045658826828e-03" rms="3.8597220182418823e-01" purity="1.8216112256050110e-01" nType="-99"/>
        </Node>
        <Node pos="r" depth="1" NCoef="0" IVar="1" Cut="1.3144712829589844e+02" cType="1" res="4.4272474944591522e-02" rms="4.2400676012039185e-01" purity="6.2380909919738770e-01" nType="0">
          <Node pos="l" depth="2" NCoef="0" IVar="0" Cut="-3.2763305306434631e-01" cType="1" res="1.7710390686988831e-01" rms="3.7367242574691772e-01" purity="7.8685897588729858e-01" nType="0">
            <Node pos="l" depth="3" NCoef="0" IVar="0" Cut="-5.2194231748580933e-01" cType="1" res="-9.9414713680744171e-02" rms="4.8152086138725281e-01" purity="3.9700308442115784e-01" nType="0">
              <Node pos="l" depth="4" NCoef="0" IVar="-1" Cut="0.0000000000000000e+00" cType="1" res="-4.0187686681747437e-03" rms="4.4116264581680298e-01" purity="2.6705324649810791e-01" nType="-99"/>
              <Node pos="r" depth="4" NCoef="0" IVar="-1" Cut="0.0000000000000000e+00" cType="1" res="1.1760449706343934e-04" rms="4.9256119132041931e-01" purity="5.1345282793045044e-01" nType="-99"/>
            </Node>
            <Node pos="r" depth="3" NCoef="0" IVar="1" Cut="1.2125004577636719e+02" cType="1" res="2.3988625407218933e-01" rms="3.1207090616226196e-01" purity="8.7537401914596558e-01" nType="0">
              <Node pos="l" depth="4" NCoef="0" IVar="-1" Cut="0.0000000000000000e+00" cType="1" res="1.5869576018303633e-03" rms="4.8524925112724304e-01" purity="5.8512610197067261e-01" nType="-99"/>
              <Node pos="r" depth="4" NCoef="0" IVar="1" Cut="1.2707541656494141e+02" cType="1" res="2.6442536711692810e-01" rms="2.7226108312606812e-01" purity="9.1332596540451050e-01" nType="0">
                <Node pos="l" depth="5" NCoef="0" IVar="-1" Cut="0.0000000000000000e+00" cType="1" res="2.9558811336755753e-02" rms="2.4728004634380341e-01" purity="9.3241989612579346e-01" nType="-99"/>
                <Node pos="r" depth="5" NCoef="0" IVar="-1" Cut="0.0000000000000000e+00" cType="1" res="9.6031734719872475e-03" rms="3.8192173838615417e-01" purity="8.0243289470672607e-01" nType="-99"/>
              </Node>
            </Node>
          </Node>
          <Node pos="r" depth="2" NCoef="0" IVar="1" Cut="1.3960705566406250e+02" cType="1" res="-4.4279691576957703e-01" rms="1.5834259986877441e-01" purity="2.5934046134352684e-02" nType="0">
            <Node pos="l" depth="3" NCoef="0" IVar="-1" Cut="0.0000000000000000e+00" cType="1" res="-6.4580235630273819e-03" rms="2.4912554025650024e-01" purity="6.7013867199420929e-02" nType="-99"/>
            <Node pos="r" depth="3" NCoef="0" IVar="-1" Cut="0.0000000000000000e+00" cType="1" res="-6.7830784246325493e-03" rms="5.3692001849412918e-02" purity="2.8994774911552668e-03" nType="-99"/>
          </Node>
        </Node>
      </Node>
    </BinaryTree>
    <BinaryTree type="DecisionTree" boostWeight="1.0000000000000000e+00" itree="11">
      <Node pos="s" depth="0" NCoef="0" IVar="1" Cut="1.1717110443115234e+02" cType="1" res="-6.3155859708786011e-02" rms="4.2894497513771057e-01" purity="4.9453830718994141e-01" nType="0">
        <Node pos="l" depth="1" NCoef="0" IVar="0" Cut="1.4389128773473203e-04" cType="1" res="-3.9293581247329712e-01" rms="2.5625771284103394e-01" purity="7.1597009897232056e-02" nType="0">
          <Node pos="l" depth="2" NCoef="0" IVar="1" Cut="1.1152102661132812e+02" cType="1" res="-4.3092498183250427e-01" rms="1.6918446123600006e-01" purity="2.9668545350432396e-02" nType="0">
            <Node pos="l" depth="3" NCoef="0" IVar="-1" Cut="0.0000000000000000e+00" cType="1" res="-7.3569584637880325e-03" rms="1.1951944231987000e-01" purity="1.4570472761988640e-02" nType="-99"/>
            <Node pos="r" depth="3" NCoef="0" IVar="-1" Cut="0.0000000000000000e+00" cType="1" res="-6.1348807066679001e-03" rms="2.3069795966148376e-01" purity="5.6621171534061432e-02" nType="-99"/>
          </Node>
          <Node pos="r" depth="2" NCoef="0" IVar="-1" Cut="0.0000000000000000e+00" cType="1" res="-5.5312672629952431e-03" rms="3.6594682931900024e-01" purity="1.5943457186222076e-01" nType="-99"/>
        </Node>
        <Node pos="r" depth="1" NCoef="0" IVar="1" Cut="1.3144664001464844e+02" cType="1" res="3.6418113857507706e-02" rms="4.2067644000053406e-01" purity="6.2224149703979492e-01" nType="0">
          <Node pos="l" depth="2" NCoef="0" IVar="0" Cut="-2.4428051710128784e-01" cType="1" res="1.6320738196372986e-01" rms="3.7544608116149902e-01" purity="7.8123474121093750e-01" nType="0">
            <Node pos="l" depth="3" NCoef="0" IVar="0" Cut="-4.9859008193016052e-01" cType="1" res="-6.5790757536888123e-02" rms="4.8245459794998169e-01" purity="4.4221389293670654e-01" nType="0">
              <Node pos="l" depth="4" NCoef="0" IVar="-1" Cut="0.0000000000000000e+00" cType="1" res="-4.1774567216634750e-03" rms="4.4382578134536743e-01" purity="2.7258512377738953e-01" nType="-99"/>
              <Node pos="r" depth="4" NCoef="0" IVar="-1" Cut="0.0000000000000000e+00" cType="1" res="1.5076750423759222e-03" rms="4.8247241973876953e-01" purity="5.7470625638961792e-01" nType="-99"/>
            </Node>
            <Node pos="r" depth="3" NCoef="0" IVar="1" Cut="1.2192990875244141e+02" cType="1" res="2.3198717832565308e-01" rms="3.0480426549911499e-01" purity="8.8305997848510742e-01" nType="0">
              <Node pos="l" depth="4" NCoef="0" IVar="-1" Cut="0.0000000000000000e+00" cType="1" res="4.7373101115226746e-03" rms="4.4711405038833618e-01" purity="6.9743156433105469e-01" nType="-99"/>
              <Node pos="r" depth="4" NCoef="0" IVar="1" Cut="1.2736729431152344e+02" cType="1" res="2.4779106676578522e-01" rms="2.7098080515861511e-01" purity="9.1379421949386597e-01" nType="0">
                <Node pos="l" depth="5" NCoef="0" IVar="-1" Cut="0.0000000000000000e+00" cType="1" res="2.8426004573702812e-02" rms="2.4206161499023438e-01" purity="9.3580889701843262e-01" nType="-99"/>
                <Node pos="r" depth="5" NCoef="0" IVar="-1" Cut="0.0000000000000000e+00" cType="1" res="7.7040945179760456e-03" rms="4.1070035099983215e-01" purity="7.6339590549468994e-01" nType="-99"/>
              </Node>
            </Node>
          </Node>
          <Node pos="r" depth="2" NCoef="0" IVar="1" Cut="1.3960589599609375e+02" cType="1" res="-4.3765154480934143e-01" rms="1.6357974708080292e-01" purity="2.7759952470660210e-02" nType="0">
            <Node pos="l" depth="3" NCoef="0" IVar="-1" Cut="0.0000000000000000e+00" cType="1" res="-6.5764752216637135e-03" rms="2.5446459650993347e-01" purity="7.0321768522262573e-02" nType="-99"/>
            <Node pos="r" depth="3" NCoef="0" IVar="-1" Cut="0.0000000000000000e+00" cType="1" res="-6.2086414545774460e-03" rms="6.1189807951450348e-02" purity="3.7711453624069691e-03" nType="-99"/>
          </Node>
        </Node>
      </Node>
    </BinaryTree>
    <BinaryTree type="DecisionTree" boostWeight="1.0000000000000000e+00" itree="12">
      <Node pos="s" depth="0" NCoef="0" IVar="1" Cut="1.1722975921630859e+02" cType="1" res="-6.2351215630769730e-02" rms="4.2591807246208191e-01" purity="5.0045096874237061e-01" nType="0">
        <Node pos="l" depth="1" NCoef="0" IVar="0" Cut="8.4705077111721039e-02" cType="1" res="-3.8823527097702026e-01" rms="2.5898227095603943e-01" purity="7.3235571384429932e-02" nType="0">
          <Node pos="l" depth="2" NCoef="0" IVar="0" Cut="-4.4357866048812866e-01" cType="1" res="-4.1803783178329468e-01" rms="1.9578449428081512e-01" purity="4.0197074413299561e-02" nType="0">
            <Node pos="l" depth="3" NCoef="0" IVar="-1" Cut="0.0000000000000000e+00" cType="1" res="-7.5076306238770485e-03" rms="1.1577849090099335e-01" purity="1.3645257800817490e-02" nType="-99"/>
            <Node pos="r" depth="3" NCoef="0" IVar="-1" Cut="0.0000000000000000e+00" cType="1" res="-6.5372893586754799e-03" rms="2.3734110593795776e-01" purity="6.0119669884443283e-02" nType="-99"/>
          </Node>
          <Node pos="r" depth="2" NCoef="0" IVar="-1" Cut="0.0000000000000000e+00" cType="1" res="-4.3110917322337627e-03" rms="3.7702721357345581e-01" purity="1.7164063453674316e-01" nType="-99"/>
        </Node>
        <Node pos="r" depth="1" NCoef="0" IVar="1" Cut="1.2944879150390625e+02" cType="1" res="3.1791497021913528e-02" rms="4.1820228099822998e-01" purity="6.2386673688888550e-01" nType="0">
          <Node pos="l" depth="2" NCoef="0" IVar="0" Cut="-4.2324063181877136e-01" cType="1" res="1.6934725642204285e-01" rms="3.6521491408348083e-01" purity="8.0164158344268799e-01" nType="0">
            <Node pos="l" depth="3" NCoef="0" IVar="-1" Cut="0.0000000000000000e+00" cType="1" res="-1.7949243774637580e-03" rms="4.8695695400238037e-01" purity="3.9981120824813843e-01" nType="-99"/>
            <Node pos="r" depth="3" NCoef="0" IVar="1" Cut="1.2130281829833984e+02" cType="1" res="2.0327712595462799e-01" rms="3.3130258321762085e-01" purity="8.5524314641952515e-01" nType="0">
              <Node pos="l" depth="4" NCoef="0" IVar="-1" Cut="0.0000000000000000e+00" cType="1" res="1.0693895164877176e-03" rms="4.8616647720336914e-01" purity="5.7237082719802856e-01" nType="-99"/>
              <Node pos="r" depth="4" NCoef="0" IVar="0" Cut="9.7180038690567017e-02" cType="1" res="2.2623905539512634e-01" rms="2.9641991853713989e-01" purity="8.9450341463088989e-01" nType="0">
                <Node pos="l" depth="5" NCoef="0" IVar="-1" Cut="0.0000000000000000e+00" cType="1" res="1.1900034733116627e-02" rms="3.9525792002677917e-01" purity="7.9887998104095459e-01" nType="-99"/>
                <Node pos="r" depth="5" NCoef="0" IVar="-1" Cut="0.0000000000000000e+00" cType="1" res="3.1369760632514954e-02" rms="2.2888916730880737e-01" purity="9.4267463684082031e-01" nType="-99"/>
              </Node>
            </Node>
          </Node>
          <Node pos="r" depth="2" NCoef="0" IVar="1" Cut="1.3526750183105469e+02" cType="1" res="-3.9332583546638489e-01" rms="2.5294619798660278e-01" purity="7.4451729655265808e-02" nType="0">
            <Node pos="l" depth="3" NCoef="0" IVar="-1" Cut="0.0000000000000000e+00" cType="1" res="-5.2122627384960651e-03" rms="3.9672681689262390e-01" purity="2.1330700814723969e-01" nType="-99"/>
            <Node pos="r" depth="3" NCoef="0" IVar="1" Cut="1.4469059753417969e+02" cType="1" res="-4.5198774337768555e-01" rms="9.8124019801616669e-02" purity="9.7480621188879013e-03" nType="0">
              <Node pos="l" depth="4" NCoef="0" IVar="-1" Cut="0.0000000000000000e+00" cType="1" res="-6.4001013524830341e-03" rms="1.3729992508888245e-01" purity="1.9320085644721985e-02" nType="-99"/>
              <Node pos="r" depth="4" NCoef="0" IVar="-1" Cut="0.0000000000000000e+00" cType="1" res="-6.1419685371220112e-03" rms="5.0837088376283646e-02" purity="2.5958728510886431e-03" nType="-99"/>
            </Node>
          </Node>
        </Node>
      </Node>
    </BinaryTree>
    <BinaryTree type="DecisionTree" boostWeight="1.0000000000000000e+00" itree="13">
      <Node pos="s" depth="0" NCoef="0" IVar="0" Cut="-7.9692021012306213e-02" cType="1" res="-6.2479600310325623e-02" rms="4.1994929313659668e-01" purity="5.0271803140640259e-01" nType="0">
        <Node pos="l" depth="1" NCoef="0" IVar="1" Cut="1.2021942901611328e+02" cType="1" res="-2.5175201892852783e-01" rms="3.9053574204444885e-01" purity="2.3797152936458588e-01" nType="0">
          <Node pos="l" depth="2" NCoef="0" IVar="1" Cut="1.1453509521484375e+02" cType="1" res="-4.0432792901992798e-01" rms="2.2360046207904816e-01" purity="5.5072069168090820e-02" nType="0">
            <Node pos="l" depth="3" NCoef="0" IVar="0" Cut="-4.4167509675025940e-01" cType="1" res="-4.3294161558151245e-01" rms="1.3824355602264404e-01" purity="1.9590277224779129e-02" nType="0">
              <Node pos="l" depth="4" NCoef="0" IVar="-1" Cut="0.0000000000000000e+00" cType="1" res="-7.5685372576117516e-03" rms="8.0701328814029694e-02" purity="6.5582147799432278e-03" nType="-99"/>
              <Node pos="r" depth="4" NCoef="0" IVar="-1" Cut="0.0000000000000000e+00" cType="1" res="-6.9427858106791973e-03" rms="1.8522661924362183e-01" purity="3.5646151751279831e-02" nType="-99"/>
            </Node>
            <Node pos="r" depth="3" NCoef="0" IVar="-1" Cut="0.0000000000000000e+00" cType="1" res="-5.6241392157971859e-03" rms="3.4094905853271484e-01" purity="1.3860698044300079e-01" nType="-99"/>
          </Node>
          <Node pos="r" depth="2" NCoef="0" IVar="1" Cut="1.2969445800781250e+02" cType="1" res="-1.5724048018455505e-01" rms="4.3894314765930176e-01" purity="3.5126662254333496e-01" nType="0">
            <Node pos="l" depth="3" NCoef="0" IVar="0" Cut="-4.4297817349433899e-01" cType="1" res="7.3821246623992920e-02" rms="4.6508187055587769e-01" purity="6.2215232849121094e-01" nType="0">
              <Node pos="l" depth="4" NCoef="0" IVar="-1" Cut="0.0000000000000000e+00" cType="1" res="-2.3107891902327538e-03" rms="4.8669445514678955e-01" purity="3.9251846075057983e-01" nType="-99"/>
              <Node pos="r" depth="4" NCoef="0" IVar="-1" Cut="0.0000000000000000e+00" cType="1" res="8.5034873336553574e-03" rms="4.2318797111511230e-01" purity="7.5707691907882690e-01" nType="-99"/>
            </Node>
            <Node pos="r" depth="3" NCoef="0" IVar="1" Cut="1.4123921203613281e+02" cType="1" res="-4.4153615832328796e-01" rms="1.3070225715637207e-01" purity="1.7972107976675034e-02" nType="0">
              <Node pos="l" depth="4" NCoef="0" IVar="-1" Cut="0.0000000000000000e+00" cType="1" res="-6.9700134918093681e-03" rms="1.8910823762416840e-01" purity="3.8326602429151535e-02" nType="-99"/>
              <Node pos="r" depth="4" NCoef="0" IVar="-1" Cut="0.0000000000000000e+00" cType="1" res="-6.3775232993066311e-03" rms="2.2793283686041832e-02" purity="5.1918148528784513e-04" nType="-99"/>
            </Node>
          </Node>
        </Node>
        <Node pos="r" depth="1" NCoef="0" IVar="1" Cut="1.1446767425537109e+02" cType="1" res="1.0309160500764847e-01" rms="3.7210151553153992e-01" purity="7.3431229591369629e-01" nType="0">
          <Node pos="l" depth="2" NCoef="0" IVar="-1" Cut="0.0000000000000000e+00" cType="1" res="-5.5713737383484840e-03" rms="3.0946564674377441e-01" purity="1.0752673447132111e-01" nType="-99"/>
          <Node pos="r" depth="2" NCoef="0" IVar="1" Cut="1.2964317321777344e+02" cType="1" res="1.6800326108932495e-01" rms="3.3201634883880615e-01" purity="8.2232749462127686e-01" nType="0">
            <Node pos="l" depth="3" NCoef="0" IVar="1" Cut="1.2097400665283203e+02" cType="1" res="2.2164972126483917e-01" rms="2.8064703941345215e-01" purity="8.9834332466125488e-01" nType="0">
              <Node pos="l" depth="4" NCoef="0" IVar="-1" Cut="0.0000000000000000e+00" cType="1" res="2.0483010448515415e-03" rms="4.8238012194633484e-01" purity="5.9436291456222534e-01" nType="-99"/>
              <Node pos="r" depth="4" NCoef="0" IVar="1" Cut="1.2386469268798828e+02" cType="1" res="2.4229659140110016e-01" rms="2.3227661848068237e-01" purity="9.4041478633880615e-01" nType="0">
                <Node pos="l" depth="5" NCoef="0" IVar="-1" Cut="0.0000000000000000e+00" cType="1" res="2.4139663204550743e-02" rms="2.7374744415283203e-01" purity="9.1625976562500000e-01" nType="-99"/>
                <Node pos="r" depth="5" NCoef="0" IVar="-1" Cut="0.0000000000000000e+00" cType="1" res="3.0930198729038239e-02" rms="2.1101097762584686e-01" purity="9.5108306407928467e-01" nType="-99"/>
              </Node>
            </Node>
            <Node pos="r" depth="3" NCoef="0" IVar="-1" Cut="0.0000000000000000e+00" cType="1" res="-3.8903504610061646e-03" rms="3.9102274179458618e-01" purity="2.0606458187103271e-01" nType="-99"/>
          </Node>
        </Node>
      </Node>
    </BinaryTree>
    <BinaryTree type="DecisionTree" boostWeight="1.0000000000000000e+00" itree="14">
      <Node pos="s" depth="0" NCoef="0" IVar="0" Cut="-1.6509020328521729e-01" cType="1" res="-6.2225423753261566e-02" rms="4.1576766967773438e-01" purity="5.0830447673797607e-01" nType="0">
        <Node pos="l" depth="1" NCoef="0" IVar="1" Cut="1.2864294433593750e+02" cType="1" res="-2.6858600974082947e-01" rms="3.7754154205322266e-01" purity="2.1084988117218018e-01" nType="0">
          <Node pos="l" depth="2" NCoef="0" IVar="1" Cut="1.2049869537353516e+02" cType="1" res="-1.9139978289604187e-01" rms="4.2426711320877075e-01" purity="2.9791182279586792e-01" nType="0">
            <Node pos="l" depth="3" NCoef="0" IVar="1" Cut="1.1370984649658203e+02" cType="1" res="-4.0814864635467529e-01" rms="2.0814761519432068e-01" purity="4.7368224710226059e-02" nType="0">
              <Node pos="l" depth="4" NCoef="0" IVar="-1" Cut="0.0000000000000000e+00" cType="1" res="-7.3348623700439930e-03" rms="1.2498102337121964e-01" purity="1.5946673229336739e-02" nType="-99"/>
              <Node pos="r" depth="4" NCoef="0" IVar="-1" Cut="0.0000000000000000e+00" cType="1" res="-5.7806312106549740e-03" rms="3.0697020888328552e-01" purity="1.0891620814800262e-01" nType="-99"/>
            </Node>
            <Node pos="r" depth="3" NCoef="0" IVar="0" Cut="-4.2323383688926697e-01" cType="1" res="1.0078500211238861e-01" rms="4.6426862478256226e-01" purity="6.3565295934677124e-01" nType="0">
              <Node pos="l" depth="4" NCoef="0" IVar="-1" Cut="0.0000000000000000e+00" cType="1" res="-4.2669399408623576e-04" rms="4.9673482775688171e-01" purity="4.6945187449455261e-01" nType="-99"/>
              <Node pos="r" depth="4" NCoef="0" IVar="-1" Cut="0.0000000000000000e+00" cType="1" res="1.1711707338690758e-02" rms="4.0483024716377258e-01" purity="7.8603249788284302e-01" nType="-99"/>
            </Node>
          </Node>
          <Node pos="r" depth="2" NCoef="0" IVar="1" Cut="1.4058717346191406e+02" cType="1" res="-4.3310815095901489e-01" rms="1.5137645602226257e-01" purity="2.5277784094214439e-02" nType="0">
            <Node pos="l" depth="3" NCoef="0" IVar="-1" Cut="0.0000000000000000e+00" cType="1" res="-7.1004852652549744e-03" rms="2.1156097948551178e-01" purity="5.0394125282764435e-02" nType="-99"/>
            <Node pos="r" depth="3" NCoef="0" IVar="-1" Cut="0.0000000000000000e+00" cType="1" res="-6.3110543414950371e-03" rms="1.3082402758300304e-02" purity="1.7090186884161085e-04" nType="-99"/>
          </Node>
        </Node>
        <Node pos="r" depth="1" NCoef="0" IVar="1" Cut="1.1716773986816406e+02" cType="1" res="7.6446153223514557e-02" rms="3.8130652904510498e-01" purity="7.0818996429443359e-01" nType="0">
          <Node pos="l" depth="2" NCoef="0" IVar="-1" Cut="0.0000000000000000e+00" cType="1" res="-4.4747102074325085e-03" rms="3.5735547542572021e-01" purity="1.5110503137111664e-01" nType="-99"/>
          <Node pos="r" depth="2" NCoef="0" IVar="1" Cut="1.3144068908691406e+02" cType="1" res="1.4357033371925354e-01" rms="3.4326964616775513e-01" purity="8.0432993173599243e-01" nType="0">
            <Node pos="l" depth="3" NCoef="0" IVar="0" Cut="9.9910996854305267e-02" cType="1" res="2.0861391723155975e-01" rms="2.9183951020240784e-01" purity="8.9429247379302979e-01" nType="0">
              <Node pos="l" depth="4" NCoef="0" IVar="0" Cut="-2.6198493316769600e-02" cType="1" res="1.4621055126190186e-01" rms="4.0053075551986694e-01" purity="7.7724260091781616e-01" nType="0">
                <Node pos="l" depth="5" NCoef="0" IVar="-1" Cut="0.0000000000000000e+00" cType="1" res="7.1701984852552414e-03" rms="4.1048884391784668e-01" purity="7.6077908277511597e-01" nType="-99"/>
                <Node pos="r" depth="5" NCoef="0" IVar="-1" Cut="0.0000000000000000e+00" cType="1" res="1.0155849158763885e-02" rms="3.8983267545700073e-01" purity="7.9414784908294678e-01" nType="-99"/>
              </Node>
              <Node pos="r" depth="4" NCoef="0" IVar="0" Cut="6.6485953330993652e-01" cType="1" res="2.2840797901153564e-01" rms="2.4428032338619232e-01" purity="9.3142014741897583e-01" nType="0">
                <Node pos="l" depth="5" NCoef="0" IVar="-1" Cut="0.0000000000000000e+00" cType="1" res="2.1576918661594391e-02" rms="2.6576614379882812e-01" purity="9.1659176349639893e-01" nType="-99"/>
                <Node pos="r" depth="5" NCoef="0" IVar="-1" Cut="0.0000000000000000e+00" cType="1" res="3.4918900579214096e-02" rms="1.6083391010761261e-01" purity="9.7619551420211792e-01" nType="-99"/>
              </Node>
            </Node>
            <Node pos="r" depth="3" NCoef="0" IVar="-1" Cut="0.0000000000000000e+00" cType="1" res="-5.4214601404964924e-03" rms="2.6785027980804443e-01" purity="7.8278809785842896e-02" nType="-99"/>
          </Node>
        </Node>
      </Node>
    </BinaryTree>
    <BinaryTree type="DecisionTree" boostWeight="1.0000000000000000e+00" itree="15">
      <Node pos="s" depth="0" NCoef="0" IVar="1" Cut="1.1739279937744141e+02" cType="1" res="-7.3474645614624023e-02" rms="4.1186484694480896e-01" purity="4.9770721793174744e-01" nType="0">
        <Node pos="l" depth="1" NCoef="0" IVar="0" Cut="8.6325749754905701e-02" cType="1" res="-3.7724617123603821e-01" rms="2.6060953736305237e-01" purity="7.5307525694370270e-02" nType="0">
          <Node pos="l" depth="2" NCoef="0" IVar="1" Cut="1.1255876922607422e+02" cType="1" res="-4.1004776954650879e-01" rms="1.9050921499729156e-01" purity="3.8242973387241364e-02" nType="0">
            <Node pos="l" depth="3" NCoef="0" IVar="0" Cut="-4.3968862295150757e-01" cType="1" res="-4.2763915657997131e-01" rms="1.3488817214965820e-01" purity="1.8672408536076546e-02" nType="0">
              <Node pos="l" depth="4" NCoef="0" IVar="-1" Cut="0.0000000000000000e+00" cType="1" res="-7.5967260636389256e-03" rms="7.9963102936744690e-02" purity="6.4357281662523746e-03" nType="-99"/>
              <Node pos="r" depth="4" NCoef="0" IVar="-1" Cut="0.0000000000000000e+00" cType="1" res="-6.7163766361773014e-03" rms="1.6944050788879395e-01" purity="2.9694218188524246e-02" nType="-99"/>
            </Node>
            <Node pos="r" depth="3" NCoef="0" IVar="-1" Cut="0.0000000000000000e+00" cType="1" res="-5.4629212245345116e-03" rms="2.6539295911788940e-01" purity="7.7145934104919434e-02" nType="-99"/>
          </Node>
          <Node pos="r" depth="2" NCoef="0" IVar="-1" Cut="0.0000000000000000e+00" cType="1" res="-4.3825986795127392e-03" rms="3.9251428842544556e-01" purity="1.9299939274787903e-01" nType="-99"/>
        </Node>
        <Node pos="r" depth="1" NCoef="0" IVar="1" Cut="1.3159355163574219e+02" cType="1" res="1.6618033871054649e-02" rms="4.0535801649093628e-01" purity="6.2298268079757690e-01" nType="0">
          <Node pos="l" depth="2" NCoef="0" IVar="0" Cut="-4.1646212339401245e-01" cType="1" res="1.3622619211673737e-01" rms="3.6671668291091919e-01" purity="7.8382837772369385e-01" nType="0">
            <Node pos="l" depth="3" NCoef="0" IVar="-1" Cut="0.0000000000000000e+00" cType="1" res="-3.1450125388801098e-03" rms="4.6768966317176819e-01" purity="3.3719778060913086e-01" nType="-99"/>
            <Node pos="r" depth="3" NCoef="0" IVar="0" Cut="-2.6908908039331436e-02" cType="1" res="1.8026450276374817e-01" rms="3.2704579830169678e-01" purity="8.5413926839828491e-01" nType="0">
              <Node pos="l" depth="4" NCoef="0" IVar="1" Cut="1.2415461730957031e+02" cType="1" res="9.5944195985794067e-02" rms="4.4265627861022949e-01" purity="6.8510234355926514e-01" nType="0">
                <Node pos="l" depth="5" NCoef="0" IVar="-1" Cut="0.0000000000000000e+00" cType="1" res="1.7315943259745836e-03" rms="4.6167445182800293e-01" purity="6.2120425701141357e-01" nType="-99"/>
                <Node pos="r" depth="5" NCoef="0" IVar="-1" Cut="0.0000000000000000e+00" cType="1" res="6.5930006094276905e-03" rms="4.2199236154556274e-01" purity="7.3717838525772095e-01" nType="-99"/>
              </Node>
              <Node pos="r" depth="4" NCoef="0" IVar="1" Cut="1.2618507385253906e+02" cType="1" res="2.0991125702857971e-01" rms="2.6887381076812744e-01" purity="9.1357207298278809e-01" nType="0">
                <Node pos="l" depth="5" NCoef="0" IVar="-1" Cut="0.0000000000000000e+00" cType="1" res="2.2819228470325470e-02" rms="2.4232147634029388e-01" purity="9.3068933486938477e-01" nType="-99"/>
                <Node pos="r" depth="5" NCoef="0" IVar="-1" Cut="0.0000000000000000e+00" cType="1" res="1.2397830374538898e-02" rms="3.3658340573310852e-01" purity="8.5997998714447021e-01" nType="-99"/>
              </Node>
            </Node>
          </Node>
          <Node pos="r" depth="2" NCoef="0" IVar="1" Cut="1.3970545959472656e+02" cType="1" res="-4.2771282792091370e-01" rms="1.5674696862697601e-01" purity="2.5458861142396927e-02" nType="0">
            <Node pos="l" depth="3" NCoef="0" IVar="-1" Cut="0.0000000000000000e+00" cType="1" res="-6.2286411412060261e-03" rms="2.5688630342483521e-01" purity="7.1889728307723999e-02" nType="-99"/>
            <Node pos="r" depth="3" NCoef="0" IVar="-1" Cut="0.0000000000000000e+00" cType="1" res="-6.4502917230129242e-03" rms="4.6066969633102417e-02" purity="2.1287235431373119e-03" nType="-99"/>
          </Node>
        </Node>
      </Node>
    </BinaryTree>
    <BinaryTree type="DecisionTree" boostWeight="1.0000000000000000e+00" itree="16">
      <Node pos="s" depth="0" NCoef="0" IVar="1" Cut="1.1722904968261719e+02" cType="1" res="-7.4867367744445801e-02" rms="4.0951871871948242e-01" purity="5.0043338537216187e-01" nType="0">
        <Node pos="l" depth="1" NCoef="0" IVar="0" Cut="8.3459995687007904e-02" cType="1" res="-3.7391096353530884e-01" rms="2.6208150386810303e-01" purity="7.5750850141048431e-02" nType="0">
          <Node pos="l" depth="2" NCoef="0" IVar="1" Cut="1.1153133392333984e+02" cType="1" res="-4.0656551718711853e-01" rms="1.9137871265411377e-01" purity="3.8495656102895737e-02" nType="0">
            <Node pos="l" depth="3" NCoef="0" IVar="-1" Cut="0.0000000000000000e+00" cType="1" res="-6.9041461683809757e-03" rms="1.3109141588211060e-01" purity="1.7586348578333855e-02" nType="-99"/>
            <Node pos="r" depth="3" NCoef="0" IVar="-1" Cut="0.0000000000000000e+00" cType="1" res="-5.9617189690470695e-03" rms="2.6033499836921692e-01" purity="7.3825210332870483e-02" nType="-99"/>
          </Node>
          <Node pos="r" depth="2" NCoef="0" IVar="-1" Cut="0.0000000000000000e+00" cType="1" res="-4.3204720132052898e-03" rms="3.8376626372337341e-01" purity="1.8031109869480133e-01" nType="-99"/>
        </Node>
        <Node pos="r" depth="1" NCoef="0" IVar="1" Cut="1.3148406982421875e+02" cType="1" res="8.9461905881762505e-03" rms="4.0418955683708191e-01" purity="6.1945992708206177e-01" nType="0">
          <Node pos="l" depth="2" NCoef="0" IVar="0" Cut="-4.2226696014404297e-01" cType="1" res="1.2170234322547913e-01" rms="3.7101092934608459e-01" purity="7.7419853210449219e-01" nType="0">
            <Node pos="l" depth="3" NCoef="0" IVar="-1" Cut="0.0000000000000000e+00" cType="1" res="-3.6296406760811806e-03" rms="4.5725974440574646e-01" purity="3.0665299296379089e-01" nType="-99"/>
            <Node pos="r" depth="3" NCoef="0" IVar="1" Cut="1.2130140686035156e+02" cType="1" res="1.7048588395118713e-01" rms="3.3026623725891113e-01" purity="8.5185724496841431e-01" nType="0">
              <Node pos="l" depth="4" NCoef="0" IVar="-1" Cut="0.0000000000000000e+00" cType="1" res="7.9212046694010496e-04" rms="4.8068749904632568e-01" purity="5.7924151420593262e-01" nType="-99"/>
              <Node pos="r" depth="4" NCoef="0" IVar="1" Cut="1.2760366058349609e+02" cType="1" res="1.8971228599548340e-01" rms="2.9930770397186279e-01" purity="8.8843208551406860e-01" nType="0">
                <Node pos="l" depth="5" NCoef="0" IVar="-1" Cut="0.0000000000000000e+00" cType="1" res="2.3010119795799255e-02" rms="2.7375710010528564e-01" purity="9.1256326436996460e-01" nType="-99"/>
                <Node pos="r" depth="5" NCoef="0" IVar="-1" Cut="0.0000000000000000e+00" cType="1" res="2.7678809128701687e-03" rms="4.4280061125755310e-01" purity="6.9287604093551636e-01" nType="-99"/>
              </Node>
            </Node>
          </Node>
          <Node pos="r" depth="2" NCoef="0" IVar="1" Cut="1.3962997436523438e+02" cType="1" res="-4.2130279541015625e-01" rms="1.6698244214057922e-01" purity="2.9016617685556412e-02" nType="0">
            <Node pos="l" depth="3" NCoef="0" IVar="-1" Cut="0.0000000000000000e+00" cType="1" res="-5.9648179449141026e-03" rms="2.5814172625541687e-01" purity="7.2587512433528900e-02" nType="-99"/>
            <Node pos="r" depth="3" NCoef="0" IVar="-1" Cut="0.0000000000000000e+00" cType="1" res="-6.3051604665815830e-03" rms="4.9840554594993591e-02" purity="2.5003273040056229e-03" nType="-99"/>
          </Node>
        </Node>
      </Node>
    </BinaryTree>
    <BinaryTree type="DecisionTree" boostWeight="1.0000000000000000e+00" itree="17">
      <Node pos="s" depth="0" NCoef="0" IVar="1" Cut="1.1717110443115234e+02" cType="1" res="-7.6438434422016144e-02" rms="4.0496733784675598e-01" purity="5.0132089853286743e-01" nType="0">
        <Node pos="l" depth="1" NCoef="0" IVar="0" Cut="8.8633187115192413e-02" cType="1" res="-3.7193527817726135e-01" rms="2.6032501459121704e-01" purity="7.4639149010181427e-02" nType="0">
          <Node pos="l" depth="2" NCoef="0" IVar="0" Cut="-3.4842309355735779e-01" cType="1" res="-4.0418255329132080e-01" rms="1.8926623463630676e-01" purity="3.7582859396934509e-02" nType="0">
            <Node pos="l" depth="3" NCoef="0" IVar="-1" Cut="0.0000000000000000e+00" cType="1" res="-7.3687247931957245e-03" rms="1.2517541646957397e-01" purity="1.5998879447579384e-02" nType="-99"/>
            <Node pos="r" depth="3" NCoef="0" IVar="-1" Cut="0.0000000000000000e+00" cType="1" res="-5.9921354986727238e-03" rms="2.4930121004581451e-01" purity="6.6874630749225616e-02" nType="-99"/>
          </Node>
          <Node pos="r" depth="2" NCoef="0" IVar="-1" Cut="0.0000000000000000e+00" cType="1" res="-4.5979884453117847e-03" rms="3.8406103849411011e-01" purity="1.8038877844810486e-01" nType="-99"/>
        </Node>
        <Node pos="r" depth="1" NCoef="0" IVar="1" Cut="1.3144627380371094e+02" cType="1" res="7.5971689075231552e-03" rms="3.9933788776397705e-01" purity="6.2266391515731812e-01" nType="0">
          <Node pos="l" depth="2" NCoef="0" IVar="0" Cut="-4.2180305719375610e-01" cType="1" res="1.1971942335367203e-01" rms="3.6588922142982483e-01" purity="7.7895677089691162e-01" nType="0">
            <Node pos="l" depth="3" NCoef="0" IVar="-1" Cut="0.0000000000000000e+00" cType="1" res="-3.6849668249487877e-03" rms="4.5685073733329773e-01" purity="3.0711582303047180e-01" nType="-99"/>
            <Node pos="r" depth="3" NCoef="0" IVar="1" Cut="1.2125067138671875e+02" cType="1" res="1.6642874479293823e-01" rms="3.2572853565216064e-01" purity="8.5524213314056396e-01" nType="0">
              <Node pos="l" depth="4" NCoef="0" IVar="-1" Cut="0.0000000000000000e+00" cType="1" res="9.1162149328738451e-04" rms="4.8259380459785461e-01" purity="5.8472114801406860e-01" nType="-99"/>
              <Node pos="r" depth="4" NCoef="0" IVar="1" Cut="1.2756211853027344e+02" cType="1" res="1.8378779292106628e-01" rms="2.9508581757545471e-01" purity="8.9021211862564087e-01" nType="0">
                <Node pos="l" depth="5" NCoef="0" IVar="-1" Cut="0.0000000000000000e+00" cType="1" res="2.2657519206404686e-02" rms="2.6744988560676575e-01" purity="9.1666555404663086e-01" nType="-99"/>
                <Node pos="r" depth="5" NCoef="0" IVar="-1" Cut="0.0000000000000000e+00" cType="1" res="2.9814823064953089e-03" rms="4.4271284341812134e-01" purity="6.8382883071899414e-01" nType="-99"/>
              </Node>
            </Node>
          </Node>
          <Node pos="r" depth="2" NCoef="0" IVar="1" Cut="1.3960342407226562e+02" cType="1" res="-4.1869008541107178e-01" rms="1.6513197124004364e-01" purity="2.8440661728382111e-02" nType="0">
            <Node pos="l" depth="3" NCoef="0" IVar="-1" Cut="0.0000000000000000e+00" cType="1" res="-6.1056963168084621e-03" rms="2.5229990482330322e-01" purity="6.9304242730140686e-02" nType="-99"/>
            <Node pos="r" depth="3" NCoef="0" IVar="-1" Cut="0.0000000000000000e+00" cType="1" res="-6.2729292549192905e-03" rms="5.6368160992860794e-02" purity="3.1968175899237394e-03" nType="-99"/>
          </Node>
        </Node>
      </Node>
    </BinaryTree>
    <BinaryTree type="DecisionTree" boostWeight="1.0000000000000000e+00" itree="18">
      <Node pos="s" depth="0" NCoef="0" IVar="1" Cut="1.1722975921630859e+02" cType="1" res="-8.1570796668529510e-02" rms="4.0277493000030518e-01" purity="4.9728280305862427e-01" nType="0">
        <Node pos="l" depth="1" NCoef="0" IVar="0" Cut="8.2135736942291260e-02" cType="1" res="-3.7167546153068542e-01" rms="2.5535491108894348e-01" purity="7.1698948740959167e-02" nType="0">
          <Node pos="l" depth="2" NCoef="0" IVar="1" Cut="1.1234487915039062e+02" cType="1" res="-4.0239730477333069e-01" rms="1.8576550483703613e-01" purity="3.6196265369653702e-02" nType="0">
            <Node pos="l" depth="3" NCoef="0" IVar="1" Cut="1.0827590179443359e+02" cType="1" res="-4.1723722219467163e-01" rms="1.3833616673946381e-01" purity="1.9618382677435875e-02" nType="0">
              <Node pos="l" depth="4" NCoef="0" IVar="-1" Cut="0.0000000000000000e+00" cType="1" res="-7.0954877883195877e-03" rms="1.2134944647550583e-01" purity="1.4966507442295551e-02" nType="-99"/>
              <Node pos="r" depth="4" NCoef="0" IVar="-1" Cut="0.0000000000000000e+00" cType="1" res="-6.6320872865617275e-03" rms="1.5239623188972473e-01" purity="2.3976538330316544e-02" nType="-99"/>
            </Node>
            <Node pos="r" depth="3" NCoef="0" IVar="-1" Cut="0.0000000000000000e+00" cType="1" res="-4.9231490120291710e-03" rms="2.5695225596427917e-01" purity="7.1789063513278961e-02" nType="-99"/>
          </Node>
          <Node pos="r" depth="2" NCoef="0" IVar="-1" Cut="0.0000000000000000e+00" cType="1" res="-4.2198710143566132e-03" rms="3.8492476940155029e-01" purity="1.8145348131656647e-01" nType="-99"/>
        </Node>
        <Node pos="r" depth="1" NCoef="0" IVar="1" Cut="1.3148527526855469e+02" cType="1" res="4.1640866547822952e-03" rms="3.9834398031234741e-01" purity="6.2305593490600586e-01" nType="0">
          <Node pos="l" depth="2" NCoef="0" IVar="0" Cut="-4.8799282312393188e-01" cType="1" res="1.1737097054719925e-01" rms="3.6548098921775818e-01" purity="7.8363066911697388e-01" nType="0">
            <Node pos="l" depth="3" NCoef="0" IVar="-1" Cut="0.0000000000000000e+00" cType="1" res="-3.5691743250936270e-03" rms="4.5291554927825928e-01" purity="2.9297327995300293e-01" nType="-99"/>
            <Node pos="r" depth="3" NCoef="0" IVar="1" Cut="1.2062400054931641e+02" cType="1" res="1.5098357200622559e-01" rms="3.3820447325706482e-01" purity="8.3968508243560791e-01" nType="0">
              <Node pos="l" depth="4" NCoef="0" IVar="-1" Cut="0.0000000000000000e+00" cType="1" res="-1.0650603799149394e-03" rms="4.8802760243415833e-01" purity="4.9843192100524902e-01" nType="-99"/>
              <Node pos="r" depth="4" NCoef="0" IVar="1" Cut="1.2734783935546875e+02" cType="1" res="1.7097806930541992e-01" rms="3.1188732385635376e-01" purity="8.7513893842697144e-01" nType="0">
                <Node pos="l" depth="5" NCoef="0" IVar="-1" Cut="0.0000000000000000e+00" cType="1" res="1.9172165542840958e-02" rms="2.8452253341674805e-01" purity="9.0388739109039307e-01" nType="-99"/>
                <Node pos="r" depth="5" NCoef="0" IVar="-1" Cut="0.0000000000000000e+00" cType="1" res="2.7228018734604120e-03" rms="4.4154271483421326e-01" purity="6.8241715431213379e-01" nType="-99"/>
              </Node>
            </Node>
          </Node>
          <Node pos="r" depth="2" NCoef="0" IVar="1" Cut="1.3827485656738281e+02" cType="1" res="-4.1319674253463745e-01" rms="1.7257438600063324e-01" purity="3.1063847243785858e-02" nType="0">
            <Node pos="l" depth="3" NCoef="0" IVar="-1" Cut="0.0000000000000000e+00" cType="1" res="-6.0456269420683384e-03" rms="2.7507543563842773e-01" purity="8.3391219377517700e-02" nType="-99"/>
            <Node pos="r" depth="3" NCoef="0" IVar="1" Cut="1.4758538818359375e+02" cType="1" res="-4.3807950615882874e-01" rms="7.4971295893192291e-02" purity="5.6712087243795395e-03" nType="0">
              <Node pos="l" depth="4" NCoef="0" IVar="-1" Cut="0.0000000000000000e+00" cType="1" res="-6.2383571639657021e-03" rms="1.0557208955287933e-01" purity="1.1326876468956470e-02" nType="-99"/>
              <Node pos="r" depth="4" NCoef="0" IVar="-1" Cut="0.0000000000000000e+00" cType="1" res="-6.3515868969261646e-03" rms="2.7599655091762543e-02" purity="7.6215720036998391e-04" nType="-99"/>
            </Node>
          </Node>
        </Node>
      </Node>
    </BinaryTree>
    <BinaryTree type="DecisionTree" boostWeight="1.0000000000000000e+00" itree="19">
      <Node pos="s" depth="0" NCoef="0" IVar="1" Cut="1.1724181365966797e+02" cType="1" res="-7.7953979372978210e-02" rms="3.9983794093132019e-01" purity="5.0522667169570923e-01" nType="0">
        <Node pos="l" depth="1" NCoef="0" IVar="0" Cut="8.3459995687007904e-02" cType="1" res="-3.6499699950218201e-01" rms="2.6118329167366028e-01" purity="7.5411401689052582e-02" nType="0">
          <Node pos="l" depth="2" NCoef="0" IVar="1" Cut="1.1153964233398438e+02" cType="1" res="-3.9624974131584167e-01" rms="1.9238294661045074e-01" purity="3.8947712630033493e-02" nType="0">
            <Node pos="l" depth="3" NCoef="0" IVar="-1" Cut="0.0000000000000000e+00" cType="1" res="-6.5529565326869488e-03" rms="1.3591556251049042e-01" purity="1.8967263400554657e-02" nType="-99"/>
            <Node pos="r" depth="3" NCoef="0" IVar="-1" Cut="0.0000000000000000e+00" cType="1" res="-5.8982302434742451e-03" rms="2.5769841670989990e-01" purity="7.2104208171367645e-02" nType="-99"/>
          </Node>
          <Node pos="r" depth="2" NCoef="0" IVar="-1" Cut="0.0000000000000000e+00" cType="1" res="-4.3152435682713985e-03" rms="3.9016696810722351e-01" purity="1.8798258900642395e-01" nType="-99"/>
        </Node>
        <Node pos="r" depth="1" NCoef="0" IVar="1" Cut="1.3149389648437500e+02" cType="1" res="2.0313090644776821e-03" rms="3.9503550529479980e-01" purity="6.2499582767486572e-01" nType="0">
          <Node pos="l" depth="2" NCoef="0" IVar="0" Cut="-2.3718690872192383e-01" cType="1" res="1.0707498341798782e-01" rms="3.6605426669120789e-01" purity="7.7645301818847656e-01" nType="0">
            <Node pos="l" depth="3" NCoef="0" IVar="0" Cut="-5.1838427782058716e-01" cType="1" res="-7.9998083412647247e-02" rms="4.7473871707916260e-01" purity="4.3951132893562317e-01" nType="0">
              <Node pos="l" depth="4" NCoef="0" IVar="-1" Cut="0.0000000000000000e+00" cType="1" res="-4.1853408329188824e-03" rms="4.3626311421394348e-01" purity="2.5873339176177979e-01" nType="-99"/>
              <Node pos="r" depth="4" NCoef="0" IVar="-1" Cut="0.0000000000000000e+00" cType="1" res="1.7197348643094301e-04" rms="4.8005157709121704e-01" purity="5.5953741073608398e-01" nType="-99"/>
            </Node>
            <Node pos="r" depth="3" NCoef="0" IVar="1" Cut="1.2131336212158203e+02" cType="1" res="1.6432596743106842e-01" rms="3.0338436365127563e-01" purity="8.7956911325454712e-01" nType="0">
              <Node pos="l" depth="4" NCoef="0" IVar="-1" Cut="0.0000000000000000e+00" cType="1" res="2.4131664540618658e-03" rms="4.7398710250854492e-01" purity="6.3881844282150269e-01" nType="-99"/>
              <Node pos="r" depth="4" NCoef="0" IVar="1" Cut="1.2712777709960938e+02" cType="1" res="1.7542721331119537e-01" rms="2.7387329936027527e-01" purity="9.0840220451354980e-01" nType="0">
                <Node pos="l" depth="5" NCoef="0" IVar="-1" Cut="0.0000000000000000e+00" cType="1" res="2.4362796917557716e-02" rms="2.3860780894756317e-01" purity="9.3714874982833862e-01" nType="-99"/>
                <Node pos="r" depth="5" NCoef="0" IVar="-1" Cut="0.0000000000000000e+00" cType="1" res="5.1606819033622742e-03" rms="4.0923207998275757e-01" purity="7.5371330976486206e-01" nType="-99"/>
              </Node>
            </Node>
          </Node>
          <Node pos="r" depth="2" NCoef="0" IVar="1" Cut="1.3963983154296875e+02" cType="1" res="-4.1015574336051941e-01" rms="1.7149136960506439e-01" purity="3.0683962628245354e-02" nType="0">
            <Node pos="l" depth="3" NCoef="0" IVar="-1" Cut="0.0000000000000000e+00" cType="1" res="-5.3589874878525734e-03" rms="2.7426987886428833e-01" purity="8.3004146814346313e-02" nType="-99"/>
            <Node pos="r" depth="3" NCoef="0" IVar="-1" Cut="0.0000000000000000e+00" cType="1" res="-6.1531891115009785e-03" rms="5.9191718697547913e-02" purity="3.5306713543832302e-03" nType="-99"/>
          </Node>
        </Node>
      </Node>
    </BinaryTree>
    <BinaryTree type="DecisionTree" boostWeight="1.0000000000000000e+00" itree="20">
      <Node pos="s" depth="0" NCoef="0" IVar="1" Cut="1.2014389801025391e+02" cType="1" res="-8.5300654172897339e-02" rms="3.9585363864898682e-01" purity="4.9899098277091980e-01" nType="0">
        <Node pos="l" depth="1" NCoef="0" IVar="0" Cut="1.7294304072856903e-01" cType="1" res="-3.2455363869667053e-01" rms="3.1845909357070923e-01" purity="1.2927873432636261e-01" nType="0">
          <Node pos="l" depth="2" NCoef="0" IVar="1" Cut="1.1350347137451172e+02" cType="1" res="-3.7062123417854309e-01" rms="2.5234580039978027e-01" purity="7.4178114533424377e-02" nType="0">
            <Node pos="l" depth="3" NCoef="0" IVar="0" Cut="-3.1003144383430481e-01" cType="1" res="-4.0812304615974426e-01" rms="1.5057933330535889e-01" purity="2.3469705134630203e-02" nType="0">
              <Node pos="l" depth="4" NCoef="0" IVar="-1" Cut="0.0000000000000000e+00" cType="1" res="-7.7626532875001431e-03" rms="9.7097188234329224e-02" purity="9.5443306490778923e-03" nType="-99"/>
              <Node pos="r" depth="4" NCoef="0" IVar="-1" Cut="0.0000000000000000e+00" cType="1" res="-6.2433793209493160e-03" rms="2.0283663272857666e-01" purity="4.3164428323507309e-02" nType="-99"/>
            </Node>
            <Node pos="r" depth="3" NCoef="0" IVar="-1" Cut="0.0000000000000000e+00" cType="1" res="-5.0193010829389095e-03" rms="3.5721173882484436e-01" purity="1.6135883331298828e-01" nType="-99"/>
          </Node>
          <Node pos="r" depth="2" NCoef="0" IVar="-1" Cut="0.0000000000000000e+00" cType="1" res="-2.9190345667302608e-03" rms="4.4721245765686035e-01" purity="3.2193335890769958e-01" nType="-99"/>
        </Node>
        <Node pos="r" depth="1" NCoef="0" IVar="1" Cut="1.2962977600097656e+02" cType="1" res="6.9412952288985252e-03" rms="3.8397473096847534e-01" purity="6.4153039455413818e-01" nType="0">
          <Node pos="l" depth="2" NCoef="0" IVar="0" Cut="-3.3657702803611755e-01" cType="1" res="1.3393583893775940e-01" rms="3.3515784144401550e-01" purity="8.3141332864761353e-01" nType="0">
            <Node pos="l" depth="3" NCoef="0" IVar="-1" Cut="0.0000000000000000e+00" cType="1" res="-1.3456871965900064e-03" rms="4.8824012279510498e-01" purity="4.5513713359832764e-01" nType="-99"/>
            <Node pos="r" depth="3" NCoef="0" IVar="0" Cut="2.1367369592189789e-01" cType="1" res="1.6867214441299438e-01" rms="2.8460514545440674e-01" purity="9.0219008922576904e-01" nType="0">
              <Node pos="l" depth="4" NCoef="0" IVar="1" Cut="1.2556010437011719e+02" cType="1" res="1.3997378945350647e-01" rms="3.7235990166664124e-01" purity="8.2225137948989868e-01" nType="0">
                <Node pos="l" depth="5" NCoef="0" IVar="-1" Cut="0.0000000000000000e+00" cType="1" res="1.1600232683122158e-02" rms="3.5382738709449768e-01" purity="8.4429448843002319e-01" nType="-99"/>
                <Node pos="r" depth="5" NCoef="0" IVar="-1" Cut="0.0000000000000000e+00" cType="1" res="6.2502310611307621e-03" rms="4.0340590476989746e-01" purity="7.8022247552871704e-01" nType="-99"/>
              </Node>
              <Node pos="r" depth="4" NCoef="0" IVar="0" Cut="6.3292670249938965e-01" cType="1" res="1.8835033476352692e-01" rms="2.0128796994686127e-01" purity="9.5700317621231079e-01" nType="0">
                <Node pos="l" depth="5" NCoef="0" IVar="-1" Cut="0.0000000000000000e+00" cType="1" res="2.3308958858251572e-02" rms="2.3145842552185059e-01" purity="9.4215089082717896e-01" nType="-99"/>
                <Node pos="r" depth="5" NCoef="0" IVar="-1" Cut="0.0000000000000000e+00" cType="1" res="3.9648510515689850e-02" rms="1.2099637836217880e-01" purity="9.8602759838104248e-01" nType="-99"/>
              </Node>
            </Node>
          </Node>
          <Node pos="r" depth="2" NCoef="0" IVar="1" Cut="1.3541145324707031e+02" cType="1" res="-3.7457054853439331e-01" rms="2.4269087612628937e-01" purity="7.1091867983341217e-02" nType="0">
            <Node pos="l" depth="3" NCoef="0" IVar="-1" Cut="0.0000000000000000e+00" cType="1" res="-4.2946836911141872e-03" rms="3.8871738314628601e-01" purity="2.1264660358428955e-01" nType="-99"/>
            <Node pos="r" depth="3" NCoef="0" IVar="1" Cut="1.4477374267578125e+02" cType="1" res="-4.2754784226417542e-01" rms="9.8660454154014587e-02" purity="9.8847821354866028e-03" nType="0">
              <Node pos="l" depth="4" NCoef="0" IVar="-1" Cut="0.0000000000000000e+00" cType="1" res="-6.2171900644898415e-03" rms="1.3613820075988770e-01" purity="1.9035004079341888e-02" nType="-99"/>
              <Node pos="r" depth="4" NCoef="0" IVar="-1" Cut="0.0000000000000000e+00" cType="1" res="-5.7101384736597538e-03" rms="4.1185140609741211e-02" purity="1.6996443737298250e-03" nType="-99"/>
            </Node>
          </Node>
        </Node>
      </Node>
    </BinaryTree>
    <BinaryTree type="DecisionTree" boostWeight="1.0000000000000000e+00" itree="21">
      <Node pos="s" depth="0" NCoef="0" IVar="1" Cut="1.1722957611083984e+02" cType="1" res="-8.5233658552169800e-02" rms="3.9151248335838318e-01" purity="4.9957439303398132e-01" nType="0">
        <Node pos="l" depth="1" NCoef="0" IVar="0" Cut="7.7454417943954468e-02" cType="1" res="-3.6545041203498840e-01" rms="2.4947075545787811e-01" purity="6.8601146340370178e-02" nType="0">
          <Node pos="l" depth="2" NCoef="0" IVar="0" Cut="-3.1685370206832886e-01" cType="1" res="-3.9537137746810913e-01" rms="1.7795844376087189e-01" purity="3.3167671412229538e-02" nType="0">
            <Node pos="l" depth="3" NCoef="0" IVar="-1" Cut="0.0000000000000000e+00" cType="1" res="-7.5583583675324917e-03" rms="1.1875220388174057e-01" purity="1.4387385919690132e-02" nType="-99"/>
            <Node pos="r" depth="3" NCoef="0" IVar="-1" Cut="0.0000000000000000e+00" cType="1" res="-5.9797647409141064e-03" rms="2.4330753087997437e-01" purity="6.3621759414672852e-02" nType="-99"/>
          </Node>
          <Node pos="r" depth="2" NCoef="0" IVar="-1" Cut="0.0000000000000000e+00" cType="1" res="-3.9793471805751324e-03" rms="3.8459715247154236e-01" purity="1.8183885514736176e-01" nType="-99"/>
        </Node>
        <Node pos="r" depth="1" NCoef="0" IVar="1" Cut="1.3148489379882812e+02" cType="1" res="2.0203782696626149e-05" rms="3.8707157969474792e-01" purity="6.3069474697113037e-01" nType="0">
          <Node pos="l" depth="2" NCoef="0" IVar="0" Cut="-5.0196361541748047e-01" cType="1" res="1.0635416209697723e-01" rms="3.5666584968566895e-01" purity="7.8817379474639893e-01" nType="0">
            <Node pos="l" depth="3" NCoef="0" IVar="-1" Cut="0.0000000000000000e+00" cType="1" res="-3.7451623938977718e-03" rms="4.4326481223106384e-01" purity="2.7289626002311707e-01" nType="-99"/>
            <Node pos="r" depth="3" NCoef="0" IVar="0" Cut="2.5626751780509949e-01" cType="1" res="1.3845041394233704e-01" rms="3.3038765192031860e-01" purity="8.4370952844619751e-01" nType="0">
