<?xml version="1.0"?>
<MethodSetup Method="BDT::BDTG_UF_v1">
  <GeneralInfo>
    <Info name="TMVA Release" value="4.2.1 [262657]"/>
    <Info name="ROOT Release" value="6.10/09 [395785]"/>
    <Info name="Creator" value="abrinke1"/>
    <Info name="Date" value="Thu May 16 13:19:05 2019"/>
    <Info name="Host" value="Linux cmsbuild76.cern.ch 2.6.32-696.30.1.el6.x86_64 #1 SMP Tue May 22 06:09:36 CEST 2018 x86_64 x86_64 x86_64 GNU/Linux"/>
    <Info name="Dir" value="/afs/cern.ch/user/a/abrinke1/HiggsToMuMu/2017/CMSSW_9_4_10/src/H2MuAnalyzer/TrainMVA"/>
    <Info name="Training events" value="108111"/>
    <Info name="TrainingTime" value="4.57193930e+01"/>
    <Info name="AnalysisType" value="Classification"/>
  </GeneralInfo>
  <Options>
    <Option name="V" modified="Yes">False</Option>
    <Option name="VerbosityLevel" modified="No">Default</Option>
    <Option name="VarTransform" modified="No">None</Option>
    <Option name="H" modified="Yes">False</Option>
    <Option name="CreateMVAPdfs" modified="No">False</Option>
    <Option name="IgnoreNegWeightsInTraining" modified="No">False</Option>
    <Option name="NTrees" modified="Yes">500</Option>
    <Option name="MaxDepth" modified="Yes">5</Option>
    <Option name="MinNodeSize" modified="No">5%</Option>
    <Option name="nCuts" modified="Yes">20</Option>
    <Option name="BoostType" modified="Yes">Grad</Option>
    <Option name="AdaBoostR2Loss" modified="No">quadratic</Option>
    <Option name="UseBaggedBoost" modified="Yes">True</Option>
    <Option name="Shrinkage" modified="Yes">1.000000e-01</Option>
    <Option name="AdaBoostBeta" modified="No">5.000000e-01</Option>
    <Option name="UseRandomisedTrees" modified="No">False</Option>
    <Option name="UseNvars" modified="No">2</Option>
    <Option name="UsePoissonNvars" modified="No">True</Option>
    <Option name="BaggedSampleFraction" modified="Yes">5.000000e-01</Option>
    <Option name="UseYesNoLeaf" modified="No">True</Option>
    <Option name="NegWeightTreatment" modified="No">pray</Option>
    <Option name="Css" modified="No">1.000000e+00</Option>
    <Option name="Cts_sb" modified="No">1.000000e+00</Option>
    <Option name="Ctb_ss" modified="No">1.000000e+00</Option>
    <Option name="Cbb" modified="No">1.000000e+00</Option>
    <Option name="NodePurityLimit" modified="No">5.000000e-01</Option>
    <Option name="SeparationType" modified="No">giniindex</Option>
    <Option name="RegressionLossFunctionBDTG" modified="No">huber</Option>
    <Option name="HuberQuantile" modified="No">7.000000e-01</Option>
    <Option name="DoBoostMonitor" modified="No">False</Option>
    <Option name="UseFisherCuts" modified="No">False</Option>
    <Option name="MinLinCorrForFisher" modified="No">8.000000e-01</Option>
    <Option name="UseExclusiveVars" modified="No">False</Option>
    <Option name="DoPreselection" modified="No">False</Option>
    <Option name="SigToBkgFraction" modified="No">1.000000e+00</Option>
    <Option name="PruneMethod" modified="No">nopruning</Option>
    <Option name="PruneStrength" modified="No">0.000000e+00</Option>
    <Option name="PruningValFraction" modified="No">5.000000e-01</Option>
    <Option name="SkipNormalization" modified="No">False</Option>
    <Option name="nEventsMin" modified="No">0</Option>
    <Option name="UseBaggedGrad" modified="No">False</Option>
    <Option name="GradBaggingFraction" modified="No">5.000000e-01</Option>
    <Option name="UseNTrainEvents" modified="No">0</Option>
    <Option name="NNodesMax" modified="No">0</Option>
  </Options>
  <Variables NVar="2">
    <Variable VarIndex="0" Expression="BDTG_UF_v1" Label="BDTG_UF_v1" Title="BDT output" Unit="" Internal="BDTG_UF_v1" Type="F" Min="-7.61055946e-01" Max="9.44391966e-01"/>
    <Variable VarIndex="1" Expression="dimu_mass" Label="dimu_mass" Title="mass(#mu#mu)" Unit="" Internal="dimu_mass" Type="F" Min="1.05010910e+02" Max="1.59995438e+02"/>
  </Variables>
  <Spectators NSpec="4">
    <Spectator SpecIndex="0" Expression="classID" Label="classID" Title="0 for Sig, 1 for Bkg" Unit="" Internal="classID" Type="F" Min="0.00000000e+00" Max="1.00000000e+00"/>
    <Spectator SpecIndex="1" Expression="samp_ID" Label="samp_ID" Title="Sample ID" Unit="" Internal="samp_ID" Type="F" Min="-2.50000000e+01" Max="3.80000000e+01"/>
    <Spectator SpecIndex="2" Expression="total_wgt" Label="total_wgt" Title="Overall weight" Unit="" Internal="total_wgt" Type="F" Min="-9.27989110e-02" Max="6.84560955e-01"/>
    <Spectator SpecIndex="3" Expression="dimu_mass" Label="dimu_mass" Title="mass(#mu#mu)" Unit="GeV" Internal="dimu_mass" Type="F" Min="1.05010910e+02" Max="1.59995438e+02"/>
  </Spectators>
  <Classes NClass="2">
    <Class Name="Signal" Index="0"/>
    <Class Name="Background" Index="1"/>
  </Classes>
  <Transformations NTransformations="0"/>
  <MVAPdfs/>
  <Weights NTrees="500" AnalysisType="1">
    <BinaryTree type="DecisionTree" boostWeight="1.0000000000000000e+00" itree="0">
      <Node pos="s" depth="0" NCoef="0" IVar="1" Cut="1.3124722290039062e+02" cType="1" res="-3.7108191754668951e-03" rms="4.9998623132705688e-01" purity="4.9628919363021851e-01" nType="0">
        <Node pos="l" depth="1" NCoef="0" IVar="1" Cut="1.2004477691650391e+02" cType="1" res="1.2252315878868103e-01" rms="4.8475569486618042e-01" purity="6.2252318859100342e-01" nType="0">
          <Node pos="l" depth="2" NCoef="0" IVar="0" Cut="1.3037316501140594e-01" cType="1" res="-3.4847068786621094e-01" rms="3.5856404900550842e-01" purity="1.5152931213378906e-01" nType="0">
            <Node pos="l" depth="3" NCoef="0" IVar="1" Cut="1.1506681060791016e+02" cType="1" res="-4.2438372969627380e-01" rms="2.6438313722610474e-01" purity="7.5616262853145599e-02" nType="0">
              <Node pos="l" depth="4" NCoef="0" IVar="-1" Cut="0.0000000000000000e+00" cType="1" res="-5.1972591318190098e-03" rms="1.7119894921779633e-01" purity="3.0222479254007339e-02" nType="-99"/>
              <Node pos="r" depth="4" NCoef="0" IVar="-1" Cut="0.0000000000000000e+00" cType="1" res="-4.9206353724002838e-03" rms="3.2788285613059998e-01" purity="1.2251777946949005e-01" nType="-99"/>
            </Node>
            <Node pos="r" depth="3" NCoef="0" IVar="-1" Cut="0.0000000000000000e+00" cType="1" res="-2.4301963858306408e-03" rms="4.7453272342681885e-01" purity="3.4246051311492920e-01" nType="-99"/>
          </Node>
          <Node pos="r" depth="2" NCoef="0" IVar="0" Cut="-2.6033619046211243e-01" cType="1" res="2.9347664117813110e-01" rms="4.0481039881706238e-01" purity="7.9347664117813110e-01" nType="0">
            <Node pos="l" depth="3" NCoef="0" IVar="0" Cut="-4.2102026939392090e-01" cType="1" res="-4.5719753950834274e-02" rms="4.9790531396865845e-01" purity="4.5428022742271423e-01" nType="0">
              <Node pos="l" depth="4" NCoef="0" IVar="-1" Cut="0.0000000000000000e+00" cType="1" res="-3.1591283623129129e-03" rms="4.7002556920051575e-01" purity="3.2948327064514160e-01" nType="-99"/>
              <Node pos="r" depth="4" NCoef="0" IVar="-1" Cut="0.0000000000000000e+00" cType="1" res="2.0446164999157190e-03" rms="4.9147236347198486e-01" purity="5.9195059537887573e-01" nType="-99"/>
            </Node>
            <Node pos="r" depth="3" NCoef="0" IVar="0" Cut="1.4125905930995941e-01" cType="1" res="3.7481519579887390e-01" rms="3.3092832565307617e-01" purity="8.7481516599655151e-01" nType="0">
              <Node pos="l" depth="4" NCoef="0" IVar="1" Cut="1.2590797424316406e+02" cType="1" res="2.8234115242958069e-01" rms="4.1265416145324707e-01" purity="7.8234118223190308e-01" nType="0">
                <Node pos="l" depth="5" NCoef="0" IVar="-1" Cut="0.0000000000000000e+00" cType="1" res="1.9303491339087486e-02" rms="3.6868709325790405e-01" purity="8.3774226903915405e-01" nType="-99"/>
                <Node pos="r" depth="5" NCoef="0" IVar="-1" Cut="0.0000000000000000e+00" cType="1" res="5.3140954114496708e-03" rms="4.7359555959701538e-01" purity="6.6033476591110229e-01" nType="-99"/>
              </Node>
              <Node pos="r" depth="4" NCoef="0" IVar="1" Cut="1.2644174194335938e+02" cType="1" res="4.2887148261070251e-01" rms="2.5703939795494080e-01" purity="9.2887145280838013e-01" nType="0">
                <Node pos="l" depth="5" NCoef="0" IVar="-1" Cut="0.0000000000000000e+00" cType="1" res="3.8862310349941254e-02" rms="2.4021698534488678e-01" purity="9.3851548433303833e-01" nType="-99"/>
                <Node pos="r" depth="5" NCoef="0" IVar="-1" Cut="0.0000000000000000e+00" cType="1" res="1.9697239622473717e-02" rms="3.0772876739501953e-01" purity="8.9408504962921143e-01" nType="-99"/>
              </Node>
            </Node>
          </Node>
        </Node>
        <Node pos="r" depth="1" NCoef="0" IVar="0" Cut="-1.1159649491310120e-01" cType="1" res="-4.7160914540290833e-01" rms="1.6608677804470062e-01" purity="2.8390860185027122e-02" nType="0">
          <Node pos="l" depth="2" NCoef="0" IVar="-1" Cut="0.0000000000000000e+00" cType="1" res="-5.0935712642967701e-03" rms="6.3775457441806793e-02" purity="4.0839877910912037e-03" nType="-99"/>
          <Node pos="r" depth="2" NCoef="0" IVar="-1" Cut="0.0000000000000000e+00" cType="1" res="-4.8870490863919258e-03" rms="2.6364949345588684e-01" purity="7.5160101056098938e-02" nType="-99"/>
        </Node>
      </Node>
    </BinaryTree>
    <BinaryTree type="DecisionTree" boostWeight="1.0000000000000000e+00" itree="1">
      <Node pos="s" depth="0" NCoef="0" IVar="1" Cut="1.2866595458984375e+02" cType="1" res="1.9343681633472443e-03" rms="4.9393069744110107e-01" purity="5.0751250982284546e-01" nType="0">
        <Node pos="l" depth="1" NCoef="0" IVar="1" Cut="1.1971955871582031e+02" cType="1" res="1.3316850364208221e-01" rms="4.7433933615684509e-01" purity="6.4092993736267090e-01" nType="0">
          <Node pos="l" depth="2" NCoef="0" IVar="0" Cut="1.2769581377506256e-01" cType="1" res="-3.6177060008049011e-01" rms="3.4268701076507568e-01" purity="1.3608570396900177e-01" nType="0">
            <Node pos="l" depth="3" NCoef="0" IVar="0" Cut="-2.4764575064182281e-01" cType="1" res="-4.3092471361160278e-01" rms="2.4920989573001862e-01" purity="6.6538348793983459e-02" nType="0">
              <Node pos="l" depth="4" NCoef="0" IVar="-1" Cut="0.0000000000000000e+00" cType="1" res="-5.5724489502608776e-03" rms="1.7121872305870056e-01" purity="3.0233120545744896e-02" nType="-99"/>
              <Node pos="r" depth="4" NCoef="0" IVar="-1" Cut="0.0000000000000000e+00" cType="1" res="-4.6771909110248089e-03" rms="3.1514230370521545e-01" purity="1.1182853579521179e-01" nType="-99"/>
            </Node>
            <Node pos="r" depth="3" NCoef="0" IVar="-1" Cut="0.0000000000000000e+00" cType="1" res="-2.8606997802853584e-03" rms="4.5829331874847412e-01" purity="3.0007839202880859e-01" nType="-99"/>
          </Node>
          <Node pos="r" depth="2" NCoef="0" IVar="0" Cut="-3.4031200408935547e-01" cType="1" res="3.1537157297134399e-01" rms="3.7578985095024109e-01" purity="8.2677942514419556e-01" nType="0">
            <Node pos="l" depth="3" NCoef="0" IVar="-1" Cut="0.0000000000000000e+00" cType="1" res="-8.5721880896016955e-04" rms="4.9814480543136597e-01" purity="4.6008625626564026e-01" nType="-99"/>
            <Node pos="r" depth="3" NCoef="0" IVar="0" Cut="-1.5675732493400574e-01" cType="1" res="3.7148177623748779e-01" rms="3.1820443272590637e-01" purity="8.8482648134231567e-01" nType="0">
              <Node pos="l" depth="4" NCoef="0" IVar="-1" Cut="0.0000000000000000e+00" cType="1" res="7.3871584609150887e-03" rms="4.3922188878059387e-01" purity="7.3862475156784058e-01" nType="-99"/>
              <Node pos="r" depth="4" NCoef="0" IVar="0" Cut="6.8221396207809448e-01" cType="1" res="3.9131188392639160e-01" rms="2.9144760966300964e-01" purity="9.0585750341415405e-01" nType="0">
                <Node pos="l" depth="5" NCoef="0" IVar="-1" Cut="0.0000000000000000e+00" cType="1" res="2.3483848199248314e-02" rms="3.1366798281669617e-01" purity="8.8899999856948853e-01" nType="-99"/>
                <Node pos="r" depth="5" NCoef="0" IVar="-1" Cut="0.0000000000000000e+00" cType="1" res="6.3542015850543976e-02" rms="1.0776928812265396e-01" purity="9.8823732137680054e-01" nType="-99"/>
              </Node>
            </Node>
          </Node>
        </Node>
        <Node pos="r" depth="1" NCoef="0" IVar="1" Cut="1.3313900756835938e+02" cType="1" res="-4.0741640329360962e-01" rms="2.8609395027160645e-01" purity="9.1351322829723358e-02" nType="0">
          <Node pos="l" depth="2" NCoef="0" IVar="-1" Cut="0.0000000000000000e+00" cType="1" res="-3.3857075031846762e-03" rms="4.5111712813377380e-01" purity="2.8984534740447998e-01" nType="-99"/>
          <Node pos="r" depth="2" NCoef="0" IVar="0" Cut="-1.1867038160562515e-01" cType="1" res="-4.8350971937179565e-01" rms="1.1740942299365997e-01" purity="1.3981978408992290e-02" nType="0">
            <Node pos="l" depth="3" NCoef="0" IVar="-1" Cut="0.0000000000000000e+00" cType="1" res="-5.2173552103340626e-03" rms="4.8058304935693741e-02" purity="2.3149594198912382e-03" nType="-99"/>
            <Node pos="r" depth="3" NCoef="0" IVar="-1" Cut="0.0000000000000000e+00" cType="1" res="-4.7608911991119385e-03" rms="1.7913013696670532e-01" purity="3.3189225941896439e-02" nType="-99"/>
          </Node>
        </Node>
      </Node>
    </BinaryTree>
    <BinaryTree type="DecisionTree" boostWeight="1.0000000000000000e+00" itree="2">
      <Node pos="s" depth="0" NCoef="0" IVar="1" Cut="1.3118986511230469e+02" cType="1" res="-1.7083318904042244e-02" rms="4.8777741193771362e-01" purity="4.9361896514892578e-01" nType="0">
        <Node pos="l" depth="1" NCoef="0" IVar="1" Cut="1.1996966552734375e+02" cType="1" res="9.4581700861454010e-02" rms="4.7698521614074707e-01" purity="6.0916197299957275e-01" nType="0">
          <Node pos="l" depth="2" NCoef="0" IVar="0" Cut="5.0891768187284470e-02" cType="1" res="-3.5978516936302185e-01" rms="3.4196379780769348e-01" purity="1.3600854575634003e-01" nType="0">
            <Node pos="l" depth="3" NCoef="0" IVar="0" Cut="-3.2762011885643005e-01" cType="1" res="-4.3741986155509949e-01" rms="2.3261648416519165e-01" purity="5.7521391659975052e-02" nType="0">
              <Node pos="l" depth="4" NCoef="0" IVar="-1" Cut="0.0000000000000000e+00" cType="1" res="-3.3428482711315155e-03" rms="1.6305437684059143e-01" purity="2.7340417727828026e-02" nType="-99"/>
              <Node pos="r" depth="4" NCoef="0" IVar="-1" Cut="0.0000000000000000e+00" cType="1" res="-5.5774198845028877e-03" rms="2.8150090575218201e-01" purity="8.6978681385517120e-02" nType="-99"/>
            </Node>
            <Node pos="r" depth="3" NCoef="0" IVar="-1" Cut="0.0000000000000000e+00" cType="1" res="-2.8747282922267914e-03" rms="4.5295616984367371e-01" purity="2.8996801376342773e-01" nType="-99"/>
          </Node>
          <Node pos="r" depth="2" NCoef="0" IVar="0" Cut="-3.4518903493881226e-01" cType="1" res="2.5955215096473694e-01" rms="4.0680471062660217e-01" purity="7.8095334768295288e-01" nType="0">
            <Node pos="l" depth="3" NCoef="0" IVar="-1" Cut="0.0000000000000000e+00" cType="1" res="-2.6044202968478203e-03" rms="4.7977483272552490e-01" purity="3.6054104566574097e-01" nType="-99"/>
            <Node pos="r" depth="3" NCoef="0" IVar="1" Cut="1.2744860839843750e+02" cType="1" res="3.3196353912353516e-01" rms="3.4594357013702393e-01" purity="8.5753351449966431e-01" nType="0">
              <Node pos="l" depth="4" NCoef="0" IVar="0" Cut="2.6512303948402405e-01" cType="1" res="3.5953727364540100e-01" rms="3.1445479393005371e-01" purity="8.8699311017990112e-01" nType="0">
                <Node pos="l" depth="5" NCoef="0" IVar="-1" Cut="0.0000000000000000e+00" cType="1" res="1.5151828527450562e-02" rms="3.7382844090461731e-01" purity="8.3118987083435059e-01" nType="-99"/>
                <Node pos="r" depth="5" NCoef="0" IVar="-1" Cut="0.0000000000000000e+00" cType="1" res="4.2905721813440323e-02" rms="2.2507177293300629e-01" purity="9.4604438543319702e-01" nType="-99"/>
              </Node>
              <Node pos="r" depth="4" NCoef="0" IVar="-1" Cut="0.0000000000000000e+00" cType="1" res="3.7352179642766714e-03" rms="4.7100049257278442e-01" purity="6.5388321876525879e-01" nType="-99"/>
            </Node>
          </Node>
        </Node>
        <Node pos="r" depth="1" NCoef="0" IVar="0" Cut="-1.1507133394479752e-01" cType="1" res="-4.6770086884498596e-01" rms="1.6300030052661896e-01" purity="2.7352284640073776e-02" nType="0">
          <Node pos="l" depth="2" NCoef="0" IVar="-1" Cut="0.0000000000000000e+00" cType="1" res="-5.8577568270266056e-03" rms="6.6557653248310089e-02" purity="4.4528604485094547e-03" nType="-99"/>
          <Node pos="r" depth="2" NCoef="0" IVar="-1" Cut="0.0000000000000000e+00" cType="1" res="-4.4863931834697723e-03" rms="2.6330724358558655e-01" purity="7.5028307735919952e-02" nType="-99"/>
        </Node>
      </Node>
    </BinaryTree>
    <BinaryTree type="DecisionTree" boostWeight="1.0000000000000000e+00" itree="3">
      <Node pos="s" depth="0" NCoef="0" IVar="1" Cut="1.3119401550292969e+02" cType="1" res="-8.6047630757093430e-03" rms="4.8208782076835632e-01" purity="5.0770723819732666e-01" nType="0">
        <Node pos="l" depth="1" NCoef="0" IVar="1" Cut="1.1997161865234375e+02" cType="1" res="1.0188496112823486e-01" rms="4.6860039234161377e-01" purity="6.2401592731475830e-01" nType="0">
          <Node pos="l" depth="2" NCoef="0" IVar="0" Cut="1.3106265664100647e-01" cType="1" res="-3.4292674064636230e-01" rms="3.5688319802284241e-01" purity="1.5082234144210815e-01" nType="0">
            <Node pos="l" depth="3" NCoef="0" IVar="0" Cut="-2.4424341320991516e-01" cType="1" res="-4.2237076163291931e-01" rms="2.5562939047813416e-01" purity="7.0399023592472076e-02" nType="0">
              <Node pos="l" depth="4" NCoef="0" IVar="-1" Cut="0.0000000000000000e+00" cType="1" res="-5.3821695037186146e-03" rms="1.7733383178710938e-01" purity="3.2516177743673325e-02" nType="-99"/>
              <Node pos="r" depth="4" NCoef="0" IVar="-1" Cut="0.0000000000000000e+00" cType="1" res="-3.6444030702114105e-03" rms="3.2307800650596619e-01" purity="1.1869178712368011e-01" nType="-99"/>
            </Node>
            <Node pos="r" depth="3" NCoef="0" IVar="-1" Cut="0.0000000000000000e+00" cType="1" res="-1.4113152865320444e-03" rms="4.8459729552268982e-01" purity="3.7988802790641785e-01" nType="-99"/>
          </Node>
          <Node pos="r" depth="2" NCoef="0" IVar="0" Cut="-1.8413500487804413e-01" cType="1" res="2.5143247842788696e-01" rms="4.0212732553482056e-01" purity="7.8310549259185791e-01" nType="0">
            <Node pos="l" depth="3" NCoef="0" IVar="0" Cut="-4.2480507493019104e-01" cType="1" res="-2.7699351310729980e-02" rms="4.9676898121833801e-01" purity="4.7636219859123230e-01" nType="0">
              <Node pos="l" depth="4" NCoef="0" IVar="-1" Cut="0.0000000000000000e+00" cType="1" res="-3.3793007023632526e-03" rms="4.6542385220527649e-01" purity="3.1757524609565735e-01" nType="-99"/>
              <Node pos="r" depth="4" NCoef="0" IVar="-1" Cut="0.0000000000000000e+00" cType="1" res="1.9246231531724334e-03" rms="4.9126312136650085e-01" purity="5.8315134048461914e-01" nType="-99"/>
            </Node>
            <Node pos="r" depth="3" NCoef="0" IVar="0" Cut="1.9030612707138062e-01" cType="1" res="3.4754160046577454e-01" rms="3.1040364503860474e-01" purity="8.8872170448303223e-01" nType="0">
              <Node pos="l" depth="4" NCoef="0" IVar="1" Cut="1.2584832763671875e+02" cType="1" res="2.8596100211143494e-01" rms="3.8846632838249207e-01" purity="8.1201767921447754e-01" nType="0">
                <Node pos="l" depth="5" NCoef="0" IVar="-1" Cut="0.0000000000000000e+00" cType="1" res="1.5458633191883564e-02" rms="3.5393732786178589e-01" purity="8.5282915830612183e-01" nType="-99"/>
                <Node pos="r" depth="5" NCoef="0" IVar="-1" Cut="0.0000000000000000e+00" cType="1" res="6.6036465577781200e-03" rms="4.4397464394569397e-01" purity="7.2333329916000366e-01" nType="-99"/>
              </Node>
              <Node pos="r" depth="4" NCoef="0" IVar="0" Cut="7.2508013248443604e-01" cType="1" res="3.8727721571922302e-01" rms="2.3900184035301208e-01" purity="9.3821585178375244e-01" nType="0">
                <Node pos="l" depth="5" NCoef="0" IVar="-1" Cut="0.0000000000000000e+00" cType="1" res="2.6669505983591080e-02" rms="2.7763137221336365e-01" purity="9.1535335779190063e-01" nType="-99"/>
                <Node pos="r" depth="5" NCoef="0" IVar="-1" Cut="0.0000000000000000e+00" cType="1" res="5.2785634994506836e-02" rms="-nan" purity="1.0234277248382568e+00" nType="-99"/>
              </Node>
            </Node>
          </Node>
        </Node>
        <Node pos="r" depth="1" NCoef="0" IVar="1" Cut="1.3942460632324219e+02" cType="1" res="-4.6295753121376038e-01" rms="1.6881494224071503e-01" purity="2.9425758868455887e-02" nType="0">
          <Node pos="l" depth="2" NCoef="0" IVar="-1" Cut="0.0000000000000000e+00" cType="1" res="-4.9056261777877808e-03" rms="2.6837879419326782e-01" purity="7.8285612165927887e-02" nType="-99"/>
          <Node pos="r" depth="2" NCoef="0" IVar="-1" Cut="0.0000000000000000e+00" cType="1" res="-5.0144749693572521e-03" rms="5.5623658001422882e-02" purity="3.1073759309947491e-03" nType="-99"/>
        </Node>
      </Node>
    </BinaryTree>
    <BinaryTree type="DecisionTree" boostWeight="1.0000000000000000e+00" itree="4">
      <Node pos="s" depth="0" NCoef="0" IVar="0" Cut="-1.0431064665317535e-01" cType="1" res="-2.2633431479334831e-02" rms="4.7735366225242615e-01" purity="4.9799296259880066e-01" nType="0">
        <Node pos="l" depth="1" NCoef="0" IVar="1" Cut="1.2881219482421875e+02" cType="1" res="-2.6711055636405945e-01" rms="4.1354849934577942e-01" purity="2.3046144843101501e-01" nType="0">
          <Node pos="l" depth="2" NCoef="0" IVar="1" Cut="1.2101877593994141e+02" cType="1" res="-1.6870789229869843e-01" rms="4.6321454644203186e-01" purity="3.3212098479270935e-01" nType="0">
            <Node pos="l" depth="3" NCoef="0" IVar="-1" Cut="0.0000000000000000e+00" cType="1" res="-4.9788067117333412e-03" rms="2.3587450385093689e-01" purity="6.0153167694807053e-02" nType="-99"/>
            <Node pos="r" depth="3" NCoef="0" IVar="0" Cut="-3.7562969326972961e-01" cType="1" res="7.4982456862926483e-02" rms="4.8866912722587585e-01" purity="5.8464962244033813e-01" nType="0">
              <Node pos="l" depth="4" NCoef="0" IVar="-1" Cut="0.0000000000000000e+00" cType="1" res="-1.8165843794122338e-03" rms="4.9292987585067749e-01" purity="4.1694107651710510e-01" nType="-99"/>
              <Node pos="r" depth="4" NCoef="0" IVar="-1" Cut="0.0000000000000000e+00" cType="1" res="6.5059349872171879e-03" rms="4.5716586709022522e-01" purity="6.9802403450012207e-01" nType="-99"/>
            </Node>
          </Node>
          <Node pos="r" depth="2" NCoef="0" IVar="-1" Cut="0.0000000000000000e+00" cType="1" res="-5.4559558629989624e-03" rms="1.3986770808696747e-01" purity="2.0259952172636986e-02" nType="-99"/>
        </Node>
        <Node pos="r" depth="1" NCoef="0" IVar="1" Cut="1.3131625366210938e+02" cType="1" res="1.7372606694698334e-01" rms="4.3238902091979980e-01" purity="7.1286940574645996e-01" nType="0">
          <Node pos="l" depth="2" NCoef="0" IVar="1" Cut="1.2014595794677734e+02" cType="1" res="2.4982155859470367e-01" rms="3.8927546143531799e-01" purity="7.9521977901458740e-01" nType="0">
            <Node pos="l" depth="3" NCoef="0" IVar="-1" Cut="0.0000000000000000e+00" cType="1" res="-2.0677826832979918e-03" rms="4.6413066983222961e-01" purity="3.1961083412170410e-01" nType="-99"/>
            <Node pos="r" depth="3" NCoef="0" IVar="0" Cut="1.9359084963798523e-01" cType="1" res="3.3791363239288330e-01" rms="3.0499693751335144e-01" purity="8.9351081848144531e-01" nType="0">
              <Node pos="l" depth="4" NCoef="0" IVar="1" Cut="1.2547126770019531e+02" cType="1" res="2.8949061036109924e-01" rms="3.7910184264183044e-01" purity="8.2261681556701660e-01" nType="0">
                <Node pos="l" depth="5" NCoef="0" IVar="-1" Cut="0.0000000000000000e+00" cType="1" res="1.8291749060153961e-02" rms="3.3123177289962769e-01" purity="8.7447208166122437e-01" nType="-99"/>
                <Node pos="r" depth="5" NCoef="0" IVar="-1" Cut="0.0000000000000000e+00" cType="1" res="7.7277729287743568e-03" rms="4.3173766136169434e-01" purity="7.4531692266464233e-01" nType="-99"/>
              </Node>
              <Node pos="r" depth="4" NCoef="0" IVar="1" Cut="1.2386574554443359e+02" cType="1" res="3.6296561360359192e-01" rms="2.5486266613006592e-01" purity="9.3018835783004761e-01" nType="0">
                <Node pos="l" depth="5" NCoef="0" IVar="-1" Cut="0.0000000000000000e+00" cType="1" res="2.6093279942870140e-02" rms="2.9857885837554932e-01" purity="9.0041303634643555e-01" nType="-99"/>
                <Node pos="r" depth="5" NCoef="0" IVar="-1" Cut="0.0000000000000000e+00" cType="1" res="3.4431949257850647e-02" rms="2.2924818098545074e-01" purity="9.4442069530487061e-01" nType="-99"/>
              </Node>
            </Node>
          </Node>
          <Node pos="r" depth="2" NCoef="0" IVar="-1" Cut="0.0000000000000000e+00" cType="1" res="-4.1264127939939499e-03" rms="2.6003879308700562e-01" purity="7.2995223104953766e-02" nType="-99"/>
        </Node>
      </Node>
    </BinaryTree>
    <BinaryTree type="DecisionTree" boostWeight="1.0000000000000000e+00" itree="5">
      <Node pos="s" depth="0" NCoef="0" IVar="1" Cut="1.3124722290039062e+02" cType="1" res="-2.2763367742300034e-02" rms="4.7228527069091797e-01" purity="5.0241440534591675e-01" nType="0">
        <Node pos="l" depth="1" NCoef="0" IVar="1" Cut="1.2004572296142578e+02" cType="1" res="8.1646718084812164e-02" rms="4.6194475889205933e-01" purity="6.1587977409362793e-01" nType="0">
          <Node pos="l" depth="2" NCoef="0" IVar="0" Cut="5.4352045059204102e-02" cType="1" res="-3.3921959996223450e-01" rms="3.5638332366943359e-01" purity="1.5106216073036194e-01" nType="0">
            <Node pos="l" depth="3" NCoef="0" IVar="-1" Cut="0.0000000000000000e+00" cType="1" res="-4.6201082877814770e-03" rms="2.4529528617858887e-01" purity="6.4543947577476501e-02" nType="-99"/>
            <Node pos="r" depth="3" NCoef="0" IVar="-1" Cut="0.0000000000000000e+00" cType="1" res="-1.6626715660095215e-03" rms="4.7868904471397400e-01" purity="3.5911208391189575e-01" nType="-99"/>
          </Node>
          <Node pos="r" depth="2" NCoef="0" IVar="0" Cut="-1.1376246809959412e-01" cType="1" res="2.2963194549083710e-01" rms="3.9948177337646484e-01" purity="7.7931916713714600e-01" nType="0">
            <Node pos="l" depth="3" NCoef="0" IVar="0" Cut="-4.2201879620552063e-01" cType="1" res="-1.4677416766062379e-04" rms="4.9528333544731140e-01" purity="5.0918543338775635e-01" nType="0">
              <Node pos="l" depth="4" NCoef="0" IVar="-1" Cut="0.0000000000000000e+00" cType="1" res="-3.4789436031132936e-03" rms="4.6726286411285400e-01" purity="3.2276642322540283e-01" nType="-99"/>
              <Node pos="r" depth="4" NCoef="0" IVar="1" Cut="1.2484571075439453e+02" cType="1" res="8.9245945215225220e-02" rms="4.8597702383995056e-01" purity="6.0679066181182861e-01" nType="0">
                <Node pos="l" depth="5" NCoef="0" IVar="-1" Cut="0.0000000000000000e+00" cType="1" res="3.1683626584708691e-03" rms="4.7758284211158752e-01" purity="6.4137697219848633e-01" nType="-99"/>
                <Node pos="r" depth="5" NCoef="0" IVar="-1" Cut="0.0000000000000000e+00" cType="1" res="1.5594854485243559e-03" rms="4.9208700656890869e-01" purity="5.7216095924377441e-01" nType="-99"/>
              </Node>
            </Node>
            <Node pos="r" depth="3" NCoef="0" IVar="1" Cut="1.2751350402832031e+02" cType="1" res="3.3222281932830811e-01" rms="2.9532295465469360e-01" purity="8.9992761611938477e-01" nType="0">
              <Node pos="l" depth="4" NCoef="0" IVar="1" Cut="1.2289270782470703e+02" cType="1" res="3.5492566227912903e-01" rms="2.5996404886245728e-01" purity="9.2657446861267090e-01" nType="0">
                <Node pos="l" depth="5" NCoef="0" IVar="-1" Cut="0.0000000000000000e+00" cType="1" res="1.5046120621263981e-02" rms="3.5927766561508179e-01" purity="8.4326761960983276e-01" nType="-99"/>
                <Node pos="r" depth="5" NCoef="0" IVar="-1" Cut="0.0000000000000000e+00" cType="1" res="3.7831742316484451e-02" rms="2.2427763044834137e-01" purity="9.4702321290969849e-01" nType="-99"/>
              </Node>
              <Node pos="r" depth="4" NCoef="0" IVar="-1" Cut="0.0000000000000000e+00" cType="1" res="4.5594251714646816e-03" rms="4.4433930516242981e-01" purity="7.0969551801681519e-01" nType="-99"/>
            </Node>
          </Node>
        </Node>
        <Node pos="r" depth="1" NCoef="0" IVar="1" Cut="1.3946174621582031e+02" cType="1" res="-4.5807102322578430e-01" rms="1.6848257184028625e-01" purity="2.9353588819503784e-02" nType="0">
          <Node pos="l" depth="2" NCoef="0" IVar="-1" Cut="0.0000000000000000e+00" cType="1" res="-5.0331437960267067e-03" rms="2.5714093446731567e-01" purity="7.1459479629993439e-02" nType="-99"/>
          <Node pos="r" depth="2" NCoef="0" IVar="-1" Cut="0.0000000000000000e+00" cType="1" res="-5.2188788540661335e-03" rms="5.1149092614650726e-02" purity="2.6278267614543438e-03" nType="-99"/>
        </Node>
      </Node>
    </BinaryTree>
    <BinaryTree type="DecisionTree" boostWeight="1.0000000000000000e+00" itree="6">
      <Node pos="s" depth="0" NCoef="0" IVar="1" Cut="1.3119401550292969e+02" cType="1" res="-3.5773348063230515e-02" rms="4.6656048297882080e-01" purity="4.9434384703636169e-01" nType="0">
        <Node pos="l" depth="1" NCoef="0" IVar="1" Cut="1.1997234344482422e+02" cType="1" res="6.7961707711219788e-02" rms="4.5847043395042419e-01" purity="6.0917156934738159e-01" nType="0">
          <Node pos="l" depth="2" NCoef="0" IVar="0" Cut="1.2907217442989349e-01" cType="1" res="-3.4930109977722168e-01" rms="3.4394049644470215e-01" purity="1.3871811330318451e-01" nType="0">
            <Node pos="l" depth="3" NCoef="0" IVar="1" Cut="1.1497949218750000e+02" cType="1" res="-4.2240792512893677e-01" rms="2.4398988485336304e-01" purity="6.3787832856178284e-02" nType="0">
              <Node pos="l" depth="4" NCoef="0" IVar="-1" Cut="0.0000000000000000e+00" cType="1" res="-5.5401041172444820e-03" rms="1.7206908762454987e-01" purity="3.0584812164306641e-02" nType="-99"/>
              <Node pos="r" depth="4" NCoef="0" IVar="-1" Cut="0.0000000000000000e+00" cType="1" res="-4.2759864591062069e-03" rms="2.9715672135353088e-01" purity="9.8273202776908875e-02" nType="-99"/>
            </Node>
            <Node pos="r" depth="3" NCoef="0" IVar="-1" Cut="0.0000000000000000e+00" cType="1" res="-1.5369579195976257e-03" rms="4.8463031649589539e-01" purity="3.7989926338195801e-01" nType="-99"/>
          </Node>
          <Node pos="r" depth="2" NCoef="0" IVar="0" Cut="-3.5499691963195801e-01" cType="1" res="2.2121201455593109e-01" rms="3.9562156796455383e-01" purity="7.8195750713348389e-01" nType="0">
            <Node pos="l" depth="3" NCoef="0" IVar="-1" Cut="0.0000000000000000e+00" cType="1" res="-2.2630256135016680e-03" rms="4.8140445351600647e-01" purity="3.6999127268791199e-01" nType="-99"/>
            <Node pos="r" depth="3" NCoef="0" IVar="0" Cut="1.6380770131945610e-02" cType="1" res="2.7869021892547607e-01" rms="3.4763634204864502e-01" purity="8.5061621665954590e-01" nType="0">
              <Node pos="l" depth="4" NCoef="0" IVar="1" Cut="1.2532060241699219e+02" cType="1" res="1.8229264020919800e-01" rms="4.4534346461296082e-01" purity="7.1636664867401123e-01" nType="0">
                <Node pos="l" depth="5" NCoef="0" IVar="-1" Cut="0.0000000000000000e+00" cType="1" res="1.1443808674812317e-02" rms="4.0086010098457336e-01" purity="7.9765141010284424e-01" nType="-99"/>
                <Node pos="r" depth="5" NCoef="0" IVar="-1" Cut="0.0000000000000000e+00" cType="1" res="2.3771878331899643e-03" rms="4.8047959804534912e-01" purity="6.0875046253204346e-01" nType="-99"/>
              </Node>
              <Node pos="r" depth="4" NCoef="0" IVar="1" Cut="1.2264410400390625e+02" cType="1" res="3.1842610239982605e-01" rms="2.8897026181221008e-01" purity="9.0595507621765137e-01" nType="0">
                <Node pos="l" depth="5" NCoef="0" IVar="-1" Cut="0.0000000000000000e+00" cType="1" res="1.3948891311883926e-02" rms="3.6357441544532776e-01" purity="8.4021532535552979e-01" nType="-99"/>
                <Node pos="r" depth="5" NCoef="0" IVar="-1" Cut="0.0000000000000000e+00" cType="1" res="2.4650359526276588e-02" rms="2.7151787281036377e-01" purity="9.1805553436279297e-01" nType="-99"/>
              </Node>
            </Node>
          </Node>
        </Node>
        <Node pos="r" depth="1" NCoef="0" IVar="1" Cut="1.3942416381835938e+02" cType="1" res="-4.5815071463584900e-01" rms="1.6103267669677734e-01" purity="2.6800608262419701e-02" nType="0">
          <Node pos="l" depth="2" NCoef="0" IVar="-1" Cut="0.0000000000000000e+00" cType="1" res="-5.1482366397976875e-03" rms="2.4775572121143341e-01" purity="6.6062405705451965e-02" nType="-99"/>
          <Node pos="r" depth="2" NCoef="0" IVar="-1" Cut="0.0000000000000000e+00" cType="1" res="-5.2644740790128708e-03" rms="5.4660148918628693e-02" purity="3.0017751269042492e-03" nType="-99"/>
        </Node>
      </Node>
    </BinaryTree>
    <BinaryTree type="DecisionTree" boostWeight="1.0000000000000000e+00" itree="7">
      <Node pos="s" depth="0" NCoef="0" IVar="1" Cut="1.3118833923339844e+02" cType="1" res="-3.1224578619003296e-02" rms="4.6292418241500854e-01" purity="5.0329542160034180e-01" nType="0">
        <Node pos="l" depth="1" NCoef="0" IVar="1" Cut="1.1996901702880859e+02" cType="1" res="7.4628584086894989e-02" rms="4.5297959446907043e-01" purity="6.2213814258575439e-01" nType="0">
          <Node pos="l" depth="2" NCoef="0" IVar="0" Cut="1.2793447077274323e-01" cType="1" res="-3.3285737037658691e-01" rms="3.5793197154998779e-01" purity="1.5309594571590424e-01" nType="0">
            <Node pos="l" depth="3" NCoef="0" IVar="0" Cut="-2.4844448268413544e-01" cType="1" res="-4.1237425804138184e-01" rms="2.5687333941459656e-01" purity="7.1286238729953766e-02" nType="0">
              <Node pos="l" depth="4" NCoef="0" IVar="-1" Cut="0.0000000000000000e+00" cType="1" res="-3.1108839903026819e-03" rms="1.8230558931827545e-01" purity="3.4449283033609390e-02" nType="-99"/>
              <Node pos="r" depth="4" NCoef="0" IVar="-1" Cut="0.0000000000000000e+00" cType="1" res="-3.5731038078665733e-03" rms="3.2573547959327698e-01" purity="1.2107288837432861e-01" nType="-99"/>
            </Node>
            <Node pos="r" depth="3" NCoef="0" IVar="-1" Cut="0.0000000000000000e+00" cType="1" res="-1.1736250016838312e-03" rms="4.8976558446884155e-01" purity="4.0432959794998169e-01" nType="-99"/>
          </Node>
          <Node pos="r" depth="2" NCoef="0" IVar="0" Cut="-3.5649752616882324e-01" cType="1" res="2.1667243540287018e-01" rms="3.9242899417877197e-01" purity="7.8563958406448364e-01" nType="0">
            <Node pos="l" depth="3" NCoef="0" IVar="-1" Cut="0.0000000000000000e+00" cType="1" res="-1.8519695149734616e-03" rms="4.8786589503288269e-01" purity="3.9663895964622498e-01" nType="-99"/>
            <Node pos="r" depth="3" NCoef="0" IVar="0" Cut="1.3668522238731384e-01" cType="1" res="2.6398682594299316e-01" rms="3.5249638557434082e-01" purity="8.4446907043457031e-01" nType="0">
              <Node pos="l" depth="4" NCoef="0" IVar="1" Cut="1.2636314392089844e+02" cType="1" res="1.8998393416404724e-01" rms="4.3611264228820801e-01" purity="7.3553419113159180e-01" nType="0">
                <Node pos="l" depth="5" NCoef="0" IVar="-1" Cut="0.0000000000000000e+00" cType="1" res="1.0679920203983784e-02" rms="4.0792447328567505e-01" purity="7.8528809547424316e-01" nType="-99"/>
                <Node pos="r" depth="5" NCoef="0" IVar="-1" Cut="0.0000000000000000e+00" cType="1" res="1.3460207264870405e-03" rms="4.8879721760749817e-01" purity="5.8082568645477295e-01" nType="-99"/>
              </Node>
              <Node pos="r" depth="4" NCoef="0" IVar="0" Cut="4.0387254953384399e-01" cType="1" res="3.1475007534027100e-01" rms="2.6960602402687073e-01" purity="9.1919440031051636e-01" nType="0">
                <Node pos="l" depth="5" NCoef="0" IVar="-1" Cut="0.0000000000000000e+00" cType="1" res="1.6173006966710091e-02" rms="3.2510176301002502e-01" purity="8.7769407033920288e-01" nType="-99"/>
                <Node pos="r" depth="5" NCoef="0" IVar="-1" Cut="0.0000000000000000e+00" cType="1" res="3.4707155078649521e-02" rms="2.1940563619136810e-01" purity="9.4870477914810181e-01" nType="-99"/>
              </Node>
            </Node>
          </Node>
        </Node>
        <Node pos="r" depth="1" NCoef="0" IVar="0" Cut="-1.1159649491310120e-01" cType="1" res="-4.5673924684524536e-01" rms="1.5750579535961151e-01" purity="2.5564724579453468e-02" nType="0">
          <Node pos="l" depth="2" NCoef="0" IVar="-1" Cut="0.0000000000000000e+00" cType="1" res="-5.1062013953924179e-03" rms="5.9862650930881500e-02" purity="3.6033887881785631e-03" nType="-99"/>
          <Node pos="r" depth="2" NCoef="0" IVar="-1" Cut="0.0000000000000000e+00" cType="1" res="-4.6859048306941986e-03" rms="2.4914860725402832e-01" purity="6.6642343997955322e-02" nType="-99"/>
        </Node>
      </Node>
    </BinaryTree>
    <BinaryTree type="DecisionTree" boostWeight="1.0000000000000000e+00" itree="8">
      <Node pos="s" depth="0" NCoef="0" IVar="1" Cut="1.3128004455566406e+02" cType="1" res="-3.3600226044654846e-02" rms="4.5870491862297058e-01" purity="5.0494742393493652e-01" nType="0">
        <Node pos="l" depth="1" NCoef="0" IVar="1" Cut="1.2009554290771484e+02" cType="1" res="6.6040925681591034e-02" rms="4.4999682903289795e-01" purity="6.1863428354263306e-01" nType="0">
          <Node pos="l" depth="2" NCoef="0" IVar="0" Cut="1.3037316501140594e-01" cType="1" res="-3.3355268836021423e-01" rms="3.5580042004585266e-01" purity="1.5184144675731659e-01" nType="0">
            <Node pos="l" depth="3" NCoef="0" IVar="1" Cut="1.1519768524169922e+02" cType="1" res="-4.0852093696594238e-01" rms="2.6074525713920593e-01" purity="7.3995523154735565e-02" nType="0">
              <Node pos="l" depth="4" NCoef="0" IVar="-1" Cut="0.0000000000000000e+00" cType="1" res="-5.4249740205705166e-03" rms="1.6407328844070435e-01" purity="2.7726251631975174e-02" nType="-99"/>
              <Node pos="r" depth="4" NCoef="0" IVar="-1" Cut="0.0000000000000000e+00" cType="1" res="-4.9938866868615150e-03" rms="3.3277350664138794e-01" purity="1.2805290520191193e-01" nType="-99"/>
            </Node>
            <Node pos="r" depth="3" NCoef="0" IVar="-1" Cut="0.0000000000000000e+00" cType="1" res="-1.5265772817656398e-03" rms="4.7998008131980896e-01" purity="3.6797550320625305e-01" nType="-99"/>
          </Node>
          <Node pos="r" depth="2" NCoef="0" IVar="0" Cut="-3.5628366470336914e-01" cType="1" res="2.0486351847648621e-01" rms="3.9258414506912231e-01" purity="7.8080254793167114e-01" nType="0">
            <Node pos="l" depth="3" NCoef="0" IVar="-1" Cut="0.0000000000000000e+00" cType="1" res="-1.8116900464519858e-03" rms="4.8877176642417908e-01" purity="4.0068313479423523e-01" nType="-99"/>
            <Node pos="r" depth="3" NCoef="0" IVar="0" Cut="1.3808318413794041e-02" cType="1" res="2.5087106227874756e-01" rms="3.5385075211524963e-01" purity="8.3984327316284180e-01" nType="0">
              <Node pos="l" depth="4" NCoef="0" IVar="1" Cut="1.2543090057373047e+02" cType="1" res="1.4226599037647247e-01" rms="4.5943522453308105e-01" purity="6.8435657024383545e-01" nType="0">
                <Node pos="l" depth="5" NCoef="0" IVar="-1" Cut="0.0000000000000000e+00" cType="1" res="6.9797001779079437e-03" rms="4.3986350297927856e-01" purity="7.3453742265701294e-01" nType="-99"/>
                <Node pos="r" depth="5" NCoef="0" IVar="-1" Cut="0.0000000000000000e+00" cType="1" res="2.0573607180267572e-03" rms="4.8041802644729614e-01" purity="6.1013329029083252e-01" nType="-99"/>
              </Node>
              <Node pos="r" depth="4" NCoef="0" IVar="0" Cut="4.1035756468772888e-01" cType="1" res="2.9828175902366638e-01" rms="2.8342103958129883e-01" purity="9.0771979093551636e-01" nType="0">
                <Node pos="l" depth="5" NCoef="0" IVar="-1" Cut="0.0000000000000000e+00" cType="1" res="1.6152491793036461e-02" rms="3.4602728486061096e-01" purity="8.5590410232543945e-01" nType="-99"/>
                <Node pos="r" depth="5" NCoef="0" IVar="-1" Cut="0.0000000000000000e+00" cType="1" res="3.4078978002071381e-02" rms="1.8843254446983337e-01" purity="9.6351796388626099e-01" nType="-99"/>
              </Node>
            </Node>
          </Node>
        </Node>
        <Node pos="r" depth="1" NCoef="0" IVar="0" Cut="-1.1159649491310120e-01" cType="1" res="-4.5121780037879944e-01" rms="1.6600935161113739e-01" purity="2.8461081907153130e-02" nType="0">
          <Node pos="l" depth="2" NCoef="0" IVar="-1" Cut="0.0000000000000000e+00" cType="1" res="-4.7769877128303051e-03" rms="5.5294793099164963e-02" purity="3.0692794825881720e-03" nType="-99"/>
          <Node pos="r" depth="2" NCoef="0" IVar="-1" Cut="0.0000000000000000e+00" cType="1" res="-4.5008515007793903e-03" rms="2.7005821466445923e-01" purity="7.9302512109279633e-02" nType="-99"/>
        </Node>
      </Node>
    </BinaryTree>
    <BinaryTree type="DecisionTree" boostWeight="1.0000000000000000e+00" itree="9">
      <Node pos="s" depth="0" NCoef="0" IVar="1" Cut="1.3124722290039062e+02" cType="1" res="-4.0210161358118057e-02" rms="4.5524165034294128e-01" purity="5.0170922279357910e-01" nType="0">
        <Node pos="l" depth="1" NCoef="0" IVar="1" Cut="1.2004425048828125e+02" cType="1" res="5.6214671581983566e-02" rms="4.4832181930541992e-01" purity="6.1322265863418579e-01" nType="0">
          <Node pos="l" depth="2" NCoef="0" IVar="0" Cut="1.3106265664100647e-01" cType="1" res="-3.3338877558708191e-01" rms="3.5389265418052673e-01" purity="1.4969064295291901e-01" nType="0">
            <Node pos="l" depth="3" NCoef="0" IVar="1" Cut="1.1506686401367188e+02" cType="1" res="-4.0938961505889893e-01" rms="2.5559616088867188e-01" purity="7.0564575493335724e-02" nType="0">
              <Node pos="l" depth="4" NCoef="0" IVar="-1" Cut="0.0000000000000000e+00" cType="1" res="-5.4572601802647114e-03" rms="1.6714912652969360e-01" purity="2.8811816126108170e-02" nType="-99"/>
              <Node pos="r" depth="4" NCoef="0" IVar="-1" Cut="0.0000000000000000e+00" cType="1" res="-4.8631913959980011e-03" rms="3.3346119523048401e-01" purity="1.2778834998607635e-01" nType="-99"/>
            </Node>
            <Node pos="r" depth="3" NCoef="0" IVar="-1" Cut="0.0000000000000000e+00" cType="1" res="-1.5225157840177417e-03" rms="4.8260787129402161e-01" purity="3.7633714079856873e-01" nType="-99"/>
          </Node>
          <Node pos="r" depth="2" NCoef="0" IVar="0" Cut="-2.7532920241355896e-01" cType="1" res="1.9136278331279755e-01" rms="3.9541214704513550e-01" purity="7.7401554584503174e-01" nType="0">
            <Node pos="l" depth="3" NCoef="0" IVar="1" Cut="1.2482828521728516e+02" cType="1" res="-7.6943345367908478e-02" rms="4.8940980434417725e-01" purity="4.2231759428977966e-01" nType="0">
              <Node pos="l" depth="4" NCoef="0" IVar="-1" Cut="0.0000000000000000e+00" cType="1" res="-8.8493886869400740e-04" rms="4.9384847283363342e-01" purity="4.6191206574440002e-01" nType="-99"/>
              <Node pos="r" depth="4" NCoef="0" IVar="-1" Cut="0.0000000000000000e+00" cType="1" res="-2.2893988061696291e-03" rms="4.8315119743347168e-01" purity="3.8777896761894226e-01" nType="-99"/>
            </Node>
            <Node pos="r" depth="3" NCoef="0" IVar="1" Cut="1.2751036834716797e+02" cType="1" res="2.5621268153190613e-01" rms="3.3858981728553772e-01" purity="8.5902130603790283e-01" nType="0">
              <Node pos="l" depth="4" NCoef="0" IVar="1" Cut="1.2253308868408203e+02" cType="1" res="2.7839222550392151e-01" rms="3.1206122040748596e-01" purity="8.8662785291671753e-01" nType="0">
                <Node pos="l" depth="5" NCoef="0" IVar="-1" Cut="0.0000000000000000e+00" cType="1" res="7.7346810139715672e-03" rms="4.0280133485794067e-01" purity="7.8329092264175415e-01" nType="-99"/>
                <Node pos="r" depth="5" NCoef="0" IVar="-1" Cut="0.0000000000000000e+00" cType="1" res="2.4347770959138870e-02" rms="2.8808051347732544e-01" purity="9.0634572505950928e-01" nType="-99"/>
              </Node>
              <Node pos="r" depth="4" NCoef="0" IVar="-1" Cut="0.0000000000000000e+00" cType="1" res="2.5339988060295582e-03" rms="4.5866841077804565e-01" purity="6.5882778167724609e-01" nType="-99"/>
            </Node>
          </Node>
        </Node>
        <Node pos="r" depth="1" NCoef="0" IVar="1" Cut="1.3946520996093750e+02" cType="1" res="-4.5225849747657776e-01" rms="1.5635873377323151e-01" purity="2.5183649733662605e-02" nType="0">
          <Node pos="l" depth="2" NCoef="0" IVar="-1" Cut="0.0000000000000000e+00" cType="1" res="-4.7244988381862640e-03" rms="2.4571140110492706e-01" purity="6.4792752265930176e-02" nType="-99"/>
          <Node pos="r" depth="2" NCoef="0" IVar="-1" Cut="0.0000000000000000e+00" cType="1" res="-5.3649311885237694e-03" rms="4.9333672970533371e-02" purity="2.4436730891466141e-03" nType="-99"/>
        </Node>
      </Node>
    </BinaryTree>
    <BinaryTree type="DecisionTree" boostWeight="1.0000000000000000e+00" itree="10">
      <Node pos="s" depth="0" NCoef="0" IVar="1" Cut="1.3118563842773438e+02" cType="1" res="-3.6068037152290344e-02" rms="4.4957327842712402e-01" purity="5.0912910699844360e-01" nType="0">
        <Node pos="l" depth="1" NCoef="0" IVar="1" Cut="1.1996482086181641e+02" cType="1" res="6.3252717256546021e-02" rms="4.4014090299606323e-01" purity="6.2550103664398193e-01" nType="0">
          <Node pos="l" depth="2" NCoef="0" IVar="0" Cut="4.9348898231983185e-02" cType="1" res="-3.3940169215202332e-01" rms="3.4524464607238770e-01" purity="1.4098539948463440e-01" nType="0">
            <Node pos="l" depth="3" NCoef="0" IVar="0" Cut="-3.3073264360427856e-01" cType="1" res="-4.1921854019165039e-01" rms="2.3221038281917572e-01" purity="5.7322144508361816e-02" nType="0">
              <Node pos="l" depth="4" NCoef="0" IVar="-1" Cut="0.0000000000000000e+00" cType="1" res="-5.4696612060070038e-03" rms="1.6171896457672119e-01" purity="2.6900319382548332e-02" nType="-99"/>
              <Node pos="r" depth="4" NCoef="0" IVar="-1" Cut="0.0000000000000000e+00" cType="1" res="-3.3487933687865734e-03" rms="2.7872878313064575e-01" purity="8.5115723311901093e-02" nType="-99"/>
            </Node>
            <Node pos="r" depth="3" NCoef="0" IVar="-1" Cut="0.0000000000000000e+00" cType="1" res="-1.7652346286922693e-03" rms="4.7473919391632080e-01" purity="3.4630864858627319e-01" nType="-99"/>
          </Node>
          <Node pos="r" depth="2" NCoef="0" IVar="0" Cut="-2.7620169520378113e-01" cType="1" res="2.0461030304431915e-01" rms="3.7813842296600342e-01" purity="7.9559713602066040e-01" nType="0">
            <Node pos="l" depth="3" NCoef="0" IVar="1" Cut="1.2476616668701172e+02" cType="1" res="-5.5363290011882782e-02" rms="4.9277091026306152e-01" purity="4.4362115859985352e-01" nType="0">
              <Node pos="l" depth="4" NCoef="0" IVar="-1" Cut="0.0000000000000000e+00" cType="1" res="2.1183586795814335e-04" rms="4.9698752164840698e-01" purity="5.1176959276199341e-01" nType="-99"/>
              <Node pos="r" depth="4" NCoef="0" IVar="-1" Cut="0.0000000000000000e+00" cType="1" res="-2.2943804506212473e-03" rms="4.8316803574562073e-01" purity="3.8862085342407227e-01" nType="-99"/>
            </Node>
            <Node pos="r" depth="3" NCoef="0" IVar="1" Cut="1.2744254302978516e+02" cType="1" res="2.6735487580299377e-01" rms="3.1407770514488220e-01" purity="8.8054645061492920e-01" nType="0">
              <Node pos="l" depth="4" NCoef="0" IVar="0" Cut="-1.0302899777889252e-01" cType="1" res="2.8329977393150330e-01" rms="2.9029992222785950e-01" purity="9.0251863002777100e-01" nType="0">
                <Node pos="l" depth="5" NCoef="0" IVar="-1" Cut="0.0000000000000000e+00" cType="1" res="7.2847036644816399e-03" rms="4.2563539743423462e-01" purity="7.5799053907394409e-01" nType="-99"/>
                <Node pos="r" depth="5" NCoef="0" IVar="-1" Cut="0.0000000000000000e+00" cType="1" res="2.4813408032059669e-02" rms="2.6019376516342163e-01" purity="9.2558586597442627e-01" nType="-99"/>
              </Node>
              <Node pos="r" depth="4" NCoef="0" IVar="-1" Cut="0.0000000000000000e+00" cType="1" res="3.6644209176301956e-03" rms="4.3725582957267761e-01" purity="7.1367102861404419e-01" nType="-99"/>
            </Node>
          </Node>
        </Node>
        <Node pos="r" depth="1" NCoef="0" IVar="0" Cut="-1.1859873682260513e-01" cType="1" res="-4.4527772068977356e-01" rms="1.6910609602928162e-01" purity="2.9667222872376442e-02" nType="0">
          <Node pos="l" depth="2" NCoef="0" IVar="-1" Cut="0.0000000000000000e+00" cType="1" res="-4.7779232263565063e-03" rms="5.8111172169446945e-02" purity="3.4016035497188568e-03" nType="-99"/>
          <Node pos="r" depth="2" NCoef="0" IVar="-1" Cut="0.0000000000000000e+00" cType="1" res="-4.1048605926334858e-03" rms="2.7092769742012024e-01" purity="8.0108799040317535e-02" nType="-99"/>
        </Node>
      </Node>
    </BinaryTree>
    <BinaryTree type="DecisionTree" boostWeight="1.0000000000000000e+00" itree="11">
      <Node pos="s" depth="0" NCoef="0" IVar="1" Cut="1.3118986511230469e+02" cType="1" res="-5.5552944540977478e-02" rms="4.4628876447677612e-01" purity="4.9159279465675354e-01" nType="0">
        <Node pos="l" depth="1" NCoef="0" IVar="1" Cut="1.1872364044189453e+02" cType="1" res="4.2325720191001892e-02" rms="4.4147253036499023e-01" purity="6.0803055763244629e-01" nType="0">
          <Node pos="l" depth="2" NCoef="0" IVar="0" Cut="-2.2356638684868813e-02" cType="1" res="-3.6990424990653992e-01" rms="3.0806460976600647e-01" purity="1.0788906365633011e-01" nType="0">
            <Node pos="l" depth="3" NCoef="0" IVar="-1" Cut="0.0000000000000000e+00" cType="1" res="-3.5083489492535591e-03" rms="1.9957482814788818e-01" purity="4.1628260165452957e-02" nType="-99"/>
            <Node pos="r" depth="3" NCoef="0" IVar="-1" Cut="0.0000000000000000e+00" cType="1" res="-2.8790018986910582e-03" rms="4.2708107829093933e-01" purity="2.4173274636268616e-01" nType="-99"/>
          </Node>
          <Node pos="r" depth="2" NCoef="0" IVar="0" Cut="-3.4251439571380615e-01" cType="1" res="1.6605584323406219e-01" rms="3.9824196696281433e-01" purity="7.5814718008041382e-01" nType="0">
            <Node pos="l" depth="3" NCoef="0" IVar="-1" Cut="0.0000000000000000e+00" cType="1" res="-2.7795920614153147e-03" rms="4.7403711080551147e-01" purity="3.4706190228462219e-01" nType="-99"/>
            <Node pos="r" depth="3" NCoef="0" IVar="1" Cut="1.2762813568115234e+02" cType="1" res="2.2355628013610840e-01" rms="3.5385948419570923e-01" purity="8.3459872007369995e-01" nType="0">
              <Node pos="l" depth="4" NCoef="0" IVar="1" Cut="1.2169197845458984e+02" cType="1" res="2.4963659048080444e-01" rms="3.2574263215065002e-01" purity="8.6740142107009888e-01" nType="0">
                <Node pos="l" depth="5" NCoef="0" IVar="-1" Cut="0.0000000000000000e+00" cType="1" res="1.7835344187915325e-03" rms="4.6394762396812439e-01" purity="6.3585889339447021e-01" nType="-99"/>
                <Node pos="r" depth="5" NCoef="0" IVar="-1" Cut="0.0000000000000000e+00" cType="1" res="2.3125858977437019e-02" rms="2.9109862446784973e-01" purity="9.0126180648803711e-01" nType="-99"/>
              </Node>
              <Node pos="r" depth="4" NCoef="0" IVar="-1" Cut="0.0000000000000000e+00" cType="1" res="6.6999823320657015e-04" rms="4.7507399320602417e-01" purity="5.8645939826965332e-01" nType="-99"/>
            </Node>
          </Node>
        </Node>
        <Node pos="r" depth="1" NCoef="0" IVar="1" Cut="1.3941903686523438e+02" cType="1" res="-4.4802990555763245e-01" rms="1.5448325872421265e-01" purity="2.4697149172425270e-02" nType="0">
          <Node pos="l" depth="2" NCoef="0" IVar="-1" Cut="0.0000000000000000e+00" cType="1" res="-4.8538753762841225e-03" rms="2.4142418801784515e-01" purity="6.2684066593647003e-02" nType="-99"/>
          <Node pos="r" depth="2" NCoef="0" IVar="-1" Cut="0.0000000000000000e+00" cType="1" res="-4.7810846008360386e-03" rms="4.6789668500423431e-02" purity="2.1994283888489008e-03" nType="-99"/>
        </Node>
      </Node>
    </BinaryTree>
    <BinaryTree type="DecisionTree" boostWeight="1.0000000000000000e+00" itree="12">
      <Node pos="s" depth="0" NCoef="0" IVar="1" Cut="1.3124472045898438e+02" cType="1" res="-5.9010602533817291e-02" rms="4.4318446516990662e-01" purity="4.9162340164184570e-01" nType="0">
        <Node pos="l" depth="1" NCoef="0" IVar="1" Cut="1.2128929138183594e+02" cType="1" res="4.0679540485143661e-02" rms="4.3861022591590881e-01" purity="6.1211520433425903e-01" nType="0">
          <Node pos="l" depth="2" NCoef="0" IVar="0" Cut="2.1906699240207672e-01" cType="1" res="-2.8644627332687378e-01" rms="3.8723385334014893e-01" purity="2.0768621563911438e-01" nType="0">
            <Node pos="l" depth="3" NCoef="0" IVar="1" Cut="1.1750663757324219e+02" cType="1" res="-3.7064492702484131e-01" rms="3.0912125110626221e-01" purity="1.1370787769556046e-01" nType="0">
              <Node pos="l" depth="4" NCoef="0" IVar="-1" Cut="0.0000000000000000e+00" cType="1" res="-5.2287257276475430e-03" rms="2.1219578385353088e-01" purity="4.7472324222326279e-02" nType="-99"/>
              <Node pos="r" depth="4" NCoef="0" IVar="-1" Cut="0.0000000000000000e+00" cType="1" res="-3.9377529174089432e-03" rms="4.1970074176788330e-01" purity="2.4315313994884491e-01" nType="-99"/>
            </Node>
            <Node pos="r" depth="3" NCoef="0" IVar="-1" Cut="0.0000000000000000e+00" cType="1" res="3.5608038888312876e-04" rms="4.7759902477264404e-01" purity="5.5200135707855225e-01" nType="-99"/>
          </Node>
          <Node pos="r" depth="2" NCoef="0" IVar="0" Cut="-3.4479492902755737e-01" cType="1" res="1.8433102965354919e-01" rms="3.7865939736366272e-01" purity="7.8971302509307861e-01" nType="0">
            <Node pos="l" depth="3" NCoef="0" IVar="-1" Cut="0.0000000000000000e+00" cType="1" res="-2.3467938881367445e-03" rms="4.8272457718849182e-01" purity="3.7686404585838318e-01" nType="-99"/>
            <Node pos="r" depth="3" NCoef="0" IVar="1" Cut="1.2697602844238281e+02" cType="1" res="2.3787379264831543e-01" rms="3.2932192087173462e-01" purity="8.6433947086334229e-01" nType="0">
              <Node pos="l" depth="4" NCoef="0" IVar="1" Cut="1.2291447448730469e+02" cType="1" res="2.5767454504966736e-01" rms="3.0114060640335083e-01" purity="8.9355546236038208e-01" nType="0">
                <Node pos="l" depth="5" NCoef="0" IVar="-1" Cut="0.0000000000000000e+00" cType="1" res="1.1360728181898594e-02" rms="3.7823089957237244e-01" purity="8.1523340940475464e-01" nType="-99"/>
                <Node pos="r" depth="5" NCoef="0" IVar="-1" Cut="0.0000000000000000e+00" cType="1" res="2.6212409138679504e-02" rms="2.7997931838035583e-01" purity="9.1026842594146729e-01" nType="-99"/>
              </Node>
              <Node pos="r" depth="4" NCoef="0" IVar="-1" Cut="0.0000000000000000e+00" cType="1" res="4.2873388156294823e-03" rms="4.2566263675689697e-01" purity="7.2759371995925903e-01" nType="-99"/>
            </Node>
          </Node>
        </Node>
        <Node pos="r" depth="1" NCoef="0" IVar="1" Cut="1.3945837402343750e+02" cType="1" res="-4.4426250457763672e-01" rms="1.5866690874099731e-01" purity="2.5983598083257675e-02" nType="0">
          <Node pos="l" depth="2" NCoef="0" IVar="-1" Cut="0.0000000000000000e+00" cType="1" res="-5.2422448061406612e-03" rms="2.4056003987789154e-01" purity="6.1952859163284302e-02" nType="-99"/>
          <Node pos="r" depth="2" NCoef="0" IVar="-1" Cut="0.0000000000000000e+00" cType="1" res="-4.7392826527357101e-03" rms="4.4398948550224304e-02" purity="1.9779419526457787e-03" nType="-99"/>
        </Node>
      </Node>
    </BinaryTree>
    <BinaryTree type="DecisionTree" boostWeight="1.0000000000000000e+00" itree="13">
      <Node pos="s" depth="0" NCoef="0" IVar="1" Cut="1.3124307250976562e+02" cType="1" res="-5.2583221346139908e-02" rms="4.3877011537551880e-01" purity="5.0248557329177856e-01" nType="0">
        <Node pos="l" depth="1" NCoef="0" IVar="1" Cut="1.2004200744628906e+02" cType="1" res="4.6382889151573181e-02" rms="4.3217802047729492e-01" purity="6.2359982728958130e-01" nType="0">
          <Node pos="l" depth="2" NCoef="0" IVar="0" Cut="1.2907217442989349e-01" cType="1" res="-3.2818689942359924e-01" rms="3.5061690211296082e-01" purity="1.4757661521434784e-01" nType="0">
            <Node pos="l" depth="3" NCoef="0" IVar="1" Cut="1.1506487274169922e+02" cType="1" res="-3.9882627129554749e-01" rms="2.5785464048385620e-01" purity="7.2216682136058807e-02" nType="0">
              <Node pos="l" depth="4" NCoef="0" IVar="-1" Cut="0.0000000000000000e+00" cType="1" res="-3.9849621243774891e-03" rms="1.7912513017654419e-01" purity="3.3284500241279602e-02" nType="-99"/>
              <Node pos="r" depth="4" NCoef="0" IVar="-1" Cut="0.0000000000000000e+00" cType="1" res="-4.6755042858421803e-03" rms="3.1542631983757019e-01" purity="1.1298079043626785e-01" nType="-99"/>
            </Node>
            <Node pos="r" depth="3" NCoef="0" IVar="-1" Cut="0.0000000000000000e+00" cType="1" res="-1.3787379721179605e-03" rms="4.8264726996421814e-01" purity="3.7564980983734131e-01" nType="-99"/>
          </Node>
          <Node pos="r" depth="2" NCoef="0" IVar="0" Cut="-1.8033806979656219e-01" cType="1" res="1.8348237872123718e-01" rms="3.7416163086891174e-01" purity="7.9783308506011963e-01" nType="0">
            <Node pos="l" depth="3" NCoef="0" IVar="0" Cut="-4.2135199904441833e-01" cType="1" res="1.1623017489910126e-02" rms="4.9055570363998413e-01" purity="5.2957034111022949e-01" nType="0">
              <Node pos="l" depth="4" NCoef="0" IVar="-1" Cut="0.0000000000000000e+00" cType="1" res="-2.0162516739219427e-03" rms="4.8397713899612427e-01" purity="3.7621930241584778e-01" nType="-99"/>
              <Node pos="r" depth="4" NCoef="0" IVar="-1" Cut="0.0000000000000000e+00" cType="1" res="2.7119978331029415e-03" rms="4.7881057858467102e-01" purity="6.2951928377151489e-01" nType="-99"/>
            </Node>
            <Node pos="r" depth="3" NCoef="0" IVar="1" Cut="1.2750659942626953e+02" cType="1" res="2.3769450187683105e-01" rms="3.0982613563537598e-01" purity="8.8245517015457153e-01" nType="0">
              <Node pos="l" depth="4" NCoef="0" IVar="1" Cut="1.2253096771240234e+02" cType="1" res="2.5243273377418518e-01" rms="2.8516140580177307e-01" purity="9.0708422660827637e-01" nType="0">
                <Node pos="l" depth="5" NCoef="0" IVar="-1" Cut="0.0000000000000000e+00" cType="1" res="7.4338582344353199e-03" rms="3.8592600822448730e-01" purity="8.1046849489212036e-01" nType="-99"/>
                <Node pos="r" depth="5" NCoef="0" IVar="-1" Cut="0.0000000000000000e+00" cType="1" res="2.6990126818418503e-02" rms="2.5975286960601807e-01" purity="9.2522442340850830e-01" nType="-99"/>
              </Node>
              <Node pos="r" depth="4" NCoef="0" IVar="-1" Cut="0.0000000000000000e+00" cType="1" res="3.9447997696697712e-03" rms="4.3688884377479553e-01" purity="7.0067059993743896e-01" nType="-99"/>
            </Node>
          </Node>
        </Node>
        <Node pos="r" depth="1" NCoef="0" IVar="0" Cut="-1.1396100372076035e-01" cType="1" res="-4.4258397817611694e-01" rms="1.5635542571544647e-01" purity="2.5204595178365707e-02" nType="0">
          <Node pos="l" depth="2" NCoef="0" IVar="-1" Cut="0.0000000000000000e+00" cType="1" res="-5.4503548890352249e-03" rms="5.8876372873783112e-02" purity="3.4822041634470224e-03" nType="-99"/>
          <Node pos="r" depth="2" NCoef="0" IVar="-1" Cut="0.0000000000000000e+00" cType="1" res="-4.6272645704448223e-03" rms="2.4464936554431915e-01" purity="6.4111135900020599e-02" nType="-99"/>
        </Node>
      </Node>
    </BinaryTree>
    <BinaryTree type="DecisionTree" boostWeight="1.0000000000000000e+00" itree="14">
      <Node pos="s" depth="0" NCoef="0" IVar="1" Cut="1.3124505615234375e+02" cType="1" res="-6.1407793313264847e-02" rms="4.3469175696372986e-01" purity="4.9649441242218018e-01" nType="0">
        <Node pos="l" depth="1" NCoef="0" IVar="1" Cut="1.2004711914062500e+02" cType="1" res="3.1803674995899200e-02" rms="4.3060752749443054e-01" purity="6.1266875267028809e-01" nType="0">
          <Node pos="l" depth="2" NCoef="0" IVar="0" Cut="5.6753061711788177e-02" cType="1" res="-3.3129340410232544e-01" rms="3.4455060958862305e-01" purity="1.4210048317909241e-01" nType="0">
            <Node pos="l" depth="3" NCoef="0" IVar="1" Cut="1.1453556823730469e+02" cType="1" res="-4.0806436538696289e-01" rms="2.3698078095912933e-01" purity="6.0235116630792618e-02" nType="0">
              <Node pos="l" depth="4" NCoef="0" IVar="-1" Cut="0.0000000000000000e+00" cType="1" res="-4.1048224084079266e-03" rms="1.6072587668895721e-01" purity="2.6584006845951080e-02" nType="-99"/>
              <Node pos="r" depth="4" NCoef="0" IVar="-1" Cut="0.0000000000000000e+00" cType="1" res="-3.2376912422478199e-03" rms="2.8661525249481201e-01" purity="9.1143816709518433e-02" nType="-99"/>
            </Node>
            <Node pos="r" depth="3" NCoef="0" IVar="-1" Cut="0.0000000000000000e+00" cType="1" res="-1.7361695645377040e-03" rms="4.7035661339759827e-01" purity="3.3996993303298950e-01" nType="-99"/>
          </Node>
          <Node pos="r" depth="2" NCoef="0" IVar="0" Cut="-3.5499691963195801e-01" cType="1" res="1.5819790959358215e-01" rms="3.8311219215393066e-01" purity="7.7647370100021362e-01" nType="0">
            <Node pos="l" depth="3" NCoef="0" IVar="-1" Cut="0.0000000000000000e+00" cType="1" res="-2.1941896993666887e-03" rms="4.8192316293716431e-01" purity="3.7190219759941101e-01" nType="-99"/>
            <Node pos="r" depth="3" NCoef="0" IVar="1" Cut="1.2751115417480469e+02" cType="1" res="2.0451317727565765e-01" rms="3.4276074171066284e-01" purity="8.4510135650634766e-01" nType="0">
              <Node pos="l" depth="4" NCoef="0" IVar="0" Cut="-4.5559167861938477e-02" cType="1" res="2.2976721823215485e-01" rms="3.1209304928779602e-01" purity="8.8140183687210083e-01" nType="0">
                <Node pos="l" depth="5" NCoef="0" IVar="-1" Cut="0.0000000000000000e+00" cType="1" res="6.2089124694466591e-03" rms="4.3186557292938232e-01" purity="7.4820166826248169e-01" nType="-99"/>
                <Node pos="r" depth="5" NCoef="0" IVar="-1" Cut="0.0000000000000000e+00" cType="1" res="2.5088768452405930e-02" rms="2.5978663563728333e-01" purity="9.2342114448547363e-01" nType="-99"/>
              </Node>
              <Node pos="r" depth="4" NCoef="0" IVar="-1" Cut="0.0000000000000000e+00" cType="1" res="7.3733704630285501e-04" rms="4.6904402971267700e-01" purity="5.9899520874023438e-01" nType="-99"/>
            </Node>
          </Node>
        </Node>
        <Node pos="r" depth="1" NCoef="0" IVar="1" Cut="1.3945606994628906e+02" cType="1" res="-4.3776515126228333e-01" rms="1.6279017925262451e-01" purity="2.7420669794082642e-02" nType="0">
          <Node pos="l" depth="2" NCoef="0" IVar="-1" Cut="0.0000000000000000e+00" cType="1" res="-4.3676723726093769e-03" rms="2.5338298082351685e-01" purity="6.9403894245624542e-02" nType="-99"/>
          <Node pos="r" depth="2" NCoef="0" IVar="-1" Cut="0.0000000000000000e+00" cType="1" res="-4.3576019816100597e-03" rms="5.6990250945091248e-02" purity="3.2649296335875988e-03" nType="-99"/>
        </Node>
      </Node>
    </BinaryTree>
    <BinaryTree type="DecisionTree" boostWeight="1.0000000000000000e+00" itree="15">
      <Node pos="s" depth="0" NCoef="0" IVar="1" Cut="1.3124160766601562e+02" cType="1" res="-5.1024250686168671e-02" rms="4.3117350339889526e-01" purity="5.1250916719436646e-01" nType="0">
        <Node pos="l" depth="1" NCoef="0" IVar="1" Cut="1.2004159545898438e+02" cType="1" res="4.1413307189941406e-02" rms="4.2429557442665100e-01" purity="6.2933462858200073e-01" nType="0">
          <Node pos="l" depth="2" NCoef="0" IVar="0" Cut="5.7793058454990387e-02" cType="1" res="-3.2183706760406494e-01" rms="3.5332587361335754e-01" purity="1.5072600543498993e-01" nType="0">
            <Node pos="l" depth="3" NCoef="0" IVar="0" Cut="-3.2395669817924500e-01" cType="1" res="-4.0444666147232056e-01" rms="2.4154718220233917e-01" purity="6.2641039490699768e-02" nType="0">
              <Node pos="l" depth="4" NCoef="0" IVar="-1" Cut="0.0000000000000000e+00" cType="1" res="-5.2190986461937428e-03" rms="1.7964874207973480e-01" purity="3.3503141254186630e-02" nType="-99"/>
              <Node pos="r" depth="4" NCoef="0" IVar="-1" Cut="0.0000000000000000e+00" cType="1" res="-5.0426335074007511e-03" rms="2.7961564064025879e-01" purity="8.6052305996417999e-02" nType="-99"/>
            </Node>
            <Node pos="r" depth="3" NCoef="0" IVar="-1" Cut="0.0000000000000000e+00" cType="1" res="-1.0391232790425420e-03" rms="4.8816817998886108e-01" purity="3.9693951606750488e-01" nType="-99"/>
          </Node>
          <Node pos="r" depth="2" NCoef="0" IVar="0" Cut="-3.5499691963195801e-01" cType="1" res="1.6588670015335083e-01" rms="3.7179157137870789e-01" purity="7.9333728551864624e-01" nType="0">
            <Node pos="l" depth="3" NCoef="0" IVar="-1" Cut="0.0000000000000000e+00" cType="1" res="-1.9046603702008724e-03" rms="4.8523229360580444e-01" purity="3.8608711957931519e-01" nType="-99"/>
            <Node pos="r" depth="3" NCoef="0" IVar="1" Cut="1.2750624847412109e+02" cType="1" res="2.0785979926586151e-01" rms="3.3158490061759949e-01" purity="8.5779613256454468e-01" nType="0">
              <Node pos="l" depth="4" NCoef="0" IVar="1" Cut="1.2288530731201172e+02" cType="1" res="2.2850085794925690e-01" rms="3.0293127894401550e-01" purity="8.9028203487396240e-01" nType="0">
                <Node pos="l" depth="5" NCoef="0" IVar="-1" Cut="0.0000000000000000e+00" cType="1" res="6.8269819021224976e-03" rms="3.8861358165740967e-01" purity="8.0064570903778076e-01" nType="-99"/>
                <Node pos="r" depth="5" NCoef="0" IVar="-1" Cut="0.0000000000000000e+00" cType="1" res="2.0906021818518639e-02" rms="2.7463561296463013e-01" purity="9.1303378343582153e-01" nType="-99"/>
              </Node>
              <Node pos="r" depth="4" NCoef="0" IVar="-1" Cut="0.0000000000000000e+00" cType="1" res="1.4998887199908495e-03" rms="4.6317127346992493e-01" purity="6.2716031074523926e-01" nType="-99"/>
            </Node>
          </Node>
        </Node>
        <Node pos="r" depth="1" NCoef="0" IVar="0" Cut="-1.1439450830221176e-01" cType="1" res="-4.3217989802360535e-01" rms="1.7221878468990326e-01" purity="3.0792985111474991e-02" nType="0">
          <Node pos="l" depth="2" NCoef="0" IVar="-1" Cut="0.0000000000000000e+00" cType="1" res="-5.6369216181337833e-03" rms="6.1214625835418701e-02" purity="3.7652596365660429e-03" nType="-99"/>
          <Node pos="r" depth="2" NCoef="0" IVar="-1" Cut="0.0000000000000000e+00" cType="1" res="-3.9978278800845146e-03" rms="2.7831909060478210e-01" purity="8.4915332496166229e-02" nType="-99"/>
        </Node>
      </Node>
    </BinaryTree>
    <BinaryTree type="DecisionTree" boostWeight="1.0000000000000000e+00" itree="16">
      <Node pos="s" depth="0" NCoef="0" IVar="1" Cut="1.3124472045898438e+02" cType="1" res="-6.7416816949844360e-02" rms="4.2817956209182739e-01" purity="4.9529036879539490e-01" nType="0">
        <Node pos="l" depth="1" NCoef="0" IVar="1" Cut="1.1880276489257812e+02" cType="1" res="2.4070521816611290e-02" rms="4.2526900768280029e-01" purity="6.1215865612030029e-01" nType="0">
          <Node pos="l" depth="2" NCoef="0" IVar="0" Cut="5.1424067467451096e-02" cType="1" res="-3.6226597428321838e-01" rms="3.0651387572288513e-01" purity="1.0734483599662781e-01" nType="0">
            <Node pos="l" depth="3" NCoef="0" IVar="-1" Cut="0.0000000000000000e+00" cType="1" res="-4.6427333727478981e-03" rms="2.0894396305084229e-01" purity="4.5861151069402695e-02" nType="-99"/>
            <Node pos="r" depth="3" NCoef="0" IVar="-1" Cut="0.0000000000000000e+00" cType="1" res="-3.1716795638203621e-03" rms="4.2851763963699341e-01" purity="2.4357834458351135e-01" nType="-99"/>
          </Node>
          <Node pos="r" depth="2" NCoef="0" IVar="0" Cut="-4.2497521638870239e-01" cType="1" res="1.5244407951831818e-01" rms="3.7901857495307922e-01" purity="7.7990037202835083e-01" nType="0">
            <Node pos="l" depth="3" NCoef="0" IVar="-1" Cut="0.0000000000000000e+00" cType="1" res="-3.1113636214286089e-03" rms="4.5790353417396545e-01" purity="3.0168545246124268e-01" nType="-99"/>
            <Node pos="r" depth="3" NCoef="0" IVar="0" Cut="-3.5516489297151566e-02" cType="1" res="1.9463181495666504e-01" rms="3.4568032622337341e-01" purity="8.4083437919616699e-01" nType="0">
              <Node pos="l" depth="4" NCoef="0" IVar="1" Cut="1.2532102203369141e+02" cType="1" res="1.0650922358036041e-01" rms="4.5595031976699829e-01" purity="6.7648035287857056e-01" nType="0">
                <Node pos="l" depth="5" NCoef="0" IVar="-1" Cut="0.0000000000000000e+00" cType="1" res="4.1242400184273720e-03" rms="4.4217628240585327e-01" purity="7.1186208724975586e-01" nType="-99"/>
                <Node pos="r" depth="5" NCoef="0" IVar="-1" Cut="0.0000000000000000e+00" cType="1" res="1.7492767656221986e-03" rms="4.7252801060676575e-01" purity="6.2338924407958984e-01" nType="-99"/>
              </Node>
              <Node pos="r" depth="4" NCoef="0" IVar="0" Cut="6.1356246471405029e-01" cType="1" res="2.2842037677764893e-01" rms="2.8545114398002625e-01" purity="9.0385216474533081e-01" nType="0">
                <Node pos="l" depth="5" NCoef="0" IVar="-1" Cut="0.0000000000000000e+00" cType="1" res="1.3237034901976585e-02" rms="3.1881526112556458e-01" purity="8.7600988149642944e-01" nType="-99"/>
                <Node pos="r" depth="5" NCoef="0" IVar="-1" Cut="0.0000000000000000e+00" cType="1" res="3.4356169402599335e-02" rms="1.4104416966438293e-01" purity="9.8457622528076172e-01" nType="-99"/>
              </Node>
            </Node>
          </Node>
        </Node>
        <Node pos="r" depth="1" NCoef="0" IVar="1" Cut="1.3945610046386719e+02" cType="1" res="-4.3583157658576965e-01" rms="1.5461562573909760e-01" purity="2.4667859077453613e-02" nType="0">
          <Node pos="l" depth="2" NCoef="0" IVar="-1" Cut="0.0000000000000000e+00" cType="1" res="-5.2392142824828625e-03" rms="2.4074593186378479e-01" purity="6.2161900103092194e-02" nType="-99"/>
          <Node pos="r" depth="2" NCoef="0" IVar="-1" Cut="0.0000000000000000e+00" cType="1" res="-4.6198628842830658e-03" rms="4.5367393642663956e-02" purity="2.0662278402596712e-03" nType="-99"/>
        </Node>
      </Node>
    </BinaryTree>
    <BinaryTree type="DecisionTree" boostWeight="1.0000000000000000e+00" itree="17">
      <Node pos="s" depth="0" NCoef="0" IVar="1" Cut="1.3118986511230469e+02" cType="1" res="-5.2115481346845627e-02" rms="4.2657035589218140e-01" purity="5.1778346300125122e-01" nType="0">
        <Node pos="l" depth="1" NCoef="0" IVar="1" Cut="1.1997025299072266e+02" cType="1" res="3.5076525062322617e-02" rms="4.2062327265739441e-01" purity="6.3085180521011353e-01" nType="0">
          <Node pos="l" depth="2" NCoef="0" IVar="0" Cut="1.2176969647407532e-01" cType="1" res="-3.1866517663002014e-01" rms="3.5147917270660400e-01" purity="1.5007993578910828e-01" nType="0">
            <Node pos="l" depth="3" NCoef="0" IVar="0" Cut="-2.5229758024215698e-01" cType="1" res="-3.9481323957443237e-01" rms="2.5018626451492310e-01" purity="6.7757792770862579e-02" nType="0">
              <Node pos="l" depth="4" NCoef="0" IVar="-1" Cut="0.0000000000000000e+00" cType="1" res="-5.1848101429641247e-03" rms="1.5929180383682251e-01" purity="2.6131462305784225e-02" nType="-99"/>
              <Node pos="r" depth="4" NCoef="0" IVar="-1" Cut="0.0000000000000000e+00" cType="1" res="-3.2203688751906157e-03" rms="3.2691231369972229e-01" purity="1.2271933257579803e-01" nType="-99"/>
            </Node>
            <Node pos="r" depth="3" NCoef="0" IVar="-1" Cut="0.0000000000000000e+00" cType="1" res="-1.2639987980946898e-03" rms="4.8422893881797791e-01" purity="3.8798430562019348e-01" nType="-99"/>
          </Node>
          <Node pos="r" depth="2" NCoef="0" IVar="0" Cut="-3.5499691963195801e-01" cType="1" res="1.5837331116199493e-01" rms="3.6974918842315674e-01" purity="7.9842495918273926e-01" nType="0">
            <Node pos="l" depth="3" NCoef="0" IVar="-1" Cut="0.0000000000000000e+00" cType="1" res="-1.2298970250412822e-03" rms="4.9222239851951599e-01" purity="4.1631296277046204e-01" nType="-99"/>
            <Node pos="r" depth="3" NCoef="0" IVar="0" Cut="1.6341218724846840e-02" cType="1" res="1.9318871200084686e-01" rms="3.3379256725311279e-01" purity="8.5696327686309814e-01" nType="0">
              <Node pos="l" depth="4" NCoef="0" IVar="0" Cut="-1.6044203937053680e-01" cType="1" res="1.2122289836406708e-01" rms="4.4002279639244080e-01" purity="7.1762514114379883e-01" nType="0">
                <Node pos="l" depth="5" NCoef="0" IVar="-1" Cut="0.0000000000000000e+00" cType="1" res="2.8544310480356216e-03" rms="4.6535539627075195e-01" purity="6.6342473030090332e-01" nType="-99"/>
                <Node pos="r" depth="5" NCoef="0" IVar="-1" Cut="0.0000000000000000e+00" cType="1" res="6.0011525638401508e-03" rms="4.1306456923484802e-01" purity="7.6877284049987793e-01" nType="-99"/>
              </Node>
              <Node pos="r" depth="4" NCoef="0" IVar="1" Cut="1.2424459838867188e+02" cType="1" res="2.2341369092464447e-01" rms="2.7166974544525146e-01" purity="9.1548407077789307e-01" nType="0">
                <Node pos="l" depth="5" NCoef="0" IVar="-1" Cut="0.0000000000000000e+00" cType="1" res="1.4877681620419025e-02" rms="3.0729582905769348e-01" purity="8.9079147577285767e-01" nType="-99"/>
                <Node pos="r" depth="5" NCoef="0" IVar="-1" Cut="0.0000000000000000e+00" cType="1" res="2.2687261924147606e-02" rms="2.4349945783615112e-01" purity="9.3200588226318359e-01" nType="-99"/>
              </Node>
            </Node>
          </Node>
        </Node>
        <Node pos="r" depth="1" NCoef="0" IVar="1" Cut="1.3941760253906250e+02" cType="1" res="-4.2698219418525696e-01" rms="1.7439401149749756e-01" purity="3.1666137278079987e-02" nType="0">
          <Node pos="l" depth="2" NCoef="0" IVar="-1" Cut="0.0000000000000000e+00" cType="1" res="-3.6990377120673656e-03" rms="2.7634480595588684e-01" purity="8.3863884210586548e-02" nType="-99"/>
          <Node pos="r" depth="2" NCoef="0" IVar="-1" Cut="0.0000000000000000e+00" cType="1" res="-4.7244327142834663e-03" rms="4.6917021274566650e-02" purity="2.2134056780487299e-03" nType="-99"/>
        </Node>
      </Node>
    </BinaryTree>
    <BinaryTree type="DecisionTree" boostWeight="1.0000000000000000e+00" itree="18">
      <Node pos="s" depth="0" NCoef="0" IVar="1" Cut="1.3124154663085938e+02" cType="1" res="-6.6765986382961273e-02" rms="4.2295876145362854e-01" purity="5.0179231166839600e-01" nType="0">
        <Node pos="l" depth="1" NCoef="0" IVar="1" Cut="1.2004283142089844e+02" cType="1" res="2.5360070168972015e-02" rms="4.1946461796760559e-01" purity="6.2261033058166504e-01" nType="0">
          <Node pos="l" depth="2" NCoef="0" IVar="0" Cut="4.7802414745092392e-02" cType="1" res="-3.1417196989059448e-01" rms="3.5329058766365051e-01" purity="1.5298967063426971e-01" nType="0">
            <Node pos="l" depth="3" NCoef="0" IVar="0" Cut="-3.3116999268531799e-01" cType="1" res="-3.9437237381935120e-01" rms="2.4608710408210754e-01" purity="6.5445199608802795e-02" nType="0">
              <Node pos="l" depth="4" NCoef="0" IVar="-1" Cut="0.0000000000000000e+00" cType="1" res="-4.0260939858853817e-03" rms="1.6965655982494354e-01" purity="2.9781494289636612e-02" nType="-99"/>
              <Node pos="r" depth="4" NCoef="0" IVar="-1" Cut="0.0000000000000000e+00" cType="1" res="-4.6450654044747353e-03" rms="2.9816910624504089e-01" purity="9.9726065993309021e-02" nType="-99"/>
            </Node>
            <Node pos="r" depth="3" NCoef="0" IVar="-1" Cut="0.0000000000000000e+00" cType="1" res="-1.7007088754326105e-03" rms="4.7148475050926208e-01" purity="3.4979429841041565e-01" nType="-99"/>
          </Node>
          <Node pos="r" depth="2" NCoef="0" IVar="1" Cut="1.2804124450683594e+02" cType="1" res="1.4573580026626587e-01" rms="3.7244918942451477e-01" purity="7.8910696506500244e-01" nType="0">
            <Node pos="l" depth="3" NCoef="0" IVar="0" Cut="-1.9522587954998016e-01" cType="1" res="1.7704519629478455e-01" rms="3.4767317771911621e-01" purity="8.3134382963180542e-01" nType="0">
              <Node pos="l" depth="4" NCoef="0" IVar="1" Cut="1.2423056030273438e+02" cType="1" res="5.1497824490070343e-02" rms="4.8595288395881653e-01" purity="5.7566398382186890e-01" nType="0">
                <Node pos="l" depth="5" NCoef="0" IVar="-1" Cut="0.0000000000000000e+00" cType="1" res="-8.7124301353469491e-04" rms="4.9006524682044983e-01" purity="4.8414188623428345e-01" nType="-99"/>
                <Node pos="r" depth="5" NCoef="0" IVar="-1" Cut="0.0000000000000000e+00" cType="1" res="3.8448439445346594e-03" rms="4.6836096048355103e-01" purity="6.5477615594863892e-01" nType="-99"/>
              </Node>
              <Node pos="r" depth="4" NCoef="0" IVar="1" Cut="1.2232923126220703e+02" cType="1" res="2.1338693797588348e-01" rms="2.8570172190666199e-01" purity="9.0535455942153931e-01" nType="0">
                <Node pos="l" depth="5" NCoef="0" IVar="-1" Cut="0.0000000000000000e+00" cType="1" res="6.0069556348025799e-03" rms="3.9194849133491516e-01" purity="7.9809272289276123e-01" nType="-99"/>
                <Node pos="r" depth="5" NCoef="0" IVar="-1" Cut="0.0000000000000000e+00" cType="1" res="2.0470693707466125e-02" rms="2.6353701949119568e-01" purity="9.2214441299438477e-01" nType="-99"/>
              </Node>
            </Node>
            <Node pos="r" depth="3" NCoef="0" IVar="-1" Cut="0.0000000000000000e+00" cType="1" res="-2.0696641877293587e-03" rms="4.5958805084228516e-01" purity="4.2875176668167114e-01" nType="-99"/>
          </Node>
        </Node>
        <Node pos="r" depth="1" NCoef="0" IVar="0" Cut="-1.1146692931652069e-01" cType="1" res="-4.2891108989715576e-01" rms="1.6109977662563324e-01" purity="2.6859806850552559e-02" nType="0">
          <Node pos="l" depth="2" NCoef="0" IVar="-1" Cut="0.0000000000000000e+00" cType="1" res="-5.3566372953355312e-03" rms="6.5126806497573853e-02" purity="4.2644809000194073e-03" nType="-99"/>
          <Node pos="r" depth="2" NCoef="0" IVar="-1" Cut="0.0000000000000000e+00" cType="1" res="-3.8298831786960363e-03" rms="2.7020439505577087e-01" purity="7.9561635851860046e-02" nType="-99"/>
        </Node>
      </Node>
    </BinaryTree>
    <BinaryTree type="DecisionTree" boostWeight="1.0000000000000000e+00" itree="19">
      <Node pos="s" depth="0" NCoef="0" IVar="1" Cut="1.3125033569335938e+02" cType="1" res="-6.9616429507732391e-02" rms="4.2006075382232666e-01" purity="5.0195807218551636e-01" nType="0">
        <Node pos="l" depth="1" NCoef="0" IVar="1" Cut="1.2004975891113281e+02" cType="1" res="2.0917590707540512e-02" rms="4.1728338599205017e-01" purity="6.2229239940643311e-01" nType="0">
          <Node pos="l" depth="2" NCoef="0" IVar="0" Cut="5.1424067467451096e-02" cType="1" res="-3.1360119581222534e-01" rms="3.5202714800834656e-01" purity="1.5199975669384003e-01" nType="0">
            <Node pos="l" depth="3" NCoef="0" IVar="0" Cut="-3.2751628756523132e-01" cType="1" res="-3.9955604076385498e-01" rms="2.3409226536750793e-01" purity="5.8666333556175232e-02" nType="0">
              <Node pos="l" depth="4" NCoef="0" IVar="-1" Cut="0.0000000000000000e+00" cType="1" res="-4.8962645232677460e-03" rms="1.6631171107292175e-01" purity="2.8575621545314789e-02" nType="-99"/>
              <Node pos="r" depth="4" NCoef="0" IVar="-1" Cut="0.0000000000000000e+00" cType="1" res="-4.7847935929894447e-03" rms="2.8022405505180359e-01" purity="8.6517982184886932e-02" nType="-99"/>
            </Node>
            <Node pos="r" depth="3" NCoef="0" IVar="-1" Cut="0.0000000000000000e+00" cType="1" res="-1.1866171844303608e-03" rms="4.8189109563827515e-01" purity="3.8583531975746155e-01" nType="-99"/>
          </Node>
          <Node pos="r" depth="2" NCoef="0" IVar="0" Cut="-3.5499691963195801e-01" cType="1" res="1.3537970185279846e-01" rms="3.7404787540435791e-01" purity="7.8321224451065063e-01" nType="0">
            <Node pos="l" depth="3" NCoef="0" IVar="-1" Cut="0.0000000000000000e+00" cType="1" res="-2.0205457694828510e-03" rms="4.8335450887680054e-01" purity="3.7884739041328430e-01" nType="-99"/>
            <Node pos="r" depth="3" NCoef="0" IVar="0" Cut="2.0190076529979706e-01" cType="1" res="1.7438754439353943e-01" rms="3.3735761046409607e-01" purity="8.4877324104309082e-01" nType="0">
              <Node pos="l" depth="4" NCoef="0" IVar="1" Cut="1.2644928741455078e+02" cType="1" res="1.1848521232604980e-01" rms="4.1940432786941528e-01" purity="7.4477702379226685e-01" nType="0">
                <Node pos="l" depth="5" NCoef="0" IVar="-1" Cut="0.0000000000000000e+00" cType="1" res="8.4858462214469910e-03" rms="3.8602450489997864e-01" purity="8.0914610624313354e-01" nType="-99"/>
                <Node pos="r" depth="5" NCoef="0" IVar="-1" Cut="0.0000000000000000e+00" cType="1" res="-8.4269931539893150e-04" rms="4.7848418354988098e-01" purity="5.4442906379699707e-01" nType="-99"/>
              </Node>
              <Node pos="r" depth="4" NCoef="0" IVar="1" Cut="1.2484804534912109e+02" cType="1" res="2.2702243924140930e-01" rms="2.2279261052608490e-01" purity="9.4669103622436523e-01" nType="0">
                <Node pos="l" depth="5" NCoef="0" IVar="-1" Cut="0.0000000000000000e+00" cType="1" res="2.2098073735833168e-02" rms="2.5345069169998169e-01" purity="9.3084245920181274e-01" nType="-99"/>
                <Node pos="r" depth="5" NCoef="0" IVar="-1" Cut="0.0000000000000000e+00" cType="1" res="2.5922765955328941e-02" rms="1.8287068605422974e-01" purity="9.6335250139236450e-01" nType="-99"/>
              </Node>
            </Node>
          </Node>
        </Node>
        <Node pos="r" depth="1" NCoef="0" IVar="1" Cut="1.3946710205078125e+02" cType="1" res="-4.2796859145164490e-01" rms="1.5747046470642090e-01" purity="2.5650124996900558e-02" nType="0">
          <Node pos="l" depth="2" NCoef="0" IVar="-1" Cut="0.0000000000000000e+00" cType="1" res="-4.2421170510351658e-03" rms="2.4994364380836487e-01" purity="6.7471824586391449e-02" nType="-99"/>
          <Node pos="r" depth="2" NCoef="0" IVar="-1" Cut="0.0000000000000000e+00" cType="1" res="-5.0213560461997986e-03" rms="5.9650149196386337e-02" purity="3.5821287892758846e-03" nType="-99"/>
        </Node>
      </Node>
    </BinaryTree>
    <BinaryTree type="DecisionTree" boostWeight="1.0000000000000000e+00" itree="20">
      <Node pos="s" depth="0" NCoef="0" IVar="1" Cut="1.3124160766601562e+02" cType="1" res="-6.9747656583786011e-02" rms="4.1686782240867615e-01" purity="5.0442105531692505e-01" nType="0">
        <Node pos="l" depth="1" NCoef="0" IVar="1" Cut="1.2004159545898438e+02" cType="1" res="1.6185192391276360e-02" rms="4.1438665986061096e-01" purity="6.2019157409667969e-01" nType="0">
          <Node pos="l" depth="2" NCoef="0" IVar="0" Cut="4.7565121203660965e-02" cType="1" res="-3.1649297475814819e-01" rms="3.4555342793464661e-01" purity="1.4596052467823029e-01" nType="0">
            <Node pos="l" depth="3" NCoef="0" IVar="1" Cut="1.1435398864746094e+02" cType="1" res="-3.9864486455917358e-01" rms="2.3060324788093567e-01" purity="5.6899268180131912e-02" nType="0">
              <Node pos="l" depth="4" NCoef="0" IVar="-1" Cut="0.0000000000000000e+00" cType="1" res="-5.3776321001350880e-03" rms="1.4509874582290649e-01" purity="2.1558668464422226e-02" nType="-99"/>
              <Node pos="r" depth="4" NCoef="0" IVar="-1" Cut="0.0000000000000000e+00" cType="1" res="-5.1975478418171406e-03" rms="2.8421679139137268e-01" purity="8.9449532330036163e-02" nType="-99"/>
            </Node>
            <Node pos="r" depth="3" NCoef="0" IVar="-1" Cut="0.0000000000000000e+00" cType="1" res="-1.0585057316347957e-03" rms="4.8070660233497620e-01" purity="3.8749033212661743e-01" nType="-99"/>
          </Node>
          <Node pos="r" depth="2" NCoef="0" IVar="0" Cut="-2.6281395554542542e-01" cType="1" res="1.3589279353618622e-01" rms="3.6930298805236816e-01" purity="7.9083412885665894e-01" nType="0">
            <Node pos="l" depth="3" NCoef="0" IVar="0" Cut="-4.2377808690071106e-01" cType="1" res="-5.8929696679115295e-02" rms="4.8716494441032410e-01" purity="4.4493389129638672e-01" nType="0">
              <Node pos="l" depth="4" NCoef="0" IVar="-1" Cut="0.0000000000000000e+00" cType="1" res="-2.7050813660025597e-03" rms="4.7062262892723083e-01" purity="3.3278462290763855e-01" nType="-99"/>
              <Node pos="r" depth="4" NCoef="0" IVar="-1" Cut="0.0000000000000000e+00" cType="1" res="9.7801373340189457e-04" rms="4.8676007986068726e-01" purity="5.6988382339477539e-01" nType="-99"/>
            </Node>
            <Node pos="r" depth="3" NCoef="0" IVar="1" Cut="1.2270861816406250e+02" cType="1" res="1.8449342250823975e-01" rms="3.1523379683494568e-01" purity="8.7712275981903076e-01" nType="0">
              <Node pos="l" depth="4" NCoef="0" IVar="-1" Cut="0.0000000000000000e+00" cType="1" res="5.9639960527420044e-03" rms="4.0225449204444885e-01" purity="7.8514957427978516e-01" nType="-99"/>
              <Node pos="r" depth="4" NCoef="0" IVar="1" Cut="1.2677062225341797e+02" cType="1" res="1.9720016419887543e-01" rms="2.9385060071945190e-01" purity="8.9483541250228882e-01" nType="0">
                <Node pos="l" depth="5" NCoef="0" IVar="-1" Cut="0.0000000000000000e+00" cType="1" res="1.9757717847824097e-02" rms="2.6110327243804932e-01" purity="9.2488276958465576e-01" nType="-99"/>
                <Node pos="r" depth="5" NCoef="0" IVar="-1" Cut="0.0000000000000000e+00" cType="1" res="4.7740214504301548e-03" rms="3.8948535919189453e-01" purity="7.8120565414428711e-01" nType="-99"/>
              </Node>
            </Node>
          </Node>
        </Node>
        <Node pos="r" depth="1" NCoef="0" IVar="1" Cut="1.3945466613769531e+02" cType="1" res="-4.2375141382217407e-01" rms="1.6289854049682617e-01" purity="2.7499770745635033e-02" nType="0">
          <Node pos="l" depth="2" NCoef="0" IVar="-1" Cut="0.0000000000000000e+00" cType="1" res="-4.5800083316862583e-03" rms="2.5031915307044983e-01" purity="6.7656561732292175e-02" nType="-99"/>
          <Node pos="r" depth="2" NCoef="0" IVar="-1" Cut="0.0000000000000000e+00" cType="1" res="-4.5519564300775528e-03" rms="5.4914511740207672e-02" purity="3.0355236958712339e-03" nType="-99"/>
        </Node>
      </Node>
    </BinaryTree>
    <BinaryTree type="DecisionTree" boostWeight="1.0000000000000000e+00" itree="21">
      <Node pos="s" depth="0" NCoef="0" IVar="1" Cut="1.3118841552734375e+02" cType="1" res="-7.7583573758602142e-02" rms="4.1461575031280518e-01" purity="4.9672773480415344e-01" nType="0">
        <Node pos="l" depth="1" NCoef="0" IVar="1" Cut="1.1872235107421875e+02" cType="1" res="1.0983957909047604e-02" rms="4.1360437870025635e-01" purity="6.1747825145721436e-01" nType="0">
          <Node pos="l" depth="2" NCoef="0" IVar="0" Cut="-3.0374381691217422e-02" cType="1" res="-3.5143300890922546e-01" rms="3.0556061863899231e-01" purity="1.0752186179161072e-01" nType="0">
            <Node pos="l" depth="3" NCoef="0" IVar="-1" Cut="0.0000000000000000e+00" cType="1" res="-4.3518198654055595e-03" rms="2.0172551274299622e-01" purity="4.2616486549377441e-02" nType="-99"/>
            <Node pos="r" depth="3" NCoef="0" IVar="-1" Cut="0.0000000000000000e+00" cType="1" res="-2.8917107265442610e-03" rms="4.1998678445816040e-01" purity="2.3262773454189301e-01" nType="-99"/>
          </Node>
          <Node pos="r" depth="2" NCoef="0" IVar="0" Cut="-4.2163541913032532e-01" cType="1" res="1.1889866739511490e-01" rms="3.7874731421470642e-01" purity="7.6932483911514282e-01" nType="0">
            <Node pos="l" depth="3" NCoef="0" IVar="-1" Cut="0.0000000000000000e+00" cType="1" res="-2.8641142416745424e-03" rms="4.6600341796875000e-01" purity="3.2329937815666199e-01" nType="-99"/>
            <Node pos="r" depth="3" NCoef="0" IVar="0" Cut="2.9111179709434509e-01" cType="1" res="1.5245930850505829e-01" rms="3.5227844119071960e-01" purity="8.2449084520339966e-01" nType="0">
              <Node pos="l" depth="4" NCoef="0" IVar="1" Cut="1.2703308868408203e+02" cType="1" res="1.0545974969863892e-01" rms="4.1712424159049988e-01" purity="7.3311746120452881e-01" nType="0">
                <Node pos="l" depth="5" NCoef="0" IVar="-1" Cut="0.0000000000000000e+00" cType="1" res="6.1485529877245426e-03" rms="3.9749783277511597e-01" purity="7.7480053901672363e-01" nType="-99"/>
                <Node pos="r" depth="5" NCoef="0" IVar="-1" Cut="0.0000000000000000e+00" cType="1" res="-1.0349135845899582e-03" rms="4.7782927751541138e-01" purity="5.2011430263519287e-01" nType="-99"/>
              </Node>
              <Node pos="r" depth="4" NCoef="0" IVar="0" Cut="6.3049757480621338e-01" cType="1" res="2.1897520124912262e-01" rms="2.1433463692665100e-01" purity="9.5380657911300659e-01" nType="0">
                <Node pos="l" depth="5" NCoef="0" IVar="-1" Cut="0.0000000000000000e+00" cType="1" res="1.7706496641039848e-02" rms="2.7165374159812927e-01" purity="9.1872340440750122e-01" nType="-99"/>
                <Node pos="r" depth="5" NCoef="0" IVar="-1" Cut="0.0000000000000000e+00" cType="1" res="3.1083440408110619e-02" rms="4.7267276793718338e-02" purity="1.0063546895980835e+00" nType="-99"/>
              </Node>
            </Node>
          </Node>
        </Node>
        <Node pos="r" depth="1" NCoef="0" IVar="0" Cut="-1.1263541877269745e-01" cType="1" res="-4.2204332351684570e-01" rms="1.6125626862049103e-01" purity="2.7100838720798492e-02" nType="0">
          <Node pos="l" depth="2" NCoef="0" IVar="-1" Cut="0.0000000000000000e+00" cType="1" res="-5.2500646561384201e-03" rms="6.0489222407341003e-02" purity="3.6850129254162312e-03" nType="-99"/>
          <Node pos="r" depth="2" NCoef="0" IVar="-1" Cut="0.0000000000000000e+00" cType="1" res="-3.8767142686992884e-03" rms="2.5957921147346497e-01" purity="7.3368191719055176e-02" nType="-99"/>
        </Node>
      </Node>
    </BinaryTree>
    <BinaryTree type="DecisionTree" boostWeight="1.0000000000000000e+00" itree="22">
      <Node pos="s" depth="0" NCoef="0" IVar="1" Cut="1.3138565063476562e+02" cType="1" res="-7.1680910885334015e-02" rms="4.1159957647323608e-01" purity="5.0549668073654175e-01" nType="0">
        <Node pos="l" depth="1" NCoef="0" IVar="1" Cut="1.2023889923095703e+02" cType="1" res="1.6646144911646843e-02" rms="4.0911522507667542e-01" purity="6.2672442197799683e-01" nType="0">
          <Node pos="l" depth="2" NCoef="0" IVar="0" Cut="5.3426414728164673e-02" cType="1" res="-3.0256795883178711e-01" rms="3.5689875483512878e-01" purity="1.6138592362403870e-01" nType="0">
            <Node pos="l" depth="3" NCoef="0" IVar="1" Cut="1.1458619689941406e+02" cType="1" res="-3.8476321101188660e-01" rms="2.5083649158477783e-01" purity="6.9081693887710571e-02" nType="0">
              <Node pos="l" depth="4" NCoef="0" IVar="-1" Cut="0.0000000000000000e+00" cType="1" res="-3.3435523509979248e-03" rms="1.6475568711757660e-01" purity="2.8004547581076622e-02" nType="-99"/>
              <Node pos="r" depth="4" NCoef="0" IVar="-1" Cut="0.0000000000000000e+00" cType="1" res="-4.4439225457608700e-03" rms="3.1032356619834900e-01" purity="1.1045020818710327e-01" nType="-99"/>
            </Node>
            <Node pos="r" depth="3" NCoef="0" IVar="-1" Cut="0.0000000000000000e+00" cType="1" res="-1.1855898192152381e-03" rms="4.7960451245307922e-01" purity="3.9453634619712830e-01" nType="-99"/>
          </Node>
          <Node pos="r" depth="2" NCoef="0" IVar="0" Cut="-3.5649752616882324e-01" cType="1" res="1.3092608749866486e-01" rms="3.6353158950805664e-01" purity="7.9331743717193604e-01" nType="0">
            <Node pos="l" depth="3" NCoef="0" IVar="-1" Cut="0.0000000000000000e+00" cType="1" res="-1.8577135633677244e-03" rms="4.8471212387084961e-01" purity="3.8838797807693481e-01" nType="-99"/>
            <Node pos="r" depth="3" NCoef="0" IVar="1" Cut="1.2767055511474609e+02" cType="1" res="1.6777664422988892e-01" rms="3.2498738169670105e-01" purity="8.6005353927612305e-01" nType="0">
              <Node pos="l" depth="4" NCoef="0" IVar="1" Cut="1.2307105255126953e+02" cType="1" res="1.8670016527175903e-01" rms="2.9943543672561646e-01" purity="8.9320647716522217e-01" nType="0">
                <Node pos="l" depth="5" NCoef="0" IVar="-1" Cut="0.0000000000000000e+00" cType="1" res="7.0776478387415409e-03" rms="3.7792965769767761e-01" purity="8.1490135192871094e-01" nType="-99"/>
                <Node pos="r" depth="5" NCoef="0" IVar="-1" Cut="0.0000000000000000e+00" cType="1" res="1.9893880933523178e-02" rms="2.7186340093612671e-01" purity="9.1513121128082275e-01" nType="-99"/>
              </Node>
              <Node pos="r" depth="4" NCoef="0" IVar="-1" Cut="0.0000000000000000e+00" cType="1" res="5.0580035895109177e-04" rms="4.5219293236732483e-01" purity="6.0479074716567993e-01" nType="-99"/>
            </Node>
          </Node>
        </Node>
        <Node pos="r" depth="1" NCoef="0" IVar="1" Cut="1.3956280517578125e+02" cType="1" res="-4.2215400934219360e-01" rms="1.5400314331054688e-01" purity="2.4477191269397736e-02" nType="0">
          <Node pos="l" depth="2" NCoef="0" IVar="-1" Cut="0.0000000000000000e+00" cType="1" res="-4.4429926201701164e-03" rms="2.4119229614734650e-01" purity="6.2371697276830673e-02" nType="-99"/>
          <Node pos="r" depth="2" NCoef="0" IVar="-1" Cut="0.0000000000000000e+00" cType="1" res="-4.5006140135228634e-03" rms="5.1113396883010864e-02" purity="2.6254344265908003e-03" nType="-99"/>
        </Node>
      </Node>
    </BinaryTree>
    <BinaryTree type="DecisionTree" boostWeight="1.0000000000000000e+00" itree="23">
      <Node pos="s" depth="0" NCoef="0" IVar="1" Cut="1.3119401550292969e+02" cType="1" res="-8.1241175532341003e-02" rms="4.1079869866371155e-01" purity="4.9956172704696655e-01" nType="0">
        <Node pos="l" depth="1" NCoef="0" IVar="1" Cut="1.1872496795654297e+02" cType="1" res="3.3539108699187636e-04" rms="4.1137894988059998e-01" purity="6.1401814222335815e-01" nType="0">
          <Node pos="l" depth="2" NCoef="0" IVar="0" Cut="4.6846173703670502e-02" cType="1" res="-3.4608024358749390e-01" rms="3.0933815240859985e-01" purity="1.1059661209583282e-01" nType="0">
            <Node pos="l" depth="3" NCoef="0" IVar="-1" Cut="0.0000000000000000e+00" cType="1" res="-4.9902996979653835e-03" rms="2.0907258987426758e-01" purity="4.5912120491266251e-02" nType="-99"/>
            <Node pos="r" depth="3" NCoef="0" IVar="-1" Cut="0.0000000000000000e+00" cType="1" res="-2.5705036241561174e-03" rms="4.3792206048965454e-01" purity="2.5970143079757690e-01" nType="-99"/>
          </Node>
          <Node pos="r" depth="2" NCoef="0" IVar="0" Cut="-1.1376246809959412e-01" cType="1" res="1.0092362016439438e-01" rms="3.8160681724548340e-01" purity="7.6019591093063354e-01" nType="0">
            <Node pos="l" depth="3" NCoef="0" IVar="0" Cut="-4.2202073335647583e-01" cType="1" res="-5.0821226090192795e-02" rms="4.7870609164237976e-01" purity="4.8443692922592163e-01" nType="0">
              <Node pos="l" depth="4" NCoef="0" IVar="-1" Cut="0.0000000000000000e+00" cType="1" res="-3.0293890740722418e-03" rms="4.5470926165580750e-01" purity="2.9552409052848816e-01" nType="-99"/>
              <Node pos="r" depth="4" NCoef="0" IVar="1" Cut="1.2406771087646484e+02" cType="1" res="1.9660834223031998e-02" rms="4.7710600495338440e-01" purity="5.8907639980316162e-01" nType="0">
                <Node pos="l" depth="5" NCoef="0" IVar="-1" Cut="0.0000000000000000e+00" cType="1" res="-9.2785136075690389e-04" rms="4.7686934471130371e-01" purity="5.1970994472503662e-01" nType="-99"/>
                <Node pos="r" depth="5" NCoef="0" IVar="-1" Cut="0.0000000000000000e+00" cType="1" res="1.5195175074040890e-03" rms="4.7322082519531250e-01" purity="6.3894939422607422e-01" nType="-99"/>
              </Node>
            </Node>
            <Node pos="r" depth="3" NCoef="0" IVar="0" Cut="1.8680563569068909e-01" cType="1" res="1.6781944036483765e-01" rms="3.0687355995178223e-01" purity="8.8176262378692627e-01" nType="0">
              <Node pos="l" depth="4" NCoef="0" IVar="0" Cut="7.6965382322669029e-04" cType="1" res="1.2097050994634628e-01" rms="3.8933113217353821e-01" purity="7.8706920146942139e-01" nType="0">
                <Node pos="l" depth="5" NCoef="0" IVar="-1" Cut="0.0000000000000000e+00" cType="1" res="3.2314844429492950e-03" rms="4.1957408189773560e-01" purity="7.3482710123062134e-01" nType="-99"/>
                <Node pos="r" depth="5" NCoef="0" IVar="-1" Cut="0.0000000000000000e+00" cType="1" res="7.0455893874168396e-03" rms="3.6985045671463013e-01" purity="8.1668597459793091e-01" nType="-99"/>
              </Node>
              <Node pos="r" depth="4" NCoef="0" IVar="1" Cut="1.2643976593017578e+02" cType="1" res="1.9286137819290161e-01" rms="2.4836543202400208e-01" purity="9.3237870931625366e-01" nType="0">
                <Node pos="l" depth="5" NCoef="0" IVar="-1" Cut="0.0000000000000000e+00" cType="1" res="2.1914357319474220e-02" rms="2.4333231151103973e-01" purity="9.3377768993377686e-01" nType="-99"/>
                <Node pos="r" depth="5" NCoef="0" IVar="-1" Cut="0.0000000000000000e+00" cType="1" res="1.5920858830213547e-02" rms="2.6527866721153259e-01" purity="9.2699325084686279e-01" nType="-99"/>
              </Node>
            </Node>
          </Node>
        </Node>
        <Node pos="r" depth="1" NCoef="0" IVar="1" Cut="1.3942416381835938e+02" cType="1" res="-4.1826087236404419e-01" rms="1.6034141182899475e-01" purity="2.6704519987106323e-02" nType="0">
          <Node pos="l" depth="2" NCoef="0" IVar="-1" Cut="0.0000000000000000e+00" cType="1" res="-4.3109720572829247e-03" rms="2.4987301230430603e-01" purity="6.7505136132240295e-02" nType="-99"/>
          <Node pos="r" depth="2" NCoef="0" IVar="-1" Cut="0.0000000000000000e+00" cType="1" res="-5.2126548252999783e-03" rms="4.9632996320724487e-02" purity="2.4790740571916103e-03" nType="-99"/>
        </Node>
      </Node>
    </BinaryTree>
    <BinaryTree type="DecisionTree" boostWeight="1.0000000000000000e+00" itree="24">
      <Node pos="s" depth="0" NCoef="0" IVar="1" Cut="1.3119401550292969e+02" cType="1" res="-7.9550854861736298e-02" rms="4.0712377429008484e-01" purity="5.0182372331619263e-01" nType="0">
        <Node pos="l" depth="1" NCoef="0" IVar="1" Cut="1.1872555541992188e+02" cType="1" res="-2.0474004559218884e-03" rms="4.0728950500488281e-01" purity="6.1163133382797241e-01" nType="0">
          <Node pos="l" depth="2" NCoef="0" IVar="0" Cut="5.4352045059204102e-02" cType="1" res="-3.4956118464469910e-01" rms="3.0131033062934875e-01" purity="1.0446643829345703e-01" nType="0">
            <Node pos="l" depth="3" NCoef="0" IVar="-1" Cut="0.0000000000000000e+00" cType="1" res="-3.7771828938275576e-03" rms="1.9991101324558258e-01" purity="4.1805837303400040e-02" nType="-99"/>
